{"arch": {"hidden": 32, "clamp": 2.0, "act": "tanh", "logit": "raw", "mode": "direct"}, "features": "zp=(px-b)/s/sqrt(tte/900); u_in=[zp, log(tte/900)] + extras", "rho_bar": 1.3034789562225342, "b_prior": "strike", "b_scale": 1.5, "extras": [], "mu": [], "sd": [], "layers": [{"w": [[0.010826241225004196, -0.4995462894439697], [0.3174121081829071, 0.21203452348709106], [-0.40602123737335205, -0.33769312500953674], [-0.3354664444923401, 0.009540065191686153], [-0.15335750579833984, 0.4326716959476471], [0.42021697759628296, 0.28433626890182495], [-0.44639724493026733, -0.22374650835990906], [-0.21315540373325348, -0.20533007383346558], [0.6959567070007324, -0.3806498348712921], [0.44644758105278015, -0.3301224410533905], [0.5594685077667236, 0.07751014828681946], [0.46223923563957214, 0.45393383502960205], [0.1687256246805191, 0.09002495557069778], [0.5436549186706543, 0.254977285861969], [0.6275259256362915, -0.4264337122440338], [0.6078711748123169, 0.22539713978767395], [0.16049426794052124, 0.5550321936607361], [0.5157217383384705, 0.1808907687664032], [-0.2839716076850891, -0.256460040807724], [-0.28571608662605286, -0.2529166042804718], [0.4134943187236786, -0.07575416564941406], [-0.5646026730537415, 0.391264945268631], [0.6227303743362427, 0.29942962527275085], [-0.28909751772880554, 0.13261975347995758], [0.4713667631149292, -0.5874496698379517], [-0.523758590221405, 0.1947055459022522], [0.7173942923545837, 0.08285058289766312], [-0.519055187702179, -0.22782768309116364], [-0.4877898395061493, -0.020893124863505363], [0.4387889504432678, 0.2229476124048233], [-0.07101782411336899, -0.017968030646443367], [0.10360087454319, -0.4947759509086609]], "b": [-0.6843745112419128, 0.34887856245040894, -0.6673402786254883, -0.31006622314453125, 0.3564217686653137, 0.6591957211494446, -0.20126622915267944, -0.4528179168701172, 0.8518584966659546, -0.6156420707702637, -0.3127116560935974, 0.8344850540161133, 0.26391124725341797, 0.2357797622680664, 0.2749219238758087, -0.3005426526069641, 1.3156962394714355, -0.5171851515769958, -0.5124135613441467, -0.40305206179618835, -0.6053119897842407, -0.2591370940208435, 0.4077749252319336, 0.4939480721950531, -0.07959528267383575, 1.002563238143921, -0.9072245359420776, -0.4331114590167999, 0.5287497043609619, 0.11590061336755753, -0.8995882868766785, -0.84339439868927]}, {"w": [[-0.04164041206240654, 0.20324227213859558, -0.00025376773555763066, 0.08907344937324524, -0.19359301030635834, -0.10379970073699951, -0.1814512461423874, -0.07080645114183426, -0.08757873624563217, -0.07325154542922974, 0.19457897543907166, 0.05063853785395622, -0.01689068228006363, 0.14614567160606384, -0.0017919957172125578, 0.18132738769054413, 0.19292959570884705, 0.041610680520534515, -0.03589332103729248, -0.19797037541866302, -0.0283212848007679, -0.13592956960201263, -0.0338091105222702, -0.04130896180868149, 0.12715688347816467, -0.12629349529743195, 0.18856699764728546, -0.1606704443693161, -0.039600081741809845, 0.016945855692029, -0.17341868579387665, -0.07882603257894516], [0.01549400482326746, 0.005327317398041487, -0.03720160946249962, -0.00039644382195547223, -0.11273857206106186, 0.02932150661945343, 0.2188621610403061, 0.14405791461467743, -0.04577535763382912, 0.04484936222434044, 0.08314671367406845, -0.12561407685279846, -0.12501978874206543, -0.002601271029561758, -0.010253673419356346, -0.12308701872825623, -0.27517735958099365, -0.1764359474182129, 0.08130867779254913, 0.05579739063978195, 0.0838841050863266, 0.03183721378445625, -0.11426221579313278, -0.1078113242983818, -0.20845983922481537, 0.13104093074798584, 0.09363184124231339, 0.06241357699036598, -0.09184239059686661, -0.0025401695165783167, 0.13214831054210663, -0.16038456559181213], [0.7562509179115295, 0.1278221160173416, -0.21721218526363373, -0.19837795197963715, -0.22551675140857697, -0.053365956991910934, -0.1829821765422821, -0.13292761147022247, -0.3442475497722626, 0.14672115445137024, 0.2660796344280243, 0.034543223679065704, 0.19777512550354004, 0.15979139506816864, -0.3464834988117218, 0.17706036567687988, -0.25268790125846863, 0.16148819029331207, 0.02211633324623108, -0.15001007914543152, 0.42264440655708313, 0.32897892594337463, 0.0947691798210144, -0.23374168574810028, -0.14964042603969574, -0.30156388878822327, 0.13463054597377777, 0.005592730361968279, -0.1344371885061264, 0.20947271585464478, 0.47457578778266907, 0.6495769619941711], [0.7699455618858337, -0.28075525164604187, 0.22822757065296173, 0.07665430009365082, -0.06401969492435455, -0.1892808973789215, 0.13313767313957214, 0.09519662708044052, 0.0480191707611084, 0.22419531643390656, -0.059042222797870636, -0.39375075697898865, -0.38226455450057983, -0.11452484875917435, 0.036706291139125824, -0.019689256325364113, -0.620457649230957, 0.18473583459854126, 0.12815697491168976, 0.18247371912002563, -0.06010127067565918, 0.14153575897216797, -0.046957679092884064, -0.06253500282764435, 0.20872855186462402, 0.022521089762449265, 0.015066739171743393, 0.07392977923154831, 0.03413516283035278, -0.06001177430152893, 0.3429279923439026, 0.22085390985012054], [-0.4591793715953827, -0.028554528951644897, -0.09390056878328323, -0.10355201363563538, -0.04539152607321739, -0.006892719306051731, -0.2026723176240921, -0.1290506273508072, 0.04528558626770973, 0.13584190607070923, 0.2050904631614685, 0.252795934677124, 0.2233913391828537, 0.028227752074599266, 0.05835865065455437, -0.025127043947577477, 0.2827780544757843, -0.05420483276247978, -0.21979355812072754, -0.22261659801006317, -0.040420666337013245, 0.20290087163448334, -0.015482345595955849, -0.17729417979717255, -0.13534346222877502, 0.16780094802379608, 0.07590796798467636, -0.08683276921510696, -0.08257228136062622, 0.2129489779472351, -0.22467093169689178, -0.03578399494290352], [-0.5588676929473877, 0.21780110895633698, -0.2894185483455658, -0.17053371667861938, 0.04723008722066879, 0.32460880279541016, -0.10734357684850693, -0.45056793093681335, 0.12430550903081894, 0.0012896505650132895, 0.058318499475717545, 0.13909177482128143, 0.09724511951208115, 0.24063317477703094, -0.12202764302492142, 0.012568782083690166, 0.45931196212768555, 0.0911690965294838, -0.30259671807289124, -0.22964909672737122, -0.11554020643234253, -0.10454492270946503, 0.22433382272720337, 0.11527109146118164, 0.002260845620185137, 0.17142164707183838, -0.09657230973243713, -0.13324911892414093, -0.16452912986278534, 0.07443831115961075, -0.3224760890007019, -0.34913673996925354], [0.3454074561595917, -0.030846750363707542, -0.06580550223588943, -0.05439317226409912, -0.22361111640930176, 0.02202395536005497, -0.031128646805882454, 0.134861022233963, -0.23200520873069763, 0.19206880033016205, -0.014730317518115044, 0.19112510979175568, 0.12068117409944534, 0.07928164303302765, -0.1401972472667694, 0.2055007517337799, -0.04646112397313118, -0.025460490956902504, -0.09516014158725739, -0.17231735587120056, 0.07073095440864563, -0.07294991612434387, 0.16493162512779236, -0.2865446209907532, -0.15437883138656616, -0.04832477495074272, 0.2084980010986328, 0.1368095427751541, -0.23768049478530884, 0.20751558244228363, 0.2728765308856964, 0.01174890622496605], [0.24825720489025116, -0.004212500527501106, -0.00013566651614382863, -0.17524583637714386, -0.16875137388706207, -0.06870713829994202, -0.08584236353635788, -0.03128000721335411, -0.152422234416008, -0.07334909588098526, 0.1447030007839203, 0.1614105999469757, -0.16265523433685303, -0.10969939827919006, -0.07665368914604187, 0.11042007058858871, -0.09766087681055069, 0.019905246794223785, -0.03030204214155674, -0.17045822739601135, 0.23049534857273102, 0.16104745864868164, 0.18416418135166168, -0.14532706141471863, -0.11608785390853882, -0.040137723088264465, 0.1768309623003006, 0.04829355329275131, -0.18491803109645844, 0.19318678975105286, 0.023828357458114624, 0.04837715998291969], [0.05177798494696617, 0.15085788071155548, -0.24967636168003082, -0.14977139234542847, -0.09539563953876495, 0.1911984533071518, -0.10730345547199249, 0.025502370670437813, 0.09015199542045593, 0.03413911536335945, -0.05657253786921501, 0.12294375896453857, 0.13976790010929108, 0.024892475455999374, -0.15375900268554688, 0.17152024805545807, 0.10500765591859818, -0.09291090071201324, 0.018698785454034805, -0.020913686603307724, 0.19345150887966156, -0.0691673681139946, 0.17379964888095856, -0.114901103079319, -0.0017793591832742095, 0.11489386856555939, 0.24556590616703033, 0.06669585406780243, -0.12356498092412949, -0.011057420633733273, 0.06610981374979019, 0.12824778258800507], [-0.012005455791950226, 0.024015847593545914, 0.0436529777944088, 0.12783849239349365, 0.11688319593667984, 0.05337223410606384, 0.04165519401431084, -0.09421190619468689, -0.02450610138475895, -0.12389838695526123, 0.09846749156713486, -0.08089892566204071, -0.060659103095531464, -0.12066412717103958, -8.47375049488619e-05, 0.0648665800690651, -0.045124638825654984, 0.04191689193248749, 0.15831685066223145, -0.11908172070980072, 0.015194961801171303, 0.16302303969860077, -0.14312921464443207, 0.08932602405548096, -0.006799859926104546, 0.13992160558700562, -0.012377499602735043, -0.0874067097902298, -0.07519234716892242, 0.09724290668964386, -0.11766795068979263, -0.188005268573761], [-0.28844839334487915, -0.22225086390972137, 0.12234813719987869, 0.05947970226407051, -0.03099505603313446, -0.10872695595026016, 0.0976083055138588, 0.14117690920829773, 0.21052032709121704, -0.12969714403152466, 0.09676718711853027, 0.05380167067050934, -0.19104605913162231, 0.09310072660446167, -0.14285434782505035, -0.19021588563919067, -0.09892258048057556, 0.008642465807497501, 0.22827056050300598, 0.06347953528165817, 0.04571902006864548, -0.05896827206015587, -0.20026174187660217, 0.06396104395389557, 0.04029927775263786, -0.0066521866247057915, -0.23000669479370117, -0.04530709236860275, 0.1124233603477478, 0.0969117060303688, -0.060455627739429474, -0.20471197366714478], [-0.7636880278587341, -0.01647035777568817, 0.05620637908577919, -0.008606328628957272, 0.3773115873336792, -0.020211005583405495, 0.23430278897285461, 0.20810368657112122, 0.3323400914669037, -0.05644616112112999, -0.29156750440597534, 0.0195599552243948, -0.17559349536895752, 0.03790680319070816, 0.4685955345630646, -0.1265755444765091, -0.003196920268237591, -0.14531783759593964, 0.008678721264004707, 0.13047988712787628, -0.13148538768291473, -0.2108672708272934, -0.05887173116207123, 0.09743072092533112, 0.0224771648645401, 0.2684810757637024, -0.25507545471191406, 0.1687748283147812, 0.37806379795074463, -0.08069253712892532, -0.4189685881137848, -0.44246184825897217], [0.022051602602005005, -0.05440341681241989, 0.1976974904537201, -0.12961047887802124, 0.04261831194162369, -0.1512102335691452, 0.2062181830406189, 0.16406430304050446, 0.0721835121512413, -0.2009289413690567, -0.08877015858888626, 0.03906721994280815, -0.09473299235105515, -0.07649846374988556, -0.16952495276927948, 0.06752859055995941, 0.02957746386528015, -0.19465689361095428, -0.048899296671152115, 0.07814832776784897, -0.16932809352874756, -0.1377105563879013, -0.01286942046135664, 0.036368392407894135, 0.00515346322208643, 0.1280231475830078, 0.08166137337684631, 0.16402003169059753, -0.08748456090688705, -0.21458938717842102, 0.0741608738899231, -0.20016825199127197], [0.5102071166038513, -0.03076965920627117, 0.07909461855888367, 0.09538643062114716, -0.2570350766181946, -0.09746161103248596, -0.1667170524597168, -0.1234666183590889, -0.35037878155708313, 0.18106259405612946, 0.1442955732345581, 0.06663655489683151, 0.042179446667432785, 0.161367729306221, -0.1906372755765915, 0.08489915728569031, 0.03856346383690834, 0.22619891166687012, -0.05435511842370033, 0.058209072798490524, 0.0927746593952179, 0.06874416768550873, 0.17442843317985535, -0.046677861362695694, -0.10712835937738419, -0.27698370814323425, 0.2571507692337036, -0.03419508412480354, -0.22088706493377686, -0.06405018270015717, 0.12892451882362366, 0.38094362616539], [0.28336119651794434, -0.015438227914273739, 0.07077556103467941, 0.10818158090114594, 0.001015067333355546, 0.04973333701491356, 0.10059134662151337, -0.10173702239990234, -0.20864924788475037, 0.12637802958488464, -0.003963926807045937, 0.2284524142742157, -0.049707550555467606, 0.13287538290023804, -0.1299716979265213, -0.04605666548013687, 0.11927556991577148, 0.17854705452919006, -0.19650691747665405, -0.09965652972459793, 0.16028210520744324, -0.03354109823703766, -0.09053952246904373, -0.08135400712490082, -0.0133252814412117, -0.028397176414728165, 0.1540403515100479, -0.11351754516363144, -0.17076042294502258, 0.1724625676870346, -0.10738588124513626, 0.17217986285686493], [-0.02223886363208294, 0.006596527993679047, -0.05219350755214691, 0.10455690324306488, -0.03243337571620941, 0.019884614273905754, -0.019334226846694946, 0.11581756919622421, 0.06131027638912201, -0.1530296355485916, -0.22427210211753845, -0.14289075136184692, 0.033580780029296875, -0.10090869665145874, -0.06374567002058029, -0.17377837002277374, -0.2454638034105301, -0.054944898933172226, 0.02065455913543701, 0.12388195842504501, 0.11095663905143738, -0.0930006206035614, -0.1133682057261467, 0.13711407780647278, -0.21662986278533936, 0.028556620702147484, -0.15703685581684113, 0.16324718296527863, 0.05069099739193916, -0.04930487275123596, 0.053300824016332626, -0.17013835906982422], [-0.2927040457725525, 0.12239203602075577, 0.07613154500722885, -0.08762704581022263, 0.2024737447500229, 0.15353628993034363, -0.04024732485413551, -0.11852997541427612, 0.373813271522522, -0.10932090878486633, -0.22424130141735077, -0.13563959300518036, -0.024342255666851997, 0.06838394701480865, 0.38577935099601746, -0.20570097863674164, 0.12895365059375763, 0.1643749326467514, -0.09566246718168259, -0.11140991747379303, 0.04088662192225456, -0.42434602975845337, -0.19371730089187622, 0.13669747114181519, 0.21283994615077972, 0.15097230672836304, -0.1155477911233902, 0.15513528883457184, -0.013869746588170528, 0.10841167718172073, -0.16143487393856049, -0.1282300055027008], [0.3644929826259613, -0.001922746654599905, -0.0015044445171952248, 0.06077144294977188, 0.07668529450893402, -0.24524879455566406, 0.0699753686785698, 0.2988429367542267, -0.27239784598350525, 0.07934302091598511, -0.19764438271522522, -0.33968880772590637, -0.1777019202709198, -0.2177547663450241, -0.14857196807861328, 0.07114948332309723, -0.4112994074821472, -0.08983787894248962, 0.25883617997169495, -0.07648549228906631, 0.03945335000753403, -0.03158127889037132, -0.17722705006599426, 0.0039854575879871845, 0.13113117218017578, -0.058828409761190414, -0.19485144317150116, 0.12799325585365295, -0.051975592970848083, -0.17352953553199768, 0.3220885396003723, 0.15298445522785187], [-0.009479036554694176, 0.09465521574020386, -0.07430446147918701, -0.0101578114554286, -0.08283913135528564, -0.023135865107178688, 0.006531229242682457, 0.0387057363986969, -0.0408339723944664, 0.1662205457687378, 0.07330334186553955, 0.16869722306728363, 0.007979562506079674, 0.044751428067684174, 0.006626458372920752, 0.1065078154206276, 0.02432328835129738, -0.07372400909662247, -0.012909943237900734, 0.053315941244363785, 0.2391480952501297, 0.148611381649971, 0.1921285092830658, -0.022214019671082497, 0.15302492678165436, -0.10553541034460068, 0.12381571531295776, 0.0001362904440611601, -0.05967472866177559, 0.07388222217559814, 0.011115520261228085, -0.09238111972808838], [0.6535846590995789, 0.13028080761432648, 0.07309561967849731, -0.10124965012073517, -0.4759618043899536, -0.08174159377813339, -0.08343757688999176, 0.07220566272735596, -0.40386736392974854, 0.08879519253969193, 0.35009923577308655, -0.037259291857481, 0.12145169079303741, 0.15949974954128265, -0.23990443348884583, 0.3931064009666443, -0.25730425119400024, 0.44016849994659424, 0.0942397341132164, 0.013515273109078407, 0.4335778057575226, 0.21867190301418304, 0.26433059573173523, -0.3943733870983124, -0.235783651471138, -0.398624062538147, 0.32837679982185364, 0.041667960584163666, -0.3483717441558838, 0.22975347936153412, 0.3004801273345947, 0.5496492981910706], [-0.18577156960964203, 0.24177227914333344, -0.1624610275030136, -0.008060647174715996, -0.08658541738986969, 0.11098437756299973, 0.04455949366092682, -0.06494201719760895, -0.19228027760982513, 0.07287990301847458, -0.08055277913808823, 0.2544543743133545, 0.2083909511566162, 0.19481484591960907, 0.02481927163898945, -0.10566847026348114, -0.016244053840637207, -0.10085462778806686, 0.014889591373503208, 0.08983737230300903, 0.1701011210680008, -0.04328058660030365, -0.03640018031001091, -0.17447826266288757, 0.16441753506660461, -0.22080311179161072, -0.10385489463806152, 0.011604799889028072, -0.05477140471339226, -0.01934409700334072, -0.08491947501897812, -0.16221395134925842], [-0.16545535624027252, -0.16297794878482819, 0.04954616352915764, 0.16814544796943665, -0.036066386848688126, 0.08745693415403366, 0.017879458144307137, 0.22392001748085022, -0.023488329723477364, 0.06604629755020142, -0.1777888387441635, -0.16752596199512482, -0.20610091090202332, 0.04104500263929367, -0.297376811504364, 0.03932945057749748, -0.23222583532333374, -0.15979927778244019, 0.030676253139972687, 0.050112418830394745, -0.14083288609981537, 0.05613236129283905, -0.13192108273506165, 0.10158368200063705, -0.08981306850910187, 0.09951289743185043, 0.04708521068096161, 0.05603152886033058, 0.23542439937591553, -0.01803435944020748, -0.11881056427955627, 0.047009360045194626], [-0.19934840500354767, 0.03466591238975525, -0.07057506591081619, 0.06470261514186859, -0.06160768121480942, -0.12704874575138092, 0.014864175580441952, -0.0026034170296043158, -0.039629239588975906, 0.07409575581550598, -0.0015645059756934643, -0.06453859806060791, -0.08072809875011444, -0.023038852959871292, -0.08392593264579773, -0.2511971592903137, -0.22434842586517334, 0.05698659271001816, 0.060006000101566315, 0.10430126637220383, 0.020174259319901466, 0.19794028997421265, -0.11906785517930984, 0.22856837511062622, -0.20298559963703156, 0.07022157311439514, 0.060474734753370285, -0.011741411872208118, 0.2620270848274231, -0.16517935693264008, -0.11578693240880966, 0.05565702170133591], [0.34057456254959106, -0.06985332816839218, 0.028498001396656036, -0.0035426346585154533, -0.2063077986240387, -0.005574373062700033, -0.046076033264398575, -0.19718901813030243, -0.18789996206760406, 0.07673491537570953, 0.19574378430843353, 0.2031347155570984, -0.059864431619644165, 0.14584767818450928, -0.03240332007408142, 0.05896152928471565, -0.12004943937063217, 0.1013263463973999, 0.11160166561603546, -0.19454529881477356, 0.05880846828222275, 0.1703643500804901, 0.05553638935089111, 0.04255393147468567, -0.039808887988328934, -0.16575932502746582, -0.06480000913143158, -0.14694882929325104, -0.11155442893505096, 0.17301134765148163, 0.1756555438041687, 0.10650879889726639], [0.4058266580104828, 0.1209794357419014, -0.18048495054244995, -0.1412682980298996, -0.01441576611250639, 0.02115493454039097, -0.015647558495402336, -0.029094450175762177, -0.06433817744255066, -0.06699712574481964, -0.025825565680861473, -0.024053016677498817, 0.15059266984462738, -0.09209329634904861, -0.07004052400588989, 0.24106350541114807, 0.21585561335086823, 0.12635484337806702, -0.1651674211025238, -0.10903017967939377, -0.002174065448343754, 0.05526481196284294, -0.024060726165771484, -0.15213698148727417, 0.22238348424434662, -0.06472132354974747, -0.008118675090372562, -0.07735001295804977, -0.11100289970636368, -0.0955381840467453, 0.18084967136383057, -0.061543263494968414], [0.04952852800488472, 0.0336323045194149, 0.03332279622554779, -0.012959623709321022, 0.19466610252857208, 0.07517365366220474, 0.038116954267024994, 0.022573888301849365, -0.01463743019849062, 0.10521471500396729, -0.15759551525115967, -0.023870471864938736, -0.05163891240954399, 0.07392358779907227, -0.0011957278475165367, 0.024772970005869865, -0.16767539083957672, -0.13265471160411835, 0.0102149099111557, -0.09708431363105774, -0.2156115174293518, 0.08040691912174225, 0.014710837043821812, 0.03165570646524429, -0.177265927195549, 0.17288218438625336, 0.10587423294782639, 0.23231592774391174, -0.004320712760090828, -0.21949785947799683, 0.062470339238643646, 0.061994969844818115], [-0.02111060358583927, 0.004743669182062149, 0.19525204598903656, -0.05143385007977486, -0.0719161331653595, -0.035083577036857605, 0.19750194251537323, -0.07353745400905609, 0.26925402879714966, -0.09252952039241791, -0.16496747732162476, -0.16437818109989166, 0.21250618994235992, 0.09712328016757965, 0.16379991173744202, 0.11172409355640411, -0.22457467019557953, 0.10191506147384644, 0.10421224683523178, -0.046157024800777435, 0.06763402372598648, -0.027163268998265266, -0.1256592571735382, 0.1290992945432663, 0.09812939167022705, 0.17929212749004364, -0.05900811403989792, -0.0640641301870346, 0.2228909432888031, 0.022891754284501076, 0.2982003688812256, -0.08357392251491547], [-0.12479502707719803, -0.044604308903217316, 0.1859845072031021, 0.09537875652313232, -0.008262964896857738, 0.019444307312369347, 0.2234426736831665, -0.0557095892727375, 0.2376428097486496, 0.0970383957028389, 0.0913638323545456, -0.03784281387925148, -0.11433316022157669, -0.11473120003938675, -0.062276389449834824, -0.17332300543785095, -0.05614824965596199, 0.040528710931539536, 0.01890287920832634, 0.20823252201080322, 0.002290613017976284, 0.19676882028579712, 0.0998256653547287, 0.020810071378946304, -0.21796178817749023, -0.06208961084485054, 0.11425483971834183, -0.04866944998502731, 0.06963258981704712, 0.058657605201005936, -0.08890869468450546, 0.04652981460094452], [-0.02255595289170742, -0.05048155412077904, 0.19154362380504608, -0.08017574995756149, -0.03908935561776161, -0.1838134527206421, 0.04634745046496391, 0.3176412582397461, 0.1872304230928421, 0.06325729936361313, -0.14621572196483612, -0.17983435094356537, -0.14306196570396423, 0.0962226539850235, -0.1740335077047348, -0.10980252176523209, -0.41592293977737427, 0.03609505295753479, 0.08292641490697861, 0.013423730619251728, -0.2129250317811966, -0.031822290271520615, -0.23827189207077026, 0.1125851422548294, -0.201409250497818, -0.04935428872704506, 0.11300703138113022, -0.08553000539541245, -0.08006485551595688, -0.21140025556087494, 0.05611070990562439, 0.14928287267684937], [0.012473325245082378, -0.18158960342407227, 0.17041918635368347, 0.19190216064453125, 0.11460825800895691, -0.04379899427294731, 0.0705619528889656, 0.14555571973323822, 0.1635390967130661, 0.0980306938290596, -0.16438448429107666, -0.24271896481513977, -0.15196968615055084, -0.1129845380783081, 0.12612786889076233, -0.20760416984558105, -0.23828154802322388, 0.14040790498256683, 0.12171310931444168, -0.0442410409450531, -0.01592361368238926, -0.08216334134340286, -0.15122176706790924, -0.12794367969036102, -0.23305971920490265, 0.18029969930648804, -0.05919789895415306, -0.05515928193926811, -0.057184141129255295, -0.1789986491203308, -0.05184702202677727, 0.036454685032367706], [-0.042687106877565384, 0.0967913568019867, -0.01109782513231039, 0.07859892398118973, -0.1556946337223053, 0.03067813813686371, 0.10263897478580475, -0.10396058857440948, -0.23777510225772858, -0.015286075882613659, 0.12277024239301682, 0.06830019503831863, 0.1480044722557068, -0.0709240734577179, 0.10374604910612106, -0.007974711246788502, 0.038011785596609116, 0.03884473070502281, 0.09409188479185104, 0.06580854952335358, 0.21404241025447845, -0.036226704716682434, 0.196386456489563, -0.07506824284791946, 0.1620919555425644, -0.11767438799142838, -0.019216306507587433, -0.1907953917980194, -0.08043656498193741, -0.006281934678554535, 0.148781418800354, -0.04701126739382744], [0.3240855932235718, -0.05918596684932709, 0.051900673657655716, 0.009581995196640491, -0.1594332456588745, 0.04675130173563957, -0.20975860953330994, -0.0019390112720429897, -0.4216528832912445, -0.1395777463912964, 0.2159966677427292, 0.1811467558145523, -0.045149803161621094, 0.15811803936958313, -0.2840750217437744, -0.03196574002504349, -0.06593251973390579, -0.10229864716529846, -0.06251391023397446, 0.11466512084007263, -0.06017276272177696, 0.17482249438762665, 0.12831488251686096, -0.13563314080238342, 0.009656529873609543, -0.10767804831266403, 0.15353840589523315, 0.1277274489402771, -0.016860684379935265, -0.06503761559724808, -0.05049961432814598, 0.20699572563171387]], "b": [-0.08965278416872025, 0.20919832587242126, -0.44726651906967163, -0.33160459995269775, 0.2028769999742508, 0.11135704815387726, -0.2773309051990509, -0.07450300455093384, -0.05633499100804329, -0.09498471021652222, 0.1277221441268921, 0.3329131007194519, 0.07433321326971054, -0.317251056432724, -0.11119139939546585, 0.11926943063735962, -0.02259702980518341, 0.01805402897298336, -0.14391683042049408, -0.5016480088233948, 0.04564138874411583, 0.05192385986447334, 0.15095408260822296, -0.23435768485069275, 0.09515750408172607, 0.023578859865665436, -0.06973201781511307, 0.12794171273708344, 0.017936136573553085, -0.08729226142168045, 0.05172537639737129, -0.05554819852113724]}, {"w": [[0.1818905472755432, -0.0184609554708004, 0.1844603717327118, -0.30031612515449524, 0.20759576559066772, 0.30576592683792114, 0.1253320723772049, 0.25125184655189514, 0.16242817044258118, -0.08815698325634003, -0.20448416471481323, -0.18288442492485046, -0.22573721408843994, 0.17927107214927673, 0.2695470154285431, -0.19197645783424377, -0.20153692364692688, -0.2488994598388672, 0.13602377474308014, 0.19241966307163239, 0.11813908815383911, -0.11436457186937332, -0.17172487080097198, 0.25171521306037903, 0.15010303258895874, -0.08055728673934937, -0.1874040812253952, -0.006106363143771887, -0.2074112743139267, -0.2523442804813385, 0.12342118471860886, 0.24380995333194733]], "b": [0.0658353716135025]}], "train": {"venue": "lake_perp_mid", "events": 1459, "cap_ts": 0, "target": "market_prob"}}