{"arch": {"hidden": 32, "clamp": 2.0, "act": "tanh", "logit": "raw", "mode": "direct"}, "features": "zp=(px-b)/s/sqrt(tte/900); u_in=[zp, log(tte/900)]", "rho_bar": 1.3001782894134521, "b_prior": "strike", "b_scale": 1.5, "layers": [{"w": [[0.10875504463911057, -0.44870859384536743], [0.2579447031021118, 0.14296269416809082], [-0.4156756103038788, -0.1605161428451538], [-0.4907500445842743, -0.01428307220339775], [-0.28329700231552124, 0.3012639880180359], [0.4939197301864624, 0.11567585915327072], [-0.3656535744667053, -0.061836179345846176], [-0.17448027431964874, -0.2547055184841156], [0.42854633927345276, -0.6185430288314819], [0.6770240068435669, -0.21793679893016815], [0.5881016850471497, -0.19922633469104767], [0.4307153522968292, 0.2366260141134262], [0.07821541279554367, 0.2214733064174652], [0.5434587597846985, -0.02367464266717434], [0.4413369297981262, -0.41052842140197754], [0.5609104037284851, -0.010052168741822243], [0.24630050361156464, 0.2950325608253479], [0.4687597155570984, 0.6079217195510864], [-0.20454780757427216, -0.2500448524951935], [-0.16618099808692932, -0.2341906726360321], [0.46956077218055725, -0.2591664791107178], [-0.39295586943626404, 0.5507091879844666], [0.6933485865592957, -0.045739006251096725], [-0.25150352716445923, 0.24853087961673737], [0.4051792621612549, -0.48014378547668457], [-0.6588228940963745, 0.2759163975715637], [0.6678338050842285, -0.11342991888523102], [-0.5886756777763367, 0.015317820012569427], [-0.4568106532096863, 0.1450338363647461], [0.39770185947418213, 0.05361579731106758], [-0.18137089908123016, -0.30118072032928467], [0.2724047899246216, -0.4443725645542145]], "b": [-0.9006409645080566, 0.4849219024181366, -0.7384674549102783, -0.4385317862033844, 0.6282551884651184, 0.7479698061943054, -0.2620616853237152, -0.7477290034294128, 0.5057374238967896, -0.8900643587112427, -0.14287643134593964, 1.0282588005065918, 0.4674844443798065, 0.5058828592300415, 0.19215136766433716, -0.09793838858604431, 0.939714252948761, -0.6219333410263062, -0.6766128540039062, -0.3338109850883484, -0.7090272307395935, -0.17207945883274078, 0.602860152721405, 0.5013320446014404, -0.07687298953533173, 0.9822354912757874, -0.6272234916687012, -0.5182982087135315, 0.3774436414241791, 0.2094419002532959, -0.9089862704277039, -1.0711328983306885]}, {"w": [[-0.03182031214237213, 0.19729083776474, 0.006851761136204004, 0.06405871361494064, -0.20477446913719177, -0.10039503872394562, -0.17294788360595703, -0.067868672311306, -0.01856577768921852, -0.047928471118211746, 0.1970682293176651, 0.027496647089719772, -0.04605085402727127, 0.14792217314243317, 0.007066301070153713, 0.17190682888031006, 0.1337725967168808, -0.01806572452187538, -0.028593285009264946, -0.17891967296600342, -0.022192221134901047, -0.11752293258905411, -0.027919704094529152, -0.038915302604436874, 0.08458086103200912, -0.14302034676074982, 0.178101047873497, -0.17293910682201385, -0.03506113588809967, 0.009255760349333286, -0.27135708928108215, -0.04327144846320152], [0.01644187793135643, 0.012133664451539516, -0.047383666038513184, 0.005088712088763714, -0.10609082132577896, 0.03464623913168907, 0.21043777465820312, 0.13273857533931732, -0.13593550026416779, 0.03597182035446167, 0.08885771036148071, -0.10482034832239151, -0.10689348727464676, 0.003465222427621484, -0.02332128956913948, -0.11514244973659515, -0.2355523556470871, -0.14953917264938354, 0.0737771987915039, 0.04457315057516098, 0.08583347499370575, 0.040850233286619186, -0.10578197240829468, -0.11215992271900177, -0.20550289750099182, 0.13344179093837738, 0.10013854503631592, 0.05785726383328438, -0.09825121611356735, 0.004839667119085789, 0.2507658302783966, -0.1738787591457367], [0.684748649597168, 0.04854298382997513, -0.15178737044334412, -0.23809705674648285, -0.26604127883911133, -0.08416862040758133, -0.10444626212120056, -0.0008197460556402802, -0.04701485112309456, 0.27647823095321655, 0.21773065626621246, -0.07869362831115723, -0.11326398700475693, 0.08702763170003891, -0.12152943015098572, 0.12820467352867126, -0.17884112894535065, -0.16731880605220795, 0.13790909945964813, -0.010902178473770618, 0.41663119196891785, 0.13473111391067505, 0.030201492831110954, -0.2889963388442993, -0.025845997035503387, -0.3236389458179474, 0.10760544240474701, 0.032558318227529526, -0.10557637363672256, 0.14894112944602966, 0.2564488649368286, 0.6683488488197327], [0.46516337990760803, -0.2676929533481598, 0.16053611040115356, 0.08051906526088715, 0.054191961884498596, -0.1442936658859253, 0.12425664067268372, 0.057375628501176834, 0.18963797390460968, 0.1282924860715866, -0.09356822818517685, -0.29607006907463074, -0.40348607301712036, -0.11981450766324997, -0.0031063903588801622, -0.03257997706532478, -0.21254222095012665, 0.22693534195423126, 0.11213614791631699, 0.15066058933734894, -0.1348712146282196, 0.11397013813257217, -0.03312245383858681, -0.022427858784794807, 0.14820513129234314, 0.10807771980762482, -0.01384950801730156, 0.049720026552677155, 0.07111389935016632, -0.057542335242033005, 0.37980127334594727, 0.037215474992990494], [-0.11414606869220734, -0.04897952079772949, -0.039270684123039246, -0.11499480158090591, -0.15428316593170166, -0.040125492960214615, -0.18482963740825653, -0.0794222354888916, 0.06603807955980301, 0.19121403992176056, 0.21683670580387115, 0.16362161934375763, 0.17173358798027039, 0.023553214967250824, 0.1699829250574112, -0.03388301655650139, 0.10044768452644348, -0.09327837824821472, -0.1926439255475998, -0.18660487234592438, -0.0032368258107453585, 0.14474651217460632, -0.02782033011317253, -0.1894082874059677, -0.03277610242366791, 0.12578871846199036, 0.07638093084096909, -0.0723823755979538, -0.08928676694631577, 0.19716228544712067, -0.42483627796173096, 0.09681200236082077], [-0.19454233348369598, 0.21522068977355957, -0.2297089546918869, -0.16091421246528625, -0.06741747260093689, 0.2848632335662842, -0.10668640583753586, -0.4267105460166931, 0.0892193391919136, 0.06808722019195557, 0.08250414580106735, 0.04686020314693451, 0.14094260334968567, 0.24664011597633362, -0.094084233045578, 0.019659923389554024, 0.2548034191131592, 0.048279162496328354, -0.3053981065750122, -0.21483352780342102, -0.06230911985039711, -0.08496928215026855, 0.20854845643043518, 0.09698949009180069, 0.08103981614112854, 0.11009575426578522, -0.07910618931055069, -0.10436641424894333, -0.1876247078180313, 0.07532036304473877, -0.8051645159721375, -0.20727674663066864], [0.16089041531085968, -0.062314245849847794, -0.05467873811721802, -0.08996959030628204, -0.19086498022079468, 0.02503920905292034, 0.018064802512526512, 0.13276445865631104, -0.11152821779251099, 0.21424591541290283, -0.04659881815314293, 0.15844641625881195, 0.11008165031671524, 0.053797874599695206, -0.0657164603471756, 0.15669701993465424, -0.01407681219279766, -0.23698312044143677, -0.06348595023155212, -0.12629887461662292, 0.03593543916940689, -0.12001768499612808, 0.15742860734462738, -0.17571920156478882, -0.14479440450668335, -0.022976987063884735, 0.14865832030773163, 0.12627285718917847, -0.18224264681339264, 0.16760653257369995, 0.09324504435062408, -0.04420190677046776], [0.11862629652023315, -0.005551356356590986, -0.003924150485545397, -0.20937897264957428, -0.15357543528079987, -0.057412274181842804, -0.07313147932291031, -0.06368319690227509, -0.0010446365922689438, -0.055303171277046204, 0.1355138123035431, 0.15071287751197815, -0.12312807142734528, -0.1144593209028244, -0.01065731793642044, 0.09216031432151794, -0.07123053073883057, -0.04998369887471199, -0.034551914781332016, -0.16540391743183136, 0.21950788795948029, 0.11490792036056519, 0.18835926055908203, -0.11070411652326584, -0.10600529611110687, -0.0336342491209507, 0.15051986277103424, 0.031599678099155426, -0.164494127035141, 0.18214115500450134, -0.1571352332830429, 0.02596089616417885], [-0.029473163187503815, 0.13537874817848206, -0.22836840152740479, -0.1708744317293167, -0.07221696525812149, 0.18382425606250763, -0.08987350761890411, 0.03784692659974098, 0.10837320983409882, 0.057980265468358994, -0.06251177936792374, 0.07848416268825531, 0.11087485402822495, 0.01887112855911255, -0.15076148509979248, 0.15362249314785004, 0.0027134984266012907, -0.14501826465129852, 0.033058758825063705, 0.0008016206556931138, 0.18809190392494202, -0.029534393921494484, 0.17183473706245422, -0.09860169887542725, -0.09533610939979553, 0.10460145026445389, 0.22649404406547546, 0.06226985901594162, -0.10789008438587189, -0.027954595163464546, -0.09045657515525818, 0.14147396385669708], [0.02614709734916687, -0.0011642647441476583, 0.06634901463985443, 0.16570420563220978, 0.13770772516727448, 0.029767272993922234, 0.06618085503578186, -0.05758924409747124, -0.039635974913835526, -0.15041515231132507, 0.08156277984380722, -0.09648440033197403, -0.17250807583332062, -0.13877470791339874, -0.018459517508745193, 0.04595482349395752, -0.0723559632897377, 0.021779393777251244, 0.19049610197544098, -0.08516746014356613, -0.009336507879197598, 0.1571907103061676, -0.16399988532066345, 0.12099433690309525, 0.0006610132986679673, 0.16320185363292694, -0.026735806837677956, -0.060023196041584015, -0.05660776048898697, 0.07412779331207275, -0.03610625118017197, -0.2095307558774948], [-0.24743252992630005, -0.21232981979846954, 0.10743935406208038, 0.0862940102815628, -0.026846475899219513, -0.10593453794717789, 0.08259554207324982, 0.1354987472295761, 0.09831379354000092, -0.16091729700565338, 0.103286974132061, 0.0902482122182846, -0.17895349860191345, 0.10196088999509811, -0.17414158582687378, -0.17684796452522278, -0.04091372340917587, 0.059422217309474945, 0.2163514941930771, 0.04470045119524002, 0.0453483983874321, -0.05393166095018387, -0.19457031786441803, 0.05304185673594475, 0.06900149583816528, 0.005270866211503744, -0.2148188054561615, -0.04013468325138092, 0.10099083930253983, 0.10941534489393234, 0.09941983968019485, -0.2268073707818985], [-0.7456328868865967, 0.02616325207054615, 0.006789068225771189, 0.05743327736854553, 0.44822898507118225, -0.003015154041349888, 0.19060054421424866, 0.12268733978271484, 0.11478938907384872, -0.1951385736465454, -0.2663893699645996, 0.12291236221790314, 0.002986273495480418, 0.08809049427509308, 0.16729764640331268, -0.10186190903186798, -0.11742281913757324, 0.012302232906222343, -0.061417605727910995, 0.05277467891573906, -0.14429129660129547, 0.04033053666353226, -0.012512451969087124, 0.1548151671886444, -0.17480622231960297, 0.3051520586013794, -0.24350076913833618, 0.15906642377376556, 0.3694905638694763, -0.04783831164240837, -0.2818283140659332, -0.4817664623260498], [0.010088207200169563, -0.04512082412838936, 0.18720334768295288, -0.10323387384414673, 0.05380221828818321, -0.15166233479976654, 0.193047896027565, 0.1526140421628952, -0.025823242962360382, -0.22860555350780487, -0.08431345969438553, 0.07031664997339249, -0.06322922557592392, -0.07017695903778076, -0.20415274798870087, 0.07824993878602982, 0.0722598135471344, -0.14989908039569855, -0.06325457990169525, 0.05650511756539345, -0.173370823264122, -0.12236300855875015, -0.009825029410421848, 0.028667470440268517, 0.026058269664645195, 0.14249195158481598, 0.09212371706962585, 0.17181257903575897, -0.09591232985258102, -0.20398032665252686, 0.24055683612823486, -0.23214159905910492], [0.6616247296333313, -0.06017463654279709, 0.09968261420726776, 0.04889029636979103, -0.3129834234714508, -0.10015091300010681, -0.13456425070762634, -0.06778094172477722, -0.18625688552856445, 0.24850217998027802, 0.12677522003650665, 0.014223313890397549, -0.06610774248838425, 0.1300814151763916, 0.03000466153025627, 0.06256436556577682, 0.13628141582012177, 0.15342527627944946, -0.006598025560379028, 0.1060774102807045, 0.10183198004961014, -0.12243259698152542, 0.15209582448005676, -0.07426229119300842, 0.06325552612543106, -0.29388558864593506, 0.24392321705818176, -0.03800559043884277, -0.20925261080265045, -0.09028133749961853, 0.03948267921805382, 0.4206989109516144], [0.21665596961975098, -0.016953464597463608, 0.07587993890047073, 0.08034514635801315, -0.000984800048172474, 0.053432684391736984, 0.10923612117767334, -0.11819081753492355, -0.07505807280540466, 0.1578879952430725, -0.0075036692433059216, 0.2064390629529953, -0.04944068565964699, 0.12905974686145782, -0.0894755870103836, -0.05466894432902336, 0.09323711693286896, 0.11875192821025848, -0.19567859172821045, -0.08669443428516388, 0.16300919651985168, -0.05067964270710945, -0.09154810011386871, -0.07559816539287567, -0.026327751576900482, -0.03986167162656784, 0.1429821103811264, -0.12306208163499832, -0.16444885730743408, 0.16576938331127167, -0.26080116629600525, 0.1855488121509552], [0.01989651843905449, 0.019561734050512314, -0.06440044194459915, 0.1282883882522583, -0.05543820559978485, 0.020787235349416733, -0.0346158966422081, 0.10809428989887238, -0.018727613613009453, -0.1677412986755371, -0.2181335687637329, -0.1102634072303772, 0.06897910684347153, -0.09549036622047424, -0.0920630693435669, -0.15708932280540466, -0.1978158950805664, -0.006040832493454218, 0.006791401654481888, 0.10256416350603104, 0.11883854866027832, -0.08841261267662048, -0.11367113143205643, 0.12167158722877502, -0.1591223031282425, 0.03130941465497017, -0.1378030925989151, 0.17277395725250244, 0.03522990271449089, -0.034308061003685, 0.21003182232379913, -0.17403177917003632], [-0.2981601655483246, 0.1323857307434082, 0.08549392968416214, -0.002146826358512044, 0.23957113921642303, 0.13053178787231445, -0.06104123219847679, -0.1096431091427803, 0.34925830364227295, -0.18786224722862244, -0.2257883995771408, -0.1088089644908905, -0.02978701889514923, 0.07858340442180634, 0.12146763503551483, -0.19266684353351593, 0.08662287145853043, 0.24888649582862854, -0.11772701144218445, -0.13927704095840454, 0.0004680275160353631, -0.23869411647319794, -0.19851239025592804, 0.15102575719356537, 0.04132217541337013, 0.1868317574262619, -0.10877414047718048, 0.1945798397064209, -0.014458944089710712, 0.12221957743167877, -0.6113118529319763, -0.17642459273338318], [0.2764410674571991, -0.006052713375538588, -0.026249542832374573, 0.06339378654956818, 0.10187996178865433, -0.23042523860931396, 0.06840146332979202, 0.3242025673389435, -0.15939468145370483, 0.04033670201897621, -0.21595026552677155, -0.29868847131729126, -0.26421505212783813, -0.2297237664461136, -0.1153624951839447, 0.07048533111810684, -0.22059080004692078, 0.05895789712667465, 0.2850230038166046, -0.0810542106628418, 0.012523902580142021, -0.10639423131942749, -0.17972050607204437, -0.0305006206035614, 0.16477467119693756, -0.020844310522079468, -0.20031486451625824, 0.12197557836771011, -0.042300861328840256, -0.17249926924705505, 0.3367885649204254, 0.09962030500173569], [-0.036495648324489594, 0.019817786291241646, -0.003537336364388466, -0.010876326821744442, -0.0648934543132782, -0.06490355730056763, 0.07516371458768845, 0.17960868775844574, -0.1347578465938568, 0.22732660174369812, 0.050074413418769836, 0.05548413097858429, -0.17911329865455627, 0.0022840399760752916, -0.04784097522497177, 0.06820754706859589, -0.18898579478263855, -0.26413172483444214, 0.08628252893686295, 0.1627689152956009, 0.24001425504684448, 0.2524871826171875, 0.15181636810302734, 0.03181658312678337, 0.02951672300696373, -0.1430799961090088, 0.1067974865436554, 0.028042558580636978, -0.025692472234368324, 0.01771191880106926, 0.29261186718940735, -0.043631020933389664], [0.729341983795166, -0.012672098353505135, 0.1486717015504837, -0.13152579963207245, -0.5926159620285034, -0.1158539429306984, 0.042020730674266815, 0.30459317564964294, -0.25022467970848083, 0.2643703520298004, 0.3168608844280243, -0.16358552873134613, -0.422651082277298, 0.07091130316257477, -0.0887792557477951, 0.3526647388935089, -0.24477961659431458, -0.1548624038696289, 0.3167448937892914, 0.28764256834983826, 0.4746719002723694, 0.09851327538490295, 0.1976330578327179, -0.5423228740692139, -0.12651795148849487, -0.46173369884490967, 0.3439364731311798, 0.06434660404920578, -0.34628015756607056, 0.14737199246883392, 0.263507604598999, 0.652846097946167], [-0.2567640542984009, 0.24271120131015778, -0.16413988173007965, -0.03590979799628258, -0.09766950458288193, 0.1186133548617363, 0.04855959117412567, -0.07892220467329025, -0.19379551708698273, 0.0946807935833931, -0.08110380172729492, 0.2478387951850891, 0.2571750283241272, 0.1945009082555771, 0.037116967141628265, -0.11245454102754593, -0.021651357412338257, -0.1496908813714981, 0.006147405598312616, 0.08811356872320175, 0.17514589428901672, -0.02214880846440792, -0.03277746960520744, -0.16172198951244354, 0.14650137722492218, -0.23220668733119965, -0.11110011488199234, 0.0006135621224530041, -0.04797520488500595, -0.022888626903295517, -0.24599102139472961, -0.1479017585515976], [-0.05640040338039398, -0.15204551815986633, 0.027461232617497444, 0.17223961651325226, -0.05512165278196335, 0.09888546913862228, 0.006661503575742245, 0.20562566816806793, -0.04300200939178467, 0.05317888408899307, -0.17111477255821228, -0.12575575709342957, -0.15749289095401764, 0.046523746103048325, -0.23312288522720337, 0.04894520342350006, -0.10295799374580383, -0.11599186062812805, 0.018751174211502075, 0.029627760872244835, -0.1329936385154724, -0.03912341594696045, -0.12288740277290344, 0.09110113233327866, 0.027652889490127563, 0.10637028515338898, 0.05761720612645149, 0.04874391853809357, 0.22513563930988312, -0.00777443265542388, 0.03672099858522415, 0.03356771171092987], [-0.055784013122320175, 0.04431987181305885, -0.09032472968101501, 0.06715952605009079, -0.08085211366415024, -0.1167236790060997, 0.005681909155100584, -0.024285146966576576, -0.08516034483909607, 0.06429708749055862, 0.006293136160820723, -0.02693355455994606, -0.05746535584330559, -0.01596895605325699, -0.03255082666873932, -0.24236498773097992, -0.11285173892974854, 0.08212609589099884, 0.050776634365320206, 0.09256190061569214, 0.028727279976010323, 0.1258823573589325, -0.10857412219047546, 0.22110311686992645, -0.11031661927700043, 0.07226116955280304, 0.07051760703325272, -0.01986321248114109, 0.2520436644554138, -0.15663878619670868, -0.0001915781613206491, 0.053927943110466], [0.24340902268886566, -0.0782136470079422, 0.030940735712647438, -0.038464535027742386, -0.20708999037742615, 0.0014981155982241035, -0.028449639678001404, -0.20502492785453796, -0.021625017747282982, 0.10397781431674957, 0.18362469971179962, 0.18241344392299652, -0.06297343224287033, 0.13516613841056824, 0.05958227440714836, 0.039729610085487366, -0.089085653424263, 0.027843698859214783, 0.12210431694984436, -0.17637449502944946, 0.05387657508254051, 0.09554992616176605, 0.052853796631097794, 0.059191878885030746, -0.005736728198826313, -0.1667306274175644, -0.08693348616361618, -0.1592380255460739, -0.09350025653839111, 0.15815238654613495, -0.017243878915905952, 0.10345050692558289], [0.23802413046360016, 0.11599120497703552, -0.15627461671829224, -0.141141876578331, 0.015447285957634449, 0.007856383919715881, -0.009938000701367855, -0.020637143403291702, -0.07303691655397415, -0.048528511077165604, -0.028473850339651108, -0.070073202252388, 0.1418164223432541, -0.09530569612979889, -0.05761091783642769, 0.23790940642356873, 0.11128588020801544, 0.0898902639746666, -0.1628190129995346, -0.09874194860458374, -0.005771479569375515, 0.061686836183071136, -0.03481239452958107, -0.14969170093536377, 0.07861048728227615, -0.0732307881116867, -0.010706774890422821, -0.06613707542419434, -0.1079278215765953, -0.10015770047903061, 0.0782269835472107, -0.0589362196624279], [0.03148343786597252, 0.017112167552113533, 0.04905301705002785, 0.026335954666137695, 0.22641561925411224, 0.05536558851599693, 0.05330033227801323, 0.04224014654755592, -0.07760020345449448, 0.08068099617958069, -0.16962313652038574, -0.029420292004942894, -0.10065858066082001, 0.060167353600263596, -0.04082557186484337, 0.014282869175076485, -0.1846054345369339, -0.12272994965314865, 0.027974819764494896, -0.0839204266667366, -0.23280556499958038, 0.10275610536336899, -0.001587197300978005, 0.05299318581819534, -0.19305594265460968, 0.1908581405878067, 0.09982490539550781, 0.25619667768478394, 0.0066095683723688126, -0.23418672382831573, 0.2033669650554657, 0.0292730201035738], [0.2340175062417984, 0.045614954084157944, 0.16052310168743134, -0.03767746314406395, -0.1406644731760025, -0.018899114802479744, 0.15662235021591187, -0.10127659142017365, 0.29640692472457886, -0.12841743230819702, -0.1604907363653183, -0.1057153195142746, 0.29518863558769226, 0.11042125523090363, 0.20440953969955444, 0.1306646168231964, -0.04160885885357857, 0.28904807567596436, 0.06035691499710083, -0.11068673431873322, 0.06972025334835052, -0.13843011856079102, -0.12159186601638794, 0.0683702751994133, 0.23593969643115997, 0.1990765631198883, -0.04261738434433937, -0.06144275143742561, 0.20200523734092712, 0.0538153313100338, 0.1964564323425293, -0.06903444230556488], [0.006972051225602627, -0.03928942605853081, 0.17126718163490295, 0.08655136823654175, -0.02535349130630493, 0.03198457136750221, 0.21427443623542786, -0.06088315695524216, 0.03923420235514641, 0.1052849143743515, 0.10699648410081863, -0.01037631556391716, -0.12271531671285629, -0.10309333354234695, -0.08252410590648651, -0.15811771154403687, 0.010572182014584541, 0.028333755210042, 0.013810615055263042, 0.20680460333824158, 0.017502255737781525, 0.24286626279354095, 0.11753103137016296, 0.015419215895235538, -0.20299437642097473, -0.07610458880662918, 0.12997259199619293, -0.06406291574239731, 0.05531591176986694, 0.06938177347183228, -0.0452875941991806, 0.05760627239942551], [-0.1322450190782547, -0.03471539169549942, 0.16217687726020813, -0.07212581485509872, -0.0032546997535973787, -0.16697899997234344, 0.03289249911904335, 0.2810765504837036, 0.17967677116394043, 0.02792254090309143, -0.15154120326042175, -0.1309279352426529, -0.09012939035892487, 0.1005478948354721, -0.18797899782657623, -0.10504011809825897, -0.26514002680778503, 0.07978901267051697, 0.0611649788916111, -0.01631210371851921, -0.2307414561510086, -0.04704063758254051, -0.22972193360328674, 0.12380358576774597, -0.19292950630187988, -0.022636350244283676, 0.11293113231658936, -0.0929151326417923, -0.07631651312112808, -0.2011808604001999, 0.0942826047539711, 0.0844273492693901], [0.194547638297081, -0.19712843000888824, 0.18543851375579834, 0.21702207624912262, 0.0491924062371254, -0.06116936728358269, 0.06867116689682007, 0.2597426474094391, 0.1553543508052826, 0.09279746562242508, -0.16539163887500763, -0.2543647587299347, -0.3017849028110504, -0.13046489655971527, 0.14617154002189636, -0.19074289500713348, -0.21679508686065674, 0.281337171792984, 0.17345048487186432, -0.029461665078997612, -0.0027902850415557623, -0.15858283638954163, -0.17831961810588837, -0.20723946392536163, -0.11190986633300781, 0.17846912145614624, -0.03466077148914337, -0.029641222208738327, -0.07955275475978851, -0.1738373041152954, 0.26642218232154846, 0.08285795897245407], [-0.081779345870018, 0.0875595211982727, -0.0012088166549801826, 0.06474251300096512, -0.1547381579875946, 0.02838662825524807, 0.11340001970529556, -0.08695738762617111, -0.20827634632587433, 0.0033998931758105755, 0.11946254223585129, 0.04370841756463051, 0.133450448513031, -0.07577838748693466, 0.10366307944059372, -0.01442483440041542, -0.004881597124040127, -0.017778709530830383, 0.10655153542757034, 0.08427806198596954, 0.21808429062366486, -0.017341000959277153, 0.19225312769412994, -0.06891608983278275, 0.13195890188217163, -0.12906289100646973, -0.02398558519780636, -0.19280517101287842, -0.07503329962491989, -0.014077764935791492, 0.0921085923910141, -0.031468454748392105], [0.15830405056476593, -0.044699717313051224, 0.039730727672576904, -0.04632481187582016, -0.1630258560180664, 0.06583085656166077, -0.20896659791469574, -0.06437255442142487, -0.18349942564964294, -0.10232438892126083, 0.213987797498703, 0.17162393033504486, 0.06472112983465195, 0.15854889154434204, -0.14003920555114746, -0.041180551052093506, -0.03225824981927872, -0.1470830887556076, -0.08280927687883377, 0.10014510899782181, -0.048232994973659515, 0.06043103337287903, 0.13563665747642517, -0.14780095219612122, 0.06819324195384979, -0.11569198220968246, 0.13588890433311462, 0.10151415318250656, -0.012217096984386444, -0.06465336680412292, -0.14327175915241241, 0.21061702072620392]], "b": [0.04338103160262108, 0.17922624945640564, -0.596428394317627, -0.38463863730430603, 0.2386135309934616, 0.1717451512813568, -0.07487393170595169, 0.06245458126068115, 0.007849735207855701, 0.07097437232732773, 0.08699848502874374, 0.6083117127418518, 0.027053844183683395, -0.46044543385505676, -0.04922901839017868, 0.0268265288323164, 0.0401604063808918, -0.25671836733818054, -0.17665903270244598, -0.41357865929603577, 0.061107225716114044, 0.010045149363577366, 0.16017553210258484, -0.2050304114818573, 0.10675214976072311, 0.08159354329109192, -0.1480075567960739, 0.12568341195583344, -0.008031581528484821, -0.4356069564819336, -0.0030904877930879593, -0.10131018608808517]}, {"w": [[0.17308543622493744, 0.0004910480347461998, 0.1965898722410202, -0.2093534767627716, 0.18438462913036346, 0.24878981709480286, 0.11727698892354965, 0.24656972289085388, 0.14737819135189056, -0.1399003267288208, -0.20473559200763702, -0.18501748144626617, -0.23423387110233307, 0.18016888201236725, 0.26201489567756653, -0.18269981443881989, -0.17947053909301758, -0.24300867319107056, 0.17879493534564972, 0.2950632870197296, 0.19358134269714355, -0.07153356820344925, -0.11895836144685745, 0.243506520986557, 0.12797999382019043, -0.12949199974536896, -0.2541738748550415, 0.025030340999364853, -0.17852944135665894, -0.26052126288414, 0.15555831789970398, 0.21033647656440735]], "b": [0.06951482594013214]}], "train": {"venue": "coinbase", "events": 1684, "target": "market_prob"}}