{"arch": {"hidden": 32, "clamp": 2.0, "act": "tanh", "logit": "raw", "mode": "direct"}, "features": "zp=(px-b)/s/sqrt(tte/900); u_in=[zp, log(tte/900)] + extras", "rho_bar": 4.924166679382324, "b_prior": "strike", "b_scale": 50.0, "extras": ["basis", "dbasis15", "dbasis60", "imb1"], "mu": [-62.065240521970466, 0.0033534686531766574, 0.009891033158346252, 0.005196136271221312], "sd": [14.458779183799546, 5.937484236191467, 6.220799463713017, 0.5983633609771175], "layers": [{"w": [[0.03052946738898754, -0.0942491814494133, 0.28025174140930176, 0.11301465332508087, 0.0471247062087059, 0.06076589599251747], [-0.2849399447441101, -0.31893858313560486, -0.045426297932863235, 0.014153940603137016, -0.023853575810790062, 0.005446360446512699], [-0.26276710629463196, -0.17721322178840637, -0.05251854285597801, -0.01535251084715128, 0.037214651703834534, -0.16322918236255646], [0.37699243426322937, -0.0035409056581556797, 0.2796255946159363, -0.032056789845228195, 0.012919950298964977, 0.01954403519630432], [0.10864777117967606, 0.2182987928390503, 0.20652233064174652, -0.0019371288362890482, 0.06371288746595383, -0.1306266337633133], [0.37968483567237854, 0.18685944378376007, 0.22189688682556152, 0.012947441078722477, 0.041812311857938766, 0.1889704316854477], [-0.19345559179782867, -0.2485063076019287, -0.12120209634304047, -0.15772205591201782, 0.12135123461484909, -0.04559124633669853], [-0.1324167549610138, 0.391040176153183, 0.39387640357017517, 0.022275414317846298, 0.023744702339172363, 0.11632024496793747], [0.16054381430149078, -0.44622883200645447, -0.41425618529319763, 0.07656525075435638, 0.12558391690254211, 0.009267778135836124], [-0.4344515800476074, 0.07671429216861725, -0.22992508113384247, 0.00367059838026762, 0.016162073239684105, 0.0446680523455143], [-0.14134037494659424, -0.04296170175075531, 0.06692434102296829, -0.1450696736574173, 0.04336101934313774, 0.03372028470039368], [-0.39879098534584045, -0.5267046093940735, -0.0035221592988818884, 0.11644013971090317, -0.001592971384525299, -0.017237335443496704], [0.21826033294200897, -0.3083304464817047, -0.01349859219044447, 0.17403434216976166, 0.039911914616823196, -0.012413743883371353], [0.10121142119169235, -0.0879959836602211, 0.3850838243961334, -0.31106123328208923, -0.06892628967761993, -0.0859793871641159], [-0.24931210279464722, -0.2176809459924698, 0.15160775184631348, 0.011113008484244347, -0.028194909915328026, 0.14938834309577942], [-0.3706496059894562, -0.45200014114379883, 0.13501769304275513, 0.050959546118974686, -0.20306234061717987, -0.06931857019662857], [-0.142030268907547, 0.4752841889858246, 0.1091933473944664, 0.17010430991649628, -0.19363828003406525, -0.11872478574514389], [-0.3794919550418854, 0.1481473594903946, -0.1587328165769577, -0.08125460892915726, 0.14989377558231354, -0.06561996787786484], [-0.2902386784553528, -0.069366455078125, -0.11146238446235657, 0.08762618899345398, 0.018998997285962105, 0.04447020962834358], [-0.09702987968921661, -0.7859233617782593, -0.15541325509548187, -0.026520200073719025, 0.012927768751978874, -0.022157937288284302], [0.19234754145145416, -0.12072740495204926, 0.22106775641441345, -0.16662931442260742, -0.00011048626038245857, 0.028281966224312782], [-0.3817116320133209, -0.03758913278579712, 0.14001202583312988, 0.027245191857218742, -0.2616005539894104, -0.02840152010321617], [-0.4140600860118866, -0.004651372786611319, 0.25204479694366455, 0.016641005873680115, -0.10589616000652313, 0.05028346925973892], [0.3498099446296692, 0.19873695075511932, 0.0206559170037508, 0.07364863902330399, -0.024914752691984177, -0.08886434882879257], [-0.44827213883399963, -0.1791589856147766, 0.14049281179904938, 0.09003102779388428, 0.2698608338832855, -0.0930170789361], [-0.1602260023355484, -0.20725609362125397, -0.47531381249427795, 0.06943913549184799, 0.22674506902694702, -0.006119424477219582], [-0.3651348054409027, -0.027146432548761368, 0.35804492235183716, -0.18787643313407898, 0.06675679981708527, -0.1192411556839943], [-0.3977395296096802, -0.6252343654632568, 0.020130332559347153, -0.12025905400514603, -0.013604773208498955, -0.024554487317800522], [0.4086512625217438, 0.22702644765377045, 0.2236405909061432, -0.23579096794128418, 0.16567890346050262, -0.0368734709918499], [-0.3427678942680359, -0.2291627675294876, -0.3688083589076996, -0.016264619305729866, 0.06001003086566925, -0.018740134313702583], [0.38109901547431946, -0.03251944109797478, 0.03629431128501892, 0.07374673336744308, -0.04884234443306923, -0.027947423979640007], [-0.2506842613220215, 0.2106626033782959, 0.07400304079055786, -0.05545910447835922, -0.006321986671537161, 0.16275405883789062]], "b": [0.6626330614089966, -0.4763336479663849, -0.02373459003865719, -0.33601900935173035, 0.20495569705963135, -0.14195476472377777, -0.29341527819633484, -0.6318047046661377, -0.00489825289696455, 0.8564926385879517, 0.15645454823970795, -0.8214895129203796, -0.830074667930603, -0.045868657529354095, -0.07040327787399292, -0.6236724853515625, 0.5877051949501038, 0.9100037813186646, 0.0710175484418869, -0.327099084854126, -0.674738883972168, 0.4892384707927704, 0.37310296297073364, 0.026599882170557976, 0.17454206943511963, -0.13064980506896973, 0.378633975982666, -1.0577397346496582, 0.03314416483044624, -0.040311846882104874, -0.6010568737983704, 0.565966010093689]}, {"w": [[0.17376887798309326, -0.07156064361333847, 0.07458747923374176, -0.10495598614215851, -0.10661956667900085, -0.15762807428836823, -0.1087418645620346, 0.05169651657342911, 0.07252566516399384, 0.26433825492858887, 0.2347295731306076, 0.14176540076732635, -0.01772797852754593, -0.09155572205781937, 0.1809399127960205, -0.02917530946433544, 0.012691281735897064, 0.043969493359327316, -0.06602528691291809, -0.4017954170703888, -0.17810185253620148, 0.21235406398773193, -0.0320887491106987, -0.2163272202014923, 0.017732687294483185, 0.199761763215065, 0.1122216060757637, 0.05363600328564644, -0.10584115982055664, 0.21878498792648315, -0.2434276044368744, 0.17280791699886322], [0.18073953688144684, 0.1631491780281067, -0.04417165741324425, -0.12198469042778015, -0.054479509592056274, 0.10527856647968292, 0.02298593707382679, -0.14281348884105682, 0.026511166244745255, 0.13660447299480438, 0.11760184913873672, -0.03285521641373634, -0.26836881041526794, 0.09876195341348648, -0.07380363345146179, 0.025069087743759155, 0.04188868775963783, 0.20320215821266174, -0.08044487982988358, -0.3505374491214752, -0.2260802835226059, -0.011572131887078285, 0.18135608732700348, 0.039739105850458145, 0.15138740837574005, 0.18175794184207916, -0.03595855459570885, 0.07628186792135239, -0.21385978162288666, 0.07178683578968048, -0.2326275259256363, -0.08875139057636261], [0.12096940726041794, 0.09697578847408295, 0.05977223068475723, -0.058225881308317184, -0.2519216239452362, -0.07764507085084915, 0.12616810202598572, 0.2704121470451355, 0.0025310968048870564, 0.21628104150295258, -0.01444203220307827, 0.30489999055862427, 0.18294930458068848, 4.06589824706316e-05, 0.03680803254246712, 0.23983927071094513, -0.11533605307340622, -0.042153358459472656, -0.015338743105530739, -0.13595420122146606, -0.005836241412907839, -0.10051650553941727, 0.14242586493492126, -0.23641955852508545, -0.06768173724412918, 0.11819668114185333, 0.1449265331029892, 0.3568578362464905, -0.21977314352989197, 0.2212744653224945, 0.07222871482372284, -0.12173550575971603], [-0.03448567911982536, -0.1011817678809166, -0.0050565386191010475, -0.11020314693450928, -0.09612787514925003, -0.05122636258602142, -0.08887071162462234, -0.045344963669776917, 0.021309126168489456, -0.17708685994148254, 0.01679842732846737, 0.002004660200327635, -0.09740941971540451, -0.12835441529750824, -0.09623166918754578, -0.017287597060203552, -0.17122437059879303, -0.08602841198444366, -0.04068008065223694, -0.019169384613633156, 0.22962090373039246, 0.06558673083782196, 0.07878891378641129, -0.013780150562524796, -0.1870187669992447, -0.02131294086575508, 0.042582619935274124, -0.0028183171525597572, -0.05008281022310257, 0.0763074979186058, -0.018965283408761024, -0.07843130826950073], [-0.2805600166320801, 0.042994484305381775, -0.22432509064674377, -0.06870239228010178, -0.020582040771842003, 0.1851131170988083, -0.09405416995286942, 0.1223946362733841, 0.17434629797935486, -0.08972016721963882, -0.21093685925006866, -0.09694720059633255, 0.15324947237968445, -0.0009032620000652969, -0.23980872333049774, 0.03741078823804855, -0.12732720375061035, -0.21943947672843933, 0.035275232046842575, 0.21704667806625366, 0.2398441731929779, -0.11279173940420151, 0.04521631821990013, 0.0220458023250103, -0.17961901426315308, 0.11165077239274979, 0.09727265685796738, 0.02864237129688263, 0.01741056516766548, -0.14510317146778107, 0.11005795001983643, 0.024566488340497017], [-0.058752816170454025, 0.0053811389952898026, -0.07384330034255981, 0.14671945571899414, 0.1359962373971939, 0.16608716547489166, -0.08727361261844635, -0.1924775093793869, -0.08131088316440582, -0.16785788536071777, 0.06636352092027664, -0.11636365950107574, 0.030802516266703606, -0.026793284341692924, -0.07748061418533325, 0.04546929523348808, -0.028175968676805496, 0.0073859067633748055, 0.04457232728600502, -0.07907429337501526, 0.1358824223279953, 0.1121629998087883, -0.14435528218746185, 0.09283292293548584, -0.06142932549118996, 0.025583703070878983, -0.018660662695765495, -0.24245776236057281, -0.06142176315188408, 0.07701710611581802, -0.006758559495210648, -0.2025722712278366], [-0.30530720949172974, -0.18576569855213165, -0.024602681398391724, 0.09250608086585999, -0.1352938711643219, 0.03664746508002281, -0.027630649507045746, 0.026014132425189018, 0.15706761181354523, -0.2116330862045288, 0.08321908861398697, 0.09295625984668732, 0.00038144903373904526, 0.23462752997875214, -0.17794620990753174, -0.17107124626636505, -0.06783086806535721, -0.06616462022066116, 0.09099896997213364, 0.30516788363456726, 0.28013384342193604, -0.14573882520198822, -0.2015567123889923, 0.04539047181606293, 0.02180282585322857, -0.11982811987400055, -0.23091208934783936, -0.17415152490139008, 0.10169294476509094, 0.08770009130239487, 0.09636100381612778, -0.2283605933189392], [0.028512436896562576, 0.17306901514530182, 0.01756970025599003, -0.061187755316495895, 0.08287171274423599, 0.0003453540848568082, 0.18950460851192474, 0.2518235146999359, -0.08533754199743271, 0.10328268259763718, -0.06699535995721817, 0.30695757269859314, -0.15247680246829987, 0.12053030729293823, 0.23804417252540588, 0.11778128892183304, -0.1299605816602707, 0.06755460053682327, -0.013766278512775898, -0.09330754727125168, 0.029404081404209137, 0.1564502865076065, 0.10384020954370499, -0.20017749071121216, -0.07840277999639511, 0.13598224520683289, 0.021323882043361664, 0.21707437932491302, 0.10192057490348816, 0.13132719695568085, -0.17427627742290497, -0.015185615047812462], [0.42678236961364746, 0.09211652725934982, 0.18480663001537323, -0.1947607845067978, -0.0510096549987793, -0.14056187868118286, 0.2021602988243103, 0.1851290464401245, -0.10139153897762299, -0.07218153029680252, 0.09405634552240372, 0.27908244729042053, -0.06335525214672089, -0.040210869163274765, -0.06655649095773697, 0.22635848820209503, 0.200775608420372, -0.053971320390701294, -0.06272464990615845, -0.2708374857902527, -0.18257005512714386, -0.06517345458269119, 0.12592267990112305, -0.12533971667289734, 0.13897162675857544, 0.1266171932220459, 0.24374134838581085, 0.2508452832698822, -0.23483340442180634, -0.07160830497741699, 0.05986231192946434, -0.08024592697620392], [0.3162906765937805, -0.08662792295217514, 0.19840194284915924, 0.035588569939136505, -0.10761882364749908, -0.21443802118301392, -0.027410609647631645, -0.10400396585464478, -0.15617361664772034, 0.22783724963665009, 0.12539081275463104, 0.038984883576631546, -0.1255088597536087, 0.008852281607687473, 0.05976022779941559, 0.028639407828450203, 0.23933996260166168, 0.2258785367012024, 0.07128997147083282, -0.08813004195690155, -0.17973652482032776, -0.05636727064847946, 0.16776494681835175, 0.03941776975989342, 0.09294425696134567, -0.09416264295578003, 0.1987709254026413, 0.07147525995969772, -0.15809129178524017, -0.0841098353266716, -0.16932113468647003, 0.238595649600029], [-0.0015885353786870837, -0.1374540627002716, 0.07782136648893356, 0.2065366953611374, 0.11710108071565628, 0.05423251911997795, 0.08864564448595047, -0.08981408178806305, -0.0191387590020895, -0.002647269517183304, -0.1688183844089508, 0.0334063395857811, -0.020679140463471413, 0.11477716267108917, -0.19147253036499023, -0.18629679083824158, -0.03861460089683533, 0.05398134887218475, -0.1948406994342804, 0.07880368083715439, 0.17588885128498077, -0.10046660900115967, -0.21865957975387573, 0.06348079442977905, -0.13011188805103302, -0.02543267421424389, 0.0032795954030007124, -0.14952519536018372, -0.02035990171134472, 0.026940716430544853, -0.07824071496725082, 0.02950936369597912], [-0.15080301463603973, 0.13141196966171265, -0.12147457152605057, 0.08801418542861938, -0.11841518431901932, 0.10546430200338364, -0.058884233236312866, 0.24203062057495117, -0.04484298452734947, -0.23240014910697937, -0.24940845370292664, -0.0795094445347786, 0.22985360026359558, -0.02670316956937313, -0.01725541427731514, -0.10002405196428299, -0.1811949461698532, -0.12745161354541779, -0.05463213473558426, 0.4731783866882324, 0.4014887809753418, -0.16391634941101074, -0.06864122301340103, 0.06773022562265396, -0.13216030597686768, -0.02005830965936184, -0.11958903074264526, 0.08505226671695709, 0.0038207629695534706, -0.023483755066990852, 0.1532166749238968, -0.1738296002149582], [0.16323129832744598, -0.4578016698360443, -0.20330820977687836, -0.11100983619689941, 0.6185632348060608, 0.34284964203834534, -0.5061360597610474, -0.5034552812576294, -0.1358232945203781, -0.07689337432384491, -0.23829081654548645, -0.8313090801239014, -0.6864795684814453, -0.09847313165664673, -0.2165173590183258, -0.6761643886566162, 0.5951921343803406, 0.2757607102394104, -0.1537969559431076, -0.39366331696510315, -0.2463262528181076, -0.10350493341684341, -0.0467284619808197, 0.2592393159866333, -0.1705915331840515, -0.18260030448436737, 0.012263491749763489, -0.6171921491622925, 0.14604829251766205, -0.08786307275295258, -0.12151078879833221, 0.3383871614933014], [0.19231201708316803, -0.030380873009562492, -0.19830189645290375, 0.03169558569788933, 0.20085777342319489, -0.0688014104962349, -0.07598116248846054, 0.01970069296658039, -0.09587718546390533, -0.020060965791344643, -0.2593136727809906, -0.30902060866355896, 0.04899958521127701, -0.09006452560424805, -0.16648556292057037, 0.02464662492275238, -0.048151277005672455, -0.19603228569030762, 0.07168212532997131, -0.03272796794772148, 0.12183092534542084, -0.17361348867416382, -0.15113778412342072, 0.09081687778234482, 0.10339087247848511, -0.1410965770483017, -0.23631863296031952, -0.10469338297843933, 0.01213509775698185, -0.20791330933570862, 0.14427581429481506, 0.0188004020601511], [-0.299378901720047, 0.2183264046907425, 0.13524837791919708, 0.03245995193719864, -0.2055044025182724, -0.17240242660045624, 0.28172099590301514, 0.29044827818870544, 0.21004649996757507, 0.1660928726196289, 0.04209016636013985, 0.324676513671875, 0.07167624682188034, -0.02988215908408165, 0.19241498410701752, 0.2146388292312622, -0.280987948179245, -0.13835544884204865, 0.12478914856910706, 0.24443475902080536, 0.24372392892837524, 0.12363333255052567, 0.09905333817005157, -0.0046407319605350494, 0.19794952869415283, 0.0938669741153717, 0.042012400925159454, 0.44419437646865845, -0.06102828308939934, 0.0784628614783287, -0.12625600397586823, -0.19141361117362976], [-0.08017583936452866, 0.1039276197552681, 0.22122018039226532, -0.10555295646190643, -0.23067116737365723, -0.21243605017662048, 0.14689554274082184, 0.11850523948669434, -0.05943142995238304, 0.010410832241177559, 0.22666524350643158, -0.03276725858449936, 0.06383870542049408, -0.061124980449676514, -0.0074498713947832584, 0.23559050261974335, -0.12132887542247772, 0.22947214543819427, 0.20737166702747345, 0.0010833990527316928, 0.03778534382581711, 0.0955047458410263, 0.19281841814517975, -0.029007792472839355, -0.11295768618583679, 0.011729484423995018, 0.07529959827661514, 0.24230729043483734, -0.12243814021348953, 0.14481768012046814, 2.5346353140776046e-05, 0.060690101236104965], [-0.5200361013412476, 0.17799729108810425, -0.1750507801771164, 0.19875507056713104, -0.05370219051837921, 0.1885097175836563, 0.04870803281664848, 0.25818243622779846, -0.008035561069846153, -0.20870064198970795, -0.31557732820510864, 0.10444696247577667, 0.4623636305332184, 0.2900645434856415, 0.00987390335649252, -0.2072046399116516, -0.41372883319854736, -0.4250670075416565, -0.018176188692450523, 0.7130088806152344, 0.4983982741832733, -0.25085437297821045, -0.24374710023403168, 0.001158741652034223, 0.05269381031394005, -0.27297088503837585, -0.31295809149742126, 0.04525172710418701, 0.13793380558490753, -0.24205152690410614, 0.06937842816114426, -0.35989683866500854], [0.046658746898174286, -0.16110695898532867, -0.11151524633169174, 0.15431392192840576, -0.10552240163087845, 0.23839105665683746, -0.12676191329956055, 0.04586692526936531, 0.030279070138931274, 0.030618997290730476, -0.18416255712509155, -0.13475236296653748, -0.007181142456829548, 0.19179479777812958, -0.23950320482254028, 0.05730639398097992, -0.056564658880233765, -0.20390568673610687, -0.12380973994731903, 0.1713644415140152, 0.05851168930530548, -0.144894540309906, -0.11352825909852982, 0.0912027359008789, 0.015191585756838322, -0.04371039196848869, 0.05465216934680939, -0.1178271695971489, 0.22142250835895538, -0.021537160500884056, -0.04878874123096466, 0.04474211484193802], [0.028387384489178658, -0.02775789238512516, -0.24602018296718597, 0.015463960357010365, -0.01992577128112316, 0.029168574139475822, -0.17606772482395172, -0.1976139098405838, -0.13877320289611816, 0.07201424986124039, -0.024563075974583626, -0.12375405430793762, 0.03403991088271141, 0.08046262711286545, -0.095069020986557, -0.2875853180885315, 0.02456885576248169, 0.06452596932649612, -0.08088111132383347, 0.006070926319807768, 0.1279757022857666, 0.04586435481905937, -0.07678748667240143, 0.22275762259960175, -0.1363734006881714, -0.09828343987464905, 0.09255523234605789, -0.2924257218837738, 0.2637595236301422, -0.17035090923309326, -0.025310341268777847, 0.11423138529062271], [0.22971417009830475, -0.07203976064920425, 0.13450950384140015, -0.04032871127128601, -0.13111786544322968, -0.1076880395412445, 0.05947435274720192, -0.11621728539466858, -0.0724901556968689, 0.13296940922737122, 0.20711597800254822, 0.2044486552476883, -0.15671537816524506, 0.026400113478302956, 0.09430962055921555, 0.040872812271118164, -0.0737176463007927, 0.13765358924865723, 0.2232336699962616, -0.3540884256362915, -0.12013231962919235, 0.1677076667547226, 0.06306230276823044, 0.06378672271966934, 0.03839472308754921, -0.05271006375551224, -0.07385463267564774, -0.03463435173034668, -0.09515346586704254, 0.1753951460123062, -0.053164977580308914, 0.08631258457899094], [0.03586635738611221, 0.0045124017633497715, -0.13163265585899353, -0.002854794031009078, 0.10136030614376068, -0.00808695424348116, 0.001374501152895391, 0.04869241267442703, 0.06917200237512589, -0.21662291884422302, -0.17790928483009338, -0.23875877261161804, 0.1483215093612671, -0.10866263508796692, -0.1494913399219513, 0.11105021834373474, -0.0651867613196373, -0.009954948909580708, -0.14765776693820953, 0.13381946086883545, 0.029612962156534195, -0.004428325220942497, -0.17529596388339996, -0.019129721447825432, -0.019601650536060333, -0.04904336482286453, -0.15310660004615784, -0.05704658105969429, 0.03299683332443237, -0.24098531901836395, 0.23773258924484253, -0.21288318932056427], [0.02696208655834198, 0.007891520857810974, -0.10309403389692307, 0.013151871971786022, 0.2575085461139679, 0.2080184817314148, -0.11312362551689148, -0.09648732095956802, -0.0643545612692833, 0.04473615810275078, -0.2168874889612198, -0.06348326057195663, 0.12702059745788574, 0.19601157307624817, -0.08723536133766174, 0.009128333069384098, -0.12880060076713562, -0.16245317459106445, -0.14064209163188934, -0.06594635546207428, -0.04846141114830971, 0.011042247526347637, 0.010049602016806602, 0.03452519699931145, -0.23560261726379395, 0.04642434045672417, 0.09684431552886963, 0.052643418312072754, 0.012878618203103542, -0.2409425526857376, 0.197077676653862, 0.023130396381020546], [0.13695813715457916, 0.1534043848514557, 0.18337605893611908, -0.13333410024642944, -0.18238909542560577, -0.03782060742378235, 0.2117638885974884, 0.012248337268829346, -0.0032673333771526814, 0.009345556609332561, -0.006235887296497822, 0.08136385679244995, 0.10946135967969894, 0.10404174774885178, 0.23471280932426453, 0.2528689503669739, 0.058758046478033066, 0.1547502726316452, 0.13756564259529114, -0.3626130521297455, 0.03679842874407768, 0.04730865731835365, 0.009928853251039982, 0.02119864709675312, 0.23776288330554962, 0.17256100475788116, 0.08826260268688202, 0.004337083548307419, 0.08358922600746155, 0.14968256652355194, 0.0716707706451416, 0.02392912097275257], [0.3661182224750519, -0.013044175691902637, 0.16804327070713043, -0.05129702016711235, -0.025106705725193024, 0.0020500875543802977, 0.18042568862438202, -0.21138812601566315, 0.07964656502008438, 0.30795523524284363, 0.20608556270599365, 0.06749427318572998, -0.27504196763038635, -0.17555810511112213, -0.0090115861967206, -0.1012101024389267, 0.23677434027194977, 0.2533842921257019, 0.03733675554394722, -0.32320913672447205, -0.1998373419046402, 0.28134942054748535, 0.24552322924137115, -0.09234565496444702, -0.07663828879594803, -0.0590193085372448, 0.258935809135437, -0.09647367149591446, -0.06035810708999634, 0.19821438193321228, -0.16172178089618683, 0.22952988743782043], [0.03666533902287483, 0.05959835276007652, 0.14739695191383362, -0.20551253855228424, -0.059964727610349655, -0.1610773503780365, 0.028822481632232666, 0.10030556470155716, 0.15765880048274994, 0.2008301019668579, 0.018863167613744736, 0.052999503910541534, -0.08863380551338196, 0.11770063638687134, -0.07917176932096481, 0.023298362269997597, -0.09076083451509476, 0.17533889412879944, 0.03921984136104584, -0.18937695026397705, -0.30400270223617554, 0.029873624444007874, -0.07956720143556595, -0.008393923752009869, -0.08359593898057938, -0.027896270155906677, 0.2567497789859772, -0.08632594347000122, -0.21994231641292572, -0.060013823211193085, -0.20033451914787292, 0.2174396514892578], [-0.3595161736011505, -0.19705864787101746, 0.03070296160876751, 0.1723802536725998, 0.09057338535785675, 0.07605424523353577, -0.038141291588544846, -0.05813782289624214, 0.29818636178970337, 0.003645818680524826, -0.2583411633968353, -0.27779218554496765, -0.04462558403611183, -0.06136055663228035, 0.0739586278796196, -0.2605395019054413, -0.07523471117019653, 0.03513651713728905, 0.01586315967142582, 0.22511324286460876, 0.08643631637096405, -0.221638023853302, -0.17649121582508087, -0.07056257128715515, -0.2112106829881668, 0.11815714091062546, -0.12464548647403717, -0.2481481432914734, -0.02470637485384941, -0.2151922583580017, -0.01007799431681633, -0.038550879806280136], [-0.0657290518283844, 0.11369963735342026, 0.1378299742937088, 0.0717911645770073, -0.17923316359519958, -0.10962164402008057, 0.2616763412952423, 0.039232756942510605, -0.1932084709405899, 0.026359057053923607, 0.16318053007125854, 0.08754877001047134, 0.0028644127305597067, -0.18700158596038818, 0.16581080853939056, 0.003417175030335784, -0.037308219820261, 0.06712079793214798, 0.23679612576961517, 0.04855355620384216, 0.07061794400215149, 0.04340044781565666, 0.18434470891952515, -0.07405952364206314, 0.18978005647659302, 0.017198583111166954, -0.0216774120926857, -0.006000070367008448, -0.08710756152868271, 0.006656206212937832, 0.06541935354471207, -0.0390985831618309], [0.29392334818840027, -0.013243816792964935, 0.17829594016075134, -0.029086438938975334, -0.11103282868862152, -0.06436644494533539, -0.08067896962165833, 0.08612699061632156, -0.1890895664691925, -0.06801965087652206, 0.2656935155391693, 0.24914413690567017, -0.019036948680877686, 0.08029861003160477, -0.0692591443657875, -0.0023762036580592394, -0.03801634535193443, -0.017334595322608948, 0.020976833999156952, -0.1279304027557373, -0.1970108151435852, 0.11001590639352798, 0.13560190796852112, -0.16078132390975952, 0.14960283041000366, 0.012761872261762619, 0.1643151193857193, 0.3092727065086365, -0.02367454208433628, -0.031129155308008194, -0.19367682933807373, 0.1845337599515915], [-0.1429676115512848, 0.0960443839430809, -0.19617579877376556, -0.04108203947544098, 0.2015099972486496, 0.07242755591869354, -0.14930465817451477, -0.02789030224084854, 0.032343558967113495, -0.2480001300573349, -0.05088319629430771, -0.011545753106474876, 0.07950763404369354, -0.09915081411600113, -0.1268213838338852, -0.006196866277605295, -0.10428670048713684, 0.05634243041276932, -0.12088165432214737, 0.1302020102739334, 0.19666540622711182, -0.051409363746643066, 0.03433467820286751, -0.048979751765728, 0.06009712442755699, -0.10395430773496628, -0.07501547783613205, -0.013282651081681252, 0.12604086101055145, -0.13882513344287872, 0.17859934270381927, -0.0834498330950737], [0.10677449405193329, 0.0022592078894376755, 0.07079122960567474, -0.12558896839618683, 0.03657094016671181, 0.08585919439792633, 0.11682569980621338, 0.18321451544761658, 0.012613817118108273, -0.12447717040777206, -0.002031065756455064, -0.013925496488809586, -0.1874038279056549, -0.015693923458456993, 0.22198885679244995, -0.07107330113649368, 0.0005572534282691777, -0.11858706921339035, 0.10706494748592377, 0.0972767025232315, 0.0521673746407032, -0.02747805044054985, -0.10400990396738052, 0.11435186862945557, 0.2171858549118042, -0.019114641472697258, -0.028217315673828125, -0.04880689084529877, -0.15741166472434998, -0.1189141720533371, 0.09261739999055862, 0.166305810213089], [0.11357346922159195, -0.3824821710586548, -0.162174791097641, 0.12893810868263245, 0.2787388265132904, 0.059476789087057114, -0.16073471307754517, -0.05518965423107147, 0.11570074409246445, 0.10254696756601334, 0.023021580651402473, -0.12373591959476471, -0.10612217336893082, 0.14359137415885925, -0.14165356755256653, -0.226191908121109, 0.2250428944826126, -0.06757351756095886, -0.0398789644241333, -0.10799790918827057, -0.16573083400726318, -0.20006512105464935, 0.11579974740743637, 0.26027387380599976, -0.10803226381540298, -0.2175000160932541, 0.11057701706886292, -0.24969348311424255, 0.20592893660068512, -0.2588442862033844, 0.14544717967510223, 0.03180219233036041], [0.16123750805854797, 0.25476229190826416, 0.1823781132698059, 0.006145927123725414, -0.03370510786771774, -0.012560522183775902, 0.2647295594215393, 0.2037551999092102, -0.04083859175443649, 0.12747840583324432, 0.03531324118375778, 0.3030073344707489, -0.11794966459274292, 0.12434499710798264, 0.22566929459571838, -0.03670288249850273, -0.15562017261981964, 0.06120089441537857, 0.14331528544425964, 0.04605633392930031, -0.20373794436454773, 0.019489707425236702, 0.09306063503026962, -0.13119861483573914, -0.07610814273357391, 0.1362023651599884, 0.1348961442708969, 0.14369170367717743, 0.00830965954810381, 0.11638176441192627, 0.07310394942760468, 0.07497698813676834]], "b": [0.2579818069934845, 0.11629977822303772, -0.14421215653419495, 0.014271310530602932, 0.006342059466987848, 0.028341200202703476, -0.43001729249954224, 0.10637717694044113, 0.2308543175458908, 0.199050635099411, -0.18820007145404816, -0.31104975938796997, 0.9555731415748596, 0.16215671598911285, -0.5763429403305054, 0.05050136148929596, -0.6778994798660278, -0.2297729253768921, 0.21786342561244965, 0.0935901552438736, -0.276111900806427, -0.007879585027694702, 0.06422941386699677, 0.2673083245754242, 0.16308850049972534, -0.2546217739582062, 0.06521053612232208, 0.06234101206064224, 0.018504587933421135, 0.0301322303712368, 0.3380777835845947, -0.2290724366903305]}, {"w": [[-0.11793939024209976, -0.20517569780349731, -0.23945365846157074, 0.09819687157869339, 0.18303292989730835, 0.14779654145240784, 0.16902156174182892, -0.1908893883228302, -0.11692506819963455, -0.24179130792617798, 0.1543179154396057, 0.04816286638379097, 0.32973712682724, 0.1634051352739334, -0.13650479912757874, -0.19949868321418762, 0.1550828516483307, 0.20173317193984985, 0.22008460760116577, -0.25512322783470154, 0.24585813283920288, 0.08433395624160767, -0.23008449375629425, -0.1139708161354065, -0.19333010911941528, 0.10906439274549484, -0.1762503832578659, -0.1382385939359665, 0.16090965270996094, 0.030224332585930824, 0.15409374237060547, -0.17783725261688232]], "b": [0.08358918130397797]}], "train": {"venue": "lake_perp_mid", "events": 910, "cap_ts": 1783123200, "target": "market_prob"}}