{"type": "px2cb_mom", "arch": {"hidden": 32, "mode": "direct", "act": "tanh"}, "features": "u_in=[zp_perp, zp_cb, log tau] + z(pmom); zp_v=((px_v-b)/s_v)/sqrt(tau); s_v=exp(rho_v+dr) shared dr,b", "rho_bar": 5.020257472991943, "rho_cb": 4.911826133728027, "b_prior": "strike", "b_scale": 50.0, "extras": ["pmom60", "pmom120"], "mu": [-3.4432785044988068e-06, -1.0667355176290796e-05], "sd": [0.000714025034674977, 0.0010192518501577566], "layers": [{"w": [[-0.08745276927947998, -0.368734747171402, 0.024217329919338226, 0.13285118341445923, -0.20298786461353302], [-0.09673598408699036, -0.3283332586288452, 0.04628864303231239, -0.29185646772384644, 0.2252141684293747], [0.33818140625953674, 0.1409236043691635, -0.16100971400737762, -0.2213011533021927, -0.13088242709636688], [-0.1139313206076622, 0.15137869119644165, -0.7279366254806519, 0.20344597101211548, -0.14986708760261536], [0.3605674207210541, -0.01905073970556259, 0.172307088971138, 0.13433311879634857, -0.022762643173336983], [0.10729241371154785, 0.3655679225921631, -0.1007469967007637, 0.2222839593887329, -0.32753804326057434], [0.27683815360069275, 0.16528865694999695, -0.11021070182323456, 0.025708971545100212, 0.06308277696371078], [0.4301372766494751, -0.027259498834609985, -0.12826180458068848, -0.09700441360473633, -0.2484111785888672], [0.4644927382469177, 0.03984036296606064, -0.2795471251010895, 0.4381497800350189, 0.04239964112639427], [-0.03819560259580612, -0.168099507689476, -0.06937576085329056, 0.19744521379470825, -0.4194366931915283], [-0.409498393535614, 0.29774370789527893, 0.5121241807937622, -0.0557979978621006, -0.3927351236343384], [-0.09384281188249588, -0.3203478157520294, -0.10638459026813507, -0.03780322149395943, 0.007736367639154196], [-0.1286204308271408, -0.036610960960388184, 0.14602962136268616, -0.24825137853622437, -0.1515500694513321], [-0.06776493042707443, -0.3359726667404175, 0.03973952308297157, 0.029964761808514595, 0.105776846408844], [-0.012867089360952377, -0.25169846415519714, -0.04735402762889862, -0.4068261682987213, -0.2892642915248871], [0.41088852286338806, 0.13433493673801422, -0.10729394108057022, 0.04712720215320587, 0.014963756315410137], [0.2580464780330658, -0.4400821626186371, -0.058645181357860565, -0.18277770280838013, -0.23014698922634125], [-0.16315066814422607, 0.22475311160087585, 0.18690112233161926, 0.09102809429168701, 0.44211238622665405], [-0.2906859517097473, -0.36413267254829407, -0.009597907774150372, 0.053385648876428604, -0.19500048458576202], [-0.17795591056346893, -0.33162447810173035, 0.04453049972653389, 0.4857241213321686, 0.5017567873001099], [-0.3890283405780792, -0.6459218859672546, -0.36093470454216003, 0.0036507712211459875, -0.001056577661074698], [-0.12495718151330948, 0.42724746465682983, 0.10448211431503296, -0.25989022850990295, 0.13352034986019135], [0.010718969628214836, 0.4209953546524048, -0.07326657325029373, 0.03925399109721184, 0.06749416142702103], [-0.31462666392326355, -0.23434650897979736, 0.08899135142564774, -0.05431760847568512, 0.044447556138038635], [0.027661146596074104, -0.264463871717453, 0.08945616334676743, -0.2064262181520462, 0.051854170858860016], [-0.10771258175373077, -0.38423556089401245, -0.15553827583789825, 0.2280965894460678, 0.0991777628660202], [-0.19397279620170593, -0.17406411468982697, -0.4707609713077545, 0.10705598443746567, 0.34679001569747925], [0.1748829185962677, -0.2477974146604538, 0.3913843631744385, 0.3970826268196106, -0.03193391487002373], [-0.03790639340877533, 0.21250025928020477, 0.17440500855445862, 0.2976382076740265, -0.41158193349838257], [-0.3136393129825592, -0.06819679588079453, 0.041280124336481094, 0.36181819438934326, 0.011160079389810562], [-0.1605699509382248, -0.3720042407512665, 0.008275119587779045, 0.597678542137146, 0.6216006875038147], [-0.08572510629892349, -0.5676838159561157, 0.18288573622703552, 0.33107680082321167, -0.2566901445388794]], "b": [-0.41099080443382263, 0.2728275954723358, -0.9422119855880737, -1.0071748495101929, 0.5674801468849182, -0.3537917137145996, -0.29913657903671265, -0.6473730206489563, 0.6494212746620178, -0.1280447542667389, 0.42239582538604736, -0.7786973118782043, 0.5969823598861694, -0.16612876951694489, -0.2205335646867752, -0.001482099643908441, -0.8736457228660583, 0.19537276029586792, 0.868638277053833, -0.10168024152517319, 0.4680086672306061, 0.6144142746925354, -0.07269872725009918, 0.012056883424520493, 0.09667475521564484, -0.4004235565662384, -0.8902201056480408, 0.45936837792396545, 0.5396553874015808, 0.46735039353370667, 0.0634240210056305, 0.6525139808654785]}, {"w": [[0.09787951409816742, -0.22581519186496735, 0.05383637920022011, -0.3654724955558777, 0.15846838057041168, -0.004466539714485407, 0.07887190580368042, -0.16695594787597656, 0.148907870054245, 0.16462841629981995, 0.20904326438903809, -0.29922205209732056, -0.045961491763591766, -0.09760908782482147, -0.10000420361757278, 0.06454382836818695, -0.2736223638057709, 0.17480672895908356, -0.04114534333348274, 0.013757721520960331, -0.09226347506046295, 0.28962236642837524, 0.11772745847702026, -0.06126511096954346, 0.04978089779615402, -0.005795758683234453, -0.08716320991516113, 0.06044786423444748, 0.3171258568763733, 0.009334021247923374, -0.14257627725601196, -0.027079764753580093], [0.10311200469732285, -0.03647681698203087, -0.052899185568094254, -0.38147613406181335, -0.16112005710601807, -0.16739939153194427, -0.1965654492378235, -0.013519246131181717, 0.17560148239135742, 0.19173584878444672, 0.24478621780872345, 0.1373315453529358, 0.25585293769836426, 0.022971659898757935, 0.21080109477043152, -0.10789404809474945, -0.01605597883462906, -0.07977759093046188, -0.04737892374396324, -0.13378126919269562, 0.03818996250629425, 0.06820979714393616, -0.17962275445461273, -0.12753422558307648, 0.05862639844417572, 0.21172411739826202, 0.06425907462835312, 0.13535337150096893, -0.0067822993732988834, 0.19329820573329926, -0.18724124133586884, 0.20385996997356415], [0.13253769278526306, 0.18595317006111145, -0.18981608748435974, -0.2193661481142044, -0.13857674598693848, 0.10015808045864105, -0.09341225773096085, -0.24855752289295197, 0.03821238875389099, 0.1106494590640068, 0.10115379095077515, -0.012009733356535435, -0.044938843697309494, 0.2366345226764679, -0.05054505541920662, -0.10098488628864288, 0.0752834901213646, 0.05472932383418083, -0.08026763796806335, -0.06283996254205704, -0.026424547657370567, -0.20131699740886688, 0.012986814603209496, 0.17109347879886627, 0.18258370459079742, 0.21368689835071564, -0.05366838723421097, 0.0566730834543705, -0.09702198207378387, 0.0649310052394867, -0.10679911822080612, -0.07846663892269135], [0.07627573609352112, -0.11176455765962601, 0.03609611093997955, 0.13669109344482422, -0.14541377127170563, 0.023181645199656487, 0.06744620949029922, 0.160381019115448, -0.4112241268157959, 0.19717682898044586, -0.13260924816131592, 0.09687528014183044, 0.12096480280160904, 0.0027737757191061974, -0.04078858345746994, 0.16123224794864655, 0.04517234116792679, -0.08830955624580383, -0.11594431102275848, -0.12347924709320068, -0.08215067535638809, -0.17472194135189056, 0.1596682369709015, -0.2029203176498413, -0.08355865627527237, -9.096930443774909e-05, 0.11297482252120972, 0.10446646809577942, -0.38266104459762573, 0.13404402136802673, 0.11026828736066818, -0.19704830646514893], [0.00565018504858017, -0.09318803250789642, 0.09049171209335327, -0.41852134466171265, -0.018523721024394035, -0.0803784728050232, 0.0075887334533035755, 0.022071143612265587, 0.13067828118801117, -0.14263689517974854, 0.16345198452472687, -0.03577570989727974, -0.1037798747420311, -0.22282925248146057, -0.10494630038738251, 0.09810014814138412, -0.3289297819137573, 0.021051572635769844, -0.020915603265166283, -0.17118768393993378, 0.13661490380764008, 0.23668025434017181, 0.18521767854690552, -0.11328393220901489, -0.16194437444210052, -0.04077322036027908, 0.006884216330945492, 0.1185339167714119, 0.05542581155896187, 0.10075382888317108, -0.11782119423151016, -0.07963583618402481], [-0.13503049314022064, 0.012928236275911331, -0.09875481575727463, -0.38878339529037476, 0.06978698074817657, 0.18845334649085999, 0.01993541233241558, 0.16243679821491241, 0.17596814036369324, -0.06734897941350937, -0.027954675257205963, -0.15736277401447296, 0.020117884501814842, -0.13842688500881195, -0.25536811351776123, 0.17157165706157684, -0.31544193625450134, -0.04094448685646057, 0.036442164331674576, 0.014867905527353287, 0.07669942826032639, 0.1039368063211441, 0.1987394094467163, -0.10651574283838272, -0.17640528082847595, 0.08160874247550964, 0.05981050431728363, 0.1704205721616745, 0.12661780416965485, -0.1353849619626999, -0.023655129596590996, 0.015624950639903545], [0.09477740526199341, 0.1434168517589569, -0.08831742405891418, -0.052348699420690536, 0.042802758514881134, 0.033179644495248795, -0.0737784132361412, -0.2095012664794922, -0.03369211032986641, -0.03375603258609772, 0.16317497193813324, 0.07725528627634048, 0.07171134650707245, 0.0012470532674342394, 0.04949617385864258, 0.0671875849366188, 0.06001903489232063, 0.042336493730545044, 0.1717960089445114, -0.13343766331672668, 0.1361590027809143, 0.06691625714302063, -0.17400085926055908, 0.07936424762010574, 0.08804448693990707, 0.16086603701114655, 0.09962836652994156, -0.03746176138520241, -0.09285864233970642, 0.2083258479833603, -0.029951084405183792, -0.06158066168427467], [-0.23043103516101837, -0.21227766573429108, 0.10676726698875427, -0.1773112416267395, -0.022210072726011276, 0.011052705347537994, 0.08554797619581223, 0.11182418465614319, 0.11262988299131393, -0.14196236431598663, 0.24536749720573425, 0.043439581990242004, -0.12900803983211517, 0.09843477606773376, -0.2118607461452484, -0.05974198505282402, -0.10938572138547897, 0.09631948918104172, 0.10075957328081131, -0.02425384148955345, 0.05570819228887558, 0.04541277885437012, -0.05531637743115425, -0.06822069734334946, 0.037523820996284485, -0.1367763876914978, -0.24372465908527374, -0.07717917859554291, 0.14718668162822723, 0.11908186227083206, -0.02683126926422119, -0.2233300805091858], [-0.13925287127494812, 0.0481678731739521, 0.007084141951054335, 0.010804662480950356, 0.17038558423519135, 0.10369996726512909, 0.15511035919189453, 0.206184983253479, -0.039721276611089706, -0.004386967979371548, -0.11065179109573364, 0.10385201126337051, -0.13230487704277039, 0.11140082776546478, 0.119013212621212, 0.08059345930814743, -0.2176387757062912, 0.02706017531454563, -0.11930611729621887, 0.02684391289949417, 0.047376297414302826, 0.18678131699562073, 0.12000371515750885, -0.172813281416893, -0.19138464331626892, -0.004532479681074619, -0.09285244345664978, 0.005067548248916864, 0.2077309936285019, 0.0013271644711494446, -0.13258661329746246, -0.11856259405612946], [0.04142636060714722, -0.15875598788261414, 0.4238012433052063, 0.7585906386375427, -0.1250496804714203, 0.11591102927923203, 0.27501726150512695, 0.2724471986293793, -0.5413966774940491, -0.259090781211853, -0.1968492716550827, 0.13709354400634766, -0.807968020439148, -0.06232668459415436, -0.2327624261379242, 0.1677231788635254, 0.24776597321033478, -0.22769585251808167, -0.39242634177207947, -0.03780220448970795, -0.3972836434841156, -0.05531984195113182, 0.2679089605808258, -0.09652692824602127, -0.23510923981666565, 0.01787629909813404, 0.2076471596956253, -0.2986294627189636, -0.30118313431739807, -0.2905355989933014, -0.029263971373438835, -0.47956717014312744], [0.17967478930950165, -0.07019004970788956, 0.14082367718219757, 0.42381322383880615, -0.2094438672065735, -0.16682396829128265, -0.10789588838815689, -0.05812866613268852, -0.17633530497550964, 0.16748815774917603, -0.1661231368780136, 0.13506805896759033, -0.0782526358962059, 0.13199487328529358, 0.11109421402215958, -0.06215035542845726, 0.4661434292793274, 0.06719530373811722, 0.019728247076272964, 0.14712326228618622, -0.03377143293619156, -0.27450257539749146, 0.05195967108011246, 0.13242466747760773, 0.06618224084377289, -0.08846224099397659, 0.22396232187747955, -0.043182432651519775, -0.3188626170158386, -0.14715439081192017, -0.05431697890162468, 0.19124993681907654], [0.1737191528081894, -0.03788680583238602, 0.10972435772418976, 0.40182796120643616, -0.0037716932129114866, -0.03340301290154457, 0.12595200538635254, -0.04522673785686493, -0.1901523768901825, 0.14448098838329315, -0.18257533013820648, 0.29093432426452637, -0.17767362296581268, 0.11522997915744781, -0.03170337155461311, -0.1617695540189743, 0.33174169063568115, 0.10047738254070282, -0.11196868121623993, -0.000249450997216627, 0.09063991904258728, -0.1901130974292755, -0.21805238723754883, 0.030292192474007607, 0.003721532179042697, 0.10515469312667847, 0.18340742588043213, -0.10674987733364105, -0.28839752078056335, 0.13024725019931793, -0.11132687330245972, 0.1485256552696228], [0.0004399405443109572, 0.00114619976375252, -0.04535948485136032, 0.06954475492238998, -0.04359668865799904, 0.14491821825504303, -0.018183371052145958, 0.10448853671550751, -0.028549201786518097, -0.1761578619480133, -0.15999850630760193, -0.13782468438148499, 0.0236663818359375, -0.11050950735807419, -0.11401507258415222, -0.04992501810193062, -0.2052326649427414, 0.036093730479478836, -0.11357452720403671, 0.03599667176604271, 0.10195785015821457, -0.039014287292957306, 0.025052420794963837, 0.007804240565747023, -0.18943527340888977, -0.08597634732723236, -0.16014237701892853, 0.09616511315107346, -0.0291729848831892, -0.04379541054368019, 0.06730379909276962, -0.20894525945186615], [-0.18226085603237152, 0.08468728512525558, 0.12101196497678757, -0.359543114900589, 0.261285662651062, 0.1988508105278015, -0.024115528911352158, -0.026178814470767975, 0.0936843529343605, -0.1791735291481018, -0.004959113895893097, -0.2263464480638504, -0.15304455161094666, 0.03934648260474205, -0.04179571196436882, -0.09642158448696136, -0.257219135761261, 0.24522775411605835, -0.1467805653810501, -0.127985417842865, 0.0373908206820488, 0.026188837364315987, -0.08790430426597595, 0.050743166357278824, -0.07054587453603745, 0.021652275696396828, -0.13388016819953918, 0.19512660801410675, 0.09116394817829132, 0.10625565052032471, -0.13748830556869507, -0.1317032277584076], [0.215907022356987, 0.20844466984272003, -0.3524720370769501, -0.4227532148361206, 0.09913381189107895, -0.27489790320396423, -0.11339399963617325, -0.061217326670885086, 0.04663404822349548, 0.21340076625347137, 0.1582183539867401, -0.12262327969074249, 0.5841100811958313, -0.11055494099855423, 0.029403291642665863, 0.042068157345056534, -0.18458200991153717, -0.11107207089662552, 0.34049275517463684, -0.1135658249258995, 0.2638128995895386, -0.16791413724422455, -0.2512177526950836, 0.07521472126245499, 0.34938907623291016, 0.015334990806877613, -0.15030251443386078, 0.22457197308540344, 0.134900763630867, 0.034787368029356, 0.15993434190750122, 0.3060586452484131], [-0.21654224395751953, -0.07035830616950989, 0.15312251448631287, 0.25976502895355225, 0.06931481510400772, -0.023424256592988968, 0.18221300840377808, 0.27719438076019287, 0.3376353681087494, 0.11504271626472473, -0.15564484894275665, -0.17101332545280457, -0.1373216211795807, -0.168953999876976, -0.023431578651070595, 0.1173168197274208, -0.19186654686927795, -0.15617211163043976, 0.031852200627326965, 0.06703465431928635, 0.09791100770235062, 0.28338199853897095, 0.236676424741745, -0.0022528632543981075, -0.025115808472037315, -0.14433728158473969, -0.058194082230329514, -0.10202400386333466, 0.08794619888067245, -0.12180334329605103, -0.15001092851161957, -0.23868189752101898], [-0.05191279202699661, 0.2781703770160675, -0.28842729330062866, -1.1569582223892212, 0.020561549812555313, -0.4371481239795685, -0.1372271329164505, -0.20366458594799042, 0.5351598858833313, 0.09181121736764908, 0.23553267121315002, -0.19157136976718903, 1.3156731128692627, 0.06230000779032707, 0.0241739172488451, 0.14255943894386292, -0.2698296308517456, 0.2313161939382553, 0.5398151278495789, 0.006994157563894987, 0.52337247133255, 0.07277853041887283, -0.1207636371254921, 0.056649819016456604, 0.18646781146526337, -0.03918514400720596, -0.11610300093889236, 0.5373451709747314, 0.24617695808410645, 0.2666287124156952, 0.16730479896068573, 0.48869985342025757], [-0.07022572308778763, 0.23002438247203827, -0.16963548958301544, -0.03686097636818886, -0.10861586779356003, -0.013109687715768814, 0.060221556574106216, -0.03136169910430908, -0.012115593999624252, 0.10668673366308212, -0.1382695585489273, 0.236398383975029, 0.16319188475608826, 0.20168191194534302, 0.10066413134336472, -0.2263984978199005, -0.0678921565413475, -0.20260055363178253, 0.1709122210741043, 0.21014133095741272, 0.19289496541023254, -0.19906187057495117, -0.19088420271873474, -0.056048497557640076, 0.23556391894817352, -0.09889069199562073, -0.10895472019910812, 0.17685942351818085, 0.033413901925086975, -0.018529104068875313, -0.05517740175127983, -0.07808992266654968], [-0.0007860795012675226, -0.16084109246730804, 0.04800167307257652, 0.3662508726119995, -0.11239063739776611, 0.2506515681743622, 0.0030632398556917906, 0.2064317762851715, -0.20537854731082916, 0.10059632360935211, -0.16197369992733002, -0.10162795335054398, -0.20895850658416748, 0.04860437661409378, -0.19720149040222168, 0.17410318553447723, 0.028112471103668213, -0.10204248875379562, -0.11546504497528076, -0.060558021068573, -0.12508679926395416, -0.03636907786130905, 0.02656497061252594, -0.032358318567276, 0.020454831421375275, -0.03081543557345867, 0.08607031404972076, -0.14696002006530762, 0.08363498747348785, -0.013095318339765072, -0.18811050057411194, 0.02932923473417759], [0.06236593797802925, 0.16784407198429108, -0.2979961037635803, -0.4226579964160919, -0.05528750643134117, -0.10863349586725235, -0.10783927887678146, -0.16595830023288727, 0.2510317265987396, 0.16778308153152466, 0.15616165101528168, 0.03561411798000336, 0.3325175642967224, 0.06137324497103691, 0.005165258422493935, -0.1591547429561615, -0.1300199031829834, 0.10907195508480072, 0.08470789343118668, 0.00441017234697938, 0.24452152848243713, 0.06445591151714325, -0.11728258430957794, 0.1322675347328186, -0.006924149580299854, 0.011016261763870716, 0.07461229711771011, 0.17833031713962555, 0.3197300434112549, -0.037254516035318375, -0.06256053596735, 0.3140231966972351], [0.18604445457458496, -0.072378009557724, 0.019896218553185463, 0.0010846698423847556, -0.17183896899223328, -0.10154348611831665, -0.033185139298439026, -0.20632833242416382, 0.10910972952842712, 0.07978653907775879, 0.026131074875593185, 0.20247894525527954, -0.0547187402844429, 0.14399048686027527, 0.07625880837440491, -0.054174769669771194, -0.060367174446582794, 0.004977513570338488, 0.2122175395488739, -0.12996651232242584, 0.05152754485607147, 0.015502513386309147, -0.06655428558588028, 0.1678176075220108, 0.014807640574872494, -0.038734596222639084, -0.0891139805316925, -0.03067362867295742, -0.054626647382974625, 0.15565669536590576, 0.05578858032822609, 0.08910796046257019], [0.0876898467540741, 0.017419656738638878, 0.011718399822711945, -0.22998714447021484, 0.10238262265920639, -0.04696686938405037, 0.08986999094486237, 0.11916973441839218, -0.051867272704839706, -0.16855451464653015, 0.07251796126365662, -0.22305306792259216, 0.2187534123659134, -0.22788774967193604, -0.06316061317920685, 0.18455694615840912, -0.029216933995485306, 0.10610145330429077, -0.13280946016311646, -0.10674558579921722, -0.17177239060401917, 0.2282317727804184, -0.059078559279441833, -0.08913137763738632, 0.06975789368152618, -0.061750393360853195, -0.16488692164421082, -0.19613336026668549, -0.005923430435359478, -0.25846126675605774, 0.09644027054309845, -0.24367061257362366], [-0.00813209731131792, 0.041514404118061066, 0.04218021407723427, -0.037036579102277756, 0.20221678912639618, 0.18973827362060547, 0.024413611739873886, -0.011076168157160282, -0.22871451079845428, 0.11061177402734756, -0.01084849238395691, -0.015620759688317776, 0.007576754782348871, 0.0714980810880661, -0.050974052399396896, 0.1374727189540863, -0.1612519472837448, -0.029856109991669655, -0.1299830675125122, -0.1900852918624878, -0.23481176793575287, 0.18082785606384277, 0.1552847921848297, -0.0896589607000351, -0.21132715046405792, 0.05249466001987457, 0.10714580863714218, 0.1123952865600586, -0.05234072729945183, -0.20619593560695648, 0.08101729303598404, 0.0029261624440550804], [0.18120089173316956, 0.0842500850558281, 0.07281399518251419, -0.05263473093509674, -0.18016326427459717, 0.0016920804046094418, 0.1165149137377739, -0.14034965634346008, 0.05593601614236832, -0.07903067767620087, -0.17264944314956665, 0.02123718522489071, 0.12174802273511887, 0.19137714803218842, 0.18666677176952362, 0.13676661252975464, 0.06665244698524475, 0.05829215422272682, 0.0971669852733612, -0.046956777572631836, 0.16149179637432098, -0.08864405006170273, -0.11268377304077148, 0.12644454836845398, 0.2110360562801361, 0.1851084679365158, 0.06951606273651123, -0.08927394449710846, 0.061638470739126205, 0.10235132277011871, 0.1543024331331253, 0.0012988821836188436], [0.46524325013160706, 0.14923714101314545, 0.2505688965320587, 1.009437084197998, -0.49663031101226807, 0.013816488906741142, 0.08665777742862701, 0.010931835509836674, 0.14041833579540253, 0.4968636631965637, -0.16177791357040405, 0.589225709438324, -0.2657168209552765, 0.16258205473423004, 0.44241809844970703, -0.2876046299934387, 0.9253643155097961, -0.12148404866456985, -0.1363833099603653, 0.26492562890052795, -0.11840511858463287, -0.3965027630329132, -0.060444291681051254, 0.12675555050373077, 0.09702588617801666, 0.1288226842880249, 0.5286306738853455, -0.5389140248298645, -0.4522581100463867, 0.09566006809473038, 0.13580277562141418, 0.1479475051164627], [-0.08013530820608139, 0.07288303226232529, 0.04148686304688454, -0.14307092130184174, -0.10380589962005615, -0.1187301054596901, -0.06901385635137558, 0.14867112040519714, 0.20928457379341125, 0.04124631732702255, -0.10522421449422836, 0.030366143211722374, 0.0018627237295731902, 0.17699526250362396, -0.10049691796302795, -0.07847960293292999, -0.1603003591299057, 0.07733652740716934, 0.01873992383480072, -0.08909710496664047, -0.11742899566888809, -0.05111558735370636, -0.1840306967496872, 0.0924871563911438, -0.14522291719913483, -0.05098724365234375, 0.22689244151115417, -0.2570270299911499, -0.12721525132656097, -0.14452284574508667, -0.14111241698265076, 0.19710683822631836], [-0.11260798573493958, -0.1949259489774704, 0.21275515854358673, 0.5344570279121399, 0.09565187245607376, 0.08725743740797043, 0.08276226371526718, 0.1825195550918579, -0.03603102266788483, 0.10609491914510727, -0.2190849781036377, -0.19743765890598297, -0.19748122990131378, -0.1482551246881485, 0.20335644483566284, -0.12932607531547546, 0.045604415237903595, 0.11164701730012894, 0.0229590255767107, -0.14226272702217102, -0.053661610931158066, -0.08380119502544403, -0.047404684126377106, -0.18454530835151672, -0.16537654399871826, 0.11304038763046265, -0.05472259968519211, -0.3482712507247925, -0.13293763995170593, -0.2296786606311798, -0.1832655668258667, -0.06837552040815353], [-0.26953262090682983, -0.06729274243116379, 0.24576960504055023, 0.21956254541873932, 0.11309657245874405, 0.033192262053489685, 0.2905980944633484, 0.2033773809671402, 0.2864247262477875, -0.1530946046113968, -0.18969517946243286, -0.2933949828147888, 0.051325779408216476, -0.2551939785480499, -0.0507454089820385, 0.07507867366075516, -0.2692870497703552, -0.07794831693172455, 0.13759469985961914, 0.048271544277668, 0.14172464609146118, 0.1261933594942093, 0.2585070729255676, -0.09672600775957108, -0.04378636181354523, -0.15172448754310608, -0.24426813423633575, -0.10147369652986526, 0.12489639967679977, -0.23719024658203125, 0.08859816193580627, -0.2145766019821167], [0.024031398817896843, -0.15313193202018738, 0.17554450035095215, -0.08503562211990356, -0.04244094714522362, 0.059613827615976334, -0.10693445801734924, 0.04369775578379631, -0.06142107769846916, -0.1972315013408661, 0.21182331442832947, -0.001017967239022255, 0.03702811896800995, 0.04316980391740799, -0.21517738699913025, -0.04077689349651337, -0.17525723576545715, -0.07850392907857895, -0.10227552801370621, 0.10135116428136826, -0.18857648968696594, 0.14296385645866394, 0.15286073088645935, -0.1355527937412262, 0.0036092177033424377, -0.11592479050159454, -0.00829646922647953, 0.1682925671339035, 0.14021609723567963, -0.16531263291835785, -0.12782856822013855, 0.04692280292510986], [0.04903043434023857, 0.3075113296508789, -0.3159193694591522, -0.47560033202171326, 0.14833079278469086, -0.12394513189792633, -0.19364839792251587, -0.14048877358436584, 0.27561497688293457, 0.0066209170036017895, 0.3346385061740875, 0.1882724016904831, 0.40560585260391235, -0.04926634579896927, 0.07418825477361679, -0.0038531378377228975, -0.06724181026220322, 0.10148532688617706, 0.11432068794965744, -0.0038712068926542997, 0.2937659025192261, -0.126700758934021, -0.05124029144644737, -0.056441374123096466, 0.3191927671432495, 0.026591012254357338, 0.023352330550551414, 0.18798305094242096, 0.4060105085372925, 0.04763391986489296, 0.16411830484867096, 0.18538658320903778], [0.0026752527337521315, -0.11749530583620071, 0.07733069360256195, -0.2292097508907318, 0.16778825223445892, 0.19642071425914764, 0.10519978404045105, 0.1988411843776703, 0.014706486836075783, -0.2322484403848648, -0.0263643991202116, -0.11788472533226013, -0.19304674863815308, -0.005473197437822819, 0.09009602665901184, -0.04802115261554718, -0.2254250943660736, -0.07015575468540192, -0.01895427145063877, -0.023717675358057022, 0.0531233586370945, 0.05668690800666809, -0.06655088812112808, 0.10129670798778534, 0.10738863795995712, -0.1932787448167801, -0.14520199596881866, -0.06532253324985504, -0.0938890352845192, -0.22019769251346588, 0.07739457488059998, 0.01698756404221058], [0.15371264517307281, -0.11876043677330017, -0.08474163711071014, 0.3663400113582611, 0.021343190222978592, -0.06631359457969666, -0.03959842771291733, 0.04895145818591118, 0.08979681879281998, 0.22245286405086517, 0.10847201943397522, 0.2747277617454529, -0.14888109266757965, 0.22310234606266022, 0.05013938993215561, -0.0890701487660408, 0.32635006308555603, -0.05904518440365791, 0.05755835399031639, 0.037919580936431885, -0.09604649245738983, -0.26352283358573914, 0.1080101728439331, 0.2030203491449356, 0.010637488216161728, -0.04964735358953476, 0.269245445728302, 0.04965021833777428, -0.007999390363693237, -0.09760399162769318, 0.11443904042243958, 0.0720498263835907]], "b": [0.4839504659175873, 0.21062900125980377, 0.14843633770942688, -0.0847022533416748, 0.316509872674942, 0.160068541765213, 0.25412848591804504, 0.23928862810134888, 0.008742772042751312, -0.9333368539810181, -0.2541883885860443, -0.15952068567276, -0.1597602814435959, 0.3164803683757782, 0.4620557725429535, -0.09343064576387405, 0.9459477066993713, 0.058320917189121246, -0.11926286667585373, 0.4948081970214844, -0.09614939242601395, -0.02804705500602722, -0.01481710746884346, -0.17100463807582855, -1.2448375225067139, -0.04566013440489769, -0.11399868875741959, 0.23252302408218384, 0.2124423384666443, 0.5651135444641113, 0.1084093376994133, -0.17455454170703888]}, {"w": [[0.1315479427576065, -0.1163114607334137, -0.08047427982091904, 0.1727454662322998, 0.24256710708141327, 0.05561723932623863, -0.21561259031295776, 0.18336020410060883, 0.2266690731048584, 0.16954165697097778, -0.20809026062488556, -0.12799885869026184, 0.09523690491914749, 0.1723872274160385, -0.19373276829719543, 0.13116833567619324, -0.2762805223464966, -0.23444870114326477, 0.20854485034942627, -0.09155645966529846, -0.21153031289577484, 0.10703245550394058, 0.1603282392024994, -0.21510814130306244, -0.2557719647884369, -0.2282140851020813, 0.1286567896604538, 0.15143804252147675, 0.14693686366081238, -0.17979001998901367, 0.13753145933151245, -0.25253015756607056]], "b": [0.0012118660379201174]}], "train": {"venue": "lake_perp_mid+cb", "events": 2981, "target": "blend", "w_out": 0.1, "skip_last_s": 60.0, "basis": "coinbase"}}