{"arch": {"hidden": 32, "clamp": 2.0, "act": "tanh", "logit": "raw", "mode": "direct"}, "features": "zp=(px-b)/s/sqrt(tte/900); u_in=[zp, log(tte/900)] + extras", "rho_bar": 4.795684337615967, "b_prior": "strike", "b_scale": 50.0, "extras": ["mom60", "mom120"], "mu": [-0.31936057034076, -0.6429656724551366], "sd": [42.65764960753248, 60.13626618328464], "layers": [{"w": [[0.07710276544094086, -0.0835680291056633, 0.4959207773208618, 0.48373210430145264], [-0.5214093327522278, -0.11799854040145874, -0.13370373845100403, 0.05000543221831322], [-0.313814640045166, 0.6917669177055359, 0.36214712262153625, 0.0024270880967378616], [-0.46655818819999695, -0.35246995091438293, 0.03314903751015663, -0.12098471820354462], [0.40969058871269226, -0.22811152040958405, 0.3688906133174896, -0.2086060792207718], [0.479493647813797, 0.190361887216568, 0.06483259797096252, 0.030019478872418404], [-0.006584594491869211, 0.4170539379119873, 0.24593643844127655, 0.07923661172389984], [0.24140389263629913, -0.2119586318731308, 0.48195797204971313, 0.2162160724401474], [0.21300747990608215, -0.2101929783821106, 0.4043240547180176, 0.6432386636734009], [-0.20927472412586212, -0.03685753419995308, -0.04759298264980316, -0.4212297797203064], [0.23946288228034973, 0.3201048672199249, -0.25230109691619873, 0.28464439511299133], [0.6575579643249512, 0.3626035451889038, -0.0238280538469553, -0.018613029271364212], [0.137411430478096, -0.2886001169681549, -0.5707007050514221, 0.40408840775489807], [0.5998592972755432, 0.35175374150276184, -0.5289562344551086, 0.0823475793004036], [-0.43990007042884827, -0.08048400282859802, 0.030715838074684143, 0.03740156069397926], [-0.21770800650119781, -0.2734183073043823, 0.22226251661777496, -0.35521501302719116], [-0.3160474896430969, -0.3543354570865631, -0.2344927042722702, -0.3003903031349182], [0.42073291540145874, 0.02600613236427307, -0.011800840497016907, -0.06477874517440796], [0.32721182703971863, 0.055956002324819565, -0.22499489784240723, 0.43095770478248596], [0.2833808362483978, 0.19765327870845795, 0.07038450241088867, -0.06297373026609421], [0.46246033906936646, -0.30065280199050903, -0.011423230171203613, -0.0928402990102768], [-0.4592849910259247, -0.27487242221832275, 0.11494352668523788, 0.18241997063159943], [-0.1294558346271515, 0.33171191811561584, -0.18448276817798615, -0.34127452969551086], [0.38677385449409485, -0.060638248920440674, -0.5220659971237183, -0.6847367286682129], [-0.4540345072746277, 0.06923285871744156, 0.06616071611642838, 0.3842511773109436], [-0.5530425310134888, -0.2969134747982025, -0.29296988248825073, 0.12123023718595505], [-0.26407819986343384, 0.02819858118891716, 0.2874271869659424, -0.10348978638648987], [-0.25464633107185364, 0.010689206421375275, -0.14954090118408203, 0.5700875520706177], [0.3044937551021576, -0.17245373129844666, 0.16109825670719147, -0.39376911520957947], [-0.49030953645706177, -0.1370036005973816, -0.20144987106323242, 0.42639240622520447], [-0.11848603934049606, -0.43314456939697266, 0.30517664551734924, -0.3096538484096527], [0.029995806515216827, -0.992035448551178, 0.0427883118391037, 0.03540417179465294]], "b": [-0.13651733100414276, 0.27315443754196167, -0.0320269800722599, -0.6681123375892639, -0.9781731963157654, 0.2262318879365921, 0.8885347247123718, -0.045782554894685745, -0.42552438378334045, 0.08092965930700302, 0.44479525089263916, -0.06469014286994934, -0.38068312406539917, 0.2569117844104767, 0.0590401217341423, -0.13458062708377838, -0.5489427447319031, -0.27712059020996094, -0.3065660297870636, 0.20687054097652435, 0.4408799111843109, -0.3190596401691437, 1.1084643602371216, -0.5320478081703186, -0.8016682863235474, -0.1468421220779419, 0.5984579920768738, 0.1669154018163681, -0.6857258081436157, 0.04045695811510086, 0.8064858913421631, -0.7360396981239319]}, {"w": [[-0.16559213399887085, -0.05147846043109894, -0.04016594588756561, -0.24185383319854736, 0.16078732907772064, -0.10209512710571289, -0.1161295622587204, -0.10996413230895996, 0.19715377688407898, -0.02674154005944729, 0.08593630790710449, -0.03001372143626213, 0.23543895781040192, 0.0883338451385498, -0.17452573776245117, -0.07235780358314514, -0.14038614928722382, 0.077657051384449, 0.1640186309814453, -0.017003023996949196, 0.03999139741063118, -0.0062825181521475315, -0.013557125814259052, 0.1770147979259491, 0.14870530366897583, -0.10664962232112885, -0.2284541130065918, 0.0817585289478302, 0.21485382318496704, 0.004253387451171875, 0.001307199359871447, 0.33691954612731934], [0.3373106122016907, -0.2628178596496582, -0.029935071244835854, -0.13229970633983612, 0.18657222390174866, 0.05211394280195236, -0.12197726964950562, -0.10338190197944641, 0.14718401432037354, 0.1148737221956253, 0.09091044962406158, -0.003921275958418846, 0.006133304443210363, 0.09212256222963333, -0.13575579226016998, -0.07674197107553482, -0.03592170774936676, 0.2364739179611206, 0.08783765137195587, 0.10864411294460297, -0.06869599968194962, 0.07222221046686172, -0.3350822627544403, 0.05901964008808136, 0.18031002581119537, -0.02389838732779026, -0.08391441404819489, -0.12847383320331573, 0.1344197541475296, -0.04392150789499283, -0.08896791934967041, 0.5650729537010193], [-0.10959602892398834, -0.15126511454582214, 0.12633740901947021, -0.12387052923440933, -0.10264541208744049, -0.061141084879636765, -0.20732498168945312, 0.031450264155864716, 0.13196596503257751, 0.13693130016326904, 0.19865572452545166, 0.13738466799259186, 0.13338702917099, 0.03392404317855835, 0.09733711183071136, -0.08993445336818695, -0.06889578700065613, -0.019025886431336403, -0.07995174080133438, -0.13219697773456573, -0.07324080914258957, 0.09959705173969269, -0.06074361503124237, -0.13908061385154724, 0.08572317659854889, 0.10832633078098297, 0.02049923501908779, -0.021135974675416946, -0.053017713129520416, 0.12207750231027603, -0.3030945360660553, 0.08891003578901291], [0.07451600581407547, 0.04594910144805908, -0.17082037031650543, -0.5312255024909973, -0.33530277013778687, 0.4131545126438141, 1.3337854146957397, -0.11376192420721054, 0.0843835324048996, -0.09451588988304138, 0.575937807559967, 0.04219399020075798, -0.4715076982975006, 0.49284812808036804, -0.35007384419441223, -0.46274086833000183, -0.7239902019500732, 0.1208760216832161, -0.13532407581806183, 0.3421168625354767, 0.23972977697849274, -0.6950156092643738, 1.1943135261535645, 0.24284754693508148, -0.25974637269973755, -0.07400958985090256, 0.11290226876735687, -0.016023335978388786, -0.547751247882843, -0.19051651656627655, 0.667286217212677, -0.8194496035575867], [-0.1936778426170349, -0.13614174723625183, 0.09981445223093033, -0.1907895803451538, -0.19167308509349823, 0.07271367311477661, -0.05918056517839432, 0.09407678991556168, -0.09864132851362228, 0.1767210215330124, -0.07223451882600784, 0.2283574640750885, 0.1223796010017395, 0.12037969380617142, -0.15233846008777618, 0.15271876752376556, -0.08914779871702194, -0.02063712291419506, -0.06314221024513245, -0.15534864366054535, -0.05616020783782005, -0.22171396017074585, 0.3958304226398468, -0.2833095192909241, -0.03368815779685974, -0.05341473966836929, 0.18491651117801666, 0.2727068066596985, -0.39951062202453613, 0.1185293197631836, 0.15598642826080322, -0.12531837821006775], [0.1371867060661316, -0.13473975658416748, 0.12160975486040115, -0.34478187561035156, -0.07067126780748367, 0.007212555967271328, 0.19339092075824738, 0.027726957574486732, 0.07195882499217987, -0.16553895175457, 0.2846817672252655, 0.20995716750621796, -0.16445328295230865, 0.0047174543142318726, -0.1921565681695938, -0.10347491502761841, -0.32089897990226746, 0.09439276158809662, 0.06832719594240189, 0.0037558868061751127, 0.16388587653636932, -0.0886772871017456, 0.3864697515964508, -0.015969522297382355, -0.1869383156299591, -0.08423352986574173, 0.05540163815021515, 0.03661724552512169, -0.17896732687950134, 0.059970490634441376, 0.13864365220069885, -0.3439349830150604], [-0.11463219672441483, -0.0052910842932760715, -0.19112621247768402, -0.22075822949409485, 0.07770473510026932, 0.2012820541858673, -0.1264030933380127, 0.11802844703197479, 0.22277948260307312, -0.0512939989566803, -0.08631212264299393, 0.11040239036083221, 0.11675321310758591, 0.05897117033600807, -0.30359792709350586, 0.04580569639801979, -0.1289246529340744, -0.008007701486349106, 0.152683824300766, 0.1309051215648651, 0.07487427443265915, -0.1441032886505127, 0.1220213770866394, 0.08383294939994812, -0.021929899230599403, 0.07772158086299896, 0.07102635502815247, 0.037014663219451904, 0.08133234828710556, -0.1566072702407837, -0.0136514687910676, 0.3318009078502655], [-0.16263528168201447, 0.04649811238050461, 0.10601057857275009, 0.052189938724040985, 0.11007913947105408, 0.12593483924865723, -0.10805808007717133, -0.1821548193693161, -0.0997256487607956, -0.09626986086368561, 0.1481025516986847, 0.04363247752189636, 0.009570012800395489, -0.01922273263335228, -0.031360648572444916, 0.11765670776367188, 0.011057533323764801, 0.10780605673789978, 0.12219790369272232, -0.19274140894412994, -0.023239636793732643, 0.15933063626289368, -0.04835846275091171, 0.045730676501989365, 0.2036098837852478, 0.061521489173173904, 0.008466353639960289, -0.12801727652549744, -0.1485905647277832, 0.13449449837207794, -0.23891761898994446, -0.15660788118839264], [-0.3199777901172638, -0.27101829648017883, 0.06089702993631363, -0.4566877782344818, -0.29469797015190125, 0.2973635494709015, 0.6325243711471558, 0.1354490965604782, -0.04293247312307358, -0.12691864371299744, 0.5797754526138306, 0.3410717248916626, -0.6005079746246338, 0.4084513187408447, -0.31953734159469604, -0.49535301327705383, -0.7972661256790161, 0.14190499484539032, 0.05161634087562561, 0.3358209431171417, 0.17248663306236267, -0.35608410835266113, 0.4355956017971039, 0.14801253378391266, -0.16278868913650513, -0.3138430714607239, -0.0166399497538805, -0.2531425356864929, -0.1354547142982483, -0.04147837683558464, 0.46432366967201233, -0.23274284601211548], [-0.17395713925361633, -0.010598774999380112, 0.22391687333583832, -0.1672413945198059, 0.23128145933151245, 0.15251114964485168, 0.35979318618774414, 0.19432024657726288, -0.037025369703769684, 0.014456571079790592, -0.17270837724208832, 0.2712952792644501, -0.3132779002189636, 0.2443225085735321, 0.04877978563308716, 0.06300751119852066, -0.3258455693721771, 0.08812008053064346, -0.1110292598605156, 0.21904531121253967, -0.021498965099453926, -0.07689370214939117, 0.3246917426586151, 0.009289081208407879, -0.19625508785247803, -0.06075748801231384, -0.038777243345975876, -0.09259942919015884, 0.2744255065917969, -0.054687004536390305, -0.020676996558904648, -0.3722403347492218], [-0.0969511941075325, 0.1708654761314392, 0.026744086295366287, -0.04130386561155319, -0.29150375723838806, -0.18501253426074982, 0.40085917711257935, 0.02923143096268177, -0.18750588595867157, -0.04582692310214043, -0.09609866142272949, -0.045629918575286865, -0.14578215777873993, -0.17086516320705414, 0.016275957226753235, 0.27492207288742065, 0.22035913169384003, -0.3508889973163605, -0.28219297528266907, -0.12235692888498306, 0.012290414422750473, 0.047586821019649506, 0.34589290618896484, -0.22829565405845642, -0.13250741362571716, 0.2089366614818573, 0.44051551818847656, 0.24515590071678162, -0.5351585149765015, 0.008812331594526768, 0.5437735915184021, -0.5196657776832581], [-0.17745500802993774, -0.20147261023521423, 0.2256578952074051, -0.023962248116731644, -0.027952397242188454, -0.06312962621450424, 0.10121630877256393, -0.07369408011436462, -0.11887716501951218, 0.09787814319133759, 0.11022666841745377, 0.08994495868682861, -0.05000238120555878, 0.19579549133777618, -0.11203982681035995, -0.08054188638925552, 0.05976162478327751, 0.2347499281167984, 0.044673461467027664, 0.25273025035858154, -0.04185391589999199, -0.3478783071041107, 0.3576637804508209, 0.3235671818256378, -0.014185991138219833, -0.24085946381092072, 0.11094475537538528, -0.11452748626470566, 0.0038293625693768263, -0.26140522956848145, 0.09016533941030502, -0.14923404157161713], [0.17211642861366272, -0.004129598382860422, 0.21993757784366608, 0.2695005238056183, 0.028287945315241814, -0.08947139978408813, 0.18040259182453156, -0.03180898725986481, -0.12442467361688614, 0.14402012526988983, -0.1907515823841095, 0.020457852631807327, -0.18189851939678192, -0.05301803722977638, -0.02096034400165081, 0.008852463215589523, 0.08664848655462265, 0.03953787311911583, -0.21816736459732056, -0.11267133057117462, 0.11102928221225739, 0.07722768187522888, -0.14643815159797668, -0.12674905359745026, -0.13889451324939728, 0.11494328081607819, 0.20061415433883667, -0.027974851429462433, -0.13640190660953522, 0.1599445790052414, -0.1686849445104599, -0.02751271240413189], [-0.0628863051533699, 0.003239445621147752, -0.045932598412036896, -0.06545738875865936, -0.09677714109420776, 0.1527392864227295, 0.021891329437494278, 0.004347466863691807, 0.05079175904393196, -0.18926560878753662, 0.004817620385438204, 0.06140642613172531, 0.11273107677698135, 0.09496485441923141, -0.1625809520483017, -0.27395227551460266, -0.24992693960666656, 0.0778796374797821, 0.009977718815207481, 0.15912725031375885, 0.04949064180254936, -0.26771947741508484, 0.11297629028558731, 0.16305799782276154, -0.04476528987288475, -0.0907868966460228, -0.18047240376472473, 0.14324629306793213, -0.02186116762459278, -0.04165704920887947, 0.06276268512010574, -0.250881165266037], [-0.0019051015842705965, 0.0581912025809288, 0.047765735536813736, -0.09578417241573334, 0.2941509485244751, 0.20976145565509796, -0.16222301125526428, -0.024113193154335022, 0.13783489167690277, -0.15745092928409576, -0.12957049906253815, 0.00755898654460907, -0.06663668155670166, 0.18575455248355865, -0.04599694162607193, -0.20764502882957458, -0.04331298917531967, 0.2617515027523041, -0.022884376347064972, -0.05290300399065018, 0.07216471433639526, -0.19009843468666077, -0.3614244759082794, 0.18697762489318848, 0.0346243754029274, 0.027281302958726883, -0.13838177919387817, 0.09430012106895447, 0.061032917350530624, 0.08728815615177155, -0.05864999070763588, 0.2190234512090683], [0.0691784918308258, 0.13033755123615265, -0.11400216072797775, 0.11157985776662827, 0.10705117136240005, -0.21683262288570404, -0.21651048958301544, 0.059003666043281555, -0.1724690943956375, 0.11517616361379623, -0.3065582513809204, -0.24330776929855347, 0.002288021147251129, -0.26149263978004456, 0.013214228674769402, 0.21049562096595764, 0.11945845931768417, -0.18207409977912903, 0.10795126110315323, -0.2610459625720978, 0.0034605248365551233, 0.01744483970105648, -0.28632983565330505, -0.029552103951573372, 0.29518428444862366, 0.016736086457967758, -0.16204364597797394, 0.06896264851093292, 0.012494384311139584, -0.07238614559173584, -0.1873963475227356, 0.1693650186061859], [-0.038168247789144516, 0.0905902162194252, 0.0041725365445017815, 0.09344208240509033, -0.1532369703054428, -0.15352673828601837, 0.19828329980373383, 0.13226832449436188, 0.07466776669025421, 0.19388937950134277, -0.015575127676129341, -0.09401502460241318, -0.13246408104896545, -0.1314961463212967, 0.1396203637123108, 0.04585438594222069, -0.10824313014745712, -0.22847053408622742, 0.022326791658997536, 0.07500537484884262, 0.2168646603822708, 0.19908127188682556, 0.16115784645080566, -0.0659547746181488, -0.026613449677824974, 0.029474567621946335, 0.14328712224960327, 0.15461435914039612, -0.1476603001356125, 0.06093242019414902, 0.021406449377536774, -0.3361559510231018], [-0.2557883858680725, 0.2805199921131134, -0.03851283714175224, 0.03108118288218975, -0.8014112710952759, -0.23375600576400757, 1.142549753189087, 0.15413643419742584, -0.36526066064834595, 0.10524798929691315, 0.23076555132865906, -0.43680259585380554, -0.17435984313488007, -0.1747543215751648, 0.1265013962984085, 0.2225913107395172, -0.2212011218070984, -0.18129467964172363, -0.14480529725551605, 0.02189488336443901, 0.47477370500564575, 0.17508970201015472, 1.0378912687301636, -0.23863692581653595, -0.6081682443618774, 0.1048179641366005, 0.6018925905227661, 0.336744487285614, -0.8313249349594116, 0.27832505106925964, 0.634577214717865, -1.0363610982894897], [-0.10982037335634232, 0.10778941959142685, -0.08412326127290726, -0.07125351577997208, -0.04540402442216873, 0.10603579878807068, 0.20450353622436523, 0.020341483876109123, 0.005493903998285532, -0.026041751727461815, 0.03631157800555229, 0.25235506892204285, 0.1749897599220276, 0.2388204038143158, -0.049460142850875854, -0.3476293087005615, -0.22254525125026703, -0.08448674529790878, 0.1953493058681488, 0.23733358085155487, 0.08665620535612106, -0.1656293272972107, -0.16855064034461975, -0.059118252247571945, 0.19579775631427765, -0.23029054701328278, -0.2830018103122711, 0.05118371546268463, 0.04013364389538765, -0.14927275478839874, -0.0924353376030922, -0.32579201459884644], [-0.055594563484191895, -0.15276606380939484, -0.1535128355026245, 0.008679368533194065, -0.048818062990903854, 0.22969460487365723, -0.166897714138031, 0.1127747967839241, -0.007616400718688965, 0.10629189014434814, -0.09761791676282883, 0.053672123700380325, -0.062176965177059174, 0.19453315436840057, -0.261908620595932, 0.12388794869184494, -0.009739406406879425, -0.02177516371011734, -0.02470104582607746, 0.023964082822203636, -0.04242344945669174, -0.15361641347408295, -0.06324751675128937, 0.16824577748775482, 0.1625601053237915, -0.034497711807489395, 0.061791419982910156, -0.14526240527629852, 0.2918585538864136, -0.010097562335431576, -0.09386853128671646, 0.4950833320617676], [-0.18966002762317657, 0.17129044234752655, -0.2912932336330414, 0.08981654793024063, -0.23829105496406555, -0.1175287663936615, -0.21905364096164703, -0.16246318817138672, -0.1919117122888565, 0.18661096692085266, 0.05356968566775322, -0.009200010448694229, 0.041567109525203705, -0.018040338531136513, 0.05211103707551956, -0.14989891648292542, 0.10652288049459457, 0.08301633596420288, -0.05102774128317833, 0.002313995501026511, 0.1828775703907013, 0.13534317910671234, 0.08322814106941223, 0.2428201586008072, -0.20882156491279602, 0.07232527434825897, 0.10402699559926987, -0.08664330840110779, 0.2234145849943161, -0.034976374357938766, -0.2717429995536804, 0.1561657190322876], [0.3602818548679352, -0.08826422691345215, -0.040754981338977814, 0.07577526569366455, -0.16784490644931793, -0.0825250968337059, 0.08407559245824814, -0.11947556585073471, -0.0171237513422966, 0.03901045024394989, 0.1593393236398697, 0.06161106377840042, -0.06260008364915848, 0.030652854591608047, 0.05588594451546669, -0.0394197516143322, -0.13884484767913818, 0.025194697082042694, 0.15468566119670868, -0.11860645562410355, 0.1404825896024704, 0.0937606543302536, -0.07396020740270615, 0.15675495564937592, -0.291255384683609, -0.056330811232328415, -0.1674972027540207, -0.12765423953533173, 0.014257063157856464, 0.1279425472021103, -0.023481080308556557, -0.029660910367965698], [-0.1758677363395691, -0.060550201684236526, 0.08619208633899689, -0.22601737082004547, 0.14871375262737274, 0.01209669467061758, 0.015516669489443302, -0.005572884809225798, 0.06771782040596008, -0.028597623109817505, -0.24117007851600647, 0.02542487159371376, -0.05762488394975662, -0.022585269063711166, -0.07797671109437943, 0.4145721197128296, -0.012466340325772762, 0.06808778643608093, -0.15719880163669586, -0.1854838728904724, -0.48959723114967346, 0.10094351321458817, -0.013760953210294247, -0.12510794401168823, 0.41839489340782166, -0.18953339755535126, 0.07115308195352554, 0.21679234504699707, -0.120759978890419, -0.18208828568458557, 0.45374852418899536, 0.0970231369137764], [-0.0021792405750602484, 0.264186292886734, -0.06355934590101242, 0.14441408216953278, -0.043380189687013626, 0.0071792276576161385, -0.04925769567489624, -0.08321776241064072, -0.2062779664993286, 0.2408658266067505, -0.2496839016675949, -0.15183676779270172, -0.03089001215994358, -0.04713590815663338, 0.21522800624370575, 0.2789223790168762, 0.011904014274477959, -0.33348897099494934, -0.20816488564014435, -0.407782644033432, -0.15765970945358276, 0.3516795039176941, 0.20153869688510895, -0.3610564172267914, -0.21227388083934784, 0.29059287905693054, 0.5176503658294678, 0.3357641398906708, -0.47170600295066833, 0.02794838137924671, 0.19351238012313843, 0.3822810649871826], [0.07799806445837021, 0.12489444762468338, 0.21976608037948608, 0.0337582491338253, -0.21710796654224396, -0.051902931183576584, 0.11500358581542969, -0.14732064306735992, 0.034687068313360214, -0.011294685304164886, -0.1983533501625061, -0.15429000556468964, 0.13479027152061462, 0.048774078488349915, 0.26430097222328186, 0.256462037563324, 0.08683236688375473, -0.027710748836398125, -0.005410026293247938, -0.16222023963928223, 0.07743825763463974, 0.09282977133989334, -0.05392875894904137, 0.0027571588288992643, 0.12887951731681824, 0.21214324235916138, 0.08467373251914978, -0.04803027585148811, 0.07343635708093643, 0.13778668642044067, 0.04000753164291382, -0.1730899214744568], [0.13274124264717102, -0.09633337706327438, -0.116069495677948, -0.10875824093818665, 0.015215345658361912, 0.18419121205806732, 0.16564983129501343, -0.07690323889255524, 0.22647537291049957, 0.06941595673561096, 0.2679763734340668, 0.17326132953166962, 0.006540350150316954, 0.0779348760843277, -0.1952345073223114, -0.23540687561035156, -0.048893749713897705, 0.24359408020973206, 0.04871465638279915, 0.2856769263744354, 0.15674714744091034, 0.02127331867814064, 0.187795028090477, 0.09626737982034683, -0.15392711758613586, -0.2105085402727127, 0.05038464069366455, -0.20395326614379883, 0.1500854194164276, 0.030103884637355804, 0.061082545667886734, 0.3749670386314392], [-0.20181308686733246, -0.03311938792467117, 0.02097783051431179, -0.26825904846191406, -0.037827301770448685, -0.013058969751000404, 0.022631008177995682, 0.1651540845632553, 0.17926928400993347, 0.03806745260953903, 0.03627607226371765, 0.07141295075416565, 0.02032443881034851, 0.27727875113487244, -0.26952555775642395, -0.15561750531196594, -0.25016847252845764, 0.1645101010799408, 0.02695276401937008, 0.009072320535779, -0.18103033304214478, -0.17014582455158234, -0.03641238436102867, 0.1262611299753189, -0.13767851889133453, -0.1535061150789261, 0.10383632034063339, -0.1933303326368332, -0.11299364268779755, -0.17974500358104706, -0.10141178965568542, 0.24838793277740479], [0.18456615507602692, -0.056716982275247574, 0.04736033454537392, 0.35590776801109314, 0.07945339381694794, -0.08626426756381989, -0.16675187647342682, 0.06839371472597122, 0.13996070623397827, 0.16443753242492676, -0.31144407391548157, -0.2676900327205658, -0.09544643014669418, -0.2371663898229599, 0.3098214268684387, -0.002030522795394063, 0.15464095771312714, 0.018199097365140915, 0.009746099822223186, -0.21597915887832642, 0.03098163567483425, 0.06456908583641052, -0.38959988951683044, -0.39099815487861633, -0.08326812833547592, 0.25567546486854553, 0.02051505073904991, -0.0796755999326706, -0.013425221666693687, -0.061828870326280594, -0.34879985451698303, 0.18282781541347504], [-0.2127082496881485, -0.058464258909225464, 0.10229648649692535, -0.032998908311128616, -0.06290852278470993, 0.06283581256866455, 0.44795486330986023, 0.02909949980676174, -0.13368606567382812, -0.09857387095689774, 0.1615505963563919, 0.07037866860628128, 0.006291809491813183, -0.017294520512223244, -0.04511517286300659, -0.1496918648481369, -0.23879197239875793, 0.09038376063108444, 0.186351478099823, 0.29294395446777344, 0.1983419507741928, -0.22873647511005402, 0.40836960077285767, 0.1297057718038559, -0.05284029617905617, -0.16562016308307648, -0.10580092668533325, -0.23587322235107422, 0.036316897720098495, -0.18189439177513123, 0.38940170407295227, -0.2225991189479828], [0.15611906349658966, -0.2183229923248291, 0.10060158371925354, -0.10336746275424957, 0.09966209530830383, 0.06468047946691513, -0.2456834316253662, -0.021755049005150795, -0.003612223779782653, -0.22077801823616028, 0.22419781982898712, 0.2727774977684021, 0.14239734411239624, 0.21719104051589966, -0.29062747955322266, -0.20268815755844116, -0.11542534828186035, 0.09260746836662292, 0.0942777469754219, 0.2489410936832428, -0.17427930235862732, -0.10663770139217377, -0.11577130109071732, 0.15011337399482727, 0.16735045611858368, -0.15316161513328552, -0.25846847891807556, 0.039922066032886505, 0.41182947158813477, -0.23829303681850433, -0.15320850908756256, 0.09448521584272385], [-0.07319005578756332, 0.09072481840848923, -0.30380934476852417, -0.20550960302352905, 0.2509160339832306, 0.08336018025875092, -0.13027998805046082, 0.047119416296482086, 0.03325808793306351, -0.20933564007282257, 0.11353053152561188, 0.19259241223335266, 0.049400340765714645, -0.056307293474674225, -0.1779193878173828, 0.010474793612957, -0.11512371897697449, 0.25945737957954407, -0.001324748038314283, 0.04757920280098915, 0.17661689221858978, -0.0887610912322998, 0.09692449867725372, 0.01668078824877739, 0.15354549884796143, -0.13103429973125458, -0.0871640145778656, 0.0024631049018353224, 0.19952215254306793, -0.13373099267482758, 0.17590424418449402, 0.2746589183807373], [0.0002656237920746207, -0.16534137725830078, 0.14275425672531128, -0.1381930559873581, 0.3219137191772461, 0.18249915540218353, -0.3645342290401459, 0.13020731508731842, 0.15527130663394928, -0.21423856914043427, -0.12583044171333313, 0.12479256093502045, -0.010529435239732265, 0.1638893187046051, 0.0519489124417305, -0.18090948462486267, 0.007932835258543491, -0.014039149507880211, 0.16916444897651672, 0.05242259427905083, -0.0838966891169548, -0.14302441477775574, -0.3237054646015167, 0.2727441191673279, 0.4728173613548279, -0.2078985571861267, -0.25014251470565796, -0.09420853853225708, 0.08903343230485916, -0.2420717179775238, -0.12295764684677124, 0.46950387954711914]], "b": [-0.061827804893255234, -0.25774946808815, -0.1524689644575119, 0.7138814330101013, 0.08797315508127213, 0.09572555124759674, -0.07752788811922073, -0.04193555936217308, 0.6726294159889221, 0.28726959228515625, 0.5050230026245117, 0.23463448882102966, -0.0438937246799469, 0.16417188942432404, -0.11334966868162155, -0.17334561049938202, 0.3232536017894745, 0.7930915951728821, 0.03078104555606842, -0.1170157641172409, -0.1069239005446434, -0.0473966971039772, 0.11365204304456711, 0.3723130524158478, -0.0023145636077970266, -0.1109810546040535, 0.16185621917247772, -0.17280010879039764, 0.24056889116764069, -0.40073853731155396, 0.021414650604128838, -0.26376932859420776]}, {"w": [[0.24947142601013184, 0.2813485264778137, 0.11014725267887115, 0.4358551502227783, 0.1360851377248764, 0.12440962344408035, 0.22591128945350647, 0.10276813805103302, 0.1626441329717636, 0.18584854900836945, -0.2563612759113312, 0.20393206179141998, -0.13540315628051758, 0.21293748915195465, 0.18604998290538788, -0.22649776935577393, -0.2780466377735138, -0.3821572959423065, 0.16030192375183105, 0.20220515131950378, -0.18932707607746124, -0.042969971895217896, 0.46334660053253174, -0.20399942994117737, -0.1754300892353058, 0.12319770455360413, 0.14367219805717468, -0.13554297387599945, 0.18415319919586182, 0.13212350010871887, 0.22309227287769318, 0.136042058467865]], "b": [-0.0517720952630043]}], "train": {"venue": "lake_perp_mid", "events": 3790, "cap_ts": 0, "target": "market", "w_out": 0.0, "skip_last_s": 60.0}}