{"arch": {"hidden": 32, "clamp": 2.0, "act": "tanh", "logit": "raw", "mode": "direct"}, "features": "zp=(px-b)/s/sqrt(tte/900); u_in=[zp, log(tte/900)] + extras", "rho_bar": 1.2851234674453735, "b_prior": "strike", "b_scale": 1.5, "extras": ["imb1"], "mu": [0.012268653411108275], "sd": [0.5868232901393883], "layers": [{"w": [[0.16507261991500854, -0.20467332005500793, -0.002207453129813075], [0.45786014199256897, -0.351298063993454, 0.003959953784942627], [-0.44758594036102295, -0.04428856819868088, -0.00047235575038939714], [0.5009716153144836, 0.34916427731513977, 0.03687479346990585], [-0.34717756509780884, -0.3805773854255676, 0.07585401833057404], [-0.19191958010196686, 0.2777174115180969, -0.1885208636522293], [0.48743924498558044, -0.06383306533098221, 0.2347085028886795], [-0.023485347628593445, 0.2796112895011902, 0.08481009304523468], [0.14183644950389862, -0.06777071952819824, 0.16361400485038757], [0.33371150493621826, -0.05175023153424263, -0.2688732445240021], [0.49424588680267334, 0.3282797634601593, 0.08757622539997101], [0.13671542704105377, 0.15409812331199646, 0.4092451333999634], [-0.23368187248706818, -0.21180923283100128, -0.05303499102592468], [-0.4693579375743866, -0.03886733576655388, 0.004205254837870598], [-0.2860061526298523, 0.3445684611797333, 0.780119001865387], [-0.11439834535121918, 0.31340542435646057, 0.02180352620780468], [0.24382822215557098, -0.37325039505958557, -0.5889081358909607], [0.5422377586364746, 0.3191010653972626, -0.03328626975417137], [-0.5265835523605347, -0.16785261034965515, -0.07439315319061279], [-0.03457159548997879, 0.3118770718574524, 0.20433111488819122], [-0.15016917884349823, -0.24032293260097504, 0.1621648520231247], [-0.509678065776825, -0.2695678174495697, -0.12472660839557648], [-0.43020251393318176, -0.26265770196914673, 0.006512688472867012], [0.3061743676662445, 0.10005516558885574, -0.08370354026556015], [0.3078649938106537, -0.35119935870170593, 0.09302233159542084], [0.6008598804473877, 0.22496086359024048, -0.05058084428310394], [0.08528415858745575, 0.0886550024151802, 0.3929044008255005], [-0.5279144048690796, -0.2946547269821167, -0.09237609058618546], [-0.33620429039001465, -0.04288246110081673, 0.13991209864616394], [0.41813597083091736, 0.09958432614803314, 0.2544020116329193], [-0.4905233085155487, -0.3556576073169708, 0.10877616703510284], [-0.1936841458082199, -0.7313516139984131, -0.025609979405999184]], "b": [-0.5611858367919922, 0.6143934726715088, 0.4025030732154846, 0.6071264147758484, -0.7909975051879883, -0.7113893032073975, -0.626302182674408, 0.37775713205337524, -0.3167920708656311, -0.6084228157997131, 0.4065692722797394, -0.22663092613220215, -0.3973487317562103, 0.5807175040245056, -0.09519753605127335, 0.842957615852356, 0.04206880182027817, -0.04300244152545929, 0.30065760016441345, -0.5088342428207397, -0.5021515488624573, -0.45201677083969116, -0.3722088634967804, 0.11152414977550507, 0.18148446083068848, -0.5001999139785767, 0.7432401776313782, -0.31157371401786804, 0.1967889815568924, -0.28925904631614685, -0.5760552883148193, -0.26323217153549194]}, {"w": [[0.1465737670660019, -0.03454466164112091, -0.18117991089820862, 0.027035538107156754, -0.2590186893939972, 0.08490164577960968, 0.19441089034080505, -0.010377523489296436, -0.15678009390830994, 0.14635521173477173, 0.2277301549911499, -0.060599442571401596, -0.10595980286598206, -0.012244072742760181, -0.016369173303246498, 0.013231801800429821, -0.12742149829864502, -0.06670363992452621, -0.059184812009334564, -0.033936575055122375, 0.022850822657346725, -0.06717593222856522, -0.11979212611913681, -0.10756934434175491, -0.12410581856966019, 0.1435798704624176, 0.2631838619709015, -0.07602983713150024, -0.22542887926101685, 0.11817124485969543, 0.06416720151901245, 0.12480846047401428], [-0.017207717522978783, -0.037906449288129807, -0.06667917966842651, -0.26457467675209045, 0.23859287798404694, -0.049395520240068436, -0.06171032413840294, -0.08707547187805176, 0.22350916266441345, 0.029317930340766907, -0.006938965991139412, -0.09397237002849579, 0.2914150059223175, 0.0438457727432251, -0.07484953105449677, -0.18038256466388702, -0.14774850010871887, -0.04485716670751572, 0.13703308999538422, -0.021608944982290268, 0.7165043354034424, 0.13225388526916504, 0.04818573594093323, -0.004144978243857622, -0.07386045157909393, -0.07581108808517456, -0.4682912826538086, 0.17298923432826996, 0.14203967154026031, 0.030152564868330956, 0.20382089912891388, 0.06805556267499924], [0.2364462912082672, 0.10903135687112808, 0.08975150436162949, -0.10834744572639465, 0.17425358295440674, -0.014534161426126957, 0.014065815135836601, -0.20547020435333252, 0.17204232513904572, 0.15804684162139893, -0.12114373594522476, -0.1327291876077652, -0.053675491362810135, 0.01963653415441513, -0.02388736605644226, -0.34155789017677307, 0.08095855265855789, 0.07461392134428024, 0.02831263095140457, 0.04250594228506088, 0.2778271436691284, 0.24992790818214417, 0.1477065086364746, -0.07637780904769897, 0.13164730370044708, 0.0030736075714230537, -0.14554782211780548, 0.026384085416793823, 0.06836061924695969, -0.030930278822779655, -0.00844212993979454, -0.12132454663515091], [0.1656455397605896, -0.4093753695487976, -0.040737334638834, -0.010661953128874302, -0.18464693427085876, 0.043119460344314575, -0.09471305459737778, -0.05416465923190117, 0.10324718058109283, 0.23222246766090393, 0.22279120981693268, 0.037996646016836166, 0.08155446499586105, -0.10928910225629807, 0.1114366427063942, -0.2698056399822235, -0.016715075820684433, -0.01218635868281126, -0.1800902932882309, -0.08083860576152802, -0.05645915865898132, 0.09601719677448273, -0.13630543649196625, -0.10942714661359787, -0.0330779142677784, 0.23008890450000763, -0.028169114142656326, -0.05995163694024086, -0.11526546627283096, 0.20289361476898193, -0.21912090480327606, 0.35735777020454407], [0.1189195066690445, 0.05250858888030052, -0.16345281898975372, 0.005095966625958681, -0.14334706962108612, 0.2140069603919983, 0.006945373024791479, -0.22335174679756165, 0.14745034277439117, 0.07685592025518417, 0.08620637655258179, -0.0803905576467514, -0.22455242276191711, 0.0988999754190445, -0.03656982630491257, -0.0822073370218277, -0.2146606147289276, 0.1435924768447876, -0.20462414622306824, -0.05864069238305092, -0.024311797693371773, -0.1467381864786148, 0.053593844175338745, 0.15476548671722412, 0.07661215960979462, 0.20124831795692444, -0.1316470503807068, -0.05569920688867569, -0.1946391612291336, 0.05190291628241539, -0.20852428674697876, 0.0162469781935215], [0.050757866352796555, 0.22143135964870453, 0.05534745380282402, -0.12611356377601624, -0.0773700550198555, -0.19598093628883362, -0.008530981838703156, 0.16496767103672028, -0.07450234889984131, 0.12698037922382355, -0.15218611061573029, 0.10471539199352264, 0.18115362524986267, 0.0916326642036438, -0.10541361570358276, 0.1628531664609909, 0.03433416038751602, -0.1311977505683899, 0.0051358481869101524, -0.247635155916214, -0.12839019298553467, -0.08005237579345703, 0.1787090301513672, -0.21173596382141113, -0.08767988532781601, -0.03895251825451851, 0.17491298913955688, 0.234571173787117, -0.08539582043886185, 0.09740259498357773, 0.19502457976341248, -0.5485785603523254], [-0.32618996500968933, 0.5428810715675354, 0.3138066232204437, -0.2736748158931732, -0.03155256807804108, -0.5002648234367371, -0.21138493716716766, 0.3584786653518677, -0.3420426547527313, -0.3772549629211426, -0.05692890286445618, -0.06486713141202927, -0.07312917709350586, 0.12135570496320724, -0.0886901468038559, 0.7589818239212036, -0.05651041492819786, -0.16924457252025604, 0.21913091838359833, -0.3452484905719757, -0.00037521988269872963, 0.2456131875514984, 0.2646411955356598, -0.20415936410427094, 0.00387747073546052, -0.21164926886558533, 0.1976713091135025, 0.2210889607667923, 0.0864790603518486, -0.06695125997066498, 0.03196803107857704, -0.5216294527053833], [-0.03260597959160805, -0.31480661034584045, -0.22530660033226013, -0.036177266389131546, -0.09872156381607056, 0.27294155955314636, -0.0037515955045819283, 0.09911113977432251, 0.11179062724113464, 0.05292331799864769, -0.04467952623963356, 0.0011911776382476091, 0.013179183006286621, -0.10276514291763306, -0.17430055141448975, 0.19105780124664307, -0.10657678544521332, -0.06101248413324356, 0.025494417175650597, 0.10555114597082138, 0.0428585521876812, -0.10088877379894257, 0.039726804941892624, 0.006654588505625725, -0.12883542478084564, 0.23290319740772247, 0.1745218187570572, 0.056563712656497955, -0.10916584730148315, -0.0322280190885067, -0.046741120517253876, 0.5710093379020691], [0.06604629009962082, 0.038476403802633286, -0.06459803879261017, 0.17446786165237427, -0.009252090938389301, 0.1066545695066452, 0.022481363266706467, -0.1879158318042755, -0.06995976716279984, -0.054740339517593384, 0.22349940240383148, 0.01815745048224926, -0.10372379422187805, -0.12507116794586182, 0.045651014894247055, 0.09493599832057953, -0.1649891436100006, 0.12653577327728271, 0.04507593810558319, -0.14631371200084686, 0.09343092143535614, 0.11206743121147156, -0.15182527899742126, 0.08142856508493423, 0.03662172332406044, 0.14761075377464294, 0.09415586292743683, -0.19589634239673615, -0.18004398047924042, 0.20294049382209778, -0.14545941352844238, 0.03436093032360077], [-0.18423514068126678, -0.019492322579026222, -0.00784680712968111, 0.14231480658054352, -0.28144416213035583, -0.20663201808929443, 0.0565912164747715, 0.06195547804236412, -0.10801395773887634, -0.07325011491775513, 0.2772929072380066, 0.12689876556396484, -0.2996792197227478, 0.1197650283575058, -0.17745131254196167, 0.38764601945877075, 0.06052160635590553, 0.10918909311294556, 0.10263647139072418, -0.111660435795784, -0.15303608775138855, -0.15497174859046936, -0.23044772446155548, 0.055373746901750565, 0.12289891391992569, -0.01872151531279087, 0.0312226302921772, -0.19827604293823242, -0.023088758811354637, 0.2120806872844696, -0.112195685505867, -0.15111981332302094], [0.025425678119063377, 0.04857037216424942, -0.13074640929698944, 0.06493813544511795, 0.02944704331457615, 0.09327366948127747, 0.16578039526939392, -0.021888837218284607, -0.06670764088630676, 0.07740852981805801, -0.037556130439043045, 0.1674215942621231, -0.18292279541492462, 0.08501600474119186, 0.05182572826743126, 0.028339628130197525, -0.0009208639385178685, 0.05679789558053017, -0.14558145403862, 0.06120767444372177, 0.04378998652100563, 0.02081303484737873, -0.0246739499270916, -0.058633483946323395, -0.08093984425067902, 0.12582652270793915, -0.056492552161216736, -0.000724298763088882, 0.10097081959247589, 0.10963337868452072, -0.19663870334625244, 0.32144472002983093], [0.1924566924571991, -0.09436268359422684, 0.039747532457113266, -0.07079968601465225, -0.13324955105781555, -0.02003156952559948, 0.18754160404205322, 0.051779504865407944, 0.050034549087285995, -0.08447126299142838, 0.0771203264594078, 0.19872167706489563, -0.12115149199962616, -0.09037040919065475, -0.16531001031398773, 0.06612487137317657, 0.1048102080821991, -0.06711027026176453, -0.20579893887043, 0.06907057762145996, -0.3098975121974945, -0.23010733723640442, -0.03708449751138687, 0.02584259584546089, 0.0769886001944542, 0.1505361646413803, 0.17496873438358307, 0.01727185770869255, -0.2500841021537781, -0.06861768662929535, 0.043323688209056854, -0.04681190103292465], [0.04569629207253456, 0.05546208843588829, 0.21523423492908478, 0.007230948191136122, -0.01657268963754177, -0.16603432595729828, -0.1224343404173851, -0.014935823157429695, -0.0694374367594719, 0.058502014726400375, -0.04898775368928909, -0.00515121640637517, 0.07762451469898224, 0.15035203099250793, 0.06453842669725418, -0.07458280026912689, 0.12092113494873047, 0.05299074947834015, 0.08607539534568787, 0.12620380520820618, 0.17330767214298248, -0.05351680889725685, 0.18883584439754486, 0.026362918317317963, -0.0011559250997379422, -0.22734872996807098, 0.05303443223237991, 0.09605032950639725, -0.01562439277768135, -0.2117069661617279, 0.003165705595165491, -0.07865433394908905], [0.2688106298446655, -0.35450825095176697, 0.053793687373399734, 0.17507803440093994, 0.11848386377096176, 0.18552055954933167, 0.23564794659614563, -0.16474533081054688, 0.042077697813510895, 0.18277347087860107, -0.04515870660543442, 0.19143885374069214, -0.040795449167490005, -0.041304051876068115, -0.08763108402490616, -0.3388884961605072, -0.09636849910020828, 0.1939312070608139, -0.21193957328796387, 0.08307769149541855, 0.425506591796875, -0.06279077380895615, -0.19219142198562622, 0.03787757083773613, -0.1353045552968979, 0.12812276184558868, -0.3546673059463501, -0.0911136195063591, -0.1677543967962265, 0.17431390285491943, -0.17705437541007996, 0.439269095659256], [-0.34386900067329407, 0.5226751565933228, 0.1254376471042633, -0.027545589953660965, -0.07996004074811935, -0.26171109080314636, -0.26930102705955505, 0.43457451462745667, -0.31712591648101807, -0.3845817744731903, -0.29008233547210693, -0.1917322725057602, 0.15079012513160706, 0.23628507554531097, -0.07005506753921509, 0.45973727107048035, -0.0344141386449337, -0.16506600379943848, 0.15473897755146027, -0.15807892382144928, -0.21440687775611877, -0.019732413813471794, 0.0670439600944519, -0.06524957716464996, 0.011163453571498394, -0.23872685432434082, 0.3417622447013855, 0.2375342845916748, 0.18124152719974518, -0.18105065822601318, 0.2107890397310257, -0.6216516494750977], [-0.041842978447675705, 0.4314101040363312, 0.1233329251408577, -0.11153340339660645, 0.28890499472618103, 0.17102812230587006, -0.10264963656663895, -0.09129340201616287, 0.14672602713108063, -0.12112216651439667, -0.26564130187034607, -0.07473084330558777, -0.07305262237787247, 0.16741594672203064, -0.0018236632458865643, -0.428115576505661, 0.07276125997304916, 0.11028451472520828, -0.040562424808740616, -0.12245143949985504, 0.30850547552108765, -0.047752417623996735, -0.08589541167020798, 0.05546779930591583, 0.006856103893369436, 0.03066038154065609, -0.1627855747938156, 0.24546624720096588, -0.026783835142850876, 0.10476256906986237, -0.0058268471620976925, -0.41223156452178955], [0.23860877752304077, -0.10529109090566635, -0.21580879390239716, 0.0819600373506546, -0.002049908274784684, -0.010367176495492458, 0.06442853808403015, 0.09865283221006393, -0.004053868353366852, 0.14306201040744781, -0.07183212786912918, -0.0724593922495842, -0.11323656141757965, -0.2514551281929016, -0.08206034451723099, 0.001894512097351253, -0.0636305883526802, -0.04070205241441727, 0.05889704450964928, -0.0728335976600647, -0.04931154102087021, -0.20232948660850525, -0.1892738938331604, 0.07981792092323303, 0.17842671275138855, 0.0376371368765831, -0.148145392537117, -0.05136795714497566, -0.15225955843925476, -0.03373120725154877, -0.02558157965540886, 0.12220527976751328], [-0.06839900463819504, 0.29144489765167236, 0.07887829095125198, -0.037279997020959854, -0.006575038190931082, -0.23461753129959106, 0.08972486853599548, 0.0739578902721405, 0.21908506751060486, 0.1439926028251648, -0.049184367060661316, 0.05445354804396629, -0.12019938975572586, 0.018648745492100716, -0.17971479892730713, -0.020225299522280693, 0.221226304769516, -0.16542400419712067, 0.13796089589595795, 0.06776944547891617, -0.154085174202919, 0.1424786001443863, 0.1306193470954895, 0.0834292620420456, 0.35509708523750305, -0.11702706664800644, 0.1880985051393509, 0.11214983463287354, 0.0647217184305191, -0.03117537871003151, -0.04918850585818291, -0.6442416906356812], [0.02562871016561985, 0.4041841924190521, 0.15012745559215546, -0.08781762421131134, -0.11514604836702347, -0.12012135237455368, 0.10961645841598511, -0.011077259667217731, 0.11208555102348328, -0.00509142829105258, 0.11376438289880753, -0.02036815509200096, 0.0936553105711937, -0.0014628914650529623, -0.17561377584934235, -0.22144590318202972, -0.0012749760644510388, 0.16653791069984436, 0.14372049272060394, 0.11695738136768341, 0.21177177131175995, 0.04878472536802292, 0.1558457762002945, 0.0663580372929573, -0.0781451165676117, -0.07354855537414551, 0.013536745682358742, 0.13720405101776123, -0.07579123228788376, 0.09702112525701523, 0.09106151759624481, -0.6135388612747192], [-0.574569046497345, 0.4919573664665222, 0.1410648673772812, -0.038868583738803864, -0.10306107997894287, -0.19960619509220123, -0.054789260029792786, 0.5501341223716736, -0.3411501348018646, -0.16773569583892822, -0.23757894337177277, 0.030809925869107246, 0.08984753489494324, 0.38836976885795593, -0.04271217808127403, 0.197080597281456, 0.10093794018030167, -0.28585970401763916, 0.2824012041091919, 0.0051469034515321255, -0.18413811922073364, 0.0020300692413002253, -0.014503438957035542, -0.2080422043800354, 0.4025682806968689, -0.3638910949230194, 0.23361003398895264, 0.17216983437538147, 0.18848352134227753, -0.26235276460647583, -0.024177929386496544, -0.6042604446411133], [-0.07939205318689346, 0.1148223951458931, 0.043118685483932495, -0.001160160289146006, -0.04727203771471977, 0.06747139990329742, -0.12526679039001465, 0.21724022924900055, -0.08474061638116837, 0.03910626843571663, -0.1961032748222351, -0.06561410427093506, -0.004607889801263809, 0.21847477555274963, -0.11365346610546112, 0.21847867965698242, -0.04713015630841255, -0.19091980159282684, 0.03719288110733032, -0.0670108050107956, 0.06250777095556259, 0.006652148440480232, 0.043569326400756836, -0.06026767939329147, 0.06099504977464676, -0.062276650220155716, 0.14025601744651794, 0.06115557253360748, 0.2396683394908905, -0.016436219215393066, -0.02995939739048481, -0.12608826160430908], [-0.022379405796527863, 0.27000412344932556, -0.10009873658418655, -0.0934692770242691, -0.07482901215553284, -0.07709401845932007, -0.1170271635055542, -0.05184875428676605, -0.12855148315429688, 0.08423393964767456, -0.0018238419434055686, 0.042075641453266144, 0.10914544761180878, 0.12795618176460266, 0.057839564979076385, -0.21431811153888702, -0.05184587091207504, 0.04890064150094986, 0.04680943489074707, 0.009182797744870186, 0.26808902621269226, 0.1767192780971527, 0.045252203941345215, 0.08111535757780075, -0.09781888127326965, -0.07482679188251495, 0.03870813176035881, -0.023185057565569878, 0.24147634208202362, -0.14493922889232635, -0.007654518820345402, -0.25464874505996704], [0.24291597306728363, -0.3740554451942444, 0.006373376585543156, 0.08474051207304001, -0.20809045433998108, 0.009121241979300976, 0.07045944035053253, -0.260029673576355, 0.04280740022659302, 0.10562185943126678, 0.20499251782894135, 0.13350693881511688, -0.12687021493911743, 0.0014141041319817305, -0.009370672516524792, -0.13987237215042114, -0.08465930074453354, 0.1074003279209137, 0.09151723980903625, -0.13482846319675446, -0.09210023283958435, 0.03633243218064308, -0.06737729161977768, 0.18950824439525604, 0.013062658719718456, -0.02425345964729786, -0.08965373784303665, -0.17472906410694122, -0.10284382104873657, 0.17241616547107697, -0.052693918347358704, 0.36040088534355164], [0.2079911231994629, -0.0890451967716217, -0.1483904868364334, 0.029073528945446014, 0.003172709373757243, 0.006740589160472155, 0.10583353042602539, 0.06995878368616104, 0.0841931477189064, -0.05946847051382065, -0.015267221257090569, -0.10040786862373352, -0.0449775829911232, -0.24445544183254242, -0.0856439396739006, 0.11332759261131287, -0.05950016528367996, 0.14933940768241882, -0.1626376062631607, 0.029271595180034637, -0.18742157518863678, -0.010084167122840881, -0.19370262324810028, -0.02065555937588215, 0.04329853504896164, 0.08305781334638596, -0.039552897214889526, -0.06409833580255508, -0.10327936708927155, -0.09990333020687103, 0.0795522928237915, -0.08451532572507858], [0.05531146749854088, 0.12715765833854675, 0.01700061932206154, -0.1652422845363617, 0.36853542923927307, 0.2096986025571823, -0.0438811220228672, -0.03142210468649864, 0.19431637227535248, 0.1379503458738327, -0.19155967235565186, 0.1911463886499405, 0.1898200362920761, 0.1795898973941803, -0.015049912966787815, -0.0861971527338028, -0.08378154784440994, -0.09586407244205475, -0.022515811026096344, -0.06312858313322067, 0.07613284885883331, 0.17340892553329468, 0.15992115437984467, -0.10353463888168335, -0.17199155688285828, 0.07868531346321106, -0.08901047706604004, 0.24748747050762177, -0.031969714909791946, -0.18178138136863708, 0.2227669209241867, -0.15781430900096893], [0.09554176032543182, 0.2178402543067932, 0.18436090648174286, -0.1649208962917328, -0.03943217545747757, 0.03266075626015663, 0.11047030985355377, -0.07134740054607391, 0.06653522700071335, -0.10767502337694168, -0.19252963364124298, -0.05936410278081894, 0.2605820596218109, 0.2184077501296997, 0.15709421038627625, 0.047893963754177094, -0.015150939114391804, 0.024422476068139076, 0.12432307749986649, -0.0682881698012352, 0.2758471965789795, 0.05158793926239014, 0.00906085129827261, 0.04294721782207489, 0.15040339529514313, 0.07387150079011917, -0.13232846558094025, -0.04239126294851303, 0.21956323087215424, 0.0181075818836689, 0.22972925007343292, -0.4809111952781677], [0.3710407316684723, -0.39961713552474976, 0.006964025553315878, 0.1027890145778656, -0.11235307902097702, 0.3330385386943817, 0.2665674686431885, -0.26736006140708923, 0.7028420567512512, 0.28888174891471863, 0.21759691834449768, 0.0962398499250412, -0.08586784452199936, -0.19328449666500092, -0.08819705992937088, -0.8106015920639038, 0.12821024656295776, 0.16819216310977936, -0.13833245635032654, 0.29032468795776367, 0.008340943604707718, 0.11313056945800781, 0.08817824721336365, 0.045251891016960144, -0.11961828917264938, -0.006726473569869995, -0.053444523364305496, -0.17906266450881958, -0.09702841192483902, 0.21121282875537872, -0.12495703250169754, 0.37575480341911316], [-0.2227058857679367, 0.04107673466205597, 0.034079164266586304, 0.057465601712465286, -0.38308531045913696, -0.2615021765232086, -0.018583601340651512, 0.31138941645622253, 0.115560382604599, 0.08253197371959686, 0.0999588668346405, -0.018984993919730186, -0.27212974429130554, 0.13472306728363037, -0.13163688778877258, 0.3411432206630707, -0.19550611078739166, 0.14082881808280945, -0.08501135557889938, -0.18215857446193695, -1.027842402458191, -0.21489699184894562, -0.31507065892219543, 0.15757974982261658, -0.16371388733386993, -0.04122162610292435, 0.5758363604545593, -0.312616229057312, -0.2018587291240692, -0.0802687257528305, -0.3156449794769287, -0.1922227442264557], [0.007755858823657036, -0.11139262467622757, 0.03860434889793396, 0.2169097363948822, 0.018178896978497505, -0.15937937796115875, 0.070356085896492, 0.004454928450286388, 0.15299074351787567, 0.1159745529294014, -0.076499804854393, -0.18121640384197235, -0.15226010978221893, -0.13830281794071198, 0.12490203976631165, -0.021971790120005608, 0.01345466822385788, 0.16868528723716736, 0.011954089626669884, -0.19463388621807098, -0.05122378095984459, -0.20315589010715485, -0.16554822027683258, -0.0977710410952568, -0.08739817142486572, 0.2252318412065506, 0.06211136281490326, -0.15342861413955688, -0.13075681030750275, -0.09344851970672607, -0.15406830608844757, 0.2667093873023987], [-0.1631235033273697, 0.1721249222755432, 0.13095644116401672, 0.04329643025994301, -0.005799328908324242, -0.10296762734651566, 0.1363082379102707, -0.0027075691614300013, -0.20331242680549622, -0.11602649837732315, -0.022381022572517395, -0.06711048632860184, 0.14947250485420227, -0.07171119004487991, 0.0814003273844719, -0.04117529094219208, -0.028790142387151718, -0.06963765621185303, 0.2370583415031433, 0.08838792890310287, 0.32380321621894836, 0.045697662979364395, 0.19824320077896118, -0.0579085648059845, 0.11985963582992554, -0.1265379637479782, -0.12253352999687195, -0.05550745502114296, 0.05608315393328667, -0.1338568776845932, 0.22042278945446014, -0.38592106103897095], [0.10612449795007706, -0.3301432132720947, 0.04034096747636795, 0.08191535621881485, -0.1849260777235031, 0.09811384230852127, -0.11914891749620438, -0.03435133025050163, -0.13758814334869385, -0.1199827715754509, 0.23329852521419525, 0.12145348638296127, -0.027122709900140762, 0.04485093057155609, -0.16044096648693085, 0.10247033834457397, -0.08060264587402344, -0.049562159925699234, -0.09818288683891296, 0.18092088401317596, -0.18349701166152954, -0.03171751648187637, 0.008862979710102081, -0.03922724351286888, 0.08445979654788971, 0.013736783526837826, 0.138510063290596, 0.09091822803020477, -0.008064228110015392, -0.06355015933513641, -0.18775975704193115, 0.34540465474128723], [0.40745478868484497, 0.4022018313407898, -0.11837325990200043, -0.5616886019706726, 0.8584680557250977, 0.5051208138465881, -0.03207145631313324, -0.48698484897613525, 0.34428659081459045, 0.01511209923774004, -0.3555058240890503, 0.20501573383808136, 0.6306621432304382, -0.1498851776123047, -0.20436657965183258, -1.1405400037765503, 0.16302312910556793, 0.010735219344496727, 0.019989732652902603, 0.4817357361316681, 1.223820447921753, 0.3567348122596741, 0.4680013656616211, -0.2813393175601959, 0.3509306013584137, -0.08616048842668533, -0.5144208669662476, 0.40246647596359253, 0.10360417515039444, -0.11160950362682343, 0.5775890350341797, 0.2876211404800415]], "b": [0.04943032190203667, -0.09118258953094482, -0.0013692007632926106, -0.1533641666173935, 0.05047054588794708, 0.23574180901050568, 0.28311872482299805, 0.09560536593198776, 0.029806137084960938, -0.08894885331392288, -0.137879878282547, -0.07871513068675995, -0.11055545508861542, -0.06755495816469193, 0.4013390839099884, -0.11024187505245209, -0.1467333436012268, -0.08254993706941605, -0.012822570279240608, 0.1995830535888672, 0.20088854432106018, -0.02802610956132412, -0.2170756459236145, 0.09233899414539337, 0.14439353346824646, -0.10539358109235764, -0.22971035540103912, 0.07000060379505157, -0.12788714468479156, -0.11229029297828674, 0.08535228669643402, -0.460064172744751]}, {"w": [[0.19251298904418945, -0.25423845648765564, -0.08157570660114288, 0.21052172780036926, 0.16820000112056732, -0.15496110916137695, -0.1663847416639328, 0.1202038899064064, 0.24492785334587097, 0.2711811661720276, 0.15683908760547638, 0.2295810431241989, -0.14515365660190582, 0.25291773676872253, -0.1516837775707245, -0.11348197609186172, 0.23084865510463715, -0.17227396368980408, -0.05288906395435333, -0.15021707117557526, -0.1916031688451767, -0.14467589557170868, 0.2702714204788208, 0.2317221313714981, -0.09896574169397354, -0.23712897300720215, 0.2936888635158539, 0.2361411452293396, 0.18846628069877625, -0.2619933485984802, 0.06579426676034927, -0.31008464097976685]], "b": [0.11691629886627197]}], "train": {"venue": "lake_perp_mid", "events": 1459, "cap_ts": 0, "target": "market_prob"}}