{"arch": {"hidden": 32, "clamp": 2.0, "act": "tanh", "logit": "raw", "mode": "direct"}, "features": "zp=(px-b)/s/sqrt(tte/900); u_in=[zp, log(tte/900)] + extras", "rho_bar": 4.911449432373047, "b_prior": "strike", "b_scale": 50.0, "extras": [], "mu": [], "sd": [], "layers": [{"w": [[0.08031405508518219, -0.45638734102249146], [0.33547359704971313, 0.2705104351043701], [-0.41077619791030884, -0.36571404337882996], [-0.3053065240383148, 0.04861638695001602], [-0.1631118208169937, 0.5139816403388977], [0.38471925258636475, 0.29708996415138245], [-0.46464458107948303, -0.30885210633277893], [-0.2224809229373932, -0.2433178424835205], [0.5745179653167725, -0.2834055721759796], [0.5547255277633667, -0.4841161370277405], [0.5737980604171753, 0.09075642377138138], [0.4828743040561676, 0.5105422735214233], [0.1714649200439453, 0.12578918039798737], [0.6008625626564026, 0.31916049122810364], [0.7243385910987854, -0.2941707372665405], [0.6470025777816772, 0.28539523482322693], [0.11585547029972076, 0.468738317489624], [0.5265843868255615, 0.16309936344623566], [-0.30248385667800903, -0.31238359212875366], [-0.30659201741218567, -0.3328237533569336], [0.38987258076667786, -0.08851420134305954], [-0.583583652973175, 0.3969666063785553], [0.6318259835243225, 0.3324776887893677], [-0.27923694252967834, 0.054497718811035156], [0.4757385551929474, -0.5969452261924744], [-0.5196322798728943, 0.2851060926914215], [0.7213164567947388, 0.1342659890651703], [-0.4967842400074005, -0.23495231568813324], [-0.48523837327957153, -0.07298237830400467], [0.46659591794013977, 0.3038891553878784], [-0.1052408218383789, 0.0187197495251894], [0.1260189563035965, -0.6278519630432129]], "b": [-0.8352096676826477, 0.36202090978622437, -0.5948317050933838, -0.30645880103111267, 0.32206812500953674, 0.5940502882003784, -0.24139776825904846, -0.4388498067855835, 0.6848300695419312, -0.5126066207885742, -0.3178909718990326, 0.7735349535942078, 0.25168201327323914, 0.1636674702167511, 0.5208650231361389, -0.2653028666973114, 1.0948288440704346, -0.47200557589530945, -0.5125460624694824, -0.46101582050323486, -0.5869547128677368, -0.3109508752822876, 0.36116141080856323, 0.4700956642627716, -0.08714552968740463, 0.9095524549484253, -0.8498560190200806, -0.39432647824287415, 0.4850364029407501, 0.13198520243167877, -0.9073485136032104, -0.7189573645591736]}, {"w": [[-0.08033455908298492, 0.21419548988342285, -0.007559502497315407, 0.09474964439868927, -0.2037242352962494, -0.10183552652597427, -0.19414259493350983, -0.08648166060447693, -0.06992612034082413, -0.05928625538945198, 0.20376157760620117, 0.06446997821331024, 0.002436433220282197, 0.15918828547000885, -0.07731489092111588, 0.19437742233276367, 0.17319640517234802, 0.06514846533536911, -0.049977052956819534, -0.21320700645446777, -0.02491168864071369, -0.12732204794883728, -0.025995351374149323, -0.052071038633584976, 0.13938777148723602, -0.12687626481056213, 0.20054496824741364, -0.1604207307100296, -0.050027985125780106, 0.028433367609977722, -0.09402387589216232, -0.07012871652841568], [0.07953924685716629, 0.007196884136646986, -0.03870367631316185, -0.006881305016577244, -0.11236416548490524, 0.0327766127884388, 0.21719829738140106, 0.1409246027469635, -0.03368791192770004, 0.049097903072834015, 0.0852530226111412, -0.12813465297222137, -0.1110314130783081, -0.0027551737148314714, 0.06319970637559891, -0.12238533794879913, -0.2706546187400818, -0.1759198158979416, 0.07941381633281708, 0.05466948077082634, 0.0899711400270462, -0.011376709677278996, -0.11244460940361023, -0.1149788424372673, -0.19513040781021118, 0.1244516596198082, 0.0944676324725151, 0.05673540011048317, -0.0948387011885643, -0.0009144311188720167, 0.11907105892896652, -0.15858188271522522], [0.6672421097755432, 0.13134784996509552, -0.22591572999954224, -0.18907244503498077, -0.1900896430015564, -0.052603404968976974, -0.17668473720550537, -0.16910797357559204, -0.25266170501708984, 0.09867570549249649, 0.23199449479579926, 0.05442060902714729, 0.22308747470378876, 0.16094906628131866, -0.36053869128227234, 0.14828434586524963, -0.24015967547893524, 0.13617660105228424, 0.00037802333827130497, -0.1708235889673233, 0.357790470123291, 0.31463298201560974, 0.09485883265733719, -0.15798574686050415, -0.08905281871557236, -0.2073938548564911, 0.07669415324926376, 0.015062388963997364, -0.08165054023265839, 0.198531374335289, 0.4338372051715851, 0.5579258799552917], [0.9763767719268799, -0.30192309617996216, 0.24664510786533356, 0.10458251088857651, -0.03287341818213463, -0.20448622107505798, 0.1549299657344818, 0.11161892116069794, -0.08065429329872131, 0.20240908861160278, -0.07461828738451004, -0.4138878583908081, -0.39801937341690063, -0.12771789729595184, 0.07116340100765228, -0.04238918796181679, -0.6696761250495911, 0.1447898894548416, 0.14457561075687408, 0.2091021090745926, -0.06599785387516022, 0.24877133965492249, -0.06046668067574501, -0.040301114320755005, 0.15855176746845245, 0.02647409215569496, -0.0034736243542283773, 0.08909901231527328, 0.0534057691693306, -0.079114630818367, 0.2692050337791443, 0.19694028794765472], [-0.5030514597892761, -0.014196168631315231, -0.1129416823387146, -0.10461845993995667, -0.009620573371648788, 0.004949299152940512, -0.21823932230472565, -0.14630401134490967, 0.07787280529737473, 0.14267174899578094, 0.21579036116600037, 0.2796655297279358, 0.2396503984928131, 0.04119428992271423, -0.007617392111569643, -0.00899709202349186, 0.22219540178775787, -0.03385511785745621, -0.23405073583126068, -0.24012970924377441, -0.04270796477794647, 0.2053793966770172, -0.002580653876066208, -0.1869439035654068, -0.1623212695121765, 0.1698846071958542, 0.08899987488985062, -0.09510570764541626, -0.0945008397102356, 0.227223739027977, -0.2112886905670166, -0.057245127856731415], [-0.7559916973114014, 0.22398346662521362, -0.2995559573173523, -0.19897185266017914, 0.05219849571585655, 0.3344700038433075, -0.11451222747564316, -0.4450477063655853, 0.1531996726989746, 0.009116154164075851, 0.061746783554553986, 0.15075790882110596, 0.07589934766292572, 0.24240165948867798, -0.1719127595424652, 0.021546920761466026, 0.41248804330825806, 0.10458122938871384, -0.30478304624557495, -0.23800592124462128, -0.12449313700199127, -0.13484099507331848, 0.2279866486787796, 0.11255810409784317, 0.007652879226952791, 0.17497725784778595, -0.08954078704118729, -0.14181286096572876, -0.1697043925523758, 0.08012315630912781, -0.317964106798172, -0.3548286259174347], [0.23016218841075897, -0.0005918864626437426, -0.09122418612241745, -0.06524520367383957, -0.21730342507362366, 0.039764318615198135, -0.055501338094472885, 0.06759609282016754, -0.16753777861595154, 0.19800713658332825, -0.009305134415626526, 0.2259661704301834, 0.22007489204406738, 0.0992463007569313, -0.11502575874328613, 0.21688751876354218, -0.004111937712877989, -0.0057062110863626, -0.13983914256095886, -0.2184268832206726, 0.061041995882987976, -0.13301897048950195, 0.1829656958580017, -0.2799831032752991, -0.09416065365076065, -0.01887885481119156, 0.2034117579460144, 0.12414732575416565, -0.23809678852558136, 0.22809457778930664, 0.2920753061771393, -0.03484269976615906], [0.26319271326065063, 0.009716978296637535, -0.011139694601297379, -0.17921264469623566, -0.18783199787139893, -0.06205187737941742, -0.09925530105829239, -0.059474505484104156, -0.13057878613471985, -0.06374070048332214, 0.15243469178676605, 0.17917455732822418, -0.1161324679851532, -0.096617192029953, -0.1034771203994751, 0.12072499096393585, -0.10851936042308807, 0.03791281580924988, -0.04948565363883972, -0.18985767662525177, 0.23495003581047058, 0.14844045042991638, 0.194612056016922, -0.15274548530578613, -0.08557960391044617, -0.036033906042575836, 0.18162284791469574, 0.04350525140762329, -0.19169612228870392, 0.20526009798049927, 0.05992331728339195, 0.05962967500090599], [-0.013703742995858192, 0.1607566922903061, -0.26130062341690063, -0.14268961548805237, -0.1299559623003006, 0.1958039402961731, -0.1186865046620369, 0.01157446950674057, 0.11424761265516281, 0.056224480271339417, -0.04457708075642586, 0.14312157034873962, 0.15258221328258514, 0.03940097615122795, -0.28815579414367676, 0.18534661829471588, 0.08782573789358139, -0.07367072999477386, 0.007546602748334408, -0.033378466963768005, 0.20078438520431519, -0.05104982852935791, 0.1852446347475052, -0.12076902389526367, 0.03374315798282623, 0.11224628239870071, 0.2588081955909729, 0.06488977372646332, -0.1340755820274353, 7.632066626683809e-06, 0.08584810048341751, 0.15017175674438477], [-0.006729056593030691, 0.03915942832827568, 0.025710785761475563, 0.11282525211572647, 0.12498675286769867, 0.0698026567697525, 0.02935076132416725, -0.1295381486415863, -0.013252473436295986, -0.11923211812973022, 0.10608019679784775, -0.06221676990389824, 0.00032927925349213183, -0.11296606063842773, 0.05654717981815338, 0.07166758179664612, -0.0036836701910942793, 0.052069518715143204, 0.13894328474998474, -0.13725833594799042, 0.026199517771601677, 0.13469530642032623, -0.12943820655345917, 0.07100818306207657, 0.006017820443958044, 0.1329001635313034, -0.00794648565351963, -0.10717050731182098, -0.0851232260465622, 0.10812154412269592, -0.1231219545006752, -0.1983112245798111], [-0.32765814661979675, -0.23262841999530792, 0.12876416742801666, 0.05835455656051636, -0.0045273397117853165, -0.11084245145320892, 0.10890647023916245, 0.1552356332540512, 0.18210424482822418, -0.14541251957416534, 0.08811258524656296, 0.04187168926000595, -0.21203750371932983, 0.08087614178657532, -0.08753462135791779, -0.20132581889629364, -0.055185772478580475, -0.01146245002746582, 0.24016910791397095, 0.07712262123823166, 0.039406999945640564, -0.06164100021123886, -0.20873859524726868, 0.07347657531499863, 0.01126771979033947, -0.007115308195352554, -0.23823831975460052, -0.04427720606327057, 0.12111680954694748, 0.08648180961608887, -0.10555620491504669, -0.22958749532699585], [-0.700753927230835, -0.025654295459389687, 0.07369344681501389, -0.019936293363571167, 0.4004895091056824, -0.026615727692842484, 0.2382752150297165, 0.23706503212451935, 0.23821355402469635, -0.021937767043709755, -0.2778337299823761, -0.01270708255469799, -0.19329875707626343, 0.024220561608672142, 0.5353168249130249, -0.11722543835639954, 0.054225482046604156, -0.13618817925453186, 0.028178060427308083, 0.1482151597738266, -0.1016363650560379, -0.21277998387813568, -0.0701727420091629, 0.05935800075531006, -0.011313791386783123, 0.20746785402297974, -0.22612342238426208, 0.16588951647281647, 0.3525852560997009, -0.08198529481887817, -0.3983149528503418, -0.4286332428455353], [0.01378161646425724, -0.06341131031513214, 0.20515790581703186, -0.13188065588474274, 0.06880415230989456, -0.15413379669189453, 0.2162204384803772, 0.17538225650787354, 0.05970696732401848, -0.21763379871845245, -0.0977325290441513, 0.025100158527493477, -0.10629404336214066, -0.08816922456026077, -0.10400702059268951, 0.05712856352329254, 0.06939154118299484, -0.21029360592365265, -0.039001673460006714, 0.0887744203209877, -0.17602384090423584, -0.15151943266391754, -0.021971208974719048, 0.04436521232128143, -0.01969720795750618, 0.1304720640182495, 0.07296458631753922, 0.16572099924087524, -0.07871375977993011, -0.22413809597492218, 0.0348573699593544, -0.22439922392368317], [0.350064218044281, -0.0271475687623024, 0.07018368691205978, 0.10916198045015335, -0.2639455199241638, -0.09549324214458466, -0.1681404411792755, -0.13980087637901306, -0.3058468997478485, 0.163053959608078, 0.13661646842956543, 0.08856333792209625, 0.04880041629076004, 0.16840139031410217, -0.248379647731781, 0.08027421683073044, -0.01766999624669552, 0.21665985882282257, -0.06401433795690536, 0.05063149333000183, 0.07373664528131485, 0.08758494257926941, 0.18023094534873962, -0.023546334356069565, -0.1308075487613678, -0.24433735013008118, 0.24264094233512878, -0.02968684397637844, -0.20703396201133728, -0.06344342231750488, 0.09903249889612198, 0.3661302328109741], [0.29700490832328796, -0.005540996324270964, 0.06305716186761856, 0.10846982151269913, -0.015784576535224915, 0.05320405960083008, 0.09042849391698837, -0.11857765167951584, -0.18455253541469574, 0.1343008428812027, 0.0017262083711102605, 0.24273255467414856, -0.025529390200972557, 0.14373503625392914, -0.1726449877023697, -0.03770452365279198, 0.09700911492109299, 0.1940220594406128, -0.20980671048164368, -0.11429889500141144, 0.16146451234817505, -0.0361049547791481, -0.08218080550432205, -0.08481311053037643, 0.010397160425782204, -0.022349676117300987, 0.15807707607746124, -0.11544325947761536, -0.17532391846179962, 0.18124374747276306, -0.07464415580034256, 0.18403173983097076], [0.03835974261164665, -0.006714693736284971, -0.03577924519777298, 0.10765299946069717, 0.013598998077213764, 0.010104848071932793, -0.005604426376521587, 0.137770876288414, 0.052070025354623795, -0.1816774159669876, -0.23851686716079712, -0.16850683093070984, 0.009628784842789173, -0.11713191866874695, -0.0007367297657765448, -0.18810896575450897, -0.21196085214614868, -0.0734717920422554, 0.03569699078798294, 0.13882899284362793, 0.09887450188398361, -0.09320610761642456, -0.12972372770309448, 0.14711393415927887, -0.2722635269165039, 0.03635363653302193, -0.16970191895961761, 0.1723368912935257, 0.06336493790149689, -0.06266084313392639, 0.03480110689997673, -0.20061025023460388], [-0.25781720876693726, 0.08616075664758682, 0.1158197894692421, -0.07143743336200714, 0.3107883930206299, 0.1284542977809906, -0.00868083257228136, -0.04860151559114456, 0.2582784593105316, -0.12457767128944397, -0.2473025918006897, -0.19304120540618896, -0.12979543209075928, 0.034534208476543427, 0.35839807987213135, -0.23210982978343964, 0.16599485278129578, 0.11891485750675201, -0.055102184414863586, -0.07006315141916275, 0.010038369335234165, -0.34089112281799316, -0.22538457810878754, 0.16984300315380096, 0.1406019628047943, 0.1578356921672821, -0.1336330771446228, 0.17603914439678192, 0.011166878044605255, 0.07787226140499115, -0.20736730098724365, -0.22585508227348328], [0.47628647089004517, -0.0073934332467615604, -0.003761030500754714, 0.05861375108361244, 0.08758305013179779, -0.24183636903762817, 0.08059673756361008, 0.2893994152545929, -0.2566543221473694, 0.061340611428022385, -0.20896810293197632, -0.3395118713378906, -0.1602892130613327, -0.22416114807128906, -0.08150122314691544, 0.05542953684926033, -0.40749722719192505, -0.12152692675590515, 0.25978922843933105, -0.06901337951421738, 0.03277794271707535, -0.014673477970063686, -0.1797938495874405, 0.023297743871808052, 0.12263622879981995, -0.0493045300245285, -0.21107177436351776, 0.12497656047344208, -0.036545947194099426, -0.18335595726966858, 0.235577791929245, 0.13755346834659576], [-0.02830265276134014, 0.10921499133110046, -0.08578525483608246, -0.0035254776012152433, -0.11862868070602417, -0.020954454317688942, -0.006831035483628511, 0.008588170632719994, 0.007704403251409531, 0.1828562319278717, 0.08037462085485458, 0.19522003829479218, 0.04625912383198738, 0.059922244399785995, -0.06387805193662643, 0.11781423538923264, -0.02286614663898945, -0.04967610910534859, -0.031169893220067024, 0.03292757645249367, 0.24137811362743378, 0.15542322397232056, 0.20262138545513153, -0.030531687662005424, 0.17258626222610474, -0.09432495385408401, 0.12977448105812073, 0.0021731925662606955, -0.06744401156902313, 0.08620934933423996, 0.043548084795475006, -0.06021679937839508], [0.6184866428375244, 0.12846198678016663, 0.06734584271907806, -0.08207143843173981, -0.4252980947494507, -0.08552325516939163, -0.07213421165943146, 0.04139164090156555, -0.3510991632938385, 0.016630835831165314, 0.30675241351127625, -0.014802487567067146, 0.1347370743751526, 0.15922212600708008, -0.24147777259349823, 0.3563462197780609, -0.23999926447868347, 0.39728817343711853, 0.07115498185157776, -0.006890713237226009, 0.36306214332580566, 0.20404741168022156, 0.2603880763053894, -0.29857876896858215, -0.21161629259586334, -0.292964369058609, 0.26208406686782837, 0.05671299248933792, -0.28521037101745605, 0.21357305347919464, 0.2847534716129303, 0.4732765257358551], [-0.1933102309703827, 0.23839297890663147, -0.15455687046051025, 0.002639888320118189, -0.09447922557592392, 0.10159680247306824, 0.04630390554666519, -0.053954124450683594, -0.18493321537971497, 0.07099299877882004, -0.08247217535972595, 0.24886585772037506, 0.18683549761772156, 0.19505387544631958, -0.027738764882087708, -0.10503063350915909, -0.061009980738162994, -0.09712408483028412, 0.020258497446775436, 0.09345942735671997, 0.1644618809223175, -0.01911839470267296, -0.0420963428914547, -0.1711759716272354, 0.15393395721912384, -0.2147117555141449, -0.10292648524045944, 0.023685680702328682, -0.05315984785556793, -0.020685521885752678, -0.05075828731060028, -0.15018950402736664], [-0.08986455947160721, -0.17177779972553253, 0.06278987228870392, 0.16375014185905457, -0.03156343474984169, 0.08193022012710571, 0.025970641523599625, 0.24342800676822662, -0.02018212340772152, 0.06130256503820419, -0.18254616856575012, -0.1912647932767868, -0.21931059658527374, 0.030339248478412628, -0.18545328080654144, 0.03160296380519867, -0.2548541724681854, -0.1709146350622177, 0.04265725612640381, 0.0624089352786541, -0.13822853565216064, 0.06521700322628021, -0.14136910438537598, 0.09884960204362869, -0.13114219903945923, 0.09344019740819931, 0.04081062600016594, 0.059077758342027664, 0.23898661136627197, -0.02520134299993515, -0.14189188182353973, 0.04823126643896103], [-0.2002892792224884, 0.030385026708245277, -0.06225358694791794, 0.062192775309085846, -0.045521046966314316, -0.12987889349460602, 0.01896551437675953, 0.005529101472347975, -0.06480719149112701, 0.06942687928676605, -0.005513088312000036, -0.08041907846927643, -0.08129224181175232, -0.030312471091747284, 0.025615515187382698, -0.25656187534332275, -0.2162032276391983, 0.05037042498588562, 0.06539063900709152, 0.11022908985614777, 0.019745182245969772, 0.17297343909740448, -0.12536004185676575, 0.22552113234996796, -0.2543565332889557, 0.06725525110960007, 0.05547922104597092, -0.010391470976173878, 0.26441293954849243, -0.16903191804885864, -0.12434448301792145, 0.046372417360544205], [0.35478585958480835, -0.05882594734430313, 0.01900901459157467, -0.0023723908234387636, -0.2250850945711136, -0.0008741905330680311, -0.056508004665374756, -0.22008320689201355, -0.16807052493095398, 0.08272083103656769, 0.2017822414636612, 0.22033542394638062, -0.02634715661406517, 0.15739460289478302, -0.09491494297981262, 0.06719128042459488, -0.1514575332403183, 0.11427358537912369, 0.09666178375482559, -0.20954933762550354, 0.062201276421546936, 0.1956682801246643, 0.06469398736953735, 0.03896721452474594, -0.03237006813287735, -0.16010311245918274, -0.06143661588430405, -0.1490935981273651, -0.11646904051303864, 0.18272635340690613, 0.1852349191904068, 0.11862751841545105], [0.3081810474395752, 0.11124634742736816, -0.17297300696372986, -0.13770894706249237, -0.09915713965892792, 0.013342578895390034, -0.00851363968104124, -0.0011112323263660073, -0.0346134677529335, -0.06444603204727173, -0.029167434200644493, -0.02515517920255661, 0.10839460045099258, -0.0949573740363121, -0.18052931129932404, 0.23753780126571655, 0.05135689675807953, 0.12261626869440079, -0.1530555933713913, -0.09955260157585144, -0.007503574714064598, 0.09979064017534256, -0.027651941403746605, -0.13954637944698334, 0.10897987335920334, -0.05999717488884926, -0.010506611317396164, -0.06829455494880676, -0.10364919155836105, -0.10276491940021515, 0.18070460855960846, -0.016875138506293297], [0.061223145574331284, 0.04170472174882889, 0.022875038906931877, -0.02608056738972664, 0.19571474194526672, 0.08617669343948364, 0.03152376413345337, 0.004085556138306856, 0.0003939468297176063, 0.1102762371301651, -0.15216326713562012, -0.014881151728332043, -0.013865835964679718, 0.07736638188362122, 0.051058195531368256, 0.028619255870580673, -0.13036787509918213, -0.12659893929958344, 8.590966899646446e-05, -0.1064116507768631, -0.20610812306404114, 0.04959398880600929, 0.02324873022735119, 0.0197907704859972, -0.15937234461307526, 0.16503959894180298, 0.10871481150388718, 0.2180236130952835, -0.010913494043052197, -0.213691845536232, 0.04600957781076431, 0.05797986686229706], [-0.01372936088591814, -0.027704857289791107, 0.21845713257789612, -0.03679637610912323, -0.020887384191155434, -0.050062812864780426, 0.22641950845718384, -0.01799289509654045, 0.1227019652724266, -0.12172288447618484, -0.1860439032316208, -0.19352635741233826, 0.11008208990097046, 0.071870356798172, 0.23220136761665344, 0.08700244128704071, -0.2100752592086792, 0.04396650195121765, 0.14159949123859406, -0.0030418450478464365, 0.04386238753795624, 0.022501317784190178, -0.14530251920223236, 0.16928689181804657, 0.030239205807447433, 0.18914470076560974, -0.0799161046743393, -0.051106736063957214, 0.24906425178050995, -0.0036011431366205215, 0.17742253839969635, -0.13396421074867249], [0.049292609095573425, -0.04135078564286232, 0.1808813363313675, 0.09876134991645813, 0.006302598863840103, 0.0234797652810812, 0.2184852510690689, -0.05828423053026199, 0.20738476514816284, 0.09883592277765274, 0.09710768610239029, -0.03057725355029106, -0.11252505332231522, -0.10966412723064423, 0.0175053421407938, -0.1674250066280365, 0.04167785495519638, 0.04297215864062309, 0.015026607550680637, 0.205903559923172, 0.006721746176481247, 0.1505599468946457, 0.10647991299629211, 0.016092369332909584, -0.1977517157793045, -0.06645828485488892, 0.11993059515953064, -0.05465896055102348, 0.0637594684958458, 0.06366651505231857, -0.08747993409633636, 0.03876053914427757], [0.05057990923523903, -0.05675220116972923, 0.19564886391162872, -0.0778103768825531, -0.019697649404406548, -0.18485336005687714, 0.05418046563863754, 0.32183486223220825, 0.12572254240512848, 0.05299937352538109, -0.15330716967582703, -0.18783797323703766, -0.14141424000263214, 0.08842293173074722, -0.11938431859016418, -0.11965774744749069, -0.4142162799835205, 0.017971208319067955, 0.08737507462501526, 0.021425586193799973, -0.21641281247138977, -0.015480788424611092, -0.24394959211349487, 0.11899632960557938, -0.22390909492969513, -0.04822330176830292, 0.10435433685779572, -0.08438804000616074, -0.07254853844642639, -0.21866033971309662, -0.01598525047302246, 0.13098761439323425], [0.14216859638690948, -0.19654938578605652, 0.18705244362354279, 0.20171372592449188, 0.15408481657505035, -0.05542236566543579, 0.08815661072731018, 0.16778114438056946, 0.15203392505645752, 0.06919263303279877, -0.18312276899814606, -0.26770123839378357, -0.18405665457248688, -0.13061988353729248, 0.20705316960811615, -0.227280393242836, -0.19038501381874084, 0.11215364933013916, 0.13789474964141846, -0.026670897379517555, -0.03185207024216652, -0.083323635160923, -0.17000849545001984, -0.11036696285009384, -0.2881310284137726, 0.1937716156244278, -0.07757711410522461, -0.04235906898975372, -0.03861847147345543, -0.1959608942270279, -0.08651068806648254, 0.011590794660151005], [-0.04180513322353363, 0.09662319719791412, -0.00790821947157383, 0.08466888964176178, -0.1668996512889862, 0.025765232741832733, 0.10154347121715546, -0.0994463562965393, -0.25003859400749207, -0.011402922682464123, 0.12421198934316635, 0.0680929571390152, 0.1383349746465683, -0.06784555315971375, 0.054146908223629, -0.005038549657911062, -0.004208728671073914, 0.04750951752066612, 0.09512441605329514, 0.0650077760219574, 0.21373164653778076, -0.012326102703809738, 0.1959490031003952, -0.07419754564762115, 0.1556478887796402, -0.11628466099500656, -0.01657644286751747, -0.18456225097179413, -0.08153248578310013, -0.005056159570813179, 0.2046712189912796, -0.030660897493362427], [0.37282732129096985, -0.04325780272483826, 0.04212982580065727, 0.0032541134860366583, -0.2185950130224228, 0.051238857209682465, -0.22365380823612213, -0.033856458961963654, -0.30383598804473877, -0.1308230310678482, 0.22421903908252716, 0.19784651696681976, 0.01827991008758545, 0.17226579785346985, -0.3779098689556122, -0.020725766196846962, -0.10657066106796265, -0.0729101374745369, -0.08244367688894272, 0.09237739443778992, -0.05038617178797722, 0.19371433556079865, 0.13711045682430267, -0.1497310996055603, 0.04106694087386131, -0.10660313814878464, 0.16005150973796844, 0.12700429558753967, -0.0260001327842474, -0.05228574946522713, -0.029402926564216614, 0.2616620361804962]], "b": [-0.11639632284641266, 0.20719240605831146, -0.39820748567581177, -0.2946263551712036, 0.1933695375919342, 0.11109565198421478, -0.2819903492927551, -0.08850673586130142, -0.0683721974492073, -0.09946753084659576, 0.14908602833747864, 0.31366822123527527, 0.0915110632777214, -0.2978082001209259, -0.12826433777809143, 0.13372042775154114, 0.028085816651582718, 0.061484966427087784, -0.1616288125514984, -0.44940969347953796, 0.036664173007011414, 0.056033696979284286, 0.15068648755550385, -0.2382165789604187, 0.10054643452167511, 0.018990615382790565, 0.01416963990777731, 0.12614336609840393, 0.03782852366566658, -0.060388024896383286, 0.036834828555583954, -0.08116541057825089]}, {"w": [[0.18151076138019562, -0.01424791757017374, 0.1626579612493515, -0.2844112813472748, 0.21378609538078308, 0.3131423890590668, 0.1314907968044281, 0.2517559230327606, 0.16805364191532135, -0.09484060108661652, -0.20789563655853271, -0.16981813311576843, -0.22896499931812286, 0.17476771771907806, 0.27229949831962585, -0.19831112027168274, -0.18759816884994507, -0.24706953763961792, 0.12272109091281891, 0.15462802350521088, 0.08906638622283936, -0.10077069699764252, -0.16790185868740082, 0.2567131519317627, 0.13815812766551971, -0.06205427646636963, -0.16918665170669556, 0.007285091560333967, -0.17423151433467865, -0.2547728717327118, 0.10144533962011337, 0.23712874948978424]], "b": [0.052849672734737396]}], "train": {"venue": "lake_perp_mid", "events": 1294, "cap_ts": 1783123200, "target": "market_prob"}}