{"type": "px2cb_mom", "arch": {"hidden": 32, "mode": "direct", "act": "tanh"}, "features": "u_in=[zp_perp, zp_cb, log tau] + z(pmom); SEQ outcome-FT (frozen db/dr/rho)", "rho_bar": 4.994845867156982, "rho_cb": 4.898101806640625, "b_prior": "strike", "b_scale": 50.0, "extras": ["pmom60", "pmom120"], "mu": [-3.4432785044988068e-06, -1.0667355176290796e-05], "sd": [0.000714025034674977, 0.0010192518501577566], "layers": [{"w": [[-0.10702988505363464, -0.3528948128223419, -0.05071888118982315, 0.11881579458713531, -0.1889585703611374], [-0.1014970913529396, -0.32221803069114685, 0.06886738538742065, -0.33714643120765686, 0.21046827733516693], [0.34836333990097046, 0.20079338550567627, -0.16971662640571594, -0.22921696305274963, -0.10567299276590347], [-0.14983174204826355, 0.2656398415565491, -0.5245784521102905, 0.2886718809604645, -0.002410486340522766], [0.35343343019485474, -0.04428146034479141, 0.2365501970052719, 0.12133943289518356, -0.09756463766098022], [0.1232149600982666, 0.38621777296066284, -0.10952136665582657, 0.18495860695838928, -0.41596719622612], [0.2774839997291565, 0.21395306289196014, -0.06904304772615433, 0.043327439576387405, 0.07499054074287415], [0.4470577836036682, 0.010711091570556164, -0.09639133512973785, -0.07705392688512802, -0.2662757933139801], [0.41888394951820374, -0.20530469715595245, -0.12040069699287415, 0.6334564089775085, 0.22787021100521088], [-0.05458196997642517, -0.16136732697486877, -0.09529067575931549, 0.1955050230026245, -0.4358249008655548], [-0.35811129212379456, 0.19435203075408936, 0.5363277196884155, -0.1370396614074707, -0.4300711452960968], [-0.14906376600265503, -0.3074745535850525, -0.1530458629131317, -0.009062375873327255, -0.003012361703440547], [-0.09304799139499664, -0.04483529552817345, 0.16597267985343933, -0.2981131672859192, -0.14668798446655273], [-0.08960423618555069, -0.3275582492351532, -0.024746790528297424, 0.09255796670913696, 0.15354014933109283], [-0.042054202407598495, -0.25437644124031067, -0.03192741051316261, -0.5283368229866028, -0.4059869050979614], [0.42192742228507996, 0.16386868059635162, -0.04842169210314751, 0.03664274886250496, -0.02480209618806839], [0.18807628750801086, -0.45136216282844543, -0.11675909161567688, -0.3203639090061188, -0.35604026913642883], [-0.045922063291072845, 0.1840871125459671, 0.19462832808494568, 0.428475022315979, 0.7674219608306885], [-0.26411744952201843, -0.32745838165283203, 0.15893809497356415, 0.006097061093896627, -0.2465013712644577], [-0.21909745037555695, -0.37665894627571106, -0.06851758062839508, 0.4726230204105377, 0.5326446890830994], [-0.30551332235336304, -0.5464531779289246, -0.25165486335754395, 0.046410735696554184, 0.019418127834796906], [-0.0736437663435936, 0.3823443055152893, 0.06339768320322037, -0.15647700428962708, 0.2159055769443512], [-0.00501164048910141, 0.3870367109775543, -0.13978075981140137, 0.05077676847577095, 0.04943335801362991], [-0.33251309394836426, -0.251348078250885, 0.023806029930710793, -0.08557832986116409, 0.06012844666838646], [0.04801558703184128, -0.2415466159582138, 0.14126841723918915, -0.2398611605167389, 0.0466592013835907], [-0.19296471774578094, -0.39817318320274353, -0.2742409110069275, 0.37538132071495056, 0.16186751425266266], [-0.28158605098724365, -0.19101107120513916, -0.44159939885139465, 0.04469381272792816, 0.31279852986335754], [0.2184847742319107, -0.25519970059394836, 0.4254378080368042, 0.3598203659057617, -0.16283151507377625], [-0.019349463284015656, 0.1498403549194336, 0.28015393018722534, 0.18359656631946564, -0.5499112010002136], [-0.32436537742614746, -0.09466888010501862, 0.051072295755147934, 0.4810951054096222, 0.04796446114778519], [-0.2527053654193878, -0.4677954912185669, -0.038411229848861694, 0.508815586566925, 0.5754280686378479], [-0.1249014288187027, -0.5891450643539429, 0.08081638813018799, 0.32579341530799866, -0.16753964126110077]], "b": [-0.416376531124115, 0.3238728642463684, -0.9536911249160767, -1.153908610343933, 0.6424392461776733, -0.3553229570388794, -0.35501283407211304, -0.6720340251922607, 0.6375870108604431, -0.12664695084095, 0.4515557587146759, -0.8204247951507568, 0.5936293005943298, -0.16654179990291595, -0.24214324355125427, 0.012802649289369583, -0.8439609408378601, 0.2970311939716339, 0.8575384616851807, -0.06675183027982712, 0.5030458569526672, 0.6685348153114319, -0.10286859422922134, 0.009390952065587044, 0.10107702016830444, -0.44761669635772705, -0.9487848877906799, 0.4942653179168701, 0.42095696926116943, 0.48376473784446716, 0.06303422152996063, 0.7022721171379089]}, {"w": [[0.13683612644672394, -0.21531599760055542, 0.05590145289897919, -0.49449068307876587, 0.22417272627353668, -0.004687265958636999, 0.06050892174243927, -0.15615232288837433, 0.19102533161640167, 0.1974438577890396, 0.15896424651145935, -0.32583704590797424, -0.047864239662885666, -0.0693032443523407, -0.15460819005966187, 0.05545101687312126, -0.2810300290584564, 0.23932893574237823, -0.03534030541777611, -0.0024977291468530893, -0.06306701898574829, 0.25061678886413574, 0.07896832376718521, -0.04757191985845566, 0.06597258150577545, 0.0017461893148720264, -0.12208981066942215, 0.11733289062976837, 0.3120662569999695, 0.0027294429019093513, -0.16499797999858856, -0.005576764699071646], [0.12111493200063705, -0.04368513077497482, -0.062031228095293045, -0.3260214030742645, -0.1886318325996399, -0.17263683676719666, -0.20671699941158295, -0.01885480061173439, 0.14893768727779388, 0.20913562178611755, 0.28875190019607544, 0.16783155500888824, 0.24780355393886566, 0.02144049108028412, 0.22835779190063477, -0.1312861293554306, 0.02352234534919262, -0.09294895827770233, -0.03915708139538765, -0.10734740644693375, 0.005010964814573526, 0.04233582317829132, -0.19672825932502747, -0.10470346361398697, 0.07969186455011368, 0.2186698466539383, 0.09901560097932816, 0.15692389011383057, 0.035043321549892426, 0.2015552967786789, -0.15258266031742096, 0.2130652517080307], [0.13409261405467987, 0.19887156784534454, -0.19533376395702362, -0.16980521380901337, -0.14007680118083954, 0.07816125452518463, -0.09576623886823654, -0.2427247166633606, 0.08225060999393463, 0.09784480929374695, 0.051234617829322815, -0.011573919095098972, -0.05100402608513832, 0.2446310967206955, -0.03500484675168991, -0.10046263039112091, 0.07713742554187775, 0.04304784908890724, -0.06839703023433685, -0.04809628427028656, -0.01848229207098484, -0.1862892210483551, -0.0010171420872211456, 0.1771903783082962, 0.1997976005077362, 0.2267848551273346, -0.03472550958395004, 0.059391748160123825, -0.11635337769985199, 0.06061795726418495, -0.09277176856994629, -0.06414203345775604], [0.048584528267383575, -0.18903613090515137, 0.08616047352552414, 0.19243378937244415, -0.10414361208677292, 0.08314873278141022, 0.10999264568090439, 0.20632728934288025, -0.3056604862213135, 0.14977134764194489, -0.21429386734962463, 0.04400629177689552, -0.02843509428203106, -0.028592271730303764, -0.11065048724412918, 0.19075654447078705, -0.01925312727689743, -0.04877428337931633, -0.16024978458881378, -0.169913649559021, -0.10228102654218674, -0.10967790335416794, 0.22475799918174744, -0.23856337368488312, -0.2579543888568878, -0.014011587016284466, 0.05508175864815712, 0.046241749078035355, -0.2541595697402954, 0.09459368884563446, 0.06822175532579422, -0.2339334785938263], [0.022161640226840973, -0.08070850372314453, 0.09792496263980865, -0.4757033884525299, 0.00965841393917799, -0.08420263975858688, 0.0010173607151955366, 0.03356606885790825, 0.12274717539548874, -0.13154488801956177, 0.11763191223144531, -0.04260911047458649, -0.11710905283689499, -0.2011057436466217, -0.1580311506986618, 0.10593026131391525, -0.31993505358695984, 0.08042159676551819, -0.020169494673609734, -0.167464017868042, 0.15562984347343445, 0.20977693796157837, 0.1612015813589096, -0.1079334169626236, -0.14531506597995758, -0.032482147216796875, 0.0032154337968677282, 0.12996098399162292, 0.022227853536605835, 0.09391327947378159, -0.11861367523670197, -0.07043083012104034], [-0.15438559651374817, 0.009544593282043934, -0.0936507061123848, -0.3615512549877167, 0.06977934390306473, 0.19488859176635742, 0.023113278672099113, 0.15175186097621918, 0.1408008188009262, -0.09834393858909607, -0.04822542890906334, -0.14913171529769897, 0.003070827340707183, -0.13694487512111664, -0.32813963294029236, 0.17592215538024902, -0.331081360578537, 0.05267099663615227, 0.02486395835876465, 0.0375203862786293, 0.07130849361419678, 0.09048902988433838, 0.20754045248031616, -0.11393452435731888, -0.19115972518920898, 0.0829964354634285, 0.06983933597803116, 0.1459016650915146, 0.048192523419857025, -0.12305968999862671, -0.01166608463972807, 0.004759317729622126], [0.1047028973698616, 0.17971427738666534, -0.10861160606145859, -0.10998784750699997, 0.031880371272563934, -0.0047040157951414585, -0.10200078040361404, -0.22247742116451263, -0.04082947224378586, -0.03355926647782326, 0.1996554434299469, 0.08860018849372864, 0.10248079150915146, 0.012361660599708557, 0.07472490519285202, 0.05204557999968529, 0.05844229459762573, 0.03644765913486481, 0.19434864819049835, -0.11232997477054596, 0.15093128383159637, 0.07795374095439911, -0.2156173288822174, 0.10223221778869629, 0.145067498087883, 0.1682766228914261, 0.11705520004034042, -0.009422442875802517, -0.08768970519304276, 0.21570537984371185, -0.010740580968558788, -0.035404399037361145], [-0.22843238711357117, -0.1954759955406189, 0.11185403913259506, -0.17469197511672974, -0.010266635566949844, -0.0057455203495919704, 0.07987627387046814, 0.10715687274932861, 0.12514621019363403, -0.15833161771297455, 0.17361964285373688, 0.04626987874507904, -0.16326485574245453, 0.13372859358787537, -0.26635244488716125, -0.060744237154722214, -0.12705263495445251, 0.16195045411586761, 0.09698014706373215, 0.0029050700832158327, 0.07963988929986954, 0.020311472937464714, -0.0707283541560173, -0.055905185639858246, 0.039838507771492004, -0.11659272015094757, -0.22965672612190247, -0.07153623551130295, 0.06387877464294434, 0.12988969683647156, 0.004031342454254627, -0.22019654512405396], [-0.14114153385162354, 0.053067851811647415, 0.01764104701578617, -0.005776250269263983, 0.1713223159313202, 0.11365563422441483, 0.15742415189743042, 0.21127024292945862, -0.05517148599028587, 0.00110840261913836, -0.1057504266500473, 0.10210087150335312, -0.1444777101278305, 0.11260832846164703, 0.09630443900823593, 0.08009623736143112, -0.24012541770935059, 0.045279089361429214, -0.1303320974111557, 0.01614156924188137, 0.05249548330903053, 0.17303995788097382, 0.1212349608540535, -0.17082908749580383, -0.190201073884964, -0.015268577262759209, -0.09258858859539032, -0.0026195573154836893, 0.20172324776649475, -0.0034069211687892675, -0.14224235713481903, -0.13004150986671448], [0.005139847286045551, -0.18584293127059937, 0.320310115814209, 0.7525039911270142, -0.11657977849245071, 0.06351584196090698, 0.30138954520225525, 0.0963180884718895, -0.5098899006843567, -0.28310784697532654, -0.2323298156261444, 0.10564912110567093, -0.9117580652236938, -0.0729164332151413, -0.20534206926822662, 0.17216475307941437, 0.33164581656455994, -0.20034931600093842, -0.449882835149765, 0.014447411522269249, -0.41023483872413635, -0.06268563121557236, 0.31957289576530457, -0.12220102548599243, -0.308074414730072, -0.004193230997771025, 0.13649748265743256, -0.40118587017059326, -0.3692571818828583, -0.18374691903591156, 0.06929503381252289, -0.5827306509017944], [0.1166631281375885, -0.09798257797956467, 0.15464423596858978, 0.5479432940483093, -0.27609342336654663, -0.14437630772590637, -0.07210696488618851, -0.058260247111320496, -0.15611959993839264, 0.1037646010518074, -0.1470094621181488, 0.142999067902565, -0.09954377263784409, 0.08043379336595535, 0.13400837779045105, -0.03886609897017479, 0.42159777879714966, 0.040269311517477036, -0.00340322800911963, 0.17526093125343323, -0.0765005573630333, -0.21173450350761414, 0.11355689913034439, 0.10053951293230057, 0.023002563044428825, -0.1091562882065773, 0.2528996467590332, -0.09847152978181839, -0.3212367296218872, -0.1507590413093567, -0.026654880493879318, 0.1467079371213913], [0.15981873869895935, -0.03159638121724129, 0.03890221565961838, 0.5290648341178894, -0.008966216817498207, -0.08395518362522125, 0.07887329161167145, -0.1351378858089447, -0.04274751991033554, 0.0990363135933876, -0.26479387283325195, 0.26751962304115295, -0.2536078989505768, 0.1701328009366989, -0.15040574967861176, -0.21673452854156494, 0.14605629444122314, 0.2072264403104782, -0.06344354897737503, 0.1354571282863617, 0.1397959291934967, -0.14562152326107025, -0.19997048377990723, 0.0802406519651413, -0.09066247940063477, 0.20381703972816467, 0.23720195889472961, -0.051705628633499146, -0.32668012380599976, 0.23212076723575592, 0.01568669266998768, 0.1909908503293991], [-0.015954114496707916, 0.009099463932216167, -0.05156321078538895, 0.056708648800849915, -0.032580044120550156, 0.13668549060821533, -0.011220728047192097, 0.08227808028459549, -0.01468920148909092, -0.2102971225976944, -0.2104468196630478, -0.14652161300182343, 0.015609625726938248, -0.09788907319307327, -0.1639934629201889, -0.03514895588159561, -0.2352278232574463, 0.09103840589523315, -0.12029991298913956, 0.05631158500909805, 0.11600832641124725, -0.040491983294487, 0.047048475593328476, -0.0036357888020575047, -0.2169084995985031, -0.07735224813222885, -0.15959422290325165, 0.07936015725135803, -0.11228667944669724, -0.02450004406273365, 0.09011472761631012, -0.213457390666008], [-0.18250176310539246, 0.08334145694971085, 0.13434411585330963, -0.3813857436180115, 0.2822893261909485, 0.20883935689926147, -0.023993447422981262, -0.014700240455567837, 0.07768087089061737, -0.17462246119976044, -0.03235486522316933, -0.23711976408958435, -0.16119597852230072, 0.038531720638275146, -0.10219846665859222, -0.08841053396463394, -0.26676520705223083, 0.32361772656440735, -0.15528413653373718, -0.1243642121553421, 0.04542417824268341, 0.003335940185934305, -0.09779694676399231, 0.04517630860209465, -0.06856779009103775, 0.015221253968775272, -0.1463138312101364, 0.19714687764644623, 0.0791487768292427, 0.09815143793821335, -0.13970807194709778, -0.1347460299730301], [0.1906134933233261, 0.2414654940366745, -0.31660759449005127, -0.48183202743530273, 0.07766826450824738, -0.23581209778785706, -0.08747905492782593, -0.01728496327996254, 0.0494067445397377, 0.14081665873527527, 0.15216220915317535, -0.12062365561723709, 0.696879506111145, -0.18279775977134705, -0.019391877576708794, 0.05529259145259857, -0.282998651266098, -0.08007385581731796, 0.3133349120616913, -0.12593230605125427, 0.17097966372966766, -0.0975453183054924, -0.2257690578699112, 0.07725624740123749, 0.3953714072704315, -0.037090662866830826, -0.1536431461572647, 0.14579497277736664, 0.1368001103401184, -0.031130274757742882, 0.16049914062023163, 0.22143059968948364], [-0.17119355499744415, -0.08628886193037033, 0.1756463348865509, 0.13980244100093842, 0.013863147236406803, 0.0009060220909304917, 0.17174096405506134, 0.2547686696052551, 0.062342673540115356, 0.13231009244918823, -0.07414267957210541, -0.10743322968482971, -0.20241518318653107, -0.12315434962511063, -0.021028360351920128, 0.06530601531267166, -0.12070511281490326, -0.10574209690093994, -0.01382499746978283, 0.0788036435842514, 0.07760965824127197, 0.19525596499443054, 0.22236967086791992, 0.029524125158786774, -0.026414431631565094, -0.13720975816249847, -0.07338615506887436, -0.09136762470006943, 0.03482292592525482, -0.10405673086643219, -0.1536712646484375, -0.2786692678928375], [-0.014559526927769184, 0.3766074478626251, -0.24715417623519897, -1.293480634689331, 0.013178199529647827, -0.498520165681839, -0.16649284958839417, -0.1097237691283226, 0.5130850672721863, 0.0906125083565712, 0.20593766868114471, -0.15976355969905853, 1.323326587677002, 0.15512119233608246, 0.016826635226607323, 0.1233920156955719, -0.3734710216522217, 0.15451277792453766, 0.5857617259025574, 0.009004293940961361, 0.5445579886436462, 0.09276620298624039, -0.16010572016239166, 0.1033981516957283, 0.2633145749568939, 0.06174101680517197, 0.07318747043609619, 0.6959547400474548, 0.14134466648101807, 0.20290866494178772, 0.10284413397312164, 0.6203373074531555], [-0.07474552094936371, 0.21534037590026855, -0.17920058965682983, -0.11747318506240845, -0.10778292268514633, -0.01416852418333292, 0.05873385816812515, -0.03794271498918533, -0.04553220048546791, 0.08995705842971802, -0.09757484495639801, 0.2334098070859909, 0.18156272172927856, 0.18796996772289276, 0.10448246449232101, -0.22931022942066193, -0.06153557077050209, -0.19576027989387512, 0.17770463228225708, 0.21978946030139923, 0.17364192008972168, -0.16852933168411255, -0.18685773015022278, -0.056963130831718445, 0.2374110072851181, -0.10654769837856293, -0.1211642473936081, 0.20339380204677582, 0.0915745198726654, -0.01635558158159256, -0.05167863890528679, -0.07205433398485184], [-0.003681747941300273, -0.1983441412448883, 0.07304743677377701, 0.3587990403175354, -0.09823475033044815, 0.28642046451568604, 0.017573464661836624, 0.21584166586399078, -0.20372557640075684, 0.10316312313079834, -0.1790928691625595, -0.11868048459291458, -0.2383851557970047, 0.033246103674173355, -0.22783327102661133, 0.18348532915115356, 0.04683030769228935, -0.05041204392910004, -0.14124414324760437, -0.06517606228590012, -0.14684675633907318, -0.04221823066473007, 0.0537356398999691, -0.04924958571791649, -0.03131994232535362, -0.039100710302591324, 0.04668305814266205, -0.182311549782753, 0.1202881783246994, -0.021591326221823692, -0.1928451657295227, -0.0037625895347446203], [0.06462462991476059, 0.18001984059810638, -0.342520534992218, -0.3844034969806671, -0.056995928287506104, -0.15119951963424683, -0.09839853644371033, -0.19978417456150055, 0.26456958055496216, 0.12291198968887329, 0.14551003277301788, 0.05335012078285217, 0.33464157581329346, 0.08597459644079208, -0.025491580367088318, -0.16284343600273132, -0.16960616409778595, 0.15029746294021606, 0.07867974042892456, 0.051293354481458664, 0.21626821160316467, 0.07490425556898117, -0.12805436551570892, 0.1470990926027298, 0.02889890968799591, 0.032250139862298965, 0.14144852757453918, 0.2793503403663635, 0.25609132647514343, -0.013570659793913364, -0.006420262157917023, 0.3570098876953125], [0.1968449205160141, -0.06931246817111969, 0.01092173159122467, 0.010492886416614056, -0.17882004380226135, -0.1139930933713913, -0.03781113028526306, -0.20860594511032104, 0.10264107584953308, 0.08390156179666519, 0.03650463744997978, 0.21533037722110748, -0.05094878375530243, 0.15071000158786774, 0.1085747629404068, -0.05760791897773743, -0.02664310298860073, -0.021922754123806953, 0.2217792272567749, -0.11017134040594101, 0.04682644084095955, 0.008808299899101257, -0.07525679469108582, 0.17258086800575256, 0.028805887326598167, -0.020550664514303207, -0.08041509985923767, -0.0182185098528862, -0.0631357729434967, 0.16118869185447693, 0.07087262719869614, 0.10130202770233154], [0.0862170159816742, 0.05951488018035889, 0.020049910992383957, -0.31597042083740234, 0.1313328742980957, -0.06205078214406967, 0.09467168152332306, 0.1369830071926117, -0.016448091715574265, -0.18721364438533783, 0.042086634784936905, -0.24439339339733124, 0.2649308741092682, -0.23549924790859222, -0.06038022041320801, 0.19798681139945984, -0.06785338371992111, 0.11035875231027603, -0.1211991235613823, -0.14066720008850098, -0.12607145309448242, 0.20474261045455933, -0.09478411823511124, -0.09247530996799469, 0.15462714433670044, -0.1093212217092514, -0.1709083765745163, -0.1742001324892044, -0.00015997783339116722, -0.2969072461128235, 0.07594811916351318, -0.23484942317008972], [-0.012285578064620495, 0.033178579062223434, 0.05553658679127693, 0.03285771235823631, 0.2044626772403717, 0.20492257177829742, 0.03168116509914398, -0.0032979242969304323, -0.21566587686538696, 0.11687199026346207, -0.046890560537576675, -0.018824562430381775, -0.01325576938688755, 0.07045802474021912, -0.0761670395731926, 0.13961896300315857, -0.17091725766658783, -0.015992922708392143, -0.14153289794921875, -0.2108098715543747, -0.22553560137748718, 0.1629583090543747, 0.16705267131328583, -0.09492505341768265, -0.23656538128852844, 0.04635271430015564, 0.1058855801820755, 0.0844811499118805, -0.05189022794365883, -0.21121008694171906, 0.06523308157920837, -0.009447992779314518], [0.17106471955776215, 0.06673009693622589, 0.062223467975854874, -0.028812292963266373, -0.19653795659542084, 0.0009953323751688004, 0.1188335046172142, -0.15841364860534668, 0.010708294808864594, -0.09782147407531738, -0.1361449807882309, 0.02830858901143074, 0.1368042379617691, 0.17377905547618866, 0.20453540980815887, 0.13363803923130035, 0.10622464120388031, 0.04309401661157608, 0.09713385254144669, -0.036047279834747314, 0.13710917532444, -0.06083683297038078, -0.08831176906824112, 0.11494262516498566, 0.1941966712474823, 0.18622003495693207, 0.06503482908010483, -0.10476721078157425, 0.06017855554819107, 0.11400244385004044, 0.15975894033908844, -0.0028941703494638205], [0.3809099793434143, 0.19907578825950623, 0.22088606655597687, 1.2664014101028442, -0.47587454319000244, -0.04442807659506798, 0.13475537300109863, 0.08018380403518677, 0.28247806429862976, 0.3811487853527069, -0.37461748719215393, 0.5874971747398376, -0.42379525303840637, 0.13215391337871552, 0.4094824194908142, -0.19092877209186554, 1.0136654376983643, -0.3004514276981354, -0.041740551590919495, 0.3327588140964508, -0.027178555727005005, -0.3541569411754608, -0.004698775243014097, 0.08608760684728622, 0.1122506707906723, 0.15512484312057495, 0.6332209706306458, -0.7825493812561035, -0.575046718120575, 0.05991512909531593, 0.2633579969406128, 0.16022150218486786], [-0.06462986022233963, 0.09274964779615402, 0.027295049279928207, -0.14552374184131622, -0.10170279443264008, -0.15171940624713898, -0.09080654382705688, 0.15355020761489868, 0.269277960062027, 0.04952991381287575, -0.09624981135129929, 0.02518751099705696, -0.0048614004626870155, 0.19025163352489471, -0.07883714884519577, -0.09262378513813019, -0.18419373035430908, 0.04764661565423012, 0.04766037315130234, -0.056204091757535934, -0.11038167029619217, -0.030121909454464912, -0.21862521767616272, 0.11556552350521088, -0.11530930548906326, -0.018655559048056602, 0.2381523698568344, -0.20840659737586975, -0.17510172724723816, -0.13862201571464539, -0.1121089905500412, 0.230637788772583], [-0.09955832362174988, -0.24849800765514374, 0.23964087665081024, 0.38991227746009827, 0.0964825376868248, 0.1305236518383026, 0.10013540834188461, 0.18619054555892944, -0.13349811732769012, 0.10182515531778336, -0.18550336360931396, -0.19378496706485748, -0.26623430848121643, -0.14634302258491516, 0.1550801396369934, -0.13391128182411194, 0.051169294863939285, 0.1877690702676773, -0.022923195734620094, -0.12937630712985992, -0.09818590432405472, -0.11327619850635529, -0.027644991874694824, -0.1910203993320465, -0.22920192778110504, 0.11578977853059769, -0.0900958776473999, -0.32646751403808594, -0.11156950891017914, -0.2224067598581314, -0.1728641241788864, -0.10991697013378143], [-0.23399299383163452, -0.044852178543806076, 0.24270927906036377, 0.02958364598453045, 0.03757666051387787, 0.060329437255859375, 0.2563968896865845, 0.1788061559200287, 0.09198500961065292, -0.10532005876302719, -0.10225959867238998, -0.2461424320936203, 0.16775116324424744, -0.2654030919075012, 0.0350528247654438, 0.03922608494758606, -0.14134788513183594, -0.037890348583459854, 0.11335062980651855, 0.004031221382319927, 0.1198890283703804, 0.13162733614444733, 0.23768192529678345, -0.06984833627939224, 0.027817968279123306, -0.2089187651872635, -0.25525525212287903, -0.2375139594078064, -0.014186853542923927, -0.24254196882247925, 0.03993716835975647, -0.2340749204158783], [0.02765008434653282, -0.14383278787136078, 0.18843203783035278, -0.0470317006111145, -0.03535323217511177, 0.0645119920372963, -0.10285375267267227, 0.05911716818809509, -0.028015952557325363, -0.18694040179252625, 0.15773272514343262, -0.0033945636823773384, 0.01867056079208851, 0.056231118738651276, -0.2301432490348816, -0.03669658303260803, -0.19558370113372803, -0.06665096431970596, -0.10762298107147217, 0.0841025784611702, -0.16614188253879547, 0.11525965481996536, 0.13755998015403748, -0.13343065977096558, 0.011683459393680096, -0.11857378482818604, -0.002255836734548211, 0.1598609983921051, 0.11051218211650848, -0.1754056215286255, -0.137568861246109, 0.04337095841765404], [0.04345685616135597, 0.2938702404499054, -0.391357421875, -0.5574468970298767, 0.1367679089307785, -0.158651664853096, -0.189070925116539, -0.205789253115654, 0.30343809723854065, -0.10011369735002518, 0.3380088806152344, 0.20920921862125397, 0.30915483832359314, -0.009784766472876072, -0.023874305188655853, -0.02515510283410549, -0.31610506772994995, 0.1586487889289856, 0.10167573392391205, 0.0620214007794857, 0.24265393614768982, -0.03335409611463547, -0.02808442898094654, -0.03229032829403877, 0.27661776542663574, 0.06366562098264694, 0.13871599733829498, 0.3716104030609131, 0.32985860109329224, 0.10290121287107468, 0.22429259121418, 0.2339933216571808], [-0.007829788140952587, -0.11701476573944092, 0.08260025829076767, -0.28163495659828186, 0.17978015542030334, 0.20751449465751648, 0.11245954781770706, 0.20219796895980835, -0.0009876424446702003, -0.23225048184394836, -0.000269594369456172, -0.12568053603172302, -0.18399569392204285, -0.016336649656295776, 0.06988934427499771, -0.036153197288513184, -0.2373332530260086, -0.03976447880268097, -0.02569006383419037, -0.04894639179110527, 0.049181703478097916, 0.05120100826025009, -0.06519792973995209, 0.08886361122131348, 0.11390506476163864, -0.22186340391635895, -0.160678431391716, -0.059285737574100494, -0.09227520227432251, -0.22611412405967712, 0.05363529175519943, 0.010978701524436474], [0.16471463441848755, -0.11286034435033798, -0.09639226645231247, 0.38938865065574646, -0.00949122104793787, -0.06733382493257523, -0.05125374719500542, 0.03672059252858162, 0.06353925168514252, 0.2605178654193878, 0.18190117180347443, 0.29005712270736694, -0.11222780495882034, 0.2078683078289032, 0.13981235027313232, -0.11077488213777542, 0.353479266166687, -0.15440881252288818, 0.06980976462364197, 0.023879390209913254, -0.1023561954498291, -0.2559411823749542, 0.10469686985015869, 0.21862158179283142, 0.023348141461610794, -0.05216028913855553, 0.2566221058368683, 0.023401392623782158, 0.037865884602069855, -0.09030044823884964, 0.11001121997833252, 0.07031027227640152]], "b": [0.5380569696426392, 0.18907548487186432, 0.1603328436613083, -0.11979265511035919, 0.32374757528305054, 0.09777700901031494, 0.26819902658462524, 0.21941055357456207, 0.005971747916191816, -0.9042125940322876, -0.3105822503566742, -0.12294360995292664, -0.13859380781650543, 0.3297262489795685, 0.4769645631313324, -0.2621592879295349, 0.9419189691543579, 0.04780932515859604, -0.13811495900154114, 0.5064491033554077, -0.10503239184617996, 0.06627145409584045, -0.008298010565340519, -0.19353404641151428, -1.2425554990768433, -0.03460823372006416, -0.18173234164714813, 0.1075529009103775, 0.22805187106132507, 0.5488414168357849, 0.1102735847234726, -0.1869388371706009]}, {"w": [[0.1505277007818222, -0.1319945752620697, -0.07177324593067169, 0.17384538054466248, 0.2510964572429657, 0.054913055151700974, -0.21946148574352264, 0.20394223928451538, 0.24850763380527496, 0.17507809400558472, -0.21936394274234772, -0.1465265154838562, 0.12666386365890503, 0.1982092410326004, -0.20103849470615387, 0.12426670640707016, -0.29954302310943604, -0.24881288409233093, 0.22256465256214142, -0.10977882146835327, -0.23258382081985474, 0.13063687086105347, 0.17338787019252777, -0.23136776685714722, -0.28367215394973755, -0.22534197568893433, 0.143443301320076, 0.14854390919208527, 0.14214052259922028, -0.19256341457366943, 0.15647856891155243, -0.2670562267303467]], "b": [0.018594956025481224]}], "train": {"venue": "lake_perp_mid+cb", "events": 2981, "target": "seq_ft", "ft_lr": 0.003, "skip_last_s": 60.0, "basis": "coinbase"}}