{"arch": {"hidden": 32, "clamp": 2.0, "act": "tanh", "logit": "raw", "mode": "direct"}, "features": "zp=(px-b)/s/sqrt(tte/900); u_in=[zp, log(tte/900)] + extras", "rho_bar": 4.889586448669434, "b_prior": "strike", "b_scale": 50.0, "extras": ["basis", "dbasis15", "dbasis60", "imb1", "mom60", "mom120"], "mu": [-62.06578567402561, 0.00656401281099048, 0.013830786411500392, 0.005165563765512521, -0.23355483915148392, -0.3745294647513395], "sd": [14.422776685954414, 5.699607603065401, 6.002280927117243, 0.5983684128276917, 39.68453963581545, 55.02497556675007], "layers": [{"w": [[0.11351342499256134, -0.20623880624771118, 0.12305702269077301, -0.031891901046037674, -0.15988469123840332, -0.05677888169884682, -0.19000697135925293, 0.15627378225326538], [-0.15965987741947174, 0.26793336868286133, 0.008727094158530235, 0.0011729345424100757, -0.0996454507112503, -0.008631784468889236, -0.02729647047817707, 0.025722378864884377], [0.1787700653076172, -0.21339815855026245, 0.15283693373203278, -0.177249014377594, 0.05492959916591644, 0.00947245117276907, 0.11474911868572235, 0.03884366154670715], [0.14580750465393066, -0.10453179478645325, 0.17506903409957886, 0.013770312070846558, -0.004794850945472717, 0.02333671972155571, 0.27691298723220825, 0.08613001555204391], [0.11248075217008591, 0.08263128250837326, 0.19191113114356995, 0.09289062023162842, -0.02698693796992302, 0.07024405896663666, -0.24792775511741638, -0.4290856122970581], [0.23533886671066284, 0.08930135518312454, -0.18875177204608917, 0.077971450984478, -0.012301675975322723, -0.036919645965099335, 0.043093498796224594, 0.01143808476626873], [0.20590025186538696, -0.2990396022796631, -0.24252673983573914, 0.07622971385717392, 0.03735204413533211, 0.008843488991260529, -0.310915470123291, -0.015894053503870964], [-0.27929869294166565, -0.23873555660247803, -0.010939161293208599, 0.014210880734026432, -0.124531589448452, -0.04705210030078888, 0.1790434569120407, -0.267221063375473], [-0.22087417542934418, 0.04083747789263725, -0.18371661007404327, -0.032590534538030624, 0.09815311431884766, 0.062407106161117554, 0.05730980262160301, -0.12512394785881042], [0.21703682839870453, -0.031860850751399994, -0.08246142417192459, 0.10865554958581924, -0.004661708138883114, -0.12117671966552734, 0.15551017224788666, -0.09098033607006073], [0.2622937560081482, -0.14207853376865387, -0.13807006180286407, 0.051278796046972275, 0.03354722633957863, -0.10688257217407227, 0.15207409858703613, 0.12583328783512115], [-0.09947936981916428, 0.2726619839668274, -0.4332190454006195, -0.11153291165828705, 0.020767418667674065, 0.011410307139158249, -0.3177412748336792, -0.3432394862174988], [-0.24304315447807312, 0.10980402678251266, 0.24270789325237274, 0.18145965039730072, -0.16122113168239594, -0.07879052311182022, -0.21612271666526794, 0.056949689984321594], [-0.20000800490379333, -0.0469738133251667, 0.17814727127552032, -0.03321292996406555, -0.10818922519683838, -0.019682342186570168, -0.22434425354003906, 0.2497168332338333], [0.19142916798591614, -0.1903536021709442, 0.015588252805173397, -0.11131533235311508, -0.07957325875759125, 0.059829022735357285, -0.23206733167171478, -0.0823313444852829], [-0.0144472885876894, -0.2136078178882599, 0.22365540266036987, -0.0899863988161087, -0.0286115650087595, -0.04752061888575554, -0.3426625728607178, -0.2966841161251068], [0.22487513720989227, 0.12189818918704987, -0.21295633912086487, -0.11383005231618881, -0.0733565241098404, 0.01468552928417921, 0.22038275003433228, 0.004297757055610418], [-0.3530527949333191, 0.0008046649163588881, 0.22060102224349976, 0.010747138410806656, -0.04943019151687622, -0.009814398363232613, 0.10988948494195938, -0.17996661365032196], [-0.4811301529407501, -0.45287537574768066, -0.13979290425777435, -0.03605162724852562, 0.06835362315177917, -0.0157095268368721, 0.09949364513158798, -0.20356112718582153], [-0.35021862387657166, -0.1685175746679306, 0.20596301555633545, 0.07523003220558167, -0.012416016310453415, -0.005199491512030363, 0.2808898687362671, -0.21189162135124207], [-0.06158292666077614, -0.029355498030781746, -0.16555918753147125, -0.32820454239845276, 0.04282165318727493, -0.183691143989563, -0.04309828579425812, -0.16261711716651917], [0.40066060423851013, 0.07641279697418213, 0.17056304216384888, -0.10375569015741348, 0.1058611124753952, 0.028187191113829613, -0.18860343098640442, -0.04281827434897423], [-0.37798619270324707, -0.0848379135131836, 0.08730325102806091, -0.10703586041927338, 0.09518533945083618, 0.023296985775232315, -0.07433226704597473, 0.1845109760761261], [0.01346739474684, -0.10855790227651596, -0.1374335139989853, 0.16127701103687286, 0.30033835768699646, 0.07587253302335739, 0.21949400007724762, 0.4340723156929016], [0.18763136863708496, -0.22306670248508453, -0.07750868797302246, -0.04826505109667778, 0.003199862316250801, -0.08533494919538498, 0.14255386590957642, -0.3951995074748993], [0.4152580499649048, 0.6332799792289734, 0.1331576555967331, -0.024537667632102966, 0.031026827171444893, -0.0009575465810485184, -0.11367537826299667, -0.051791127771139145], [0.17452029883861542, 0.004014139529317617, 0.13189299404621124, 0.05806346610188484, -0.08480076491832733, 0.09601090103387833, 0.2150709182024002, -0.10278517752885818], [0.4184975028038025, 0.34432435035705566, 0.14827367663383484, -0.06265608966350555, -0.04115321487188339, 0.0002127528132405132, -0.19897516071796417, 0.021622806787490845], [0.22395047545433044, -0.1710263192653656, 0.11656615138053894, 0.05119948834180832, -0.013339266180992126, 0.009343987330794334, -0.22356952726840973, 0.09123695641756058], [0.3693799674510956, 0.3162795305252075, 0.2223045825958252, -0.03793283924460411, 0.010190408676862717, -0.01650487631559372, 0.33497554063796997, -0.2567165195941925], [-0.22449396550655365, -0.2518463134765625, -0.2637488543987274, -0.018478792160749435, -0.010479881428182125, 0.007109351921826601, -0.1313573122024536, -0.2857104241847992], [-0.01725243777036667, 0.2622224688529968, 0.059173814952373505, -0.13080602884292603, 0.02940085157752037, 0.2368200570344925, -0.37221482396125793, 0.1767459213733673]], "b": [-0.14637549221515656, 0.7183842062950134, -0.6398257613182068, -0.45595985651016235, -0.053893040865659714, 0.2615882456302643, -0.3960120379924774, -0.2714552581310272, 0.3821307122707367, -0.2559718191623688, -0.21099919080734253, -0.16243600845336914, -0.2338661551475525, 0.28323596715927124, -0.5985687375068665, -0.013109736144542694, -0.20499172806739807, 0.5845845341682434, -0.5570063591003418, -0.11691486090421677, -0.2111344039440155, -0.35674285888671875, 0.31429556012153625, 0.10856737941503525, -0.20146213471889496, 0.9801603555679321, -0.28510767221450806, 0.3156515657901764, -0.728219747543335, 0.2615802586078644, -0.34140563011169434, -0.5571381449699402]}, {"w": [[0.05663132667541504, 0.07199903577566147, -0.11829878389835358, -0.18279923498630524, -0.20487095415592194, -0.04130066558718681, -0.0762648656964302, 0.19905710220336914, 0.037598755210638046, 0.08187856525182724, -0.1415383368730545, 0.09172738343477249, 0.16487754881381989, 0.09828205406665802, -0.20373018085956573, 0.1442478597164154, -0.13956384360790253, 0.0483858659863472, 0.01630805805325508, -0.09279301017522812, 0.001821307698264718, -0.2436363399028778, 0.22116993367671967, -0.14658498764038086, -0.18309499323368073, -0.062053557485342026, 0.0033241487108170986, 0.08142612129449844, -0.3182794153690338, 0.06059035658836365, 0.17476871609687805, -0.12369515001773834], [0.05854223668575287, -0.03205619007349014, 0.07504088431596756, -0.11587897688150406, -0.047929417341947556, -0.035834308713674545, -0.05135415121912956, -0.10599369555711746, -0.07209771871566772, -0.04750517010688782, 0.11506330966949463, 0.15018711984157562, -0.18464404344558716, -0.21364928781986237, 0.016466232016682625, -0.01182522252202034, -0.05601229891180992, -0.08625567704439163, -0.10103006660938263, -0.20145276188850403, 0.1247255727648735, 0.2125888168811798, 0.04733917862176895, -0.10822445154190063, -0.10405174642801285, 0.21893130242824554, 0.17725925147533417, 0.19843943417072296, -0.07331935316324234, 0.25058671832084656, -0.1740526705980301, -0.07007937133312225], [0.05763395503163338, 0.022840948775410652, -0.10573295503854752, -0.06714008748531342, 0.003408268326893449, 0.22781334817409515, 0.051014333963394165, 0.018406158313155174, 0.08497196435928345, 0.09826646745204926, -0.05727167800068855, 0.01248596515506506, 0.0008482648991048336, -0.08731301873922348, -0.102427177131176, 0.10454322397708893, -0.0064397696405649185, -0.21856728196144104, -0.004559203516691923, -0.038593608886003494, 0.07759331166744232, 0.049892742186784744, 0.01573810912668705, -0.04267553612589836, -0.03347604349255562, 0.3036760091781616, 0.24190306663513184, 0.2239665389060974, 0.045064400881528854, 0.01218697614967823, -0.04297942668199539, 0.006759988144040108], [-0.06283611059188843, 0.13843563199043274, -0.06775359809398651, 0.037135086953639984, 0.09940584003925323, 0.04500159993767738, -0.0958905965089798, -0.08431002497673035, -0.04133867099881172, -0.15248622000217438, 0.09674304723739624, 0.012436363846063614, 0.01870427280664444, -0.04505213722586632, -0.08246807008981705, 0.13880059123039246, -0.0560767687857151, 0.1595500111579895, 0.16869233548641205, -0.1141585111618042, 0.09966593980789185, 0.10290071368217468, -0.016893716529011726, 0.0067843422293663025, -0.04853891581296921, 0.008054293692111969, -0.018434111028909683, -0.20704208314418793, -0.23141907155513763, 0.08498150110244751, -0.022706594318151474, -0.11353310197591782], [-0.32281678915023804, -0.0456681065261364, -0.03972562775015831, -0.03699088841676712, -0.14299067854881287, -0.11902932822704315, -0.09981583803892136, 0.15861628949642181, 0.17833958566188812, -0.17900030314922333, 0.11374389380216599, 0.1596636325120926, -0.08866196870803833, 0.17892898619174957, -0.27821680903434753, -0.1597840040922165, -0.02229580283164978, 0.1722974181175232, 0.247968390583992, 0.08727745711803436, 0.1748637855052948, -0.1576770395040512, -0.034939270466566086, -0.014242449775338173, 0.03854604437947273, -0.20283733308315277, -0.20153610408306122, -0.21072940528392792, -0.13598115742206573, 0.09708345681428909, 0.06955578923225403, -0.09004581719636917], [0.07238108664751053, 0.10982171446084976, -0.08762026578187943, -0.11842180043458939, 0.07960646599531174, 0.06362318992614746, 0.14885392785072327, 0.21613255143165588, 0.0071791717782616615, -0.021564899012446404, -0.15305787324905396, 0.10902368277311325, -0.13736186921596527, 0.25122883915901184, 0.10594940185546875, 0.1705114245414734, -0.22687311470508575, 0.0655648484826088, 0.018360402435064316, 0.07198971509933472, 0.11830206960439682, 0.02492920681834221, 0.13767705857753754, -0.11792489141225815, -0.13664022088050842, -0.10705091804265976, -0.11738904565572739, -0.0019361992599442601, 0.1290387064218521, -0.04485977813601494, -0.03327770531177521, -0.02621385268867016], [0.007685295771807432, 0.17253276705741882, 0.011583816260099411, -0.28289711475372314, -0.08783718943595886, -0.1256921887397766, 0.017093639820814133, 0.1329289823770523, 0.08790712058544159, -0.2606526017189026, -0.07768247276544571, 0.13626614212989807, 0.011660553514957428, 0.06884948909282684, -0.309280127286911, 0.11766524612903595, 0.06879937648773193, -0.017314184457063675, -0.051582880318164825, 0.06061161682009697, -0.07293858379125595, -0.243806391954422, 0.1612739861011505, -0.02079135552048683, -0.009458377957344055, -0.02953837439417839, 0.059558991342782974, 0.018059194087982178, -0.34197354316711426, -0.22597627341747284, 0.17979688942432404, -0.10555849224328995], [0.18103820085525513, -0.10684690624475479, 0.12518413364887238, 0.06640550494194031, -0.20743325352668762, -0.23347985744476318, -0.06718462705612183, 0.030924884602427483, -0.03018428012728691, 0.06535258889198303, 0.019418831914663315, -0.11384707689285278, 0.02005801908671856, 0.14362849295139313, -0.05498852580785751, 0.06393417716026306, 0.06718625128269196, 0.20795507729053497, 0.13653886318206787, 0.19560599327087402, 0.009177030064165592, -0.22831355035305023, 0.20426420867443085, 0.13437362015247345, 0.010573926381766796, -0.37086573243141174, 0.03627748042345047, -0.11380112171173096, -0.14376792311668396, -0.2760602831840515, 0.0012073982506990433, 0.17167465388774872], [0.15168631076812744, -0.201838880777359, 0.21881145238876343, 0.19322380423545837, 0.16254955530166626, 0.0238109789788723, 0.29341790080070496, -0.08531267195940018, -0.15405195951461792, 0.16446441411972046, -0.0320744588971138, 0.16951100528240204, -0.11089404672384262, 0.004156274255365133, -0.014651688747107983, -0.02016906440258026, 0.05807817354798317, 0.03509842976927757, -0.19636434316635132, -0.09785650670528412, 0.07409720867872238, 0.05254966765642166, -0.24713511765003204, -0.053882524371147156, 0.003342317184433341, 0.14083580672740936, 0.12678499519824982, 0.025444457307457924, 0.03617653250694275, 0.16891847550868988, -0.1547010838985443, 0.02966250479221344], [0.1829320341348648, -0.004737522453069687, -0.05361899733543396, 0.13180376589298248, -0.11099305748939514, 0.16419237852096558, 0.017190024256706238, -0.037124428898096085, -0.07353120297193527, -0.03473807871341705, -0.10245776176452637, -0.06658101826906204, 0.051838409155607224, -0.0754871815443039, 0.0166343841701746, -0.12396147847175598, -0.06877841800451279, -0.10439539700746536, -0.1258840262889862, -0.005387904588133097, 0.12390414625406265, -0.042147763073444366, -0.1359100639820099, 0.09105124324560165, -0.048511672765016556, 0.08831676095724106, -0.034051552414894104, 0.19547602534294128, 0.07789856195449829, 0.08832903951406479, 0.0438249297440052, -0.2170977145433426], [-0.27782511711120605, 0.3251382112503052, 0.0009767883457243443, -0.04042910411953926, 0.2789229452610016, 0.36974912881851196, -0.22037197649478912, -0.27962034940719604, 0.030977528542280197, -0.036605849862098694, -0.1692514270544052, 0.040108561515808105, -0.22180140018463135, 0.03324975445866585, 0.028539098799228668, -0.3120490610599518, 0.09425779432058334, 0.12875241041183472, -0.30866461992263794, -0.23928514122962952, 0.014343293383717537, -0.02085280790925026, -0.26899072527885437, 0.04351124167442322, -0.022333623841404915, 0.4732857048511505, 0.022821584716439247, 0.34573981165885925, -0.1456330567598343, 0.3446071147918701, -0.329531192779541, -0.1573559194803238], [0.12126626819372177, 0.01983703300356865, -0.07703134417533875, 0.05969672277569771, 0.1289529949426651, -0.11929205805063248, 0.024183612316846848, 0.05704683065414429, -0.2043573260307312, 0.11579425632953644, -0.13779328763484955, -0.13004715740680695, -0.004340494982898235, -0.20979222655296326, 0.014287278056144714, 0.025186050683259964, 0.040068868547677994, -0.19849032163619995, 0.07324427366256714, -0.20806749165058136, 0.018529603257775307, -0.041941527277231216, -0.17919479310512543, 0.00031917536398395896, 0.19516384601593018, 0.0638146623969078, -0.09439221024513245, 0.11280705779790878, 0.02700389176607132, -0.04145333915948868, 0.02206103317439556, 0.0626908466219902], [-0.1798737347126007, 0.00893473345786333, -0.006907928269356489, -0.012069282121956348, -0.08976910263299942, -0.20931798219680786, 0.05183793231844902, 0.2503570020198822, 0.22005324065685272, 0.07498084753751755, -0.04637724161148071, -0.031384438276290894, -0.025310344994068146, -0.005358302965760231, -0.022538913413882256, 0.006338772363960743, -0.19168636202812195, -0.04740922898054123, 0.20131663978099823, 0.22125786542892456, 0.2145683616399765, 0.014827673323452473, 0.19372950494289398, 0.10703039914369583, 0.0771421417593956, -0.2593839466571808, -0.027608299627900124, -0.05044768378138542, -0.030000440776348114, -0.12548303604125977, 0.002237382112070918, -0.04139677435159683], [-0.06946630030870438, -0.03495286405086517, 0.21884025633335114, 0.0022318914998322725, -0.14562909305095673, -0.11727374792098999, 0.10248938202857971, 0.014994734898209572, -0.1633731871843338, -0.009118614718317986, 0.18341857194900513, -0.152443990111351, 0.07656914740800858, -0.02524825744330883, -0.013474629260599613, 0.11820433288812637, -0.046938490122556686, 0.08094687014818192, 0.073877714574337, 0.012501204386353493, 0.08399464190006256, 0.11533268541097641, 0.06878765672445297, 0.03836880996823311, -0.13694940507411957, 0.023190047591924667, 0.09339603036642075, 0.2001114934682846, 0.0305679589509964, 0.13694798946380615, 0.012508576735854149, -0.011962508782744408], [-0.0867387130856514, 0.06886021047830582, -0.007256915792822838, 0.1180482804775238, -0.020182279869914055, 0.09345372766256332, 0.19649739563465118, -0.026909632608294487, -0.16399437189102173, 0.11803137511014938, -0.09012502431869507, 0.15683633089065552, 0.05852916091680527, 0.0620713010430336, 0.14963218569755554, -0.1836623102426529, -0.04807800427079201, -0.25814974308013916, 0.024005526676774025, 0.11903119832277298, 0.08247397094964981, 0.020067626610398293, -0.2011851817369461, -0.10778950899839401, 0.2263643592596054, -0.05665015056729317, -0.08325796574354172, 0.16116778552532196, 0.14291726052761078, -0.0021838219836354256, -0.1530769020318985, -0.21560640633106232], [0.05918806046247482, -0.28012970089912415, 0.05888978764414787, 0.21215040981769562, -0.002300388878211379, 0.15259544551372528, 0.0808199942111969, 0.092981718480587, -0.13867275416851044, 0.21300800144672394, -0.06308573484420776, 0.026325009763240814, -0.061766237020492554, 0.002977001015096903, -0.009036513976752758, 0.20599646866321564, 0.06357008963823318, -0.23281705379486084, -0.10507290810346603, -0.0430399514734745, -0.03965592011809349, 0.026604440063238144, -0.15415243804454803, -0.059919312596321106, 0.15284235775470734, 0.11067166924476624, 0.2367570698261261, 0.05268993601202965, 0.3333200216293335, 0.14335548877716064, -0.12739688158035278, 0.13220198452472687], [0.199959859251976, -0.022052627056837082, -0.07101689279079437, 0.07936755567789078, -0.18773490190505981, 0.016302289441227913, 0.06903409957885742, -0.20111660659313202, -0.21465153992176056, 0.20516614615917206, 0.14746329188346863, 0.03549188748002052, 0.0010837187292054296, 0.05641762167215347, 0.15011587738990784, -0.17755244672298431, 0.04279877990484238, -0.015439444221556187, -0.10875596851110458, -0.055863481014966965, 0.06460659950971603, 0.19886700809001923, -0.11227937042713165, 0.19628141820430756, -0.028700578957796097, 0.09846224635839462, 0.18416927754878998, -0.00857075396925211, 0.35185009241104126, -0.03502803295850754, -0.15688195824623108, 0.10928573459386826], [0.1122293472290039, -0.16101233661174774, 0.06772322207689285, 0.004864135291427374, -0.1397814005613327, -0.1743224561214447, 0.023430706933140755, -0.034350741654634476, 0.04629809781908989, -0.04164018854498863, 0.09055400639772415, 0.0816795602440834, -0.02126428298652172, 0.11042017489671707, 0.053622037172317505, 0.07531627267599106, -0.2174849957227707, 0.12957584857940674, 0.29999062418937683, -0.06205850839614868, 0.041509322822093964, 0.023095231503248215, 0.09691650420427322, 0.12317764014005661, -0.06543382257223129, -0.3487459421157837, -0.18635441362857819, -0.2302468866109848, -0.03662048652768135, -0.017192790284752846, 0.13565123081207275, 0.2045125961303711], [0.05213358625769615, 0.04750920459628105, -0.05176829174160957, -0.008736859075725079, 0.09798097610473633, -0.06973595172166824, -0.012834679335355759, 0.010619303211569786, -0.048887353390455246, -0.0957469642162323, -0.09082382172346115, -0.08779310435056686, 0.0799017921090126, -0.20013262331485748, -0.05142872408032417, 0.0442398265004158, 0.06980857253074646, 0.005618829745799303, -0.18323619663715363, -0.07017213106155396, -0.09266486763954163, 0.13332217931747437, -0.19098040461540222, -0.10752349346876144, 0.019350891932845116, 0.17667043209075928, -0.022053688764572144, 0.10095832496881485, 0.0018466644687578082, -0.0829310342669487, 0.10292212665081024, -0.16479021310806274], [0.06830266863107681, 0.2916050851345062, -0.16017059981822968, -0.24261824786663055, -0.11082468181848526, 0.12503798305988312, -0.13742554187774658, -0.025918137282133102, 0.04508014768362045, 0.020969923585653305, -0.14345110952854156, 0.05846432223916054, 0.04216961935162544, 0.3160856366157532, -0.1921328455209732, 0.07254352420568466, -0.17770101130008698, 0.06463151425123215, 0.01255690585821867, -0.16239754855632782, -0.12409472465515137, -0.04231562465429306, 0.2208629995584488, 0.021420160308480263, -0.24542203545570374, -0.015973759815096855, -0.020888615399599075, 0.07566157728433609, -0.31638070940971375, -0.2914447486400604, 0.16900980472564697, 0.1415017545223236], [0.20134218037128448, -0.01872318796813488, 0.12011054903268814, -0.09503023326396942, -0.1506878286600113, -0.1269148886203766, 0.16204887628555298, 0.036067284643650055, 0.13699857890605927, -0.16859757900238037, -0.15153348445892334, -0.06880006194114685, 0.2583225965499878, 0.21018944680690765, 0.17151705920696259, 0.28642183542251587, -0.09102550148963928, 0.14827658236026764, 0.21510134637355804, 0.012452006340026855, 0.20064909756183624, -0.10373169928789139, 0.031074505299329758, 0.0697242021560669, 0.12990044057369232, -0.13436006009578705, -0.03808961808681488, -0.24220161139965057, 0.18408630788326263, -0.07279960811138153, 0.2977040708065033, 0.18785589933395386], [0.10597646981477737, -0.09888915717601776, 0.19743679463863373, 0.1354697346687317, -0.008256860077381134, 0.09223497658967972, 0.2431425005197525, -0.1682988554239273, 0.0837273895740509, 0.21371996402740479, 0.1896248161792755, 0.08001936227083206, -0.057198405265808105, -0.1349852979183197, 0.09104157239198685, -0.12429483979940414, 0.1393282562494278, -0.018035776913166046, -0.10736498236656189, 0.11535020917654037, 0.05217185616493225, 0.2617785334587097, 0.06996525824069977, -0.07000046968460083, -0.10860926657915115, -0.014167978428304195, 0.25353312492370605, -0.026256872341036797, 0.1377926617860794, 0.1907690018415451, -0.09761974215507507, 0.10386180132627487], [-0.11101365834474564, 0.5174161195755005, -0.18449866771697998, -0.406569242477417, -0.36818620562553406, -0.06439140439033508, -0.28477993607521057, 0.0815570205450058, 0.3701019287109375, -0.12809589505195618, -0.10155367106199265, -0.16308315098285675, -0.032514650374650955, 0.40228864550590515, -0.40551212430000305, -0.18782919645309448, -0.2162962108850479, 0.26264798641204834, -0.0070680114440619946, -0.16195209324359894, -0.06715870648622513, -0.21048574149608612, 0.03396482393145561, 0.19593507051467896, -0.36128324270248413, -0.14582519233226776, -0.07087785005569458, -0.2561109662055969, -0.5736573338508606, -0.2819618284702301, -0.22551526129245758, 0.17972348630428314], [0.3060876131057739, -0.698589563369751, 0.48764389753341675, 0.4861660301685333, -0.12433342635631561, -0.016955358907580376, 0.34377431869506836, 0.26646795868873596, 0.02953040972352028, 0.19224829971790314, 0.1373751014471054, -0.5054736733436584, -0.24500611424446106, -0.0598704069852829, 0.3643984794616699, -0.2891968786716461, 0.0016500263009220362, 0.07716131955385208, 0.3669895529747009, -0.10917342454195023, 0.04650377854704857, -0.20996150374412537, -0.043672751635313034, 0.04710042104125023, -0.02054441347718239, -0.35885533690452576, -0.02211942709982395, -0.29244452714920044, 0.17863495647907257, -0.37425822019577026, 0.11353840678930283, 0.2981788218021393], [0.3006667494773865, -0.7757845520973206, 0.4626131057739258, 0.3353482484817505, -0.39414316415786743, -0.3584110140800476, 0.6070119738578796, 0.5407662987709045, -0.21711638569831848, -0.06762726604938507, 0.22092555463314056, -0.5182512998580933, 0.12110400944948196, 0.027231335639953613, 0.3436889052391052, 0.24990610778331757, -0.23309805989265442, -0.0995941162109375, 0.6781742572784424, 0.34001249074935913, 0.17924372851848602, -0.20939752459526062, 0.24462422728538513, 0.18309740722179413, 0.22026461362838745, -0.9057202935218811, -0.04536205902695656, -0.5142548084259033, 0.39014026522636414, -0.545333206653595, 0.8074511289596558, 0.22842732071876526], [0.24202777445316315, -0.5047484636306763, 0.3188186287879944, 0.22042804956436157, -0.005795551463961601, 0.032915517687797546, 0.06684816628694534, -0.08035247772932053, -0.28374963998794556, -0.013345285318791866, 0.25738945603370667, 0.11502234637737274, 0.06181459128856659, -0.02480790950357914, 0.11429626494646072, -0.03177162632346153, 0.019488587975502014, -0.33109617233276367, -0.11309792846441269, 0.0548454150557518, -0.1119583398103714, 0.17142559587955475, -0.06803635507822037, -0.09053917229175568, 0.17023052275180817, 0.01647816225886345, 0.2068648338317871, 0.2533584535121918, 0.3672252893447876, -0.04117145389318466, -0.12328251451253891, 0.14002464711666107], [-0.07455189526081085, 0.41097378730773926, -0.2728351354598999, -0.27286338806152344, 0.07466838508844376, 0.05005083978176117, -0.21411395072937012, 0.05784694105386734, 0.12345787137746811, -0.23861557245254517, 0.00032005776301957667, 0.06324421614408493, -0.04740213602781296, -0.04692717641592026, -0.21771986782550812, 0.05406477302312851, -0.1502833068370819, 0.297389954328537, 0.021033184602856636, -0.00025410266243852675, 0.09468238055706024, -0.09005837142467499, 0.21188221871852875, -0.07786961644887924, 0.10820087790489197, -0.1344674825668335, -0.10914492607116699, 0.001597968628630042, -0.15780501067638397, -0.1455966681241989, 0.14983125030994415, -0.08137053996324539], [0.1743287593126297, -0.16609792411327362, 0.10379909723997116, 0.05814572423696518, 0.24180248379707336, 0.1889515221118927, 0.1499299705028534, 0.08584818243980408, -0.0552125908434391, -0.05811319872736931, -0.04870839789509773, 0.028209106996655464, -0.17381489276885986, -0.03790614381432533, 0.32165172696113586, -0.0748903825879097, 0.02846764773130417, -0.25949540734291077, -0.04019971564412117, -0.056156571954488754, 0.09219232201576233, 0.04483945295214653, -0.26705679297447205, 0.10727428644895554, 0.24920333921909332, 0.01000322587788105, 0.06358452141284943, 0.06421014666557312, 0.07541903108358383, -0.05971045792102814, 0.06880476325750351, 0.10227692872285843], [0.14795565605163574, -0.3328099250793457, 0.07839229702949524, 0.2550904452800751, 0.23261424899101257, -0.015049418434500694, 0.14317826926708221, 0.004367742221802473, 0.02340518869459629, 0.2611321806907654, 0.22147879004478455, 0.214664489030838, -0.08465676754713058, 0.05050160735845566, 0.18021006882190704, -0.004497131798416376, 0.23754315078258514, -0.16215386986732483, -0.06464561820030212, -0.07832552492618561, -0.13180053234100342, -0.009385748766362667, 0.03597616031765938, 0.10875184088945389, 0.04725314676761627, 0.010666322894394398, 0.2940916121006012, 0.14992129802703857, 0.3075062334537506, -0.048405472189188004, 0.01164981722831726, 0.042646899819374084], [0.18224520981311798, 0.18088696897029877, 0.05801139399409294, -0.01825183629989624, 0.0026859622448682785, 0.012268738821148872, 0.12337400764226913, 0.1635592132806778, 0.0670919194817543, -0.020862342789769173, -0.10265001654624939, 0.08651022613048553, -0.07729475200176239, 0.2272852659225464, 0.06218095123767853, -0.13515114784240723, -0.22449949383735657, 0.07796545326709747, 0.16891303658485413, 0.18469449877738953, -0.12515375018119812, -0.12344145774841309, 0.13118988275527954, -0.026010481640696526, -0.18954604864120483, -0.10049127787351608, 0.006720163393765688, -0.10993686318397522, 0.022143946960568428, -0.061931513249874115, 0.19900020956993103, 0.11330181360244751], [0.009542740881443024, 0.024128273129463196, -0.1295708566904068, 0.03812377527356148, 0.12795811891555786, 0.014577138237655163, -0.23047660291194916, 0.19403450191020966, 0.23468196392059326, -0.05558015778660774, -0.15557992458343506, -0.09808457642793655, 0.14278191328048706, 0.12554453313350677, -0.1044759452342987, 0.015715457499027252, -0.05937337502837181, -0.07697442173957825, 0.20268326997756958, 0.04175621643662453, -0.11755215376615524, -0.03630682826042175, 0.16965046525001526, -0.13647329807281494, -0.03589203208684921, -0.28996968269348145, 0.008870757184922695, -0.05967029184103012, 0.003469412447884679, -0.09988530725240707, 0.21276502311229706, -0.1386234015226364], [-0.12981806695461273, 0.012186571955680847, -0.24887819588184357, 0.028510956093668938, 0.014895741827785969, 0.09428326785564423, 0.0011981356656178832, -0.031165551394224167, 0.0896577313542366, -0.2736786901950836, 0.11552820354700089, -0.07647687196731567, -0.0009639567579142749, 0.18055282533168793, -0.1896333545446396, -0.1982007771730423, -0.0855303406715393, 0.2644786238670349, 0.21673358976840973, -0.1217472031712532, 0.14261990785598755, -0.036477431654930115, -0.03352494537830353, 0.06932245194911957, -0.198605015873909, -0.17594467103481293, -0.29295527935028076, -0.14915111660957336, -0.04720737040042877, -0.1569329798221588, 0.07690300792455673, 0.0778191015124321]], "b": [0.22711752355098724, 0.187369704246521, 0.04383757337927818, 0.008579405955970287, 0.15714019536972046, -0.1465274691581726, 0.15723948180675507, -0.1531166285276413, -0.1134505420923233, -0.15717889368534088, 0.22102196514606476, 0.11800142377614975, -0.1304439902305603, 0.06137937679886818, -0.05022185668349266, -0.27969664335250854, -0.18216215074062347, -0.17998287081718445, 0.12594802677631378, 0.2850740849971771, -0.25935429334640503, -0.03578852117061615, 0.44389328360557556, -0.5557602047920227, -0.9111180305480957, -0.42733487486839294, 0.27479228377342224, -0.2154575139284134, -0.28235626220703125, 0.058107271790504456, 0.09602241218090057, 0.09408384561538696]}, {"w": [[-0.25597140192985535, 0.2815030813217163, 0.1046157255768776, -0.02217486873269081, -0.21768879890441895, -0.1623622626066208, -0.18486912548542023, -0.2971785068511963, 0.17881253361701965, 0.11087864637374878, 0.2459978610277176, 0.04729623720049858, -0.21800246834754944, 0.053864672780036926, 0.13882988691329956, 0.19761443138122559, 0.2318078726530075, -0.17258432507514954, 0.1019473448395729, -0.1581912338733673, -0.17388851940631866, 0.25933319330215454, -0.1635957509279251, -0.2157920002937317, -0.3279140293598175, 0.1507054567337036, -0.19083672761917114, 0.1361188441514969, 0.2845866084098816, -0.1872827261686325, -0.2517300844192505, -0.11454596370458603]], "b": [-0.049981195479631424]}], "train": {"venue": "lake_perp_mid", "events": 909, "cap_ts": 0, "target": "market", "w_out": 0.0, "skip_last_s": 60.0}}