{"arch": {"hidden": 32, "clamp": 2.0, "act": "tanh", "logit": "raw", "mode": "direct"}, "features": "zp=(px-b)/s/sqrt(tte/900); u_in=[zp, log(tte/900)] + extras", "rho_bar": 4.807678699493408, "b_prior": "strike", "b_scale": 50.0, "extras": ["basis", "dbasis15", "dbasis60", "imb1", "mom60", "mom120"], "mu": [30.120951036375693, 0.0018867716187651832, 0.006352399280689018, 0.006881081984185354, -0.3310187714925736, -0.6600634129412855], "sd": [7.833696533537069, 8.294706146951754, 9.19866445490232, 0.597220484093798, 42.407682905378124, 59.800340050855205], "layers": [{"w": [[0.08959329128265381, -0.46690091490745544, 0.08204870671033859, -0.017302317544817924, -0.08712466061115265, -0.036597903817892075, -0.2128295749425888, 0.17950044572353363], [-0.1195235475897789, 0.2825760841369629, 0.03977286443114281, -0.03172463923692703, -0.06147725135087967, 0.09529902040958405, -0.034178297966718674, 0.14265023171901703], [0.08933401107788086, -0.33410000801086426, 0.011534894816577435, -0.00476215360686183, 0.093473419547081, 0.059639330953359604, 0.08945012837648392, 0.009065923281013966], [0.08940088748931885, -0.22472254931926727, 0.01434333622455597, 0.0015499165747314692, -0.020143991336226463, -0.004455989226698875, 0.21705085039138794, 0.0873592421412468], [0.14753007888793945, 0.15039724111557007, 0.07349812239408493, 0.1338750123977661, -0.13027480244636536, 0.23879693448543549, -0.45096275210380554, -0.7890113592147827], [0.31100860238075256, 0.18391259014606476, -0.16802585124969482, 0.12525247037410736, 0.061775676906108856, -0.04617587476968765, 0.020651284605264664, 0.024532001465559006], [0.1468391716480255, -0.29533517360687256, -0.0632782056927681, 0.0767475888133049, 0.06551651656627655, -0.020378218963742256, -0.332852303981781, -0.09875556081533432], [-0.36591607332229614, -0.28395238518714905, -0.028041420504450798, 0.053133103996515274, -0.011129604652523994, -0.07094186544418335, 0.24977077543735504, -0.3292050361633301], [-0.24709898233413696, 0.19781869649887085, 0.04705223813652992, -0.023623062297701836, 0.007274074014276266, 0.023539438843727112, 0.012663783505558968, -0.04607180133461952], [0.2550579905509949, 0.0654989555478096, 0.006557444576174021, 0.16038458049297333, 0.06609360873699188, -0.03178844228386879, 0.0788327232003212, -0.021385489031672478], [0.25942108035087585, -0.07528665661811829, 0.025813911110162735, 0.00798432994633913, 0.04134006425738335, -0.03726087883114815, 0.13997864723205566, 0.09102613478899002], [-0.07791735976934433, 0.12798325717449188, -0.10223641246557236, -0.24471387267112732, -0.18049827218055725, 0.03969436138868332, -0.6569632291793823, -0.38074567914009094], [-0.24590107798576355, -0.0023209715727716684, -0.006311511155217886, 0.17360582947731018, -0.18027950823307037, 0.004011810291558504, -0.10185087472200394, 0.08720199763774872], [-0.20920635759830475, 0.03356293588876724, 0.13363519310951233, -0.023099463433027267, -0.088840551674366, 0.06288328021764755, -0.25801774859428406, 0.23125994205474854], [0.15715985000133514, -0.2141745686531067, 0.017634231597185135, -0.05468534305691719, -0.10941469669342041, 0.012824825942516327, -0.19665215909481049, -0.10969709604978561], [0.00819371733814478, -0.17023859918117523, 0.04181423783302307, -0.037721939384937286, -0.16482876241207123, -0.04261700063943863, -0.6192129850387573, -0.4898509979248047], [0.2514066994190216, 0.1933068335056305, 0.11613983660936356, -0.24147702753543854, -0.10455518215894699, 0.12677063047885895, 0.5173543691635132, 0.06848813593387604], [-0.4477505683898926, 0.013895486481487751, 0.034989938139915466, -0.004757834132760763, -0.06008913740515709, 0.10634026676416397, 0.02972956746816635, -0.14039085805416107], [-0.5376861691474915, -0.571963906288147, -0.02422436699271202, 0.03539351001381874, 0.1329919397830963, -0.06595499068498611, 0.06741497665643692, -0.12057961523532867], [-0.3925248384475708, -0.22553756833076477, 0.03398954123258591, -0.07414966076612473, -0.02044513076543808, 0.003487754613161087, 0.3399977385997772, -0.0855550691485405], [-0.07163910567760468, -0.24905408918857574, -0.3721175789833069, -0.32393038272857666, -0.1195078194141388, -0.20616723597049713, 0.028964821249246597, -0.11771143227815628], [0.5246341824531555, 0.15771590173244476, 0.06588853150606155, -0.1339690089225769, -0.005177896469831467, 0.08096843957901001, -0.1253204643726349, -0.03167249634861946], [-0.4452432096004486, 0.0054643414914608, 0.012898190878331661, -0.024347655475139618, 0.10382213443517685, 0.044138967990875244, -0.09254530817270279, 0.15236830711364746], [-0.03496995568275452, -0.16514433920383453, -0.013510198332369328, 0.031095579266548157, 0.1551491916179657, 0.22000880539417267, 0.3093070983886719, 0.5952391624450684], [0.2492893785238266, -0.09086479991674423, 0.3082503378391266, -0.03545273095369339, 0.1437755823135376, 0.01454941090196371, 0.17346078157424927, -0.3868104815483093], [0.5014448761940002, 0.6006922721862793, 0.08188626170158386, -0.04528655856847763, -0.030004315078258514, -0.008403385058045387, -0.1450156718492508, -0.07271270453929901], [0.1745726764202118, -0.06435294449329376, 0.035367533564567566, 0.023965440690517426, -0.09456222504377365, 0.19078318774700165, 0.25246864557266235, -0.35388562083244324], [0.559180498123169, 0.28942036628723145, 0.09123657643795013, 0.0057915509678423405, 0.04975627362728119, -0.00971664022654295, -0.030635572969913483, 0.05227810516953468], [0.22054728865623474, -0.1410846710205078, -0.029275106266140938, -0.028956104069948196, -0.05859062820672989, 0.04372848942875862, -0.1852918416261673, 0.16841378808021545], [0.47808849811553955, 0.3482230305671692, 0.05200598016381264, 0.009242906235158443, 0.04092876613140106, 0.055495090782642365, 0.3166198432445526, -0.2612897753715515], [-0.25707581639289856, -0.2082926481962204, -0.029532652348279953, -0.00540637131780386, -0.014908556826412678, 0.07107537239789963, -0.11099185049533844, -0.1686152219772339], [0.0659441351890564, 0.3754565715789795, 0.09895574301481247, -0.04000687599182129, -0.028941240161657333, 0.14457739889621735, -0.27388912439346313, 0.23856128752231598]], "b": [-0.17530257999897003, 0.9636717438697815, -0.7559102177619934, -0.6401869058609009, 0.12685024738311768, 0.30584418773651123, -0.42313262820243835, -0.3292369246482849, 0.2816265821456909, -0.37608468532562256, -0.36346590518951416, -0.04105859994888306, -0.18089783191680908, 0.3314496576786041, -0.7222582101821899, -0.12057270854711533, -0.16889716684818268, 0.7650359869003296, -0.5959116220474243, -0.1719759702682495, -0.10698172450065613, -0.3726122975349426, 0.3484494090080261, -0.0724114328622818, -0.3359258472919464, 1.0624878406524658, -0.3677022457122803, 0.3073008060455322, -0.8213594555854797, 0.4420534670352936, -0.44921064376831055, -0.6958940029144287]}, {"w": [[-0.05503131076693535, 0.1117386594414711, -0.15217678248882294, -0.2774633467197418, -0.1165085881948471, -0.06958972662687302, -0.08198481053113937, 0.21297934651374817, 0.0491773784160614, 0.07476803660392761, -0.16751345992088318, 0.14746002852916718, 0.17262646555900574, 0.11654429882764816, -0.22137276828289032, 0.13200967013835907, -0.11409050971269608, 0.07635889947414398, 0.054257310926914215, -0.07219714671373367, 0.027310265228152275, -0.24359039962291718, 0.2203313708305359, -0.20347505807876587, -0.19007161259651184, -0.10465832054615021, -0.0012998715974390507, 0.06640562415122986, -0.3742065727710724, 0.05180777609348297, 0.1589272916316986, -0.07702746242284775], [0.23231562972068787, -0.07872417569160461, 0.11014851182699203, -0.05702251195907593, -0.08953078091144562, 0.006990606896579266, -0.06908825039863586, -0.11293745040893555, -0.1436556577682495, -0.009423187002539635, 0.15754273533821106, 0.0945962443947792, -0.20772454142570496, -0.24531228840351105, 0.011002699844539165, -0.06989281624555588, -0.057558901607990265, -0.1134376972913742, -0.09102021902799606, -0.20885498821735382, 0.07414174824953079, 0.22515811026096344, 0.02867806889116764, -0.043089609593153, -0.06029616296291351, 0.1967291235923767, 0.1693717986345291, 0.20697367191314697, -0.03880588710308075, 0.2494664192199707, -0.21748040616512299, -0.11103424429893494], [-0.030514748767018318, 0.025115929543972015, -0.11177961528301239, -0.09409793466329575, -0.07555758208036423, 0.21375468373298645, -0.015602653846144676, 0.03757787495851517, 0.09511055052280426, 0.07036828249692917, -0.06343868374824524, 0.008367764763534069, 0.04261365905404091, -0.048180509358644485, -0.11979766935110092, 0.1445256471633911, -0.0553656667470932, -0.2073267698287964, -0.011574624106287956, -0.028515376150608063, 0.08984768390655518, 0.040130794048309326, 0.02591351978480816, -0.03670454025268555, -0.07320703566074371, 0.3095479905605316, 0.1873941868543625, 0.22740186750888824, 0.014061834663152695, 0.005321119911968708, -0.028826726600527763, -0.03279217332601547], [0.07563107460737228, 0.15746717154979706, -0.06801595538854599, 0.06910456717014313, 0.17242251336574554, 0.09253835678100586, -0.041598957031965256, -0.13122263550758362, -0.08194801211357117, -0.1059519499540329, 0.1178952157497406, -0.03308907151222229, -0.025320935994386673, -0.10512790828943253, -0.06115010008215904, 0.051907729357481, 0.01363209169358015, 0.13046897947788239, 0.16031822562217712, -0.14783312380313873, 0.06115148961544037, 0.13662299513816833, -0.04288465902209282, 0.056633539497852325, -0.019952015951275826, 0.026181738823652267, 0.05361229553818703, -0.19300305843353271, -0.1606469601392746, 0.11287394165992737, -0.07450521737337112, -0.1171245202422142], [-0.2339027374982834, -0.005419821012765169, -0.03390110284090042, -0.02603781782090664, -0.2522912621498108, -0.13829031586647034, -0.06966546922922134, 0.17236652970314026, 0.187847301363945, -0.20147070288658142, 0.0977766215801239, 0.0838421955704689, -0.07056625187397003, 0.21379400789737701, -0.3359294831752777, -0.22733689844608307, -0.03779028356075287, 0.21768534183502197, 0.28234007954597473, 0.10714752227067947, 0.19318117201328278, -0.18811462819576263, -0.02369883842766285, -0.015306590124964714, 0.0399949811398983, -0.24143154919147491, -0.24296513199806213, -0.22182956337928772, -0.22192122042179108, 0.07898996770381927, 0.0630774199962616, -0.05416791886091232], [0.12578421831130981, 0.1474682092666626, -0.1179279163479805, -0.1855713427066803, 0.153972789645195, 0.08452430367469788, 0.21603238582611084, 0.2009558081626892, -0.020150525495409966, 0.009491522796452045, -0.16037413477897644, 0.2101576030254364, -0.15279178321361542, 0.2413824200630188, 0.12935788929462433, 0.3664175868034363, -0.25669237971305847, 0.04562731459736824, 0.04280828684568405, 0.05532503128051758, 0.15349726378917694, 0.034576985985040665, 0.13198725879192352, -0.23686525225639343, -0.12657125294208527, -0.11544151604175568, -0.15579742193222046, -0.0057443780824542046, 0.1452924609184265, -0.05556473508477211, -0.05683908984065056, 0.013883158564567566], [0.05111994594335556, 0.12140237540006638, 0.051351819187402725, -0.23789651691913605, -0.10204365849494934, -0.2007787972688675, 0.07314956188201904, 0.17127180099487305, 0.07566452771425247, -0.2626585066318512, -0.08289086818695068, 0.1103716790676117, 0.028814708814024925, 0.07110137492418289, -0.27025535702705383, 0.08219756186008453, 0.0866686999797821, -0.011768320575356483, 0.014118206687271595, 0.10186372697353363, 0.010573629289865494, -0.2595673203468323, 0.163106307387352, -9.997940651373938e-06, -0.008852324448525906, -0.12091528624296188, 0.0938958004117012, -0.02411995641887188, -0.33281293511390686, -0.27428480982780457, 0.20180493593215942, -0.042981866747140884], [0.25586459040641785, -0.1252467930316925, 0.15553632378578186, 0.12082181125879288, -0.4188980162143707, -0.2659393548965454, -0.07947025448083878, 0.029090799391269684, -0.020481938496232033, 0.05390830338001251, 0.007153401151299477, -0.1768360137939453, 0.014658570289611816, 0.1118873581290245, -0.08761421591043472, -0.08816595375537872, 0.09430667757987976, 0.22247320413589478, 0.14336945116519928, 0.21279773116111755, 0.07274921238422394, -0.2583329379558563, 0.2166857123374939, 0.21031862497329712, -0.02435280568897724, -0.42634251713752747, -0.023749886080622673, -0.1297556310892105, -0.14192642271518707, -0.29882293939590454, 0.0018272505840286613, 0.2020285576581955], [0.3082961440086365, -0.17682264745235443, 0.2278337925672531, 0.2300853282213211, 0.15584692358970642, 0.12371959537267685, 0.22341789305210114, -0.09554420411586761, -0.22038526833057404, 0.16799283027648926, -0.00738831190392375, 0.1024530753493309, -0.17112727463245392, -0.017755556851625443, -0.05763113871216774, -0.048733919858932495, 0.04765448346734047, 0.04395051300525665, -0.22057481110095978, -0.10651908069849014, 0.00015834446821827441, 0.048627156764268875, -0.2479734569787979, 0.02898258902132511, -0.0022599503863602877, 0.1511084884405136, 0.14739680290222168, 0.04438465088605881, 0.037317827343940735, 0.18784311413764954, -0.21335354447364807, -0.08474162966012955], [-0.031975969672203064, -0.027996636927127838, -0.0470772385597229, 0.0960124135017395, -0.24395844340324402, 0.050331104546785355, -0.10067087411880493, 0.04535827413201332, -0.008826008066534996, -0.13098469376564026, -0.14593563973903656, -0.0037185600958764553, 0.14537091553211212, 0.021896718069911003, -0.023631202057003975, -0.04346403852105141, -0.1912396252155304, -0.04732593521475792, -0.11225147545337677, 0.060607146471738815, 0.18425746262073517, -0.09345327317714691, -0.08600103110074997, 0.058180369436740875, -0.11957792192697525, 0.060077983886003494, -0.14677076041698456, 0.17385302484035492, -0.01266331784427166, 0.049693990498781204, 0.12879937887191772, -0.20594337582588196], [-0.19025246798992157, 0.3681333661079407, -0.018365273252129555, -0.15312254428863525, 0.2999265789985657, 0.4833875894546509, -0.2517249584197998, -0.3657986521720886, -0.06071595102548599, -0.009719723835587502, -0.11611132323741913, 0.07400722801685333, -0.2249726951122284, 0.07078628987073898, -0.07075352221727371, -0.3642154633998871, 0.04850165918469429, 0.11304690688848495, -0.3500467836856842, -0.3219558894634247, -0.002649720059707761, -0.019374888390302658, -0.2649376690387726, 0.010590974241495132, 0.015982957556843758, 0.5568738579750061, -0.12968626618385315, 0.39471662044525146, -0.16827045381069183, 0.35963985323905945, -0.5044585466384888, -0.21641956269741058], [0.11812737584114075, 0.0038711298257112503, -0.07462199777364731, 0.06879594922065735, 0.06257788836956024, -0.11496802419424057, 0.01743645779788494, 0.046729955822229385, -0.2010500282049179, 0.11679662019014359, -0.1285523623228073, -0.13196799159049988, -0.0014724252978339791, -0.21367976069450378, 0.0092173982411623, 0.00483687873929739, 0.032269187271595, -0.20191222429275513, 0.06536111980676651, -0.21856048703193665, 0.013958718627691269, -0.040892213582992554, -0.17344698309898376, 0.02947300300002098, 0.18884876370429993, 0.06234436482191086, -0.11685699969530106, 0.10937291383743286, 0.04906463623046875, -0.04747406393289566, 0.019823767244815826, 0.060239728540182114], [-0.22691215574741364, 0.0390719398856163, -0.009120702743530273, -0.003342126728966832, -0.07373254001140594, -0.28588178753852844, 0.06099122762680054, 0.2528698742389679, 0.2733456492424011, 0.038118887692689896, -0.06933680921792984, -0.013652568683028221, -0.012690132483839989, 0.03664086386561394, 0.0007737665437161922, 0.05838290601968765, -0.12388637661933899, -0.030879279598593712, 0.19081901013851166, 0.2430787980556488, 0.29671552777290344, 0.01492951437830925, 0.21364833414554596, 0.0277769323438406, 0.04789683222770691, -0.26223981380462646, 0.0034012384712696075, -0.06064010411500931, -0.028543831780552864, -0.12224262207746506, 0.04588814079761505, 0.04431809112429619], [-0.110924132168293, -0.05151291936635971, 0.22192512452602386, -0.021362051367759705, -0.31857576966285706, -0.16138581931591034, 0.041673023253679276, 0.08074628561735153, -0.12554822862148285, -0.08415649086236954, 0.1609937697649002, -0.15330053865909576, 0.12411406636238098, 0.06614428013563156, -0.062086232006549835, 0.21479123830795288, -0.15705053508281708, 0.13201096653938293, 0.08216680586338043, 0.059764981269836426, 0.15571273863315582, 0.06749561429023743, 0.10365438461303711, 0.04091642424464226, -0.1768331676721573, -0.0020374266896396875, -0.02243904024362564, 0.18373240530490875, -0.07127571851015091, 0.10277368873357773, 0.06587963551282883, -0.06429155170917511], [-0.03273583948612213, 0.013870231807231903, 0.02156910113990307, 0.15760187804698944, -0.19995467364788055, 0.08278573304414749, 0.16246171295642853, -0.010622050613164902, -0.16857674717903137, 0.09851733595132828, -0.07905854284763336, 0.13306975364685059, 0.07003480195999146, 0.060281090438365936, 0.17078252136707306, -0.17326301336288452, -0.08007986098527908, -0.2584572434425354, 0.011532718315720558, 0.12417948991060257, 0.11468159407377243, 0.010458695702254772, -0.19679173827171326, -0.06361260265111923, 0.21846891939640045, -0.05374588817358017, -0.12226303666830063, 0.16435456275939941, 0.1632997691631317, -0.013744723983108997, -0.134324312210083, -0.2296801507472992], [0.07941735535860062, -0.3140204846858978, 0.05702285096049309, 0.20365022122859955, -0.04028851538896561, 0.24387910962104797, 0.08013103902339935, 0.026341823861002922, -0.12757501006126404, 0.2505294680595398, -0.042687442153692245, 0.018997931852936745, -0.09111995249986649, -0.010842944495379925, 0.02760987915098667, 0.21757827699184418, 0.07350867241621017, -0.2831038236618042, -0.20197978615760803, -0.11572618782520294, -0.08946685492992401, 0.06678161770105362, -0.16567209362983704, -0.051312509924173355, 0.1660645306110382, 0.21769192814826965, 0.20921513438224792, 0.11889046430587769, 0.3844142258167267, 0.18271389603614807, -0.1406353861093521, 0.1619495004415512], [0.34676623344421387, -0.017294839024543762, -0.04912237077951431, 0.06828830391168594, -0.23389379680156708, 0.013944992795586586, 0.07381261885166168, -0.246483713388443, -0.2395246922969818, 0.17562781274318695, 0.14529232680797577, 0.04889510199427605, 0.012827123515307903, 0.17312930524349213, 0.2050710767507553, -0.0538480207324028, -0.013548043556511402, -0.017861364409327507, -0.15361666679382324, -0.072440505027771, 0.015759125351905823, 0.2178243100643158, -0.10079225897789001, 0.2386031597852707, -0.057714931666851044, 0.14010652899742126, 0.18749170005321503, 0.005646939855068922, 0.45639684796333313, -0.02208498865365982, -0.1391603797674179, 0.06311631202697754], [0.29890310764312744, -0.20631465315818787, 0.119963638484478, 0.1120154857635498, -0.2374512255191803, -0.21952219307422638, 0.12359578907489777, -0.02747850865125656, 0.045676182955503464, -0.041596949100494385, 0.08550621569156647, 0.02411735989153385, -0.03805999830365181, 0.12368150800466537, 0.15891093015670776, 0.13001970946788788, -0.1781333088874817, 0.1303543597459793, 0.31649577617645264, -0.03916643559932709, 0.03612612932920456, 0.014126166701316833, 0.10222627222537994, 0.18772253394126892, -0.06939573585987091, -0.43290653824806213, -0.09852670133113861, -0.250883013010025, 0.02667493000626564, -0.0509224608540535, 0.1834261417388916, 0.24859657883644104], [-0.02740684524178505, -0.01920977793633938, -0.026014108210802078, -0.02277527190744877, -0.14206375181674957, -0.14762850105762482, -0.06950446218252182, 0.08881251513957977, -0.0006374392542056739, -0.1806010752916336, -0.11013820022344589, -0.06225841864943504, 0.17343534529209137, -0.07972171157598495, -0.10094878822565079, 0.1592913269996643, -0.11177684366703033, 0.05585609748959541, -0.19050340354442596, -0.022190816700458527, -0.02724745124578476, 0.06528543680906296, -0.1410915106534958, -0.1164882704615593, -0.032052457332611084, 0.16063788533210754, -0.19377565383911133, 0.09404228627681732, -0.10761771351099014, -0.13419689238071442, 0.18787123262882233, -0.1313866227865219], [0.02623978815972805, 0.39095935225486755, -0.19287313520908356, -0.3252236843109131, 0.06248471513390541, 0.09972595423460007, -0.15617695450782776, -0.03122083656489849, -0.001148910610936582, 0.048582833260297775, -0.15168215334415436, 0.07660088688135147, 0.02914527617394924, 0.38427838683128357, -0.28033676743507385, 0.1328650861978531, -0.11513986438512802, 0.056784264743328094, 0.06196970492601395, -0.12036235630512238, -0.18080875277519226, 0.0009018034907057881, 0.20938752591609955, -0.053015466779470444, -0.21442781388759613, -0.04899273440241814, 0.00300728902220726, 0.06834235787391663, -0.3118220269680023, -0.27478334307670593, 0.10329242795705795, 0.16792196035385132], [0.2021588236093521, -0.03458338975906372, 0.13169124722480774, 0.022821782156825066, -0.057419680058956146, -0.11512453854084015, 0.2561972737312317, 0.092374786734581, 0.1671655774116516, -0.14614473283290863, -0.16348391771316528, -0.0969340056180954, 0.20556330680847168, 0.11407460272312164, 0.1760612279176712, 0.44529303908348083, -0.08260856568813324, 0.16451485455036163, 0.23087283968925476, 0.04304225370287895, 0.23246023058891296, -0.14520378410816193, 0.028822891414165497, -0.021678630262613297, 0.16644544899463654, -0.1507270336151123, 0.013038313947618008, -0.2393345832824707, 0.1153707429766655, -0.03825913742184639, 0.33174997568130493, 0.16603966057300568], [0.2197764813899994, -0.10554572939872742, 0.21114327013492584, 0.16992299258708954, -0.017795277759432793, 0.16458448767662048, 0.22712479531764984, -0.18719781935214996, 0.05944029614329338, 0.23321624100208282, 0.21125391125679016, 0.05253159999847412, -0.07662208378314972, -0.1584690362215042, 0.0810733363032341, -0.0743052139878273, 0.10861755162477493, -0.032120633870363235, -0.15332090854644775, 0.0856253057718277, -0.009042167104780674, 0.2651301920413971, 0.0642489343881607, -0.07506512105464935, -0.08994913101196289, 0.03605630248785019, 0.24056905508041382, 0.0070807416923344135, 0.1634206771850586, 0.21936504542827606, -0.1158132329583168, 0.05512300133705139], [-0.3326243758201599, 0.4344012439250946, -0.05534355714917183, -0.16247348487377167, -0.5518475770950317, -0.137735977768898, -0.22345425188541412, 0.14677388966083527, 0.24671418964862823, -0.057984836399555206, -0.05311447009444237, -0.1333523988723755, -0.004377576522529125, 0.3269549012184143, -0.3171088695526123, -0.2707045376300812, -0.19553214311599731, 0.14170758426189423, 0.12834878265857697, -0.10075772553682327, -0.1665198653936386, -0.122709721326828, -0.024610571563243866, 0.1519579142332077, -0.23332305252552032, -0.2656742036342621, -0.043514031916856766, -0.2988576292991638, -0.2966345250606537, -0.24976743757724762, -0.14494846761226654, 0.3598126769065857], [0.4567563831806183, -0.6322194337844849, 0.42679718136787415, 0.5658929944038391, -0.11442799121141434, 0.050458114594221115, 0.3273768424987793, 0.16680315136909485, -0.19062545895576477, 0.30994611978530884, 0.0786968544125557, -0.38550469279289246, -0.4518449604511261, -0.39238405227661133, 0.7036386728286743, -0.28578081727027893, 0.4080880284309387, -0.05422436073422432, 0.46409910917282104, -0.15428242087364197, 0.02869356796145439, -0.14075973629951477, -0.03771599382162094, -0.25045329332351685, -0.06963425129652023, -0.45202332735061646, 0.28969457745552063, -0.4844111204147339, 0.7117268443107605, -0.5436619520187378, 0.0048835789784789085, 0.23045559227466583], [0.10012614727020264, -0.9892124533653259, 0.5940258502960205, 0.687383770942688, -0.3296928107738495, -0.4366508424282074, 0.4831944704055786, 0.5279783010482788, -0.0720556452870369, -0.0485515333712101, 0.10782204568386078, -0.23131605982780457, 0.06339822709560394, 0.03216617554426193, 0.39140769839286804, 0.5124588012695312, -0.1703459769487381, -0.21357890963554382, 0.6656994223594666, 0.39791956543922424, 0.23747225105762482, -0.1720052808523178, 0.3104212284088135, 0.2358165979385376, -0.10701793432235718, -0.9924874901771545, 0.1369255632162094, -0.5714192986488342, 0.5774446725845337, -0.631456732749939, 0.915919840335846, 0.34285423159599304], [0.3708825409412384, -1.174699306488037, 0.6187496781349182, 0.7308666110038757, -0.0749952420592308, -0.03756779059767723, 0.31588509678840637, -0.12442949414253235, -0.3222038149833679, 0.08568482100963593, 0.3316187858581543, -0.016372397541999817, 0.13966359198093414, -0.18758051097393036, 0.566822350025177, 0.0631151869893074, 0.04704245179891586, -0.5188976526260376, -0.2278960794210434, -0.024355554953217506, 0.03663291782140732, 0.26310402154922485, -0.14569921791553497, 0.12010892480611801, 0.22938115894794464, 0.1284772902727127, 0.49383097887039185, 0.3284517824649811, 0.7323360443115234, -0.03678223490715027, 0.06652796268463135, 0.40183568000793457], [-0.09972269833087921, 0.5205488204956055, -0.35738423466682434, -0.4624360501766205, 0.14125142991542816, 0.05517030879855156, -0.20963972806930542, 0.10578121989965439, 0.12700021266937256, -0.2555975914001465, -0.0450325533747673, 0.0906236544251442, -0.04686437174677849, -0.02733921818435192, -0.2754369378089905, 0.07133105397224426, -0.1469683051109314, 0.3629207909107208, 0.09490480273962021, 0.04298892989754677, 0.10869378596544266, -0.1166757345199585, 0.2071467936038971, -0.13588890433311462, 0.07853122800588608, -0.2273322343826294, -0.14551818370819092, -0.03228253498673439, -0.2835935652256012, -0.16731970012187958, 0.10375124216079712, -0.14306405186653137], [0.3087076246738434, -0.28982308506965637, 0.15121087431907654, 0.12408053874969482, 0.20034748315811157, 0.13941767811775208, 0.19075465202331543, 0.11193296313285828, -0.028987377882003784, -0.05972999334335327, -0.052562326192855835, -0.027640562504529953, -0.1482480764389038, -0.03282274305820465, 0.3842877447605133, 0.03032885678112507, -0.009489931166172028, -0.250213086605072, -0.05555940791964531, -0.046149831265211105, 0.10761047899723053, 0.028504980728030205, -0.2560870349407196, 0.1280849426984787, 0.29910531640052795, 0.02515081688761711, 0.03186555206775665, 0.07710927724838257, 0.07357174903154373, -0.05838872119784355, 0.11360370367765427, 0.09009900689125061], [0.37813353538513184, -0.5152189135551453, 0.1827673316001892, 0.3913078308105469, 0.18553924560546875, -0.07785667479038239, 0.21814028918743134, 0.002622989472001791, 0.03913849964737892, 0.2802729904651642, 0.2396192103624344, 0.0831744521856308, -0.0637512058019638, 0.07893746346235275, 0.2984200119972229, 0.15634477138519287, 0.21268370747566223, -0.18535776436328888, -0.09458655118942261, -0.07793211936950684, -0.14913363754749298, -0.007649522740393877, 0.047693900763988495, 0.20672686398029327, 0.12837286293506622, 0.03875816985964775, 0.2987685799598694, 0.1760617345571518, 0.3766055107116699, -0.040708936750888824, 0.07350277155637741, 0.027483778074383736], [0.10737467557191849, 0.22301128506660461, 0.02604108676314354, -0.04837264120578766, -0.024426696822047234, -0.04430336877703667, 0.14993637800216675, 0.1801694929599762, 0.1055198535323143, -0.053365517407655716, -0.12810567021369934, 0.0862274095416069, -0.07546306401491165, 0.24744504690170288, 0.028377767652273178, -0.1563231199979782, -0.20711585879325867, 0.11220268905162811, 0.19202621281147003, 0.2151111513376236, -0.028184285387396812, -0.1567777395248413, 0.14061111211776733, -0.031224314123392105, -0.20959126949310303, -0.09478193521499634, 0.020836517214775085, -0.13743425905704498, -0.03465955704450607, -0.058058932423591614, 0.20838041603565216, 0.11730966717004776], [-0.047203801572322845, 0.06335611641407013, -0.15384884178638458, 0.005501719191670418, 0.0986156314611435, -0.015562109649181366, -0.19247210025787354, 0.16942836344242096, 0.2590039074420929, -0.06616561859846115, -0.16465237736701965, -0.07531274855136871, 0.15779250860214233, 0.14847750961780548, -0.11741738021373749, -0.02040276490151882, -0.03354474529623985, -0.08290693163871765, 0.2036651372909546, 0.028720784932374954, -0.06778557598590851, -0.039747048169374466, 0.18077349662780762, -0.14331507682800293, -0.06223173812031746, -0.27458223700523376, -0.02703373320400715, -0.061649445444345474, -0.018852675333619118, -0.11268208920955658, 0.212049201130867, -0.07155786454677582], [-0.013198542408645153, -0.10960035026073456, -0.1686347872018814, 0.2009623795747757, 0.37119260430336, 0.11342934519052505, 0.23960505425930023, 0.016782278195023537, 0.02311493642628193, -0.1389908641576767, 0.13237932324409485, -0.10480491071939468, -0.06436148285865784, -0.012829174287617207, 0.01673319935798645, -0.11900363862514496, 0.05637064576148987, 0.21874985098838806, 0.2929067611694336, -0.09856861084699631, 0.09950706362724304, -0.01697109267115593, -0.08266649395227432, -0.044902585446834564, -0.07564132660627365, -0.25528138875961304, 0.09286651015281677, -0.1772363930940628, 0.09928325563669205, -0.11457958072423935, 0.09615097939968109, 0.13560128211975098]], "b": [0.23851493000984192, 0.18857523798942566, 0.05780678987503052, 0.04089983180165291, 0.18165579438209534, -0.13374783098697662, 0.07347294688224792, -0.21501363813877106, -0.03044072538614273, -0.21202819049358368, 0.31072741746902466, 0.11534494906663895, -0.1926577240228653, 0.06040312722325325, -0.08062054216861725, -0.29968151450157166, -0.15792112052440643, -0.2555018961429596, 0.0340249128639698, 0.39644694328308105, -0.30714619159698486, -0.015553038567304611, 0.42396605014801025, -0.4695109724998474, -1.1996681690216064, -0.7758381366729736, 0.39190512895584106, -0.33679065108299255, -0.4009900689125061, 0.06399926543235779, 0.07566919922828674, -0.06506367027759552]}, {"w": [[-0.22170190513134003, 0.2686988413333893, 0.07386498898267746, -0.048277586698532104, -0.23692163825035095, -0.12340463697910309, -0.1741453856229782, -0.3010980784893036, 0.18620418012142181, 0.15737397968769073, 0.2894838750362396, -0.017034010961651802, -0.2186143398284912, 0.12818703055381775, 0.11472427845001221, 0.20841839909553528, 0.22362062335014343, -0.1683693379163742, 0.15137329697608948, -0.14755447208881378, -0.19735783338546753, 0.24557994306087494, -0.1687336266040802, -0.3104870915412903, -0.4030245840549469, 0.2535231411457062, -0.2096807360649109, 0.1832597404718399, 0.33368992805480957, -0.18739330768585205, -0.24467839300632477, -0.07939060777425766]], "b": [-0.11365506052970886]}], "train": {"venue": "lake_perp_mid", "events": 3787, "cap_ts": 0, "target": "market", "w_out": 0.0, "skip_last_s": 60.0}}