{"arch": {"hidden": 32, "clamp": 2.0, "act": "tanh", "logit": "raw", "mode": "direct"}, "features": "zp=(px-b)/s/sqrt(tte/900); u_in=[zp, log(tte/900)] + extras", "rho_bar": 4.887365341186523, "b_prior": "strike", "b_scale": 50.0, "extras": ["basis", "dbasis15", "dbasis60", "imb1", "mom60", "mom120"], "mu": [-61.79847739333225, 0.0038987498491331483, 0.0113032040874859, 0.004703696853085411, -0.15105944218847314, -0.22886131540321375], "sd": [14.60785037519235, 5.92104154232758, 6.201972126067833, 0.5985745407300541, 40.20102950235217, 55.82796787008103], "layers": [{"w": [[0.11133594065904617, -0.21653680503368378, 0.10456902533769608, -0.02485542930662632, -0.16608276963233948, -0.06005728989839554, -0.19279441237449646, 0.16142207384109497], [-0.15845432877540588, 0.26943978667259216, 0.010830343700945377, 0.0052599431946873665, -0.11089377850294113, -0.015767162665724754, -0.03467946499586105, 0.027829211205244064], [0.17924325168132782, -0.2135162353515625, 0.16309495270252228, -0.17746901512145996, 0.06045699119567871, 0.008731504902243614, 0.11548260599374771, 0.03674844279885292], [0.14680707454681396, -0.10015305876731873, 0.17190365493297577, 0.01534329541027546, 0.0024742342066019773, 0.02076638489961624, 0.277202844619751, 0.08382793515920639], [0.11779533326625824, 0.07693707942962646, 0.1956731528043747, 0.10394863784313202, -0.02755609340965748, 0.06719783693552017, -0.25120359659194946, -0.4358532130718231], [0.23654375970363617, 0.08527685701847076, -0.19318483769893646, 0.07867094874382019, -0.011244003660976887, -0.035012371838092804, 0.0459042489528656, 0.011784005910158157], [0.2048177570104599, -0.30762556195259094, -0.23800736665725708, 0.07830609381198883, 0.04518994316458702, 0.0041223373264074326, -0.31401655077934265, -0.021304788067936897], [-0.2809596359729767, -0.23928387463092804, -0.014382919296622276, 0.015318109653890133, -0.12955649197101593, -0.04790952056646347, 0.17882122099399567, -0.2711701989173889], [-0.22099189460277557, 0.041425734758377075, -0.18728162348270416, -0.0394328273832798, 0.10319656878709793, 0.07036753743886948, 0.05788582190871239, -0.1276259571313858], [0.217117577791214, -0.03535516560077667, -0.09334030747413635, 0.11787097901105881, -0.005187992472201586, -0.1222420483827591, 0.15831293165683746, -0.08863399922847748], [0.26177480816841125, -0.14424949884414673, -0.13541561365127563, 0.05283203348517418, 0.026629731059074402, -0.10956775397062302, 0.1561352163553238, 0.12017002701759338], [-0.10236483067274094, 0.2719806730747223, -0.44139423966407776, -0.11102428287267685, 0.02551853656768799, 0.003546462394297123, -0.31800296902656555, -0.34101438522338867], [-0.24247820675373077, 0.11369959264993668, 0.24245958030223846, 0.1785525381565094, -0.1732664257287979, -0.08229314535856247, -0.21413841843605042, 0.05655436962842941], [-0.1984715610742569, -0.05477892607450485, 0.1921733170747757, -0.03142213448882103, -0.10446853190660477, -0.020721154287457466, -0.22591303288936615, 0.25141748785972595], [0.19239288568496704, -0.17934592068195343, 0.007039786782115698, -0.11223966628313065, -0.08453067392110825, 0.05439440533518791, -0.24122419953346252, -0.08875709027051926], [-0.015103071928024292, -0.21270440518856049, 0.2281942069530487, -0.09409382194280624, -0.03016495518386364, -0.04895426332950592, -0.3449937701225281, -0.2999555766582489], [0.22541725635528564, 0.1192438155412674, -0.19881652295589447, -0.1326514184474945, -0.0782230794429779, 0.015225843526422977, 0.22080789506435394, 0.01336723007261753], [-0.35382726788520813, 9.00245868251659e-05, 0.21338717639446259, 0.01106948871165514, -0.05152802914381027, -0.00770155992358923, 0.11031827330589294, -0.17997965216636658], [-0.48406749963760376, -0.4570060670375824, -0.14315159618854523, -0.04347909614443779, 0.06951405853033066, -0.015603643842041492, 0.09848437458276749, -0.20374248921871185], [-0.35107865929603577, -0.1752520054578781, 0.20149853825569153, 0.07746390998363495, -0.026414891704916954, 0.009005019441246986, 0.27611440420150757, -0.21249404549598694], [-0.06122299283742905, -0.0313938707113266, -0.16107527911663055, -0.3348655104637146, 0.05524493008852005, -0.18538813292980194, -0.04084628075361252, -0.1654445230960846], [0.402714341878891, 0.07711000740528107, 0.16597937047481537, -0.10713236033916473, 0.113936647772789, 0.027367498725652695, -0.1920587569475174, -0.0433187335729599], [-0.3798908591270447, -0.08451689034700394, 0.0855303704738617, -0.10768324881792068, 0.09890218824148178, 0.02212793193757534, -0.07764244079589844, 0.19029048085212708], [0.013621059246361256, -0.10974178463220596, -0.13484735786914825, 0.1585981249809265, 0.3024734556674957, 0.0745445266366005, 0.2236298769712448, 0.4382147192955017], [0.18827198445796967, -0.22575782239437103, -0.07825929671525955, -0.04379308968782425, -0.006589844822883606, -0.0895477831363678, 0.14998884499073029, -0.39984825253486633], [0.41875171661376953, 0.6262555122375488, 0.13009518384933472, -0.02165326289832592, 0.028106266632676125, 0.0007487042457796633, -0.12038230150938034, -0.0494900643825531], [0.17467838525772095, 0.008771918714046478, 0.1354774534702301, 0.056230828166007996, -0.09997536987066269, 0.10070110857486725, 0.22032734751701355, -0.10388825088739395], [0.4220276474952698, 0.33932337164878845, 0.14277538657188416, -0.0674455463886261, -0.044343508780002594, -0.00034205405972898006, -0.19999276101589203, 0.019718371331691742], [0.22369134426116943, -0.1689574420452118, 0.11533575505018234, 0.056280460208654404, -0.01879233680665493, 0.008361313492059708, -0.2248772531747818, 0.09264742583036423], [0.3728025257587433, 0.3175058662891388, 0.21575988829135895, -0.027023861184716225, 0.0123899532482028, -0.018273688852787018, 0.3459704518318176, -0.26702654361724854], [-0.22631317377090454, -0.25375720858573914, -0.27457743883132935, -0.014109931886196136, -0.013944406062364578, 0.004386580549180508, -0.13565069437026978, -0.29627034068107605], [-0.019096270203590393, 0.24368934333324432, 0.04355652630329132, -0.1311950534582138, 0.013294660486280918, 0.2317790687084198, -0.37015318870544434, 0.18172858655452728]], "b": [-0.15707266330718994, 0.7178770303726196, -0.6512355804443359, -0.4538130462169647, -0.0727911964058876, 0.2559139132499695, -0.3996752202510834, -0.26996293663978577, 0.3805176019668579, -0.24826964735984802, -0.2173096388578415, -0.1701347976922989, -0.22774188220500946, 0.2746087610721588, -0.5708355903625488, -0.008722461760044098, -0.20339509844779968, 0.5753672122955322, -0.5570713877677917, -0.11861052364110947, -0.21225225925445557, -0.3546300232410431, 0.3113495409488678, 0.10578721761703491, -0.20375826954841614, 0.9551830887794495, -0.27647528052330017, 0.298271507024765, -0.7186567187309265, 0.2570991516113281, -0.34069302678108215, -0.5724243521690369]}, {"w": [[0.056549765169620514, 0.07348985970020294, -0.12041758745908737, -0.18547381460666656, -0.20740894973278046, -0.04278688132762909, -0.07735469192266464, 0.1989140510559082, 0.03873823210597038, 0.08083955943584442, -0.1427260935306549, 0.09085145592689514, 0.16599544882774353, 0.09831134974956512, -0.20335929095745087, 0.15051044523715973, -0.1398840844631195, 0.0488375686109066, 0.016738710924983025, -0.09344988316297531, 0.0026904053520411253, -0.2437940239906311, 0.22176361083984375, -0.1491931527853012, -0.18405531346797943, -0.061849646270275116, 0.0024281239602714777, 0.08174146711826324, -0.32149645686149597, 0.06016979739069939, 0.17550162971019745, -0.12660203874111176], [0.0589531771838665, -0.030135832726955414, 0.07392720133066177, -0.11626851558685303, -0.049875564873218536, -0.034637726843357086, -0.053709279745817184, -0.10711107403039932, -0.07166437804698944, -0.04734167456626892, 0.1151869148015976, 0.14969103038311005, -0.1854153871536255, -0.21313756704330444, 0.015864692628383636, -0.01341232843697071, -0.05641542747616768, -0.08563172817230225, -0.10245522111654282, -0.20187105238437653, 0.12309287488460541, 0.21234025061130524, 0.04713417962193489, -0.10777537524700165, -0.10436773300170898, 0.22017976641654968, 0.18248319625854492, 0.1987595409154892, -0.07447449117898941, 0.2520425021648407, -0.17623302340507507, -0.06969727575778961], [0.05667605996131897, 0.024395687505602837, -0.10641857236623764, -0.06803027540445328, 0.0031286687590181828, 0.2275964319705963, 0.04858781769871712, 0.01915385015308857, 0.08528351038694382, 0.09828391671180725, -0.05737379193305969, 0.013885896652936935, 0.000689768698066473, -0.08516651391983032, -0.10328499972820282, 0.10463609546422958, -0.006978795863687992, -0.21771551668643951, -0.0048391264863312244, -0.03755781799554825, 0.0770898163318634, 0.04902733117341995, 0.015944737941026688, -0.04374568164348602, -0.03388567641377449, 0.3028624951839447, 0.2418416142463684, 0.22324979305267334, 0.04462110251188278, 0.012285337783396244, -0.04296322911977768, 0.007638781331479549], [-0.06027835234999657, 0.1370822638273239, -0.06688278168439865, 0.03841826319694519, 0.10051005333662033, 0.04575592279434204, -0.09347325563430786, -0.08529727905988693, -0.042390212416648865, -0.15178586542606354, 0.0971989631652832, 0.011282031424343586, 0.018523218110203743, -0.04733016714453697, -0.08052214235067368, 0.13952089846134186, -0.05537031963467598, 0.1582173854112625, 0.16827479004859924, -0.11518921703100204, 0.09944693744182587, 0.10398129373788834, -0.017754780128598213, 0.0064238570630550385, -0.04794904589653015, 0.00951214786618948, -0.017617443576455116, -0.20586389303207397, -0.22926168143749237, 0.08560528606176376, -0.023406237363815308, -0.11499769240617752], [-0.326109915971756, -0.04412049427628517, -0.04016663134098053, -0.03667442500591278, -0.1450415551662445, -0.11947505921125412, -0.10121895372867584, 0.16009703278541565, 0.1799972653388977, -0.17949268221855164, 0.11339738965034485, 0.15887165069580078, -0.08884133398532867, 0.17800095677375793, -0.28068089485168457, -0.15787188708782196, -0.02235306054353714, 0.174228698015213, 0.2493762969970703, 0.08850128203630447, 0.17614439129829407, -0.15797168016433716, -0.03421090543270111, -0.016373436897993088, 0.03946544975042343, -0.20330069959163666, -0.2002417892217636, -0.21106071770191193, -0.1410653442144394, 0.09784068167209625, 0.07078713923692703, -0.09678392112255096], [0.05971231311559677, 0.10944400727748871, -0.08864080160856247, -0.11936543136835098, 0.07920382171869278, 0.06381396949291229, 0.14850445091724396, 0.21506494283676147, 0.007939105853438377, -0.02086753584444523, -0.15314389765262604, 0.1082717627286911, -0.13821463286876678, 0.24847672879695892, 0.10640180855989456, 0.1726914942264557, -0.22561900317668915, 0.06463870406150818, 0.01861853152513504, 0.07106311619281769, 0.11934491991996765, 0.02514188177883625, 0.13708952069282532, -0.11854711920022964, -0.13634726405143738, -0.10555844008922577, -0.11502880603075027, -0.0013328189961612225, 0.12845450639724731, -0.044729895889759064, -0.0321805365383625, -0.030094148591160774], [0.008303144946694374, 0.17375905811786652, 0.01039025280624628, -0.28412070870399475, -0.09199108928442001, -0.12735813856124878, 0.015010462142527103, 0.13298335671424866, 0.08882921934127808, -0.2615867853164673, -0.07878541946411133, 0.13394181430339813, 0.01223168708384037, 0.06821603327989578, -0.30859240889549255, 0.12205550819635391, 0.06895359605550766, -0.016730118542909622, -0.05109341815114021, 0.06022312864661217, -0.07228968292474747, -0.24385075271129608, 0.16191914677619934, -0.02304118499159813, -0.010339348576962948, -0.029786352068185806, 0.05910147354006767, 0.018280543386936188, -0.34506428241729736, -0.22609587013721466, 0.1805083304643631, -0.10920117795467377], [0.17469249665737152, -0.11020965874195099, 0.12626463174819946, 0.0664837658405304, -0.2084503322839737, -0.23423780500888824, -0.06188102066516876, 0.032118894159793854, -0.029676424339413643, 0.06610043346881866, 0.019738567993044853, -0.11409319937229156, 0.01966056413948536, 0.14218845963478088, -0.05553380772471428, 0.0632132738828659, 0.06816162914037704, 0.2068611979484558, 0.13860869407653809, 0.19540083408355713, 0.011837963946163654, -0.22822414338588715, 0.20431111752986908, 0.13694226741790771, 0.012637198902666569, -0.3730624318122864, 0.03501226752996445, -0.11472856253385544, -0.14345377683639526, -0.2779068052768707, 0.0040528797544538975, 0.16970722377300262], [0.15271033346652985, -0.2055680900812149, 0.21980473399162292, 0.19358256459236145, 0.16541112959384918, 0.025362534448504448, 0.29851970076560974, -0.08404290676116943, -0.1549418866634369, 0.16671107709407806, -0.030825836583971977, 0.17333586513996124, -0.1111084371805191, 0.0020014671608805656, -0.011841199360787868, -0.022390376776456833, 0.05839741230010986, 0.03352763503789902, -0.1960342973470688, -0.09764278680086136, 0.07565118372440338, 0.05263381451368332, -0.24871045351028442, -0.054047711193561554, 0.005217146128416061, 0.13987776637077332, 0.12522122263908386, 0.024753600358963013, 0.04025837406516075, 0.16839703917503357, -0.1533662974834442, 0.0347026064991951], [0.1820402294397354, -0.0036899233236908913, -0.053942352533340454, 0.13147369027137756, -0.11072929203510284, 0.16449780762195587, 0.01637725718319416, -0.03627582639455795, -0.07323053479194641, -0.03431231901049614, -0.1024591326713562, -0.06531556695699692, 0.051592424511909485, -0.07415828853845596, 0.014889350160956383, -0.1254347264766693, -0.06934616714715958, -0.1035403311252594, -0.12596483528614044, -0.00440982123836875, 0.12330865859985352, -0.04291439801454544, -0.13569161295890808, 0.0922149047255516, -0.04829559475183487, 0.08735349774360657, -0.03412635251879692, 0.1945992261171341, 0.07713360339403152, 0.08832081407308578, 0.04379800707101822, -0.21649248898029327], [-0.2775012254714966, 0.3372572362422943, -0.0063943383283913136, -0.04570603743195534, 0.27582529187202454, 0.3703773319721222, -0.22808782756328583, -0.28318968415260315, 0.03356299549341202, -0.03984260931611061, -0.17204450070858002, 0.04201119765639305, -0.2202037274837494, 0.034224122762680054, 0.02734367921948433, -0.31691974401474, 0.09190702438354492, 0.1314522922039032, -0.312180757522583, -0.24292339384555817, 0.012888546101748943, -0.02100985124707222, -0.26794275641441345, 0.041354309767484665, -0.025737447664141655, 0.4779219925403595, 0.020905090495944023, 0.3481270670890808, -0.1544458121061325, 0.34802544116973877, -0.3335588276386261, -0.16001483798027039], [0.1237204298377037, 0.02173728682100773, -0.07802005112171173, 0.05737908184528351, 0.12466933578252792, -0.11882513016462326, 0.023023303598165512, 0.05801023170351982, -0.20277629792690277, 0.11518419533967972, -0.13766025006771088, -0.12928839027881622, -0.004956378601491451, -0.2071334719657898, 0.011099263094365597, 0.02385219931602478, 0.038946863263845444, -0.19649413228034973, 0.07376499474048615, -0.20735907554626465, 0.018288059160113335, -0.04389558732509613, -0.17787215113639832, 0.0015859365230426192, 0.1951025277376175, 0.0613519661128521, -0.09685201197862625, 0.11093547940254211, 0.023946654051542282, -0.042667679488658905, 0.022640610113739967, 0.06416002660989761], [-0.17827162146568298, 0.007881729863584042, -0.006201652344316244, -0.011969141662120819, -0.08867599815130234, -0.20913612842559814, 0.05311604589223862, 0.25027307868003845, 0.2199028879404068, 0.07448699325323105, -0.04642189294099808, -0.03163805603981018, -0.024982793256640434, -0.00509157869964838, -0.02397291176021099, 0.008467973209917545, -0.1915968656539917, -0.047349680215120316, 0.20215612649917603, 0.2213721126317978, 0.21575385332107544, 0.015216157771646976, 0.19444584846496582, 0.1070866584777832, 0.07697124034166336, -0.25895723700523376, -0.028915120288729668, -0.05029912292957306, -0.030544886365532875, -0.12619943916797638, 0.003041621297597885, -0.04451633244752884], [-0.06786801666021347, -0.03380513936281204, 0.21850404143333435, 0.0013846441870555282, -0.14886681735515594, -0.11783738434314728, 0.10049691051244736, 0.01584283448755741, -0.16258658468723297, -0.009757899679243565, 0.18330420553684235, -0.1522189974784851, 0.07675358653068542, -0.023032303899526596, -0.014885946176946163, 0.11776797473430634, -0.04759940877556801, 0.08222489058971405, 0.07419754564762115, 0.013431470841169357, 0.08415911346673965, 0.11437051743268967, 0.069654181599617, 0.038928914815187454, -0.1372646987438202, 0.0217546708881855, 0.09719876199960709, 0.19903486967086792, 0.029590096324682236, 0.1364591121673584, 0.012822537682950497, -0.010586223565042019], [-0.08636876195669174, 0.06894874572753906, -0.006782021373510361, 0.11816380172967911, -0.020213225856423378, 0.09402947872877121, 0.1964574009180069, -0.02593632973730564, -0.16373802721500397, 0.1181609034538269, -0.08991453796625137, 0.15862776339054108, 0.057888422161340714, 0.06323136389255524, 0.14893998205661774, -0.18530882894992828, -0.048434361815452576, -0.25763246417045593, 0.02407795377075672, 0.11969422549009323, 0.08274521678686142, 0.019351549446582794, -0.2011014223098755, -0.10747712850570679, 0.22675500810146332, -0.05819103494286537, -0.0845794603228569, 0.1601826548576355, 0.14299584925174713, -0.002421328565105796, -0.15274319052696228, -0.2129424512386322], [0.06177069619297981, -0.28173625469207764, 0.061466362327337265, 0.21347756683826447, 0.0033293787855654955, 0.15469121932983398, 0.0843406468629837, 0.09351231157779694, -0.13986188173294067, 0.21301749348640442, -0.06258823722600937, 0.029317524284124374, -0.06179125979542732, 0.0038256975822150707, -0.007909765467047691, 0.20393073558807373, 0.06314423680305481, -0.2332349717617035, -0.10545598715543747, -0.04232453554868698, -0.038733649998903275, 0.02727363631129265, -0.15472987294197083, -0.06106780841946602, 0.15354397892951965, 0.11105674505233765, 0.23624762892723083, 0.05281137302517891, 0.3367519974708557, 0.1435975581407547, -0.12805303931236267, 0.13695356249809265], [0.20127952098846436, -0.023266127333045006, -0.06979817897081375, 0.08087487518787384, -0.18710270524024963, 0.015738986432552338, 0.06935025751590729, -0.2018904983997345, -0.2156517654657364, 0.20484548807144165, 0.1472749561071396, 0.03717659413814545, 0.0009040028671734035, 0.0581781305372715, 0.14917846024036407, -0.18290215730667114, 0.042709652334451675, -0.01581493206322193, -0.10961375385522842, -0.055353034287691116, 0.06268404424190521, 0.19938842952251434, -0.11198481917381287, 0.20064353942871094, -0.03035816363990307, 0.098685123026371, 0.18547795712947845, -0.00863521546125412, 0.35553237795829773, -0.03559389337897301, -0.15843835473060608, 0.11603187024593353], [0.1113165020942688, -0.16648942232131958, 0.0704512968659401, 0.006933561526238918, -0.13660161197185516, -0.1751641482114792, 0.027884140610694885, -0.03335575759410858, 0.04599865898489952, -0.042411040514707565, 0.0907343253493309, 0.08096008002758026, -0.021646663546562195, 0.11091000586748123, 0.055407654494047165, 0.07872410863637924, -0.21701748669147491, 0.12810932099819183, 0.3020452857017517, -0.06107650697231293, 0.043249230831861496, 0.023998256772756577, 0.09743209183216095, 0.1246802881360054, -0.06520027667284012, -0.35012874007225037, -0.18757770955562592, -0.23063404858112335, -0.03297973424196243, -0.01955086924135685, 0.13750745356082916, 0.20006299018859863], [0.055232610553503036, 0.05163206160068512, -0.05456656590104103, -0.013481926172971725, 0.09385727345943451, -0.07046660035848618, -0.015299626626074314, 0.012754046358168125, -0.04591261222958565, -0.09701821953058243, -0.09145630151033401, -0.08576613664627075, 0.08076505362987518, -0.19775649905204773, -0.055498041212558746, 0.045453041791915894, 0.06744720041751862, 0.008998117409646511, -0.18260037899017334, -0.06825048476457596, -0.093156598508358, 0.13019390404224396, -0.1891985386610031, -0.10794073343276978, 0.01897468790411949, 0.1738765984773636, -0.02613348513841629, 0.0982237309217453, -0.004429588094353676, -0.08425916731357574, 0.10423536598682404, -0.16162261366844177], [0.0742688849568367, 0.2919068932533264, -0.16293294727802277, -0.24460098147392273, -0.11864357441663742, 0.12198863923549652, -0.14037127792835236, -0.027860328555107117, 0.044156741350889206, 0.020323341712355614, -0.14507903158664703, 0.05568251013755798, 0.0455780029296875, 0.31513217091560364, -0.1905193328857422, 0.07774194329977036, -0.17796690762043, 0.06394875794649124, 0.013265147805213928, -0.1644507199525833, -0.12391591817140579, -0.04209637641906738, 0.22197052836418152, 0.02051888033747673, -0.24962221086025238, -0.015379181131720543, -0.026903485879302025, 0.07637722045183182, -0.3137786090373993, -0.2937854826450348, 0.16889534890651703, 0.14099156856536865], [0.19738782942295074, -0.023198192939162254, 0.1215524673461914, -0.09667960554361343, -0.14859715104103088, -0.1263004094362259, 0.1643403321504593, 0.0357738621532917, 0.13820725679397583, -0.16923479735851288, -0.1510905623435974, -0.06814992427825928, 0.2567671835422516, 0.20834851264953613, 0.17160600423812866, 0.2891555428504944, -0.08939850330352783, 0.14703910052776337, 0.21683403849601746, 0.013076732866466045, 0.2020774483680725, -0.10345924645662308, 0.0314524807035923, 0.07033666223287582, 0.13048367202281952, -0.1347481608390808, -0.036010611802339554, -0.24246874451637268, 0.18591977655887604, -0.07501306384801865, 0.30067408084869385, 0.18405956029891968], [0.1076749637722969, -0.10041143000125885, 0.19845692813396454, 0.13653813302516937, -0.008258571848273277, 0.09431131929159164, 0.2449401617050171, -0.16817006468772888, 0.0834554135799408, 0.2148267775774002, 0.190912663936615, 0.08243470638990402, -0.05847935006022453, -0.13573111593723297, 0.09126202017068863, -0.13063490390777588, 0.13997718691825867, -0.018597222864627838, -0.10762334614992142, 0.11535868048667908, 0.052604254335165024, 0.26169583201408386, 0.0693676695227623, -0.06797440350055695, -0.10774539411067963, -0.01422996073961258, 0.2531065046787262, -0.02672107145190239, 0.13981756567955017, 0.19073404371738434, -0.09771526604890823, 0.10668589919805527], [-0.10327897220849991, 0.5204009413719177, -0.19328011572360992, -0.4068118631839752, -0.38271602988243103, -0.07095929980278015, -0.2926566004753113, 0.08079572767019272, 0.3702125549316406, -0.1269010752439499, -0.10088489204645157, -0.1757650077342987, -0.024583881720900536, 0.3993837535381317, -0.40236473083496094, -0.1885407716035843, -0.2158084362745285, 0.26271799206733704, -0.005198580212891102, -0.16289569437503815, -0.07039189338684082, -0.2109207957983017, 0.03531191870570183, 0.20393146574497223, -0.36374107003211975, -0.14810122549533844, -0.07052287459373474, -0.2563342750072479, -0.5721421837806702, -0.2840748429298401, -0.22663165628910065, 0.17563775181770325], [0.2868986427783966, -0.6593435406684875, 0.47793707251548767, 0.4989226758480072, -0.10549239814281464, -0.026597794145345688, 0.3232651948928833, 0.2548030614852905, 0.016254732385277748, 0.19306400418281555, 0.13144461810588837, -0.49571433663368225, -0.22864732146263123, -0.06798262894153595, 0.34557658433914185, -0.3188321590423584, 0.011884369887411594, 0.0760774314403534, 0.3631531298160553, -0.11001743376255035, 0.04425669088959694, -0.2001471072435379, -0.046092674136161804, 0.04639898240566254, -0.029380694031715393, -0.3483540415763855, -0.01614687219262123, -0.28485623002052307, 0.17072078585624695, -0.3668563961982727, 0.08352125436067581, 0.27628397941589355], [0.32273879647254944, -0.8056123852729797, 0.4888291656970978, 0.3510147035121918, -0.3924332559108734, -0.3545841872692108, 0.6143815517425537, 0.5454933643341064, -0.2325986623764038, -0.05853867158293724, 0.23386487364768982, -0.5157285928726196, 0.10517508536577225, 0.024231690913438797, 0.34524035453796387, 0.23978151381015778, -0.2149265706539154, -0.11009515076875687, 0.6846327185630798, 0.34544339776039124, 0.17752113938331604, -0.21136610209941864, 0.24204494059085846, 0.1853245496749878, 0.2241492122411728, -0.9141914248466492, -0.025938715785741806, -0.5192524790763855, 0.4145035147666931, -0.5554211139678955, 0.8023498058319092, 0.23468546569347382], [0.24347315728664398, -0.5177009701728821, 0.32751163840293884, 0.2262764871120453, 0.005836161784827709, 0.03306420519948006, 0.07590966671705246, -0.07840926945209503, -0.2892562747001648, -0.009478837251663208, 0.258277952671051, 0.12553900480270386, 0.0632435604929924, -0.027245480567216873, 0.11700894683599472, -0.03369913250207901, 0.018542403355240822, -0.33497485518455505, -0.11275079101324081, 0.055779922753572464, -0.10834400355815887, 0.1739138513803482, -0.07105203717947006, -0.09196440130472183, 0.17347179353237152, 0.014337493106722832, 0.20502926409244537, 0.25338417291641235, 0.377402126789093, -0.04089589789509773, -0.12062941491603851, 0.1520828753709793], [-0.0752057135105133, 0.4129764139652252, -0.27580726146698, -0.27540549635887146, 0.06316779553890228, 0.04725051298737526, -0.21568986773490906, 0.0572429820895195, 0.12476640194654465, -0.23992614448070526, -0.0012775076320394874, 0.06035473942756653, -0.04634331911802292, -0.046596452593803406, -0.2175874412059784, 0.06272585690021515, -0.15155717730522156, 0.29852530360221863, 0.02152719348669052, -0.0010883098002523184, 0.09488681703805923, -0.09024670720100403, 0.2129112184047699, -0.07988143712282181, 0.10684986412525177, -0.13442720472812653, -0.10899271816015244, 0.0019324282184243202, -0.16180476546287537, -0.14557091891765594, 0.15072673559188843, -0.0863424763083458], [0.1708550751209259, -0.16616196930408478, 0.10496427118778229, 0.05819462984800339, 0.24971126019954681, 0.19025316834449768, 0.15146557986736298, 0.08619176596403122, -0.05504951626062393, -0.05809450149536133, -0.04876123368740082, 0.03116549365222454, -0.17495599389076233, -0.037173569202423096, 0.32373368740081787, -0.07054582238197327, 0.02783520147204399, -0.25896546244621277, -0.04054158553481102, -0.05595261603593826, 0.0927288606762886, 0.045435622334480286, -0.2673865854740143, 0.10460614413022995, 0.2511482238769531, 0.010216441936790943, 0.06751199066638947, 0.06461496651172638, 0.0769352987408638, -0.05876895412802696, 0.06937918066978455, 0.10300680249929428], [0.14446882903575897, -0.33223599195480347, 0.08092112839221954, 0.2576383948326111, 0.23778550326824188, -0.013898655772209167, 0.14332498610019684, 0.0039823586121201515, 0.02247934229671955, 0.26061058044433594, 0.2216716706752777, 0.21641701459884644, -0.08515074849128723, 0.05191554129123688, 0.17989324033260345, -0.00878816470503807, 0.23681576550006866, -0.16206559538841248, -0.06559411436319351, -0.07787394523620605, -0.13180504739284515, -0.00853293389081955, 0.03604268655180931, 0.1103798970580101, 0.04720449075102806, 0.011676836758852005, 0.29334211349487305, 0.15039928257465363, 0.30955827236175537, -0.04745896905660629, 0.010184649378061295, 0.045480094850063324], [0.17406374216079712, 0.17733079195022583, 0.057134080678224564, -0.01936384104192257, 0.0027002550195902586, 0.010518599301576614, 0.12520264089107513, 0.16372214257717133, 0.06794460117816925, -0.02127559296786785, -0.10310624539852142, 0.08771302551031113, -0.07593224197626114, 0.224918931722641, 0.06281077861785889, -0.1342165172100067, -0.22324024140834808, 0.076143778860569, 0.17018041014671326, 0.18399009108543396, -0.12356199324131012, -0.12337818741798401, 0.131048321723938, -0.025271642953157425, -0.19014985859394073, -0.10165871679782867, 0.006793877109885216, -0.11022961139678955, 0.02269013226032257, -0.06341008096933365, 0.20175616443157196, 0.11218385398387909], [0.006277741398662329, 0.02576899528503418, -0.13059942424297333, 0.03708110749721527, 0.12681929767131805, 0.014835149049758911, -0.23141445219516754, 0.19358018040657043, 0.23535457253456116, -0.056387513875961304, -0.15579405426979065, -0.10050681978464127, 0.14295631647109985, 0.12630921602249146, -0.1064244955778122, 0.0177394337952137, -0.05938422679901123, -0.07652495801448822, 0.20280525088310242, 0.04126691818237305, -0.11761689931154251, -0.036553703248500824, 0.1702789068222046, -0.1359928548336029, -0.03602848947048187, -0.2891755700111389, 0.009501243941485882, -0.05934426560997963, 0.0007063653320074081, -0.09990481287240982, 0.21267394721508026, -0.14292611181735992], [-0.13451600074768066, 0.002893358003348112, -0.2454080581665039, 0.03605269640684128, 0.02087821252644062, 0.09010273218154907, 0.005052339285612106, -0.029194870963692665, 0.08724004775285721, -0.27383577823638916, 0.11398769915103912, -0.07876673340797424, 0.0019492170540615916, 0.17657195031642914, -0.18399643898010254, -0.19438298046588898, -0.08693879842758179, 0.26345720887184143, 0.21989808976650238, -0.12015450745820999, 0.14184491336345673, -0.03368988633155823, -0.032483309507369995, 0.06963691860437393, -0.1991650015115738, -0.17991942167282104, -0.288723349571228, -0.14933913946151733, -0.04201505705714226, -0.15767405927181244, 0.07964269816875458, 0.07007467746734619]], "b": [0.22877441346645355, 0.19090834259986877, 0.045810308307409286, 0.00755340326577425, 0.15886466205120087, -0.14756448566913605, 0.15730802714824677, -0.1559777557849884, -0.11688483506441116, -0.15577669441699982, 0.22944755852222443, 0.12032590061426163, -0.1317048966884613, 0.06263905763626099, -0.05052974447607994, -0.2825140058994293, -0.18300701677799225, -0.1842578500509262, 0.12933628261089325, 0.2827075123786926, -0.2602931559085846, -0.036678727716207504, 0.4397289454936981, -0.5084660053253174, -0.917298436164856, -0.4341129958629608, 0.27851223945617676, -0.2145460844039917, -0.2828262150287628, 0.05431889370083809, 0.09714201837778091, 0.07872089743614197]}, {"w": [[-0.2561946213245392, 0.28069770336151123, 0.10345379263162613, -0.021718112751841545, -0.21852917969226837, -0.15962839126586914, -0.18418371677398682, -0.2961850166320801, 0.17883771657943726, 0.10934953391551971, 0.248258575797081, 0.044562067836523056, -0.2171359807252884, 0.05232347548007965, 0.13716375827789307, 0.1978633552789688, 0.23204557597637177, -0.1717616319656372, 0.09885969012975693, -0.1580597311258316, -0.17301444709300995, 0.2590900957584381, -0.16485495865345, -0.20861446857452393, -0.3357415199279785, 0.1538463532924652, -0.1910562366247177, 0.13700313866138458, 0.2839721441268921, -0.185763418674469, -0.25137004256248474, -0.11140555143356323]], "b": [-0.04909666255116463]}], "train": {"venue": "lake_perp_mid", "events": 920, "cap_ts": 0, "target": "market", "w_out": 0.0, "skip_last_s": 60.0}}