{"type": "px2cb_mom", "arch": {"hidden": 32, "mode": "direct", "act": "tanh"}, "features": "u_in=[zp_perp, zp_cb, log tau] + z([pmom60, pmom120, band5])", "rho_bar": 5.021753311157227, "rho_cb": 4.8815202713012695, "b_prior": "strike", "b_scale": 50.0, "extras": ["pmom60", "pmom120", "band5"], "mu": [-3.4432785044988068e-06, -1.0667355176290796e-05, 0.0011345338383758944], "sd": [0.000714025034674977, 0.0010192518501577566, 0.2272067032543175], "layers": [{"w": [[-0.1553688794374466, -0.5538352131843567, 0.007459449581801891, 0.012866025790572166, -0.1996309906244278, 0.01135921385139227], [-0.23230646550655365, 0.12704992294311523, -0.08264367282390594, 0.09399072825908661, 0.19763587415218353, 0.1861870288848877], [-0.18759338557720184, -0.324804425239563, -0.06975840032100677, -0.05153666064143181, 0.0784846693277359, -0.15325021743774414], [0.43862587213516235, -0.2524746358394623, 0.24211029708385468, -0.1197643131017685, 0.23456840217113495, 0.0652710497379303], [0.07931343466043472, 0.1547938883304596, 0.11320170015096664, 0.03309812769293785, 0.17714759707450867, -0.08188323676586151], [0.3093685805797577, 0.23251433670520782, -0.1085682213306427, -0.03697056323289871, 0.06922247260808945, 0.0842907577753067], [-0.14440011978149414, -0.3121776878833771, 0.07834990322589874, -0.12728020548820496, 0.10914228111505508, 0.03400423377752304], [-0.28984615206718445, 0.2624700963497162, 0.009416887536644936, 0.06946370005607605, -0.02612132951617241, -0.2599719762802124], [0.049471575766801834, -0.4471040368080139, 0.08791864663362503, 0.33582717180252075, 0.2392885982990265, 0.06405983865261078], [-0.367716908454895, -0.08726643025875092, 0.0854102149605751, 0.08211909234523773, 0.14017938077449799, 0.026322169229388237], [-0.11376947164535522, -0.04964403808116913, 0.04860372841358185, -0.4155551791191101, -0.37954890727996826, -0.06449607759714127], [-0.22069329023361206, -0.33350345492362976, -0.031982313841581345, 0.0950375646352768, -0.008931396529078484, 0.0383601188659668], [0.02730751596391201, -0.41517895460128784, -0.23956727981567383, 0.09145523607730865, -0.24346619844436646, -0.0037524914368987083], [0.08898919075727463, -0.15068544447422028, 0.1924394965171814, -0.25148409605026245, -0.14523932337760925, -0.013670933432877064], [-0.20787404477596283, -0.20117062330245972, 0.054631736129522324, 0.16260313987731934, -0.009885475039482117, 0.03790406882762909], [-0.1692723035812378, -0.3387056589126587, 0.028196284547448158, 0.13834749162197113, -0.2996983826160431, -0.07863172143697739], [-0.11826061457395554, 0.41248005628585815, 0.11618633568286896, 0.30953431129455566, -0.3125460147857666, -0.008458850905299187], [-0.29761677980422974, -0.10525016486644745, 0.07652721554040909, -0.3258664608001709, 0.2937241494655609, 0.023658882826566696], [-0.24281050264835358, 0.12300635874271393, -0.6172348260879517, 0.1591198742389679, 0.13957944512367249, 0.06990312039852142], [0.004005943890661001, -0.3907831013202667, 0.05947653949260712, -0.08425567299127579, -0.177729070186615, -0.05396901071071625], [0.24742461740970612, 0.02533484622836113, 0.4348733127117157, -0.07946475595235825, -0.003708992386236787, 0.11906388401985168], [-0.2852279841899872, -0.3800446689128876, 0.13387447595596313, 0.256755530834198, -0.1778814047574997, -0.034667763859033585], [-0.3647214472293854, 0.1914207935333252, 0.22245799005031586, 0.1621798872947693, -0.19542312622070312, 0.07003846764564514], [0.2776351571083069, -0.08284834027290344, 0.048800721764564514, 0.061654094606637955, -0.040231261402368546, -0.10341797024011612], [-0.2683643400669098, -0.34431377053260803, 0.0005365711404010653, 0.02203831449151039, 0.2275671362876892, -0.029785463586449623], [-0.12973836064338684, -0.33870717883110046, -0.00820740032941103, 0.44102656841278076, 0.5823413729667664, -0.000528946693520993], [-0.2087753564119339, 0.2089778184890747, 0.7538644671440125, -0.11025739461183548, -0.2081061601638794, -0.0062356931157410145], [-0.06241513043642044, -0.39310523867607117, 0.09940584003925323, -0.21682994067668915, -0.024094203487038612, -0.1823642998933792], [0.274759441614151, 0.2087850570678711, 0.1027604267001152, -0.39702996611595154, 0.3391750156879425, 0.09384889900684357], [-0.2589356005191803, -0.13359996676445007, -0.1615028977394104, 0.010028681717813015, 0.2128823697566986, 0.02786005474627018], [0.23206721246242523, 0.1817689836025238, -0.43822842836380005, -0.05161400884389877, -0.3491852879524231, 0.007454941980540752], [-0.2104744017124176, 0.2629842758178711, 0.22381393611431122, 0.26663026213645935, 0.22228002548217773, 0.07451973855495453]], "b": [0.7700122594833374, -1.064777135848999, 0.13815028965473175, 0.28729334473609924, 0.4097767174243927, -0.03767300769686699, -0.06284208595752716, -0.47279369831085205, -0.024952618405222893, 0.5792406797409058, 0.2549686133861542, -0.22036214172840118, -1.0863959789276123, 0.22345004975795746, 0.2532810568809509, 0.2513907849788666, 0.5102991461753845, 0.6874449253082275, -0.7505612373352051, -0.07100589573383331, -0.5027246475219727, 1.166102409362793, 0.46745413541793823, 0.19827120006084442, 0.4550606310367584, -0.06471771001815796, 0.747130274772644, 0.05587289482355118, 0.18107996881008148, -0.23746764659881592, -1.0614361763000488, 0.7262532711029053]}, {"w": [[0.13372568786144257, -0.12099694460630417, 0.05313918739557266, 0.1234075129032135, 0.003015515860170126, -0.11749785393476486, -0.13365590572357178, 0.15173013508319855, 0.1198187991976738, 0.20642191171646118, 0.02422214113175869, 0.11303946375846863, 0.13188420236110687, -0.14948710799217224, 0.19372929632663727, -0.044965509325265884, 0.22783905267715454, -0.06395932286977768, -0.273404061794281, -0.17078927159309387, 0.12976475059986115, 0.2273237705230713, -0.06175205111503601, -0.13408593833446503, 0.002955064410343766, 0.20176340639591217, 0.10846085101366043, -0.014428461901843548, -0.07953038811683655, 0.1316937804222107, -0.2595812976360321, 0.4411795735359192], [0.1677514612674713, 0.12726782262325287, -0.029655909165740013, -0.053809262812137604, -0.11463971436023712, 0.11302485316991806, 0.04655182734131813, -0.13868364691734314, 0.09940796345472336, 0.11367113143205643, 0.10088323056697845, -0.03633720800280571, -0.04793313890695572, 0.2346402406692505, -0.05046970769762993, 0.029464012011885643, -0.0971945971250534, 0.1887788027524948, -0.13554483652114868, -0.04500332102179527, -0.025372033938765526, 0.001945453230291605, 0.16052831709384918, 0.05646819993853569, 0.1456165909767151, 0.1733386367559433, -0.0709584578871727, 0.049530234187841415, -0.20202016830444336, 0.05811906233429909, -0.2376052290201187, -0.15442749857902527], [0.1643507480621338, 0.0760469064116478, 0.03491302207112312, -0.062248144298791885, -0.25213029980659485, -0.06769754737615585, 0.09074556827545166, 0.12648895382881165, 0.012868133373558521, 0.20326417684555054, -0.0628657117486, 0.20165570080280304, 0.42006146907806396, -0.02334005944430828, -0.007989923469722271, 0.1723203957080841, -0.2398841232061386, -0.06471014767885208, 0.011855339631438255, -0.07244580239057541, 0.15202073752880096, -0.10261064022779465, 0.059911858290433884, -0.19951988756656647, -0.08940951526165009, 0.09285610169172287, 0.028763512149453163, 0.2144458293914795, -0.20567037165164948, 0.20785872638225555, 0.08569955825805664, -0.33623623847961426], [-0.029838668182492256, -0.1539352685213089, -0.02539544552564621, -0.09195809066295624, -0.013051636517047882, -0.03912995755672455, -0.11162475496530533, 0.00597462709993124, -0.051324453204870224, -0.18314309418201447, -0.008394638076424599, -0.0011516808299347758, -0.30395007133483887, -0.20048053562641144, -0.12223904579877853, -0.023167362436652184, -0.03794725239276886, -0.08950629085302353, -0.09713532775640488, -0.21173086762428284, 0.07736356556415558, 0.04887200519442558, 0.08186344057321548, -0.010065889917314053, -0.19435903429985046, -0.03084014728665352, 0.07382791489362717, 0.023399632424116135, -0.03755241259932518, 0.06272666901350021, -0.01203837525099516, 0.07651388645172119], [-0.17092934250831604, 0.048621851950883865, -0.22947990894317627, -0.1311495006084442, 0.020850418135523796, 0.16978038847446442, -0.0982295423746109, 0.12073700875043869, 0.13501594960689545, -0.061009734869003296, -0.14865733683109283, -0.07458073645830154, -0.045920707285404205, 0.0026885175611823797, -0.2470019906759262, 0.046619441360235214, -0.023598475381731987, -0.1871446818113327, 0.04117446765303612, -0.008993479423224926, 0.06426350772380829, -0.1218762919306755, 0.08238490670919418, -0.0024249728303402662, -0.17145365476608276, 0.13532935082912445, 0.16756922006607056, 0.08716502040624619, 0.007023082114756107, -0.13023078441619873, 0.09927640110254288, 0.09501106292009354], [-0.0670715793967247, -0.001623353804461658, -0.07804081588983536, 0.12552222609519958, 0.15431395173072815, 0.16477127373218536, -0.0876200869679451, -0.10587625205516815, -0.20570772886276245, -0.16834725439548492, 0.10526226460933685, -0.09616884589195251, -0.1505909264087677, -0.07845430076122284, -0.08907683193683624, 0.05848465859889984, 0.1234322041273117, 0.013741710223257542, 0.04792466759681702, -0.23874449729919434, 0.021983319893479347, 0.10358130931854248, -0.12326975166797638, 0.07903581112623215, -0.06347240507602692, 0.03167037293314934, 0.025321729481220245, -0.18620207905769348, -0.06410263478755951, 0.07367963343858719, -0.0036950446665287018, -0.07599671185016632], [-0.3460497558116913, 0.06766361743211746, -0.030010556802153587, -0.07352682203054428, -0.14023210108280182, 0.010072681121528149, -0.028452133759856224, 0.150165855884552, 0.022421667352318764, -0.18280330300331116, 0.12112192064523697, 0.11160549521446228, -0.12050193548202515, 0.0913822129368782, -0.2176305502653122, -0.19211845099925995, -0.041031625121831894, -0.04933639615774155, 0.38140869140625, -0.06341541558504105, 0.016762010753154755, -0.1853211671113968, -0.19687356054782867, -0.013344897888600826, 0.01499133836477995, -0.11779692023992538, -0.24090832471847534, -0.16430044174194336, 0.08021669089794159, 0.15662725269794464, 0.11590409278869629, -0.24126264452934265], [0.03265063837170601, -0.08975158631801605, -0.001984312664717436, 0.051304396241903305, 0.13702988624572754, 0.030530907213687897, 0.16078440845012665, 0.08848057687282562, -0.016422854736447334, 0.09435027837753296, -0.12467695772647858, 0.2152555286884308, -0.09280647337436676, 0.1476093828678131, 0.2098458856344223, 0.08237781375646591, -0.18823052942752838, 0.08178240805864334, -0.22806324064731598, 0.0993826612830162, 0.18019331991672516, 0.18378014862537384, 0.0745401456952095, -0.14944221079349518, -0.09178607165813446, 0.08963624387979507, 0.023638399317860603, 0.11969522386789322, 0.1425192505121231, 0.07816719263792038, -0.19513869285583496, 0.0010781295131891966], [0.21013492345809937, 0.14692464470863342, 0.1689402461051941, -0.02864186093211174, -0.06491237133741379, -0.12424680590629578, 0.19217361509799957, 0.06760889291763306, 0.061664752662181854, -0.10293667018413544, -0.07854504883289337, 0.22424821555614471, 0.16254198551177979, -0.09125855565071106, -0.08358357101678848, 0.18255802989006042, 0.05288027599453926, -0.12075400352478027, -0.10606348514556885, 0.05467190966010094, 0.008666181936860085, -0.06922987848520279, 0.050831712782382965, -0.0700032040476799, 0.12355218827724457, 0.1165584996342659, 0.12354370951652527, 0.13201318681240082, -0.2203102856874466, -0.09415411204099655, 0.07311326265335083, -0.14827927947044373], [0.2705917954444885, -0.2962820529937744, 0.21589012444019318, 0.14531484246253967, -0.1364133656024933, -0.19858428835868835, -0.009490763768553734, -0.18372668325901031, -0.026308326050639153, 0.2129269540309906, 0.10126300901174545, 0.02634947933256626, 0.00507704820483923, 0.11528423428535461, 0.0915035530924797, 0.04916956275701523, 0.07795996218919754, 0.23683828115463257, -0.08618289977312088, 0.1984637826681137, -0.08039029687643051, -0.022885581478476524, 0.15384110808372498, 0.07104635238647461, 0.10159077495336533, -0.09137631952762604, 0.18583621084690094, 0.07271265238523483, -0.13978396356105804, -0.11434037983417511, -0.18816779553890228, 0.16626550257205963], [-0.011667882092297077, -0.1543714553117752, 0.07483137398958206, 0.16276419162750244, 0.15040525794029236, 0.0453028604388237, 0.09212752431631088, -0.01899232529103756, -0.1556168496608734, 0.013734768144786358, -0.13652797043323517, 0.04716430604457855, -0.23030619323253632, -0.0012204584199935198, -0.2065834254026413, -0.18061304092407227, 0.14042465388774872, 0.07039767503738403, -0.16569574177265167, -0.11313793808221817, -0.02095317654311657, -0.10877011716365814, -0.19342032074928284, 0.04402079060673714, -0.128793865442276, -0.013001733459532261, 0.04884712025523186, -0.10890685021877289, -0.02615126594901085, 0.03628971427679062, -0.0809873640537262, 0.18429213762283325], [0.04000573977828026, 0.0893668457865715, -0.11698542535305023, -0.08096110820770264, -0.19410854578018188, 0.065859854221344, -0.06595329940319061, -0.06643719971179962, 0.13563278317451477, -0.10940450429916382, -0.018421590328216553, -0.04768378660082817, -0.011102207005023956, 0.2539973556995392, -0.022538794204592705, -0.0979948341846466, -0.26870599389076233, 0.022781940177083015, 0.038975898176431656, 0.09237399697303772, -0.03244207426905632, -0.12709273397922516, 0.027286071330308914, -0.004730678629130125, -0.11108757555484772, 0.02799193188548088, -0.06180686876177788, 0.13852228224277496, -0.034336548298597336, 0.06723447889089584, 0.09904807806015015, -0.28232479095458984], [-0.059192441403865814, -0.4606351852416992, -0.03671547397971153, 0.34320396184921265, 0.7008618116378784, 0.2994134724140167, -0.2922065258026123, -0.49088552594184875, -0.09335153549909592, -0.07968553900718689, -0.37453407049179077, -0.3377370834350586, -0.9114686250686646, 0.23533019423484802, 0.05000128597021103, -0.22322799265384674, 0.5785055756568909, 0.19085228443145752, -0.9041483402252197, -0.3339811861515045, -0.5442794561386108, -0.0681338831782341, 0.22745083272457123, 0.25087857246398926, -0.02851605787873268, -0.20031654834747314, 0.5603424310684204, 0.01902955025434494, 0.15589843690395355, -0.09460679441690445, -0.14238421618938446, 0.8144674301147461], [0.04118752107024193, 0.07991538941860199, -0.1824074685573578, -0.05704360082745552, 0.12218648940324783, -0.09748711436986923, -0.0429089292883873, 0.15299396216869354, -0.18794643878936768, 0.006528024561703205, -0.14789599180221558, -0.2267749309539795, -0.09520584344863892, -0.08278045803308487, -0.1386122852563858, 0.06233805790543556, 0.023515990003943443, -0.17983251810073853, 0.12972556054592133, -0.2112477868795395, 0.06665392220020294, -0.18932631611824036, -0.10263674706220627, 0.04627733305096626, 0.12459608912467957, -0.08782532066106796, -0.1717609018087387, 0.00887929555028677, -0.027738437056541443, -0.17060574889183044, 0.14036381244659424, 0.05300506576895714], [-0.004610730800777674, 0.08359741419553757, 0.062216535210609436, 0.03799661621451378, -0.1195577010512352, -0.14657306671142578, 0.15135058760643005, 0.12690378725528717, 0.16527391970157623, 0.1873578280210495, -0.04387396574020386, 0.08675972372293472, 0.10089203715324402, -0.09937785565853119, 0.09943103045225143, 0.05000414699316025, -0.1847250908613205, -0.13533438742160797, 0.08552975207567215, 0.1847638189792633, 0.19934965670108795, 0.16582967340946198, 0.09285184741020203, 0.030149348080158234, 0.14743739366531372, -0.03226885944604874, -0.017619052901864052, 0.08732704818248749, -0.014490494504570961, 0.020808978006243706, -0.1416587084531784, -0.2318582385778427], [-0.05578261986374855, 0.06451563537120819, 0.19295655190944672, -0.027558516710996628, -0.21734000742435455, -0.1854851096868515, 0.11327656358480453, 0.05867045372724533, -0.06957446783781052, -0.038573648780584335, 0.1815335899591446, -0.10297682136297226, 0.2636163830757141, -0.02949710376560688, -0.05203082039952278, 0.20019052922725677, -0.25960907340049744, 0.1596406251192093, 0.15886659920215607, 0.11451981216669083, 0.25405117869377136, 0.08349660038948059, 0.09590788930654526, 0.016954459249973297, -0.14312735199928284, -0.05436799302697182, -0.03288270905613899, 0.15751978754997253, -0.08724933862686157, 0.10018673539161682, 0.028808079659938812, -0.1371706873178482], [-0.7377508878707886, 0.6860836148262024, -0.2606947124004364, -0.2715107500553131, -0.11061955988407135, 0.135971337556839, -0.0413459837436676, 0.49651408195495605, -0.30979278683662415, -0.2979715168476105, -0.4670540988445282, 0.07207223027944565, 0.12054400146007538, -0.3092159330844879, -0.19656367599964142, -0.38574665784835815, 0.0053287348710000515, -0.641450047492981, 0.6146819591522217, -0.0550183430314064, 0.1872079074382782, -0.4790802597999573, -0.4045580327510834, -0.08113125711679459, -0.05182192474603653, -0.33518221974372864, -0.5581834316253662, -0.07934993505477905, 0.08525647222995758, -0.09775679558515549, 0.3249783217906952, -0.597251296043396], [-0.033587079495191574, -0.19198091328144073, -0.10157080739736557, 0.04594632610678673, -0.10160809755325317, 0.21826060116291046, -0.11158706247806549, 0.06718327105045319, -0.08258572965860367, 0.07165474444627762, -0.11149296909570694, -0.1096702516078949, -0.19869811832904816, 0.09427855908870697, -0.24213482439517975, 0.06907530874013901, 0.06044461950659752, -0.1481144279241562, -0.0402439683675766, -0.06252775341272354, -0.15223324298858643, -0.14732715487480164, -0.08452553302049637, 0.0577542744576931, 0.03178371116518974, -0.004549437668174505, 0.10211345553398132, -0.06511305272579193, 0.19999481737613678, 0.018602924421429634, -0.0636126920580864, 0.12844251096248627], [-0.015072471462190151, -0.10297515243291855, -0.2157737910747528, -0.03708690032362938, -0.09082797914743423, -0.00455055944621563, -0.11689666658639908, -0.1203334629535675, -0.23735173046588898, 0.1174166277050972, 0.1375502049922943, -0.011994356289505959, -0.18127630650997162, 0.1589663326740265, -0.026467695832252502, -0.20610062777996063, 0.17683005332946777, 0.11475607752799988, -0.20748081803321838, -0.01568514108657837, -0.0052834972739219666, 0.05749410390853882, 0.03957436978816986, 0.16940629482269287, -0.1084631159901619, -0.0895519107580185, 0.24134737253189087, -0.1369502991437912, 0.2305181473493576, -0.1471400409936905, -0.058354467153549194, 0.33284249901771545], [0.24939313530921936, -0.09342292696237564, 0.15034162998199463, 0.02665625512599945, -0.1801416575908661, -0.09702081978321075, 0.07052964717149734, -0.18012534081935883, 0.03347822278738022, 0.10739738494157791, 0.17103809118270874, 0.19784873723983765, 0.03146461397409439, 0.10350337624549866, 0.1143643781542778, 0.04761752486228943, -0.23154489696025848, 0.11062629520893097, 0.23869170248508453, -0.09768927097320557, -0.009822194464504719, 0.18553932011127472, 0.02719440497457981, 0.08514837920665741, 0.03655510023236275, -0.06722390651702881, -0.1529959738254547, -0.06511526554822922, -0.0877310261130333, 0.16688396036624908, -0.04029533267021179, -0.01917758397758007], [0.046122681349515915, 0.1133856475353241, -0.135538250207901, -0.12221097201108932, 0.09228161722421646, -0.02720348723232746, -0.004126227926462889, 0.10914716124534607, -0.0610145665705204, -0.1920778900384903, -0.08723388612270355, -0.21707004308700562, 0.001362794660963118, -0.15345415472984314, -0.15325969457626343, 0.1205783411860466, 0.0576719231903553, 0.0018769322196021676, 0.02028609625995159, -0.08513143658638, -0.22587600350379944, -0.011814560741186142, -0.1389017254114151, -0.05772918835282326, -0.017835337668657303, -0.04807498678565025, -0.1458340436220169, -0.028631694614887238, 0.00810966920107603, -0.21225424110889435, 0.24904227256774902, -0.1948409378528595], [0.0028597996570169926, -0.12767286598682404, -0.0881524533033371, -0.003429100615903735, 0.2924809753894806, 0.18929290771484375, -0.10972422361373901, -0.16134528815746307, -0.15771740674972534, 0.11819407343864441, -0.15114355087280273, -0.02821952849626541, -0.2519717812538147, 0.1356273591518402, -0.05036933720111847, 0.044953860342502594, 0.2123502492904663, -0.07781849801540375, -0.3034476637840271, -0.23978522419929504, -0.3016509413719177, 0.040721382945775986, 0.14648425579071045, 0.011489735916256905, -0.2038741409778595, 0.04391330108046532, 0.28094497323036194, 0.12021927535533905, -0.0007092063315212727, -0.2368307262659073, 0.1489144116640091, 0.37952902913093567], [0.21833360195159912, 0.12763643264770508, 0.16667045652866364, -0.07323268800973892, -0.19249886274337769, -0.0137436268851161, 0.19480229914188385, -0.05467646196484566, 0.06897645443677902, -0.030105695128440857, -0.09575711935758591, 0.016369076445698738, 0.26475587487220764, 0.1635168194770813, 0.20811760425567627, 0.21447862684726715, -0.03910665214061737, 0.09888733923435211, 0.11014046519994736, -0.03725135698914528, 0.15638095140457153, 0.03707336634397507, -0.034313689917325974, 0.05706419050693512, 0.21345503628253937, 0.16101178526878357, 0.015044491738080978, -0.08326740562915802, 0.11383304744958878, 0.11352341622114182, 0.09699197113513947, -0.062395934015512466], [0.42257437109947205, -0.3205062747001648, 0.2241096943616867, 0.25106990337371826, 0.0035447319969534874, 0.0531984306871891, 0.24724052846431732, -0.33358943462371826, 0.28851810097694397, 0.28713884949684143, 0.24564765393733978, 0.06909937411546707, -0.038029685616493225, 0.05289194732904434, 0.06126813590526581, -0.033834755420684814, -0.04559238255023956, 0.3137466609477997, -0.3160935044288635, 0.2480471283197403, 0.014292009174823761, 0.3732321560382843, 0.1703251600265503, 0.003712479257956147, -0.03668283298611641, -0.04094395413994789, 0.2377166450023651, -0.04310634359717369, -0.0035574345383793116, 0.12233547121286392, -0.23392479121685028, 0.2142285704612732], [-0.028291024267673492, 0.05768550932407379, 0.148288756608963, -0.1713707149028778, -0.13270540535449982, -0.1520904004573822, 0.03766316920518875, 0.12763500213623047, 0.23095889389514923, 0.16935491561889648, -0.02562905289232731, 0.050390977412462234, 0.13254228234291077, 0.20244674384593964, -0.06409339606761932, 0.018754420801997185, -0.2455233633518219, 0.13910983502864838, -0.001279548043385148, -0.014098623767495155, -0.1216828003525734, 0.015485571697354317, -0.1044815182685852, 0.006683543790131807, -0.09563480317592621, -0.03629566729068756, 0.21126656234264374, -0.11714290827512741, -0.21045273542404175, -0.06696142256259918, -0.1883634626865387, 0.09016143530607224], [-0.2224670648574829, -0.12975257635116577, 0.03975161537528038, 0.06651623547077179, 0.07562301307916641, 0.05712981894612312, -0.013200710527598858, 0.06596209108829498, 0.17844311892986298, 0.03491254523396492, -0.1544797569513321, -0.18967732787132263, -0.18691019713878632, 0.006284315604716539, 0.09693758934736252, -0.23729483783245087, -0.029591770842671394, 0.057676587253808975, 0.09836175292730331, -0.13948790729045868, -0.002697032643482089, -0.262906938791275, -0.14451664686203003, -0.1274581402540207, -0.18289965391159058, 0.16494636237621307, -0.044952232390642166, -0.1301165372133255, -0.03615182638168335, -0.17728058993816376, -0.011967219412326813, -0.05211346596479416], [-0.0323539562523365, 0.1531037837266922, 0.12137127667665482, 0.10003919899463654, -0.18445613980293274, -0.09062179923057556, 0.23982936143875122, -0.01730380207300186, -0.09928761422634125, -0.006250890903174877, 0.09682182967662811, 0.04459644854068756, 0.23560741543769836, -0.13481390476226807, 0.1450362503528595, -0.026773452758789062, -0.21981868147850037, 0.02368229068815708, 0.25446876883506775, 0.19791072607040405, 0.2472350001335144, 0.03504767641425133, 0.11744070798158646, -0.044245555996894836, 0.17155948281288147, -0.009630772285163403, -0.11326154321432114, -0.07808517664670944, -0.06996404379606247, -0.015431417152285576, 0.08795999735593796, -0.25654998421669006], [0.3192692995071411, -0.23993347585201263, 0.1930745393037796, 0.0698143020272255, -0.10212591290473938, -0.05115975812077522, -0.08036046475172043, -0.10044277459383011, -0.039261408150196075, -0.03604483604431152, 0.2533528208732605, 0.16781538724899292, 0.046276211738586426, 0.14694200456142426, -0.04229384660720825, -0.005069584120064974, -0.1563539057970047, 0.07007801532745361, -0.11163082718849182, 0.2130783498287201, -0.18885207176208496, 0.19129428267478943, 0.15775786340236664, -0.1253230720758438, 0.16579584777355194, 0.013732127845287323, 0.16988316178321838, 0.2250581532716751, -0.0032479676883667707, -0.053691912442445755, -0.25317445397377014, 0.19932405650615692], [-0.14874593913555145, 0.07162971049547195, -0.19746698439121246, -0.08946654200553894, 0.234100341796875, 0.06335568428039551, -0.15143056213855743, -0.0144647853448987, -0.03989062458276749, -0.22435936331748962, 0.016783416271209717, 0.010497166775166988, -0.12747570872306824, -0.16599027812480927, -0.1345844566822052, 0.007597620133310556, 0.00995558686554432, 0.08958768099546432, -0.12061281502246857, -0.09279555827379227, 0.031723834574222565, -0.05517464131116867, 0.05728553980588913, -0.06589960306882858, 0.07082822918891907, -0.08921276777982712, -0.020859848707914352, 0.04433830827474594, 0.11642935127019882, -0.12776295840740204, 0.16902314126491547, 0.012092715129256248], [0.11624565720558167, -0.00354786473326385, 0.05318451300263405, -0.12798094749450684, 0.04580933228135109, 0.09539922326803207, 0.0846777930855751, 0.09060275554656982, 0.2697345018386841, -0.10420303791761398, -0.03897060826420784, 0.028636407107114792, -0.15766790509223938, 0.15916845202445984, 0.21136684715747833, -0.06705466657876968, -0.20365196466445923, -0.09851789474487305, 0.0830421969294548, 0.04974837973713875, 0.13146677613258362, -0.032176822423934937, -0.09434067457914352, 0.11111472547054291, 0.21524614095687866, -0.06688893586397171, -0.020222967490553856, -0.003409141208976507, -0.15586814284324646, -0.1134476438164711, 0.0887812003493309, 0.010694235563278198], [0.05256183445453644, -0.40283262729644775, -0.11287030577659607, 0.15613868832588196, 0.2869541645050049, 0.03145189583301544, -0.11693914979696274, -0.01635725051164627, -0.029814420267939568, 0.15661242604255676, 0.03397386893630028, 0.04052649438381195, -0.4922015964984894, 0.07802948355674744, -0.0489739365875721, -0.09688946604728699, 0.6780998706817627, -0.022930456325411797, -0.19185137748718262, -0.13276663422584534, -0.2589695453643799, -0.16092227399349213, 0.2641451060771942, 0.22471174597740173, -0.06580381095409393, -0.2575569450855255, 0.3159791827201843, -0.046772655099630356, 0.18857018649578094, -0.26968759298324585, 0.09620078653097153, 0.5808632373809814], [0.23432204127311707, 0.22841373085975647, 0.15597735345363617, 0.03427257388830185, -0.016577037051320076, 0.01422937773168087, 0.2250027358531952, 0.043520018458366394, 0.09060568362474442, 0.10389115661382675, -0.11584243178367615, 0.21085317432880402, 0.07786508649587631, 0.04931207373738289, 0.18832671642303467, -0.09385523200035095, -0.30837735533714294, 0.022192800417542458, 0.18362277746200562, 0.19380143284797668, -0.1726590394973755, 0.01709386520087719, 0.008373807184398174, -0.09831531345844269, -0.09818383306264877, 0.11858059465885162, 0.005269976798444986, 0.012500077486038208, 0.03526482358574867, 0.097223661839962, 0.09188929200172424, -0.09362190216779709]], "b": [0.11930869519710541, -0.029411738738417625, -0.18350981175899506, 0.13920192420482635, 0.13144712150096893, 0.06836122274398804, -0.4632073938846588, 0.3735206425189972, 0.07515498250722885, 0.3528807759284973, -0.07408294826745987, -0.06899772584438324, 1.0516761541366577, -0.037616778165102005, -0.06489802151918411, -0.02615576982498169, -0.8660323023796082, -0.07640176266431808, 0.38119959831237793, -0.02852584794163704, -0.3304815888404846, 0.3438529670238495, 0.02976445108652115, 0.46446719765663147, 0.024731919169425964, -0.40858379006385803, -0.0753609836101532, 0.42098963260650635, 0.16860522329807281, -0.0933297798037529, 0.6117838025093079, -0.19076624512672424]}, {"w": [[-0.1137562245130539, -0.17856481671333313, -0.2003106325864792, 0.10711164772510529, 0.1984810084104538, 0.12262885272502899, 0.20241814851760864, -0.17531919479370117, -0.08684993535280228, -0.2439182847738266, 0.1203756183385849, 0.03989693149924278, 0.3160090744495392, 0.12955188751220703, -0.08210247755050659, -0.17470280826091766, 0.31986889243125916, 0.19506774842739105, 0.2035263031721115, -0.25129935145378113, 0.23943449556827545, 0.19470345973968506, -0.24114784598350525, -0.11922968178987503, -0.08259770274162292, 0.09811211377382278, -0.23323728144168854, -0.13888874650001526, 0.22570152580738068, 0.013400336727499962, 0.186518594622612, -0.16109499335289001]], "b": [0.05877166986465454]}], "train": {"venue": "lake_perp_mid+cb", "events": 2981, "target": "blend", "w_out": 0.1, "skip_last_s": 60.0, "basis": "coinbase"}}