{"arch": {"hidden": 32, "clamp": 2.0, "act": "tanh", "logit": "raw", "mode": "direct"}, "features": "zp=(px-b)/s/sqrt(tte/900); u_in=[zp, log(tte/900)] + extras", "rho_bar": 4.831839084625244, "b_prior": "strike", "b_scale": 50.0, "extras": ["basis", "dbasis15", "dbasis60", "imb1", "mom60", "vsurge", "mom120"], "mu": [29.826819117950055, 0.00022998448272393854, 0.005749195869366319, 0.005152291164962039, -0.34433265654795386, 0.10440546427246038, -0.683461823130799], "sd": [7.85873562357052, 8.480202852148642, 9.367189451977996, 0.5987955292428666, 43.26271689198741, 0.08032425046037009, 61.041461734808436], "layers": [{"w": [[-0.04803077504038811, -0.044156983494758606, -0.053819261491298676, 0.08531583845615387, 0.0027761252131313086, -0.05948539450764656, -0.4466063380241394, 0.03657086566090584, -0.22450217604637146], [0.4491014778614044, 0.3530658185482025, 0.041983213275671005, -0.05387190356850624, -0.10358350723981857, -0.030912043526768684, -0.020050685852766037, 0.013865386135876179, -0.21476466953754425], [0.31500592827796936, -0.07831855118274689, 0.20716188848018646, -0.00014065590221434832, 0.15931078791618347, 0.018685046583414078, -0.10701580345630646, -0.06596333533525467, 0.13029338419437408], [0.15553325414657593, -0.04449690133333206, -0.05745784193277359, 0.012264356017112732, 0.09611384570598602, 0.09043586254119873, 0.07125739008188248, 0.19140495359897614, 0.3446962833404541], [0.06799674779176712, -0.48344486951828003, -0.10402928292751312, -0.015634866431355476, 0.0031790994107723236, -0.03321519121527672, 0.1559872329235077, 0.04997101426124573, 0.06217538192868233], [0.14732421934604645, 0.00010300014400854707, -0.08980773389339447, 0.050645142793655396, 0.04639245569705963, -0.14289745688438416, 0.16842803359031677, 0.11026903986930847, -0.029251761734485626], [-0.4711746573448181, -0.07196854799985886, 0.04333777353167534, 0.03182564303278923, -0.03535982593894005, 0.014157203957438469, -0.04082271084189415, 0.07789134234189987, 0.037706948816776276], [-0.36387819051742554, 0.2803739905357361, 0.032860007137060165, -0.01737852208316326, 0.006929089780896902, 0.05057462677359581, 0.029519762843847275, -0.0831473097205162, -0.06509517878293991], [0.27140727639198303, -0.035305313766002655, 0.0346507802605629, 0.28752508759498596, 0.06540588289499283, 0.0587104931473732, 0.05796052888035774, -0.09915389120578766, 0.20954404771327972], [-0.3430931568145752, 0.1980094611644745, -0.024356482550501823, -0.036997854709625244, 0.06124121695756912, -0.030844444409012794, 0.31321582198143005, -0.02676265686750412, 0.3879305422306061], [-0.4780087172985077, -0.5048312544822693, -0.00858879741281271, 0.037642139941453934, -0.03864997997879982, -0.04570623114705086, -0.27440786361694336, 0.0355687141418457, -0.15359275043010712], [0.2785944938659668, -0.021293599158525467, -0.12602993845939636, 0.022061487659811974, 0.018794413655996323, -0.10858329385519028, -0.10536210983991623, 0.16064520180225372, -0.06471268087625504], [-0.32133767008781433, 0.23154032230377197, -0.011273497715592384, -0.006516555789858103, 0.003230784088373184, 0.00782416295260191, -0.012027516961097717, -0.05923368036746979, -0.22389225661754608], [-0.13347989320755005, -0.45875054597854614, 0.04092606157064438, -0.2194662243127823, -0.18889272212982178, 0.17337965965270996, -0.10964377969503403, 0.019099291414022446, -0.0685943067073822], [-0.3504001200199127, -0.30748486518859863, 0.04938233271241188, -0.06626468896865845, -0.0013580522499978542, -0.14878667891025543, -0.3896867036819458, -0.028590194880962372, 0.3797205090522766], [0.040118489414453506, 0.393847793340683, 0.010276160202920437, 0.007793609518557787, -0.034497544169425964, -0.10618295520544052, 0.058174148201942444, 0.4174047112464905, -0.08470410853624344], [-0.474043071269989, -0.4985768496990204, -0.018821988254785538, 0.0513094887137413, 0.0420624241232872, -0.020452573895454407, 0.1424321085214615, -0.10867103934288025, -0.2912643551826477], [0.2233269363641739, 0.1550305038690567, 0.12281626462936401, -0.3947315812110901, 0.0010278363479301333, 0.30237728357315063, -0.2661247253417969, -0.09199509024620056, -0.009878139942884445], [-0.4727635383605957, -0.4942781329154968, -0.01677571050822735, -0.09227481484413147, 0.03297597914934158, -0.045939162373542786, 0.47747284173965454, 0.008226130157709122, 0.33154910802841187], [-0.22292856872081757, 0.27819275856018066, 0.12479199469089508, -0.09047973901033401, -0.08698790520429611, 0.07465650886297226, 0.011176396161317825, 0.11661083251237869, -0.12156809121370316], [0.4481782913208008, 0.23015239834785461, 0.061149612069129944, -0.007502370979636908, -0.10453559458255768, 0.04852035641670227, -0.17228512465953827, 0.006198772694915533, 0.26050737500190735], [0.3005483150482178, 0.03969397768378258, 0.03579025715589523, 0.07578384131193161, -0.14147605001926422, 0.008555788546800613, 0.038689494132995605, 0.039063677191734314, -0.053890619426965714], [0.1432037353515625, -0.39343032240867615, 0.15615703165531158, 0.24108831584453583, -0.043504100292921066, 0.05463728308677673, -0.25167056918144226, -0.07334890216588974, -0.021323388442397118], [0.18212825059890747, -0.22906720638275146, -0.02696007490158081, -0.048864468932151794, 0.03295808285474777, -0.05047179386019707, 0.258841335773468, 0.003648451529443264, 0.024741901084780693], [0.3698541820049286, -0.13986322283744812, -0.034837450832128525, -0.02323145419359207, -0.016301574185490608, 0.019154591485857964, -0.020771121606230736, -0.024762043729424477, 0.06404485553503036], [-0.26963138580322266, 0.0308053120970726, -0.025791263207793236, -0.05797117203474045, -0.08647371083498001, 0.08136717230081558, -0.012953933328390121, 0.11881045997142792, 0.2275383323431015], [0.5239675045013428, 0.4346317648887634, 0.14024512469768524, -0.05650397390127182, 0.09246787428855896, 0.03408533334732056, -0.017566904425621033, -0.10595576465129852, -0.11502500623464584], [-0.3463456630706787, 0.04859556630253792, 0.04707474261522293, -0.024054111912846565, 0.015583990141749382, 0.002484060823917389, 0.2109716534614563, 0.03504959121346474, -0.0768805518746376], [-0.054237689822912216, 0.35880717635154724, -0.117123082280159, 0.10031447559595108, 0.03563696891069412, 0.1266818344593048, -0.22619414329528809, -0.08171737194061279, -0.19997945427894592], [0.5194038152694702, 0.4012049436569214, 0.057674746960401535, 0.014762215316295624, -0.029399368911981583, 0.04216036945581436, -0.35610002279281616, -0.0156409814953804, 0.18092909455299377], [-0.3983917236328125, 0.05176163092255592, -0.0029650465585291386, 0.026116997003555298, -0.034781306982040405, -0.09160786122083664, -0.24430659413337708, -0.011224780231714249, 0.3159371018409729], [0.3267146944999695, 0.09168785065412521, 0.016954736784100533, -0.1002359688282013, -0.10055989772081375, -0.00751953711733222, 0.0956648588180542, -0.07070185989141464, -0.26849740743637085]], "b": [0.16584354639053345, 0.3622771203517914, -0.6180269122123718, -0.028796954080462456, -1.4608116149902344, -0.15246814489364624, -0.1997806280851364, 0.5069066882133484, -0.3831164836883545, 0.617140531539917, -1.0372164249420166, -0.13969482481479645, 0.9116728901863098, -0.04001861810684204, -0.38713768124580383, 0.9400738477706909, -0.8573192358016968, -0.22286735475063324, -0.61553955078125, -0.3300517201423645, -0.013797935098409653, -0.39522436261177063, -0.0967816561460495, -0.594152569770813, -0.33067500591278076, 0.8364577293395996, 0.5278245210647583, 0.5995747447013855, -0.17679384350776672, 0.4018600285053253, 0.6338734030723572, -0.45493853092193604]}, {"w": [[0.13591568171977997, -0.08549067378044128, -0.005941157694905996, -0.20947237312793732, -0.110053651034832, -0.1766064316034317, 0.022592756897211075, 0.060659050941467285, -0.05283021181821823, -0.09012340754270554, 0.16228269040584564, 0.06406546384096146, -0.08854775875806808, -0.11577434837818146, 0.01796165108680725, -0.01126727182418108, -0.07220971584320068, -0.011375476606190205, 0.01465767715126276, -0.07419048249721527, 0.10180927813053131, 0.08196011930704117, 0.16342073678970337, -0.14443138241767883, -0.17771106958389282, 0.07239369302988052, 0.03074789233505726, 0.1441412717103958, -0.03840962052345276, 0.07569321244955063, -0.011937721632421017, -0.07004335522651672], [-0.1528952717781067, 0.2637631595134735, -0.10267515480518341, 0.0018691805889829993, -0.8112453818321228, 0.1540299504995346, -0.18172939121723175, 0.024649446830153465, 0.22395645081996918, 0.05588636174798012, -0.3828471302986145, -0.0034348731860518456, 0.04431420564651489, -0.17137637734413147, -0.333558052778244, 0.376190185546875, -0.2788260877132416, -0.039239294826984406, -0.2647053301334381, -0.05096423998475075, 0.2730303108692169, 0.030047057196497917, -0.17757746577262878, -0.12717629969120026, -0.01255935151129961, 0.1644858419895172, 0.39312151074409485, 0.0657956674695015, -0.1459631770849228, 0.11257818341255188, -0.011329444125294685, 0.11784514039754868], [0.136545792222023, 0.025963488966226578, -0.05915175750851631, 0.01290353387594223, 0.12930773198604584, -0.007406288757920265, 0.02582169882953167, -0.10215918719768524, -0.17298300564289093, 0.0034473747946321964, 0.20452390611171722, -0.07053487002849579, 0.029369184747338295, -0.018017904832959175, 0.050666823983192444, 0.01243531797081232, 0.04394210875034332, -0.008723918348550797, 0.2093438357114792, -0.08387583494186401, 0.003032910404726863, 0.08470612019300461, -0.2256810963153839, -0.08174098283052444, -0.03666260465979576, 0.14989183843135834, 0.007769263815134764, -0.08259652554988861, -0.015206597745418549, 0.10457739979028702, -0.012506484985351562, -0.22817052900791168], [-0.2905590236186981, -0.06682448834180832, 0.13372322916984558, 0.06544420123100281, 0.10616587102413177, 0.052170924842357635, -0.05036023631691933, -0.052840456366539, 0.148594468832016, -0.29240095615386963, 0.10250795632600784, 0.19773028790950775, -0.2993238866329193, 0.13593362271785736, -0.1924917995929718, -0.17655350267887115, -0.04236597940325737, 0.10123676806688309, 0.1560138612985611, -0.012136310338973999, 0.22731898725032806, 0.091447614133358, -0.11487409472465515, 0.2096865326166153, 0.21162626147270203, -0.23865000903606415, -0.051783666014671326, -0.24083934724330902, -0.009883331134915352, 0.25391218066215515, -0.1128266453742981, -0.024082498624920845], [-0.2599506080150604, 0.23498015105724335, 0.07434216141700745, -0.003394042607396841, 0.049675315618515015, 0.251898854970932, -0.035331401973962784, 0.03130245581269264, 0.024133196100592613, -0.13676144182682037, -0.2857895791530609, 0.19384551048278809, -0.2820371091365814, -0.12828610837459564, 0.0018660805653780699, 0.1699494570493698, -0.2673085927963257, 0.03665151074528694, -0.2606664001941681, 0.03763686120510101, 0.24983501434326172, 0.3825143575668335, -0.0904272273182869, 0.07174204289913177, -0.015048417262732983, -0.22489747405052185, 0.19754035770893097, -0.09901288151741028, 0.20874100923538208, 0.19058160483837128, -0.3297700583934784, 0.1809552013874054], [0.1933121383190155, -0.17682260274887085, 0.04493028298020363, -0.16579364240169525, 0.15510617196559906, -0.1850399374961853, 0.2483527660369873, 0.14484946429729462, -0.0732639729976654, -0.07433337718248367, 0.10092008858919144, 0.08069905638694763, 0.09115014970302582, 0.1538722664117813, -0.02053973637521267, 0.0007992676692083478, 0.23973125219345093, -0.24822790920734406, 0.04889121651649475, 0.029032275080680847, -0.18152984976768494, -0.2783987522125244, 0.13281066715717316, -0.16557179391384125, -0.018103428184986115, 0.23350709676742554, -0.025744786486029625, 0.18796655535697937, -0.1630762368440628, -0.22970595955848694, 0.2939167618751526, -0.3377212584018707], [0.15942853689193726, -0.28801512718200684, 0.06768389791250229, -0.00443632248789072, 0.27009087800979614, -0.19719117879867554, 0.08909233659505844, 0.06927850842475891, -0.15127456188201904, 0.17669755220413208, 0.2594768702983856, -0.12697869539260864, 0.06506462395191193, 0.1717439740896225, 0.15182971954345703, -0.16452911496162415, 0.33689963817596436, 0.005533020477741957, 0.31981930136680603, 0.27264517545700073, -0.18286007642745972, -0.24616436660289764, -0.03906816244125366, 0.09370142221450806, -0.14810901880264282, -0.10020137578248978, -0.05470506474375725, 0.13652686774730682, 0.015604238025844097, -0.3348018229007721, -0.03228919580578804, 0.08651015162467957], [-0.1455731987953186, -0.0796927809715271, 0.24197736382484436, 0.1851775050163269, 0.34334319829940796, 0.09738598018884659, 0.09399642795324326, -0.1653994470834732, 0.0042142621241509914, 0.011022567749023438, -0.1554608792066574, 0.11517073214054108, -0.2967297434806824, 0.023344730958342552, -0.15863828361034393, -0.18481865525245667, -0.0688120499253273, 0.007183259818702936, 0.0909118503332138, -0.07243238389492035, 0.16998916864395142, 0.057228539139032364, -0.12091702967882156, 0.29429107904434204, 0.051801737397909164, -0.07724304497241974, 0.17673568427562714, -0.15334585309028625, -0.14826183021068573, 0.1705327332019806, -0.2809304893016815, 0.13803055882453918], [0.19299735128879547, -0.0659494623541832, -0.23142679035663605, 0.02198386751115322, -0.5121830105781555, -0.006808641832321882, -0.006335074547678232, 0.17827948927879333, -0.0977868139743805, 0.2678427994251251, -0.10680271685123444, -0.09959252923727036, 0.29907897114753723, -0.0013543805107474327, 0.01878391206264496, 0.12975266575813293, -0.06771286576986313, -0.12274287641048431, 0.0618937611579895, 0.03931436687707901, 0.06024763360619545, -0.33648648858070374, -0.13684743642807007, -0.24285395443439484, -0.2673814594745636, 0.3126663565635681, -0.21545830368995667, 0.3130304515361786, -0.03138177841901779, -0.07678695023059845, 0.2929740250110626, -0.3415652811527252], [0.2964135706424713, -0.2260197401046753, -0.02179558388888836, -0.11733745038509369, 0.4073658287525177, -0.25368732213974, -0.08590489625930786, -0.1928040236234665, -0.1290331333875656, 0.18183313310146332, -0.32674357295036316, -0.25978904962539673, -0.16290155053138733, 0.6223440766334534, 0.22116336226463318, -0.3124985992908478, -0.10053455829620361, -0.6045300960540771, 0.29465925693511963, -0.25311774015426636, -0.041818492114543915, -0.5864257216453552, 0.23236551880836487, -0.012857366353273392, -0.004859675653278828, 0.287046879529953, 0.044500842690467834, 0.22870759665966034, -0.24723219871520996, 0.14549659192562103, -0.08068330585956573, -0.5527801513671875], [0.15970736742019653, -0.022945266216993332, -0.19835129380226135, -0.0561872199177742, -0.001331788836978376, -0.21682706475257874, 0.0847688689827919, 0.21557742357254028, -0.18700894713401794, 0.31870710849761963, -0.11053434014320374, -0.23067113757133484, 0.12793107330799103, -0.10750269144773483, -0.027955438941717148, 0.03699422627687454, 0.028757238760590553, -0.14751958847045898, 0.27436181902885437, -0.130952849984169, -0.052644167095422745, -0.2587638199329376, -0.1320434957742691, -0.10508395731449127, 0.07019646465778351, 0.09687294065952301, -0.27683132886886597, 0.16828353703022003, -0.038406409323215485, -0.1996443271636963, 0.1843017190694809, -0.060137663036584854], [0.002035361248999834, -0.09097692370414734, -0.0630207285284996, -0.07114924490451813, 0.015502555295825005, -0.226053848862648, 0.21630457043647766, 0.26726841926574707, 0.07771336287260056, 0.30799752473831177, 0.1182476133108139, -0.07133843749761581, 0.04992916062474251, 0.03368845582008362, 0.12781551480293274, -0.04620707035064697, -0.017199622467160225, -0.1863621175289154, 0.19440118968486786, 0.2239370495080948, 0.058522120118141174, -0.04111265763640404, -0.04085874557495117, -0.09216581284999847, -0.018260054290294647, 0.07014536112546921, -0.10709958523511887, 0.19659584760665894, 0.1355876922607422, -0.1180940642952919, 0.03501424938440323, -0.21388186514377594], [-0.06268402934074402, -0.08064751327037811, 0.10158105939626694, -0.09896095097064972, -0.03154619783163071, -0.19185900688171387, 0.19231660664081573, 0.18974068760871887, -0.12437562644481659, 0.16340166330337524, 0.24715588986873627, -0.21382030844688416, 0.2009933739900589, 0.019276440143585205, 0.012835399247705936, 0.07391592115163803, -0.030767317861318588, 0.0673370212316513, 0.2175416201353073, 0.16941195726394653, 0.04353249445557594, -0.06723953783512115, -0.029568053781986237, -0.09884567558765411, -0.30733150243759155, 0.03128187358379364, -0.10743337869644165, 0.21662637591362, 0.053781867027282715, -0.01129686925560236, 0.19505895674228668, -0.08458219468593597], [-0.22367477416992188, 0.2951905131340027, 0.00011072808410972357, 0.08979316055774689, -0.20877747237682343, 0.1448977142572403, -0.017806654796004295, -0.10027888417243958, -0.019808804616332054, 0.007480852771550417, -0.29791322350502014, 0.22738640010356903, -0.008198017254471779, 0.029424060136079788, -0.07444868981838226, -0.027651045471429825, -0.24002371728420258, -0.16819646954536438, -0.0409332737326622, 0.0707058310508728, 0.22484610974788666, 0.08005619049072266, 0.04658952355384827, 0.002417442388832569, 0.30713412165641785, -0.2901209592819214, -0.012829160317778587, -0.04462236911058426, -0.07416735589504242, 0.029507415369153023, -0.22696198523044586, -0.05162403732538223], [0.11707866191864014, -0.16737963259220123, -0.13244831562042236, 0.01859450899064541, -0.29311543703079224, 0.10191787034273148, 0.023033563047647476, 0.2374134212732315, -0.09840989112854004, 0.30148565769195557, -0.010877121239900589, -0.11661136150360107, 0.04304566979408264, 0.14989228546619415, -0.11859617382287979, 0.14219246804714203, 0.08101000636816025, -0.14755475521087646, 0.022536149248480797, 0.04494385048747063, -0.1521662026643753, -0.1756718009710312, -0.1948554366827011, -0.12225484102964401, -0.02778567373752594, 0.1662171185016632, 0.01979883760213852, 0.10178312659263611, 0.22276030480861664, -0.03703158721327782, -0.014545529149472713, 0.03390765190124512], [-0.09781430661678314, 0.20972995460033417, -0.09332650899887085, 0.05476619303226471, -0.35596293210983276, 0.06469212472438812, -0.19119860231876373, -0.22177374362945557, -0.05869852378964424, 0.1502017378807068, -0.057160668075084686, 0.11523211747407913, -0.05532018467783928, -0.04826320707798004, -0.09045642614364624, -0.06353364139795303, -0.12972557544708252, 0.08073211461305618, -0.15491120517253876, -0.07607002556324005, 0.2015780359506607, 0.18029473721981049, -0.007368598133325577, 0.2597642242908478, 0.04883136600255966, -0.0567176379263401, 0.2832281291484833, -0.17994575202465057, 0.07402398437261581, 0.01667064055800438, -0.16801366209983826, 0.18264196813106537], [0.17776012420654297, -0.2840096652507782, 0.011310853995382786, -0.025341618806123734, 0.01530393771827221, -0.15818437933921814, 0.13102412223815918, -0.0592646598815918, -0.06327555328607559, 0.11073540151119232, 0.25809556245803833, 0.04019387438893318, 0.014542701654136181, 0.15784525871276855, 0.15331582725048065, -0.20165427029132843, -0.04106814041733742, 0.05667712911963463, 0.3120822012424469, -0.07383878529071808, -0.1102200597524643, -0.03661563992500305, -0.10354140400886536, 0.04870754852890968, -0.12669797241687775, 0.015084507875144482, -0.283976286649704, -0.011049427092075348, 0.04162653535604477, 0.0046726614236831665, 0.12809544801712036, -0.09733474999666214], [0.23614561557769775, -0.01952522248029709, -0.13112805783748627, -0.09613201767206192, 0.08372843265533447, -0.16349488496780396, 0.13318493962287903, 0.165010005235672, -0.0406050831079483, 0.0003255833871662617, -0.02611076645553112, -0.1995864063501358, 0.17032043635845184, -0.11990457773208618, -0.025771327316761017, 0.15858633816242218, 0.06066606938838959, 0.04053783044219017, -0.10018051415681839, -0.001036865054629743, -0.14453674852848053, -0.014047454111278057, 0.029583171010017395, -0.2387530505657196, -0.04264127463102341, 0.11277994513511658, -0.1844702661037445, 0.0948239341378212, -0.023679861798882484, -0.2202012687921524, 0.2764647305011749, -0.23443230986595154], [-0.06076259911060333, 0.3747485280036926, 0.0412059910595417, 0.0744728371500969, -0.41756993532180786, 0.23920342326164246, -0.23131048679351807, -0.2472708523273468, -0.05024620518088341, 0.0639968067407608, -0.3660174012184143, 0.1523827612400055, -0.02921460010111332, 0.025981757789850235, -0.20924192667007446, 0.17758989334106445, -0.30535048246383667, 0.061617814004421234, -0.5343846678733826, -0.2616261839866638, 0.0006805319571867585, 0.25176724791526794, -0.06259270757436752, -0.038327526301145554, 0.0537639781832695, 0.0965476706624031, 0.4006336033344269, 0.044703446328639984, -0.15230105817317963, 0.03799481317400932, 0.015396421775221825, 0.20034907758235931], [-0.12255425751209259, 0.3129810690879822, 0.17307166755199432, 0.1119341254234314, -1.6836695671081543, 0.13050039112567902, -0.12161947786808014, -0.20852668583393097, 0.1736762821674347, 0.2904265224933624, -0.7387855648994446, -0.15821674466133118, 0.19856785237789154, -0.18324977159500122, -0.21056653559207916, 0.7869072556495667, -0.4525148570537567, 0.07105795294046402, -0.5032154321670532, -0.2764067053794861, 0.3741937577724457, 0.017470484599471092, -0.31096941232681274, -0.12112168222665787, 0.325487345457077, 0.38487717509269714, 0.40311944484710693, -0.10795734077692032, -0.01298523973673582, 0.4222373068332672, 0.2118573635816574, -0.1423356682062149], [0.010648627765476704, 0.05453495308756828, 0.221825510263443, 0.09027176350355148, 0.40871700644493103, 0.16444620490074158, 0.1194060742855072, -0.2504062354564667, 0.25142163038253784, -0.1810653954744339, 0.12694087624549866, 0.08784326165914536, -0.23017290234565735, -0.10620550066232681, -0.04560414329171181, -0.2673271894454956, 0.019793175160884857, 0.09244683384895325, -0.0037413486279547215, 0.15420590341091156, 0.14819923043251038, 0.299155592918396, 0.2408197671175003, 0.21414709091186523, -0.02971821278333664, -0.36988285183906555, 0.25520721077919006, -0.2784823775291443, -0.0055820816196501255, 0.18715208768844604, -0.19451329112052917, 0.23447129130363464], [-0.04330931603908539, -0.004098603967577219, 0.02420015074312687, -0.21092963218688965, -0.10203441232442856, -0.15966765582561493, 0.0018879983108490705, 0.2277081310749054, 0.10103529691696167, 0.17486268281936646, -0.021336834877729416, -0.07226954400539398, 0.08265984803438187, 0.23456446826457977, -0.08527407050132751, -0.11869606375694275, -0.09979656338691711, 0.035109855234622955, 0.07870454341173172, -0.024797184392809868, -0.22555269300937653, -0.1385737508535385, -0.19578620791435242, -0.00488901836797595, -0.20610634982585907, -0.005767847876995802, 0.12505021691322327, -0.10625308752059937, -0.07806063443422318, -0.19320455193519592, -0.030502643436193466, 0.08027759939432144], [-0.38772398233413696, -0.07762061059474945, 0.1663971245288849, 0.2821806073188782, 0.07829800248146057, 0.05122460052371025, -0.04073617607355118, -0.011548811569809914, 0.23294711112976074, 0.20323768258094788, -0.3277369439601898, -0.1755744218826294, -0.23045623302459717, -0.08458007127046585, 0.05832653492689133, -0.16223207116127014, -0.17414017021656036, 0.1388605535030365, 0.175154909491539, -0.12110910564661026, 0.09315060079097748, -0.1553804874420166, -0.31231045722961426, -0.007483895402401686, -0.06705308705568314, 0.21606796979904175, 0.10128940641880035, -0.14648422598838806, -0.17538657784461975, -0.04242943599820137, -0.19555296003818512, 0.015701396390795708], [-0.1397095024585724, 0.1578831970691681, 0.1378968060016632, 0.17559881508350372, -0.12399941682815552, 0.02461952157318592, 0.06362327933311462, -0.13485296070575714, -0.11408636718988419, -0.23764750361442566, -0.060569245368242264, 0.04530404135584831, -0.04343836009502411, -0.18105213344097137, -0.012031042017042637, 0.014427603222429752, -0.15672756731510162, 0.07293200492858887, 0.04152221232652664, 0.060889944434165955, 0.24340327084064484, 0.09647850692272186, 0.24717086553573608, 0.10877986997365952, 0.23754341900348663, -0.18518853187561035, 0.052332554012537, -0.2427046298980713, -0.08159838616847992, 0.01965443603694439, 0.007094049360603094, 0.029268983751535416], [0.12136708199977875, -0.26518282294273376, 0.025053946301341057, -0.03452571481466293, 0.10807505995035172, -0.05522652715444565, -0.02745666541159153, 0.09887022525072098, -0.1392492949962616, -0.04793449863791466, 0.2945135831832886, 0.019448010250926018, 0.12802143394947052, 0.19199466705322266, -0.022973710671067238, -0.20369914174079895, 0.029722314327955246, -0.21264450252056122, 0.19670355319976807, 0.19913102686405182, -0.21149292588233948, -0.1018458902835846, 0.013721488416194916, -0.14975498616695404, -0.058188486844301224, 0.08339501917362213, -0.08997762203216553, 0.2618171274662018, 0.1207633912563324, -0.22516591846942902, 0.010268754325807095, -0.007615973241627216], [-0.0006149822729639709, 0.008823431096971035, -0.19682250916957855, -0.12657666206359863, 0.2643001675605774, -0.07224826514720917, 0.025478487834334373, 0.11903940141201019, -0.05126091092824936, -0.0803195983171463, 0.1890619695186615, 0.01856006309390068, 0.09885387122631073, -0.09045503288507462, 0.05925355851650238, -0.05749836936593056, 0.04742291197180748, 0.13571856915950775, 0.03756961598992348, 0.0004643607244361192, 0.012420357204973698, -0.09357655048370361, 0.0555691123008728, -0.22145938873291016, 0.023522835224866867, 0.06306808441877365, -0.15260326862335205, 0.18835105001926422, 0.08528655767440796, -0.16459260880947113, 0.24107322096824646, -0.12721148133277893], [-0.04346968233585358, 0.051517438143491745, 0.10000209510326385, -0.020033717155456543, 0.3478689193725586, 0.21758227050304413, -0.027435459196567535, 0.038360174745321274, 0.12803693115711212, -0.37613967061042786, -0.17889417707920074, 0.05490339547395706, -0.3071208894252777, 0.03409140929579735, 0.09847119450569153, -0.20654116570949554, -0.12163315713405609, -0.067508764564991, -0.01068243570625782, -0.011633403599262238, 0.22101013362407684, 0.041317906230688095, -0.23029442131519318, 0.4110199809074402, 0.2878537178039551, -0.3494930863380432, 0.0431482158601284, -0.20032727718353271, -0.11401376873254776, -0.07960524410009384, -0.015032733790576458, 0.2554110288619995], [0.011754571460187435, -0.09744853526353836, 0.017485758289694786, 0.16046549379825592, 0.12320732325315475, 0.022268561646342278, -0.07124267518520355, -0.022403746843338013, 0.19930562376976013, 0.07333651185035706, 0.07876313477754593, 0.18217065930366516, -0.1734606772661209, 0.11125980317592621, -0.07205922156572342, -0.06584482640028, 0.07534084469079971, -0.03678363189101219, 0.014474722556769848, -0.0415310375392437, -0.050421006977558136, -0.06558269262313843, 0.1583019644021988, 0.2984462380409241, 0.07660578936338425, -0.18707704544067383, 0.2596120834350586, -0.04771583527326584, 0.06052093580365181, -0.08151806890964508, -0.02632611058652401, 0.08035527914762497], [0.11733778566122055, 0.06435959786176682, 0.00354454736225307, 0.13119782507419586, 0.31889843940734863, 0.08935492485761642, 0.28551343083381653, 0.20250971615314484, 0.009836893528699875, 0.46483349800109863, 0.023791344836354256, 0.16398505866527557, 0.010502345860004425, 0.2509552538394928, 0.23640558123588562, -0.3758235275745392, -0.1313314586877823, -0.14063474535942078, 0.4159679710865021, 0.31450265645980835, -0.21832704544067383, -0.1364484578371048, -0.023471204563975334, -0.22039800882339478, -0.2955845892429352, 0.2745150029659271, -0.11309003084897995, 0.12302687764167786, 0.18099795281887054, -0.038790032267570496, 0.29534053802490234, -0.0052364845760166645], [-0.008447735570371151, 0.08314649760723114, -0.02196667343378067, 0.12210676819086075, 0.12798574566841125, 0.13096116483211517, -0.2535344660282135, 0.015515492297708988, 0.21922603249549866, -0.11354435980319977, -0.23870070278644562, -0.009063120000064373, 0.029583953320980072, 0.034568607807159424, -0.11473333090543747, 0.09276922047138214, -0.0936824232339859, -0.1563596874475479, 0.01475085411220789, -0.0660368949174881, -0.05719093605875969, 0.178310364484787, 0.20974905788898468, -0.043515097349882126, 0.09429910033941269, -0.2794457972049713, 0.1791686862707138, -0.0738840326666832, 0.04857529699802399, 0.0527547225356102, 0.043424952775239944, -0.07766333222389221], [0.03610782325267792, -0.30880293250083923, -0.17257915437221527, 0.06770211458206177, 1.0523912906646729, 0.14762002229690552, 0.21033057570457458, -0.03748130798339844, -0.0668763518333435, -0.31774526834487915, 0.40775954723358154, 0.025262871757149696, 0.0026157929096370935, 0.17097380757331848, 0.108708456158638, -0.306102991104126, 0.19508568942546844, 0.021637622267007828, 0.44350576400756836, -0.09790319204330444, 0.01939459703862667, 0.046162787824869156, 0.12236052006483078, 0.07818727940320969, -0.19365543127059937, -0.10136263072490692, -0.3886590898036957, -0.0034093433059751987, 0.19954824447631836, -0.2169179767370224, 0.04320370778441429, -0.09847605228424072], [0.049178916960954666, 0.25047731399536133, 0.06573551148176193, 0.058389246463775635, 0.3645665943622589, -0.08866360783576965, 0.004266287665814161, -0.22792606055736542, -0.02228827401995659, -0.3726750612258911, -0.036226537078619, 0.2038416564464569, -0.17071403563022614, 0.04241066053509712, -0.09155618399381638, -0.2258782982826233, -0.22565904259681702, 0.009324626997113228, -0.005937740206718445, 0.13068148493766785, 0.02390739507973194, 0.17686469852924347, 0.024177363142371178, 0.003925836645066738, -0.064223513007164, -0.36579087376594543, 0.2028147429227829, -0.27429038286209106, -0.15530598163604736, 0.13881410658359528, -0.03612798452377319, 0.22395791113376617]], "b": [-0.2743537724018097, 0.5055354237556458, -0.05819341912865639, -0.29954177141189575, -0.19662003219127655, -0.13169154524803162, -0.37812942266464233, -0.29404908418655396, 0.5486822724342346, 0.23710593581199646, 0.17984266579151154, 0.05356395244598389, -0.15077996253967285, 0.2692567706108093, 0.28346872329711914, 0.26247844099998474, -0.1799958050251007, 0.041515741497278214, 0.26722022891044617, 0.511522650718689, -0.33230945467948914, 0.16475099325180054, 0.07637143135070801, 0.10314071178436279, -0.09419595450162888, -0.07598528265953064, -0.3535108268260956, 0.10616482049226761, 0.14666719734668732, -0.07132602483034134, -0.4565832018852234, -0.3646652102470398]}, {"w": [[0.020612070336937904, 0.28818780183792114, 0.0671880692243576, 0.22037696838378906, 0.15268607437610626, -0.1554214507341385, -0.22437690198421478, 0.11616016179323196, -0.26911062002182007, 0.22571705281734467, -0.25747403502464294, -0.17151013016700745, -0.20998625457286835, 0.10955093801021576, -0.10746344923973083, 0.2541649341583252, -0.13845078647136688, -0.23749800026416779, 0.21141283214092255, 0.23426644504070282, 0.22342412173748016, 0.047269921749830246, 0.11413823068141937, 0.12523499131202698, -0.19628289341926575, -0.1053534597158432, 0.2591925263404846, 0.024773890152573586, -0.15344539284706116, 0.047264281660318375, -0.2871472239494324, 0.2541334629058838]], "b": [-0.07827472686767578]}], "train": {"venue": "lake_perp_mid", "events": 3447, "cap_ts": 0, "target": "market", "w_out": 0.0, "skip_last_s": 60.0}}