{"arch": {"hidden": 32, "clamp": 2.0, "act": "tanh", "logit": "raw", "mode": "direct"}, "features": "zp=(px-b)/s/sqrt(tte/900); u_in=[zp, log(tte/900)]", "rho_bar": 4.944828510284424, "b_prior": "strike", "b_scale": 50.0, "layers": [{"w": [[0.12040010839700699, -0.47052910923957825], [0.24890615046024323, 0.14422011375427246], [-0.3842006325721741, -0.17663443088531494], [-0.4610232710838318, -0.021543366834521294], [-0.2744798958301544, 0.30627837777137756], [0.4611580967903137, 0.14086978137493134], [-0.34326377511024475, -0.0892077386379242], [-0.16641363501548767, -0.22684527933597565], [0.34710410237312317, -0.5368051528930664], [0.6611772179603577, -0.3174235224723816], [0.5950806736946106, -0.13897190988063812], [0.4208873510360718, 0.27329644560813904], [0.08287792652845383, 0.1899704933166504], [0.523221492767334, 0.02472005784511566], [0.4307696521282196, -0.3723177909851074], [0.5538071990013123, -0.004342513624578714], [0.2259412705898285, 0.2835167646408081], [0.3646416962146759, 0.5505829453468323], [-0.20968542993068695, -0.22948120534420013], [-0.16466017067432404, -0.22333461046218872], [0.45020750164985657, -0.27169448137283325], [-0.3873676061630249, 0.5140546560287476], [0.6820165514945984, 0.05470157042145729], [-0.23221613466739655, 0.20123004913330078], [0.3992098867893219, -0.4724324345588684], [-0.6438236236572266, 0.3404904305934906], [0.6624253988265991, -0.19072496891021729], [-0.5794801115989685, -0.04897376894950867], [-0.4291924238204956, 0.16139720380306244], [0.3951368033885956, 0.08036543428897858], [-0.17137384414672852, -0.24918653070926666], [0.26841628551483154, -0.47107094526290894]], "b": [-0.7786523103713989, 0.4333004653453827, -0.6840292811393738, -0.3858974575996399, 0.6293920874595642, 0.6938775777816772, -0.23338621854782104, -0.6984950304031372, 0.4859578609466553, -0.8259154558181763, -0.15690065920352936, 0.9948755502700806, 0.36680540442466736, 0.4232679009437561, 0.14878632128238678, -0.08473826944828033, 0.8629040122032166, -0.5949628353118896, -0.611823558807373, -0.3131946325302124, -0.6617387533187866, -0.15238696336746216, 0.581056535243988, 0.45389848947525024, -0.09281513094902039, 0.9253646731376648, -0.554734468460083, -0.4696894884109497, 0.34169745445251465, 0.17430126667022705, -0.8522892594337463, -0.9693147540092468]}, {"w": [[-0.06609240919351578, 0.1997515708208084, 0.005258849821984768, 0.06721965223550797, -0.19568020105361938, -0.09998894482851028, -0.17267751693725586, -0.07495150715112686, -0.013213194906711578, -0.04489314183592796, 0.19388723373413086, 0.030287859961390495, -0.02481718920171261, 0.1461075395345688, -0.006683223880827427, 0.1701698899269104, 0.1396196186542511, -0.026643045246601105, -0.036129552870988846, -0.18742460012435913, -0.02492973580956459, -0.10665994137525558, -0.03146005794405937, -0.027225006371736526, 0.06811857223510742, -0.14510518312454224, 0.17937065660953522, -0.16952307522296906, -0.030878396704792976, 0.008619733154773712, -0.272451251745224, -0.05604849383234978], [0.026979705318808556, 0.012795677408576012, -0.048445120453834534, 0.0036974551621824503, -0.1094769686460495, 0.03567095100879669, 0.20963895320892334, 0.1314696967601776, -0.13840033113956451, 0.03673688694834709, 0.08971396833658218, -0.10368437319993973, -0.10646764189004898, 0.003956949803978205, -0.021813616156578064, -0.11420850455760956, -0.23329827189445496, -0.15081635117530823, 0.07339437305927277, 0.045303910970687866, 0.08793813735246658, 0.039900511503219604, -0.10511134564876556, -0.11542528122663498, -0.20379963517189026, 0.13210627436637878, 0.10100064426660538, 0.05666053667664528, -0.10006801038980484, 0.0057889558374881744, 0.2417955845594406, -0.169126957654953], [0.5640031695365906, 0.044391512870788574, -0.15136507153511047, -0.22888876497745514, -0.20974574983119965, -0.08439292758703232, -0.0845554918050766, -0.03426455706357956, 0.004792605061084032, 0.21083883941173553, 0.19000039994716644, -0.07109880447387695, -0.002631282666698098, 0.08599574863910675, -0.10000729560852051, 0.08221099525690079, -0.1569903939962387, -0.0885583683848381, 0.11905990540981293, -0.03092910535633564, 0.3525775969028473, 0.10373765230178833, 0.037564557045698166, -0.20637673139572144, -0.006324642803519964, -0.2503574788570404, 0.03839597478508949, 0.033680111169815063, -0.04950402304530144, 0.12342507392168045, 0.2098834365606308, 0.5816868543624878], [0.410413533449173, -0.26195812225341797, 0.14705896377563477, 0.0675477683544159, 0.059840887784957886, -0.13152015209197998, 0.12157490104436874, 0.02395329810678959, 0.118462473154068, 0.12059537321329117, -0.09063176065683365, -0.27706092596054077, -0.34491464495658875, -0.10998693853616714, -0.005352840293198824, -0.03409997373819351, -0.17590461671352386, 0.19052733480930328, 0.09592488408088684, 0.1480804681777954, -0.13794587552547455, 0.13583143055438995, -0.017741207033395767, -0.008656134828925133, 0.1448282152414322, 0.11500952392816544, -0.020787224173545837, 0.03527187928557396, 0.07279834896326065, -0.055313654243946075, 0.26434752345085144, 0.031027184799313545], [-0.13629481196403503, -0.045224495232105255, -0.03888532146811485, -0.11488019675016403, -0.1576615571975708, -0.04020940139889717, -0.1898457556962967, -0.07216721773147583, 0.0686306357383728, 0.20255209505558014, 0.22059568762779236, 0.15957413613796234, 0.17560316622257233, 0.024199938401579857, 0.1544521152973175, -0.025727529078722, 0.08860678970813751, -0.07045187801122665, -0.1942661553621292, -0.1947929859161377, 0.004019977990537882, 0.1559126228094101, -0.02918677031993866, -0.19516777992248535, -0.04997183009982109, 0.11487133800983429, 0.08665270358324051, -0.07113443315029144, -0.09554489701986313, 0.20315933227539062, -0.37707430124282837, 0.09941691160202026], [-0.18256723880767822, 0.19845342636108398, -0.20701244473457336, -0.13935235142707825, -0.06014607474207878, 0.26539912819862366, -0.09401848912239075, -0.3757231533527374, 0.10300291329622269, 0.07118551433086395, 0.07628656178712845, 0.018080085515975952, 0.05783257260918617, 0.2321474403142929, -0.11391280591487885, 0.015674227848649025, 0.19774268567562103, 0.06624506413936615, -0.2780539095401764, -0.20023834705352783, -0.0642571970820427, -0.07821908593177795, 0.19059181213378906, 0.09880580008029938, 0.06511664390563965, 0.10718477517366409, -0.0766623467206955, -0.08500096946954727, -0.18388022482395172, 0.0648019015789032, -0.6491788029670715, -0.2103431075811386], [0.16617414355278015, -0.03701808676123619, -0.07195135205984116, -0.10655184835195541, -0.20482297241687775, 0.04059656709432602, -0.005498831160366535, 0.09276766330003738, -0.06165975704789162, 0.22699643671512604, -0.02850804477930069, 0.17740653455257416, 0.17842966318130493, 0.06935205310583115, -0.034760914742946625, 0.17295043170452118, 0.010169620625674725, -0.19753418862819672, -0.09905029088258743, -0.15853247046470642, 0.04790034517645836, -0.15776044130325317, 0.17074592411518097, -0.20772480964660645, -0.11174959689378738, -0.03287694603204727, 0.16329781711101532, 0.11180929094552994, -0.19998368620872498, 0.1865481585264206, 0.06586048752069473, -0.04312901943922043], [0.1335611790418625, -0.0008981924038380384, -0.008894533850252628, -0.21389733254909515, -0.16266408562660217, -0.05271321162581444, -0.07827254384756088, -0.06956161558628082, 0.020273685455322266, -0.046621173620224, 0.14254790544509888, 0.15677544474601746, -0.11468315124511719, -0.11009267717599869, -0.0018376349471509457, 0.09737828373908997, -0.06524647027254105, -0.0479104109108448, -0.04104223847389221, -0.17134106159210205, 0.22683340311050415, 0.1026814803481102, 0.1921798586845398, -0.12070394307374954, -0.09523768723011017, -0.041233424097299576, 0.1580580621957779, 0.02761008031666279, -0.17107778787612915, 0.18685536086559296, -0.16078342497348785, 0.031571898609399796], [-0.05823664739727974, 0.14240756630897522, -0.23312228918075562, -0.17187820374965668, -0.06955650448799133, 0.18728742003440857, -0.09411435574293137, 0.025369832292199135, 0.13238997757434845, 0.06468994170427322, -0.06145291030406952, 0.08373776078224182, 0.13642707467079163, 0.02049979567527771, -0.15713712573051453, 0.15617918968200684, 0.014054365456104279, -0.13711988925933838, 0.02250411920249462, -0.0103639867156744, 0.18953834474086761, -0.028013646602630615, 0.17123538255691528, -0.09690005332231522, -0.10428410768508911, 0.09899509698152542, 0.23169627785682678, 0.06257261335849762, -0.10882221907377243, -0.024299975484609604, -0.0937538594007492, 0.13358935713768005], [0.03730041906237602, 0.0011311841662973166, 0.06230979412794113, 0.15910007059574127, 0.13351719081401825, 0.03395121172070503, 0.06294496357440948, -0.06131129711866379, -0.04300275072455406, -0.15122804045677185, 0.0839448794722557, -0.09308116137981415, -0.16192494332790375, -0.13577179610729218, -0.010340391658246517, 0.04892577975988388, -0.06282612681388855, 0.013098634779453278, 0.18798783421516418, -0.08623646944761276, -0.006848108489066362, 0.15146580338478088, -0.15908406674861908, 0.11983771622180939, 0.008249156177043915, 0.16364283859729767, -0.027340156957507133, -0.06586524099111557, -0.059373605996370316, 0.07756241410970688, -0.06177150085568428, -0.20391564071178436], [-0.24817384779453278, -0.21433185040950775, 0.10986147075891495, 0.08732055127620697, -0.02411489002406597, -0.10816407948732376, 0.08404554426670074, 0.13799698650836945, 0.07438106089830399, -0.1654534935951233, 0.09994897246360779, 0.08663628995418549, -0.18475241959095, 0.09995775669813156, -0.17894414067268372, -0.17775660753250122, -0.043612055480480194, 0.05521414056420326, 0.22002974152565002, 0.04854075610637665, 0.043341804295778275, -0.045008398592472076, -0.19583968818187714, 0.05539551377296448, 0.06285286694765091, 0.008342952467501163, -0.21817897260189056, -0.039109006524086, 0.10244203358888626, 0.1084902361035347, 0.09574830532073975, -0.224751815199852], [-0.7419973611831665, 0.04790376499295235, -0.004985473118722439, 0.04371810331940651, 0.44694408774375916, 0.004229048267006874, 0.16265708208084106, 0.10213154554367065, 0.10545499622821808, -0.15993072092533112, -0.24909242987632751, 0.12946179509162903, -0.0031096008606255054, 0.0917614996433258, 0.16006715595722198, -0.0659593716263771, -0.0909988284111023, -0.00038168716127984226, -0.07805588841438293, 0.03228107467293739, -0.1136246845126152, 0.04819203168153763, -0.015565118752419949, 0.11999037116765976, -0.18965008854866028, 0.26822760701179504, -0.20097437500953674, 0.15426892042160034, 0.3356921076774597, -0.020172014832496643, -0.29659292101860046, -0.48184818029403687], [-0.00412224605679512, -0.04376031830906868, 0.18670932948589325, -0.10460472106933594, 0.05754683539271355, -0.15152578055858612, 0.19164279103279114, 0.1468474268913269, -0.03240719065070152, -0.23309655487537384, -0.08652707934379578, 0.07021969556808472, -0.0565529502928257, -0.07044434547424316, -0.20304125547409058, 0.07824749499559402, 0.0763598084449768, -0.15093950927257538, -0.06450366973876953, 0.05594053491950035, -0.17546503245830536, -0.12118484079837799, -0.009616630151867867, 0.030217641964554787, 0.024519000202417374, 0.1459505558013916, 0.0891004428267479, 0.1709333211183548, -0.09512268006801605, -0.2028236836194992, 0.22525271773338318, -0.23488980531692505], [0.599315345287323, -0.0684867575764656, 0.10383547842502594, 0.05638539418578148, -0.28889334201812744, -0.10327430814504623, -0.1231289729475975, -0.06301937997341156, -0.1945185363292694, 0.2252408266067505, 0.11526671797037125, 0.012964035384356976, -0.050332240760326385, 0.12719732522964478, 0.025258483365178108, 0.04529731720685959, 0.13000087440013885, 0.17377404868602753, -0.003927555866539478, 0.10686691850423813, 0.07661334425210953, -0.11700401455163956, 0.15272313356399536, -0.0438971072435379, 0.05743565410375595, -0.2671925127506256, 0.2199735790491104, -0.03507765382528305, -0.18727485835552216, -0.10235663503408432, 0.04187420383095741, 0.3885098099708557], [0.22182482481002808, -0.01904682256281376, 0.07631607353687286, 0.08128158003091812, -0.0005951067432761192, 0.05356968566775322, 0.11173734068870544, -0.11272844672203064, -0.05266667529940605, 0.1578095555305481, -0.006097330246120691, 0.2070646584033966, -0.05426269769668579, 0.12959891557693481, -0.0840824767947197, -0.056961577385663986, 0.0899643674492836, 0.12104788422584534, -0.19388526678085327, -0.08549455553293228, 0.16093648970127106, -0.060244906693696976, -0.09068099409341812, -0.0729195848107338, -0.019459012895822525, -0.038007449358701706, 0.14207400381565094, -0.12301140278577805, -0.16237248480319977, 0.1632254719734192, -0.24109265208244324, 0.18129953742027283], [0.031627360731363297, 0.017013149335980415, -0.06336995214223862, 0.12624549865722656, -0.05318745598196983, 0.020435629412531853, -0.032820865511894226, 0.10895313322544098, -0.0030046142637729645, -0.17702101171016693, -0.21946187317371368, -0.11124923825263977, 0.05246591567993164, -0.09492678940296173, -0.07519610971212387, -0.1600186675786972, -0.1988765001296997, -0.01887805014848709, 0.011857150122523308, 0.11076878756284714, 0.11354363709688187, -0.10511326789855957, -0.11126412451267242, 0.12308217585086823, -0.14287512004375458, 0.04030312970280647, -0.1449553221464157, 0.17033322155475616, 0.037968557327985764, -0.03644664213061333, 0.1926586776971817, -0.17587591707706451], [-0.42497923970222473, 0.10883240401744843, 0.10177375376224518, 0.013661151751875877, 0.2899906635284424, 0.11758366972208023, -0.04394247755408287, -0.07398968935012817, 0.32659342885017395, -0.190389484167099, -0.23234644532203674, -0.1244727075099945, -0.11064978688955307, 0.06724183261394501, 0.08999745547771454, -0.1990787386894226, 0.0504937507212162, 0.15636619925498962, -0.0904390960931778, -0.10201751440763474, -0.010610469616949558, -0.20765699446201324, -0.2095320224761963, 0.1842266172170639, 0.006795668974518776, 0.18740379810333252, -0.10935374349355698, 0.206183061003685, -0.0037807777989655733, 0.1076132208108902, -0.47269967198371887, -0.2203807234764099], [0.23727922141551971, 0.005937558598816395, -0.04070950299501419, 0.051657646894454956, 0.1042090654373169, -0.21830697357654572, 0.05962374433875084, 0.2843157649040222, -0.1890190690755844, 0.035055410116910934, -0.21361827850341797, -0.2792513072490692, -0.18121524155139923, -0.2202697992324829, -0.11605202406644821, 0.07182915508747101, -0.18815287947654724, 0.057364124804735184, 0.26119160652160645, -0.09448641538619995, 0.010952165350317955, -0.09320870786905289, -0.16800275444984436, -0.03159555047750473, 0.1615585833787918, -0.016078932210803032, -0.2042112946510315, 0.11007129400968552, -0.043236080557107925, -0.16593815386295319, 0.2778370976448059, 0.09481673687696457], [0.10929395258426666, 0.05003172904253006, -0.02095787599682808, -0.02773473411798477, -0.1260187327861786, -0.05138980597257614, 0.052902404218912125, 0.14469042420387268, -0.0630260705947876, 0.23442158102989197, 0.05862011760473251, 0.07056417316198349, -0.0980890542268753, 0.01530393399298191, -0.0032797784078866243, 0.07665439695119858, -0.16232635080814362, -0.1224127858877182, 0.05582534894347191, 0.11575396358966827, 0.25767794251441956, 0.20167547464370728, 0.1614902913570404, -0.023669250309467316, 0.07710166275501251, -0.14869511127471924, 0.11158271133899689, 0.01710219494998455, -0.04280790686607361, 0.03623754158616066, 0.22238628566265106, 0.012963224202394485], [0.5438991189002991, 0.015570339746773243, 0.12564781308174133, -0.13859504461288452, -0.5249408483505249, -0.09834111481904984, 0.045086655765771866, 0.20696039497852325, -0.1763945370912552, 0.18740685284137726, 0.2861945331096649, -0.12887664139270782, -0.20091815292835236, 0.08346464484930038, -0.05304327607154846, 0.3022364377975464, -0.17495830357074738, 0.027108391746878624, 0.24648821353912354, 0.2181245982646942, 0.40322068333625793, 0.052177585661411285, 0.2190174013376236, -0.4508414566516876, -0.09816660732030869, -0.3767642676830292, 0.25984200835227966, 0.050742924213409424, -0.2856721878051758, 0.13295163214206696, 0.16757383942604065, 0.5377184748649597], [-0.24712485074996948, 0.24698406457901, -0.1649777591228485, -0.03499024733901024, -0.09999598562717438, 0.11873141676187515, 0.045064762234687805, -0.07936321943998337, -0.15560327470302582, 0.09889540076255798, -0.08090394735336304, 0.2480817288160324, 0.24677343666553497, 0.194979727268219, 0.03883024677634239, -0.11032486706972122, -0.0255057904869318, -0.13271574676036835, 0.004514981992542744, 0.08313460648059845, 0.17645128071308136, -0.03163568302989006, -0.03524860367178917, -0.17080765962600708, 0.14637435972690582, -0.23601409792900085, -0.1067981943488121, 0.0026583417784422636, -0.04995131120085716, -0.020091624930500984, -0.2239220142364502, -0.14843003451824188], [-0.0350528284907341, -0.1489732563495636, 0.02437690459191799, 0.16604876518249512, -0.06486504524946213, 0.10226258635520935, 0.0013737629633396864, 0.20234498381614685, -0.05392829701304436, 0.055721208453178406, -0.16556745767593384, -0.1235034167766571, -0.15628963708877563, 0.050585731863975525, -0.22277359664440155, 0.05498036369681358, -0.10000933706760406, -0.11213938891887665, 0.017234036698937416, 0.029074914753437042, -0.12643811106681824, -0.04587865620851517, -0.11762607097625732, 0.08086517453193665, 0.039795614778995514, 0.10290767252445221, 0.061337411403656006, 0.04308338835835457, 0.218048557639122, -0.0023803117219358683, 0.010227404534816742, 0.04472022503614426], [-0.03219606354832649, 0.04694674536585808, -0.09393291920423508, 0.0609058141708374, -0.08863428980112076, -0.11278821527957916, 0.001311984728090465, -0.02580927312374115, -0.09488643705844879, 0.06616091728210449, 0.010890481993556023, -0.02376088872551918, -0.05639902502298355, -0.012132135219871998, -0.025104328989982605, -0.2372223138809204, -0.10866399109363556, 0.0815754309296608, 0.04944632202386856, 0.09216348826885223, 0.03405343368649483, 0.1211957260966301, -0.1032579094171524, 0.2135619819164276, -0.10200733691453934, 0.06954585015773773, 0.07337906211614609, -0.025695323944091797, 0.2463001012802124, -0.15190920233726501, -0.01990744099020958, 0.06385444849729538], [0.24442072212696075, -0.07487936317920685, 0.027749057859182358, -0.041990771889686584, -0.21191029250621796, 0.004707728046923876, -0.03190864622592926, -0.2098207324743271, -0.008661638014018536, 0.10817097127437592, 0.1899084746837616, 0.18619795143604279, -0.046934083104133606, 0.138994038105011, 0.0675351545214653, 0.043641556054353714, -0.08543862402439117, 0.05198942869901657, 0.11677978932857513, -0.1834239959716797, 0.05703720077872276, 0.08630093187093735, 0.05709117278456688, 0.054714202880859375, 0.0044067176058888435, -0.16914290189743042, -0.08288201689720154, -0.16297656297683716, -0.09742830693721771, 0.16134312748908997, -0.022915147244930267, 0.10287024080753326], [0.2552279829978943, 0.1128508523106575, -0.15223592519760132, -0.1359817087650299, 0.017082998529076576, 0.004182983189821243, -0.005991243291646242, -0.012248712591826916, -0.046389102935791016, -0.05089885741472244, -0.032203350216150284, -0.07429776340723038, 0.1319395750761032, -0.09828115254640579, -0.05662848427891731, 0.23288297653198242, 0.1012558862566948, 0.09965982288122177, -0.15871328115463257, -0.09781773388385773, -0.01039749663323164, 0.05562393739819527, -0.03876909986138344, -0.14698901772499084, 0.07923669368028641, -0.0696515366435051, -0.014166953973472118, -0.061341915279626846, -0.1031571701169014, -0.10455567389726639, 0.11560770869255066, -0.0627882108092308], [0.040679868310689926, 0.02267550118267536, 0.04236892983317375, 0.017055833712220192, 0.2218138724565506, 0.06200971081852913, 0.04714467376470566, 0.031367529183626175, -0.06621041893959045, 0.07853090763092041, -0.16579094529151917, -0.022755302488803864, -0.08336275070905685, 0.06584496796131134, -0.024992089718580246, 0.018155941739678383, -0.17121756076812744, -0.1260072886943817, 0.0220718365162611, -0.08712774515151978, -0.23089489340782166, 0.0883387103676796, 0.006074353586882353, 0.04916767776012421, -0.17881467938423157, 0.19282039999961853, 0.09864557534456253, 0.24774256348609924, 0.003043718170374632, -0.22857479751110077, 0.17117197811603546, 0.03266708925366402], [0.18343444168567657, 0.0031168207060545683, 0.18589146435260773, -0.022632086649537086, -0.11047646403312683, -0.03673937916755676, 0.18202313780784607, -0.02670605666935444, 0.13272760808467865, -0.13103537261486053, -0.16167032718658447, -0.1351289004087448, 0.15733061730861664, 0.09976716339588165, 0.149759441614151, 0.1299189031124115, -0.10500729829072952, 0.18749642372131348, 0.11379868537187576, -0.053627386689186096, 0.06254109740257263, -0.05799028277397156, -0.12422576546669006, 0.11255188286304474, 0.18856847286224365, 0.200124129652977, -0.04355049878358841, -0.05488087236881256, 0.2113398164510727, 0.036345530301332474, 0.278257817029953, -0.08411117643117905], [0.03220735117793083, -0.038333773612976074, 0.17143452167510986, 0.08870301395654678, -0.026068145409226418, 0.031188854947686195, 0.2152911126613617, -0.0634830966591835, 0.0777357742190361, 0.10273964703083038, 0.10383061319589615, -0.009794402867555618, -0.11871118098497391, -0.10461336374282837, -0.07923849672079086, -0.16155193746089935, 0.012645008973777294, 0.03524249792098999, 0.0127014871686697, 0.20562666654586792, 0.015361971221864223, 0.2344551533460617, 0.11467789113521576, 0.013523241505026817, -0.2016364485025406, -0.07376391440629959, 0.1274118572473526, -0.06176264211535454, 0.057326119393110275, 0.06777101010084152, -0.0556628443300724, 0.05803532898426056], [-0.09941483289003372, -0.0355696864426136, 0.1608174741268158, -0.07640910893678665, -0.01337527297437191, -0.1650112122297287, 0.03177851438522339, 0.2826942205429077, 0.1607493907213211, 0.02816048637032509, -0.1473245769739151, -0.12940379977226257, -0.0958431214094162, 0.10316404700279236, -0.17873607575893402, -0.10273733735084534, -0.26418817043304443, 0.07406211644411087, 0.06333201378583908, -0.01140874344855547, -0.2256888747215271, -0.05145041644573212, -0.2253110110759735, 0.11570233106613159, -0.1799813210964203, -0.0237666517496109, 0.11365978419780731, -0.09741772711277008, -0.08100379258394241, -0.19971391558647156, 0.08507642894983292, 0.09780118614435196], [0.12594269216060638, -0.19856500625610352, 0.180422842502594, 0.21393156051635742, 0.06404155492782593, -0.05712497979402542, 0.07326791435480118, 0.23566025495529175, 0.10326480865478516, 0.08061907440423965, -0.17012934386730194, -0.24475853145122528, -0.26225557923316956, -0.1283842921257019, 0.1355968713760376, -0.19860410690307617, -0.19177673757076263, 0.2526659071445465, 0.16676993668079376, -0.025352727621793747, -0.013465466909110546, -0.13394179940223694, -0.17310011386871338, -0.18788982927799225, -0.12445508688688278, 0.19040250778198242, -0.04596981406211853, -0.034319549798965454, -0.0703982412815094, -0.17874544858932495, 0.17978818714618683, 0.06668909639120102], [-0.05180878937244415, 0.09092697501182556, -0.002064842963591218, 0.06429150700569153, -0.1660170555114746, 0.0288829542696476, 0.11087971180677414, -0.08662616461515427, -0.1912364959716797, 0.009045431390404701, 0.12245187908411026, 0.04433855414390564, 0.13655933737754822, -0.07446309179067612, 0.10835336893796921, -0.0123806893825531, -0.007810736540704966, 0.015262982808053493, 0.10431190580129623, 0.07791009545326233, 0.22345684468746185, -0.024708421900868416, 0.19202210009098053, -0.08253362774848938, 0.13836747407913208, -0.13420012593269348, -0.01922367326915264, -0.19255796074867249, -0.07968287169933319, -0.012006431818008423, 0.10548223555088043, -0.021105356514453888], [0.1736258715391159, -0.03575501963496208, 0.03362046927213669, -0.052062034606933594, -0.17597995698451996, 0.07104413211345673, -0.21668647229671478, -0.07638169825077057, -0.14763860404491425, -0.09430400282144547, 0.22086547315120697, 0.17788414657115936, 0.09155745059251785, 0.16369478404521942, -0.12676142156124115, -0.03554762527346611, -0.023067297413945198, -0.10692523419857025, -0.09320088475942612, 0.08626239001750946, -0.040705326944589615, 0.04280030354857445, 0.13951943814754486, -0.1619521677494049, 0.08268903195858002, -0.12230272591114044, 0.14310134947299957, 0.09726852178573608, -0.0198358241468668, -0.05802951753139496, -0.15854458510875702, 0.21688151359558105]], "b": [0.03098348155617714, 0.17772336304187775, -0.47346630692481995, -0.3169499933719635, 0.20578613877296448, 0.1429106444120407, -0.04455971717834473, 0.0583779513835907, 0.002660975558683276, 0.09692547470331192, 0.08504670858383179, 0.5826987028121948, 0.0471937470138073, -0.4579612910747528, -0.05347159877419472, 0.06687115132808685, 0.11593260616064072, -0.18476156890392303, -0.3104632794857025, -0.27600499987602234, 0.025351565331220627, 0.012501655146479607, 0.15310528874397278, -0.192745178937912, 0.0958782508969307, 0.12646909058094025, -0.12578700482845306, 0.12232484668493271, -0.005400377791374922, -0.38057366013526917, -0.06121581420302391, -0.11730703711509705]}, {"w": [[0.17369244992733002, -0.008431380614638329, 0.157417893409729, -0.19008049368858337, 0.18657399713993073, 0.23639856278896332, 0.12032753974199295, 0.24804618954658508, 0.14952407777309418, -0.15098537504673004, -0.2030530571937561, -0.16180063784122467, -0.23630210757255554, 0.17310716211795807, 0.26131686568260193, -0.18431217968463898, -0.16620539128780365, -0.23852495849132538, 0.15979249775409698, 0.22432011365890503, 0.19028931856155396, -0.07248075306415558, -0.12015016376972198, 0.24703918397426605, 0.12820930778980255, -0.1256915181875229, -0.19250713288784027, 0.017806680873036385, -0.17168664932250977, -0.25456130504608154, 0.1596866250038147, 0.20510199666023254]], "b": [0.030147379264235497]}], "train": {"venue": "coinbase", "events": 952, "target": "market_prob"}}