{"arch": {"hidden": 32, "clamp": 2.0, "act": "tanh", "logit": "raw", "mode": "direct"}, "features": "zp=(px-b)/s/sqrt(tte/900); u_in=[zp, log(tte/900)] + extras", "rho_bar": 4.8049702644348145, "b_prior": "strike", "b_scale": 50.0, "extras": ["mom60", "vsurge", "mom120"], "mu": [-0.34433265654795386, 0.10440546427246038, -0.683461823130799], "sd": [43.26271689198741, 0.08032425046037009, 61.041461734808436], "layers": [{"w": [[-0.27318739891052246, -0.24957698583602905, 0.0682603269815445, 0.07069941610097885, -0.22276745736598969], [-0.042182084172964096, 0.24038800597190857, 0.3559468984603882, 0.07508306205272675, 0.7069604396820068], [0.5672562718391418, 0.19146858155727386, -0.04128188267350197, -0.01802479662001133, 0.02277229167521], [-0.2052624523639679, -0.18816706538200378, -0.26188981533050537, 0.16098695993423462, -0.1940370798110962], [0.49846190214157104, 0.08961667120456696, 0.06965918838977814, -0.05357872694730759, -0.017454778775572777], [0.14315514266490936, -0.24404096603393555, 0.2520585358142853, 0.02478431910276413, -0.3447834849357605], [0.4798116087913513, 0.12319931387901306, -0.007122449576854706, 0.0021789688616991043, 0.0017575409729033709], [0.5223093032836914, 0.056204408407211304, -0.15226240456104279, -0.01234534289687872, -0.14050716161727905], [0.3366926908493042, 0.1997244507074356, -0.5110624432563782, 0.12255385518074036, 0.3549797832965851], [-0.016209399327635765, -0.3492371737957001, -0.3506666123867035, -0.08045350015163422, -0.5677682161331177], [-0.4299018383026123, 0.04873178154230118, 0.41170942783355713, -0.07797987759113312, -0.2566229999065399], [0.09929121285676956, -0.3739582896232605, 0.1494094580411911, 0.03990694880485535, 0.23296098411083221], [-0.17645423114299774, 0.15722572803497314, 0.028817135840654373, -0.08882703632116318, -0.16312053799629211], [-0.062024571001529694, -0.4432518184185028, -0.2990972399711609, -0.005493421107530594, 0.17604504525661469], [0.051535606384277344, -0.24985823035240173, 0.3060503602027893, -0.2687598466873169, -0.12843668460845947], [0.6732490658760071, 0.5133205652236938, -0.01651938445866108, -0.10784923285245895, -0.03906071558594704], [0.27243879437446594, -0.24784141778945923, -0.1355096995830536, -0.008729776367545128, -0.23545633256435394], [-0.16276097297668457, 0.48123350739479065, 0.18177036941051483, -0.06201615929603577, 0.3800327181816101], [-0.4601166844367981, -0.15686488151550293, 0.21868418157100677, 0.04676845297217369, -0.37923309206962585], [-0.6577842235565186, -0.5927419066429138, 0.28567779064178467, -0.06819763779640198, 0.3860339820384979], [-0.3421582579612732, -0.1409720480442047, -0.4302576184272766, 0.04031478613615036, -0.07450804114341736], [-0.3333911895751953, 0.09837021678686142, -0.16724707186222076, -0.1282162070274353, 0.1458999067544937], [-0.11577580869197845, -0.10996382683515549, 0.23445935547351837, -0.26452434062957764, 0.3059900403022766], [-0.5451528429985046, 0.137760728597641, -0.060151200741529465, -0.010293204337358475, 0.027552325278520584], [0.09020354598760605, -0.18700143694877625, 0.3511641323566437, -0.03510817512869835, 0.07867121696472168], [-0.15328693389892578, -0.13217651844024658, -0.5290678143501282, 0.1424950361251831, 0.1698075830936432], [-0.5792387127876282, -0.5613207221031189, -0.21991991996765137, 0.00396179873496294, 0.42497891187667847], [0.22159093618392944, -0.22930477559566498, 0.17582599818706512, 0.14854100346565247, -0.04701915383338928], [-0.20889262855052948, 0.025369977578520775, 0.11570480465888977, 0.09589576721191406, -0.2640686631202698], [-0.33227095007896423, 0.02815074287354946, -0.003081635804846883, 0.07489145547151566, 0.02887106128036976], [-0.33618366718292236, -0.19254331290721893, -0.5712596774101257, 0.12261507660150528, 0.5122050046920776], [-0.08783695846796036, -0.32434865832328796, 0.2562071979045868, 0.4854084849357605, -0.30682775378227234]], "b": [-0.7621235847473145, 0.18605810403823853, -0.44478723406791687, -0.338666707277298, 0.11291555315256119, -0.4759426414966583, -0.13288697600364685, -0.5894787311553955, 0.26784083247184753, -0.15023434162139893, 0.5756484866142273, -0.9494121670722961, 0.5546430945396423, -0.5818431377410889, -1.1233394145965576, 0.2656136155128479, -0.8647347092628479, 0.40500330924987793, 0.13784706592559814, -0.8221228122711182, 0.41341206431388855, 0.7089859843254089, -0.4584905803203583, -0.04347705468535423, -0.49902865290641785, -0.09685174375772476, -0.8085393309593201, 0.14546950161457062, 0.5360627174377441, 0.5829675793647766, -0.009774976409971714, 0.35537946224212646]}, {"w": [[-0.32356804609298706, -0.1571209877729416, 0.1576627492904663, -0.15278804302215576, 0.21013274788856506, -0.11514881998300552, 0.16409863531589508, -0.05934056639671326, 0.19269585609436035, 0.006656279321759939, -0.0896267518401146, -0.26437121629714966, -0.17979992926120758, -0.5859951376914978, -0.28417396545410156, 0.16746093332767487, 0.06396666169166565, 0.292246550321579, -0.12507176399230957, -0.13669951260089874, -0.15326038002967834, 0.09096062183380127, -0.010269478894770145, -0.1913662850856781, 0.16242395341396332, -0.12018652260303497, -0.16018205881118774, 0.0652552992105484, 0.0070000761188566685, -0.09749501198530197, -0.23908045887947083, 0.10722090303897858], [-0.009222475811839104, -0.2457788586616516, -0.11343760788440704, 0.022479014471173286, -0.25136229395866394, -0.20923522114753723, -0.2656896114349365, -0.09533540159463882, 0.00276727182790637, 0.2673657536506653, 0.2956964075565338, -0.22136913239955902, 0.39189356565475464, -0.20515958964824677, -0.007864980027079582, -0.2666582763195038, -0.16586214303970337, -0.06193029135465622, 0.010522807016968727, 0.12959377467632294, 0.033433977514505386, 0.29663220047950745, -0.04123781621456146, -0.0631207674741745, -0.15193864703178406, 0.23038537800312042, 0.24466973543167114, -0.026010407134890556, 0.14057108759880066, 0.2749580442905426, 0.11241968721151352, 0.21219441294670105], [0.10126187652349472, 0.17759661376476288, -0.18177570402622223, -0.045519519597291946, -0.16237176954746246, 0.009914636611938477, -0.10270313173532486, -0.24674150347709656, 0.031817395240068436, 0.01379904244095087, 0.08667988330125809, -0.2914811968803406, -0.00931539200246334, -0.07257162779569626, -0.24611994624137878, -0.1688547283411026, -0.12049227207899094, 0.15242409706115723, -0.07598762959241867, 0.019139187410473824, -0.056326255202293396, 0.03543933480978012, 0.02928105555474758, 0.21616151928901672, -0.003657111432403326, 0.20478256046772003, -0.0021113413386046886, -0.06615989655256271, -0.08394702523946762, 0.07535624504089355, -0.09702559560537338, -0.25579798221588135], [0.16217227280139923, -0.13753151893615723, 0.05870101973414421, -0.010580726899206638, -0.0925036147236824, 0.10858002305030823, 0.08621995896100998, 0.20985643565654755, -0.0657050758600235, 0.18535363674163818, -0.14406631886959076, 0.2945356070995331, -0.0314885675907135, 0.23407332599163055, 0.022992249578237534, 0.2476344257593155, 0.032905492931604385, -0.12349016964435577, -0.10642127692699432, -0.26408571004867554, -0.04210513457655907, -0.2365756779909134, 0.18348358571529388, -0.23483455181121826, -0.07470756769180298, 0.025719454512000084, 0.01565171219408512, 0.1712689995765686, -0.20884281396865845, 0.08267764747142792, 0.11602383106946945, -0.052808117121458054], [-0.11010736227035522, -0.011902522295713425, 0.16649189591407776, -0.2254934012889862, -0.0007954087341204286, -0.09867214411497116, 0.057742245495319366, 0.11021199822425842, 0.10299630463123322, -0.18435636162757874, 0.0002889626775868237, 0.11640960723161697, -0.24058674275875092, -0.3047977685928345, -0.10631269216537476, 0.17323677241802216, -0.051517508924007416, 0.034948721528053284, -0.0777021273970604, -0.29132312536239624, 0.11698385328054428, 0.01801624335348606, 0.053585175424814224, -0.17619657516479492, -0.08454342931509018, -0.06140301376581192, -0.02178519032895565, 0.15103314816951752, -0.17392586171627045, 0.04065050557255745, -0.1555289924144745, -0.05308622866868973], [-0.35023757815361023, -0.02144666574895382, -0.02788890153169632, -0.16142946481704712, 0.09794025868177414, 0.27372169494628906, 0.07273304462432861, 0.2333349585533142, 0.27065059542655945, -0.05812260881066322, -0.19290561974048615, 0.06752236932516098, -0.09035713970661163, -0.19149962067604065, -0.24909454584121704, 0.254342645406723, 0.008338801562786102, -0.10218587517738342, -0.009298441000282764, -0.13378307223320007, 0.07438010722398758, -0.1604001373052597, 0.12874175608158112, -0.19574014842510223, -0.06442639976739883, 0.024433862417936325, 0.04036419838666916, 0.2122647613286972, -0.12494294345378876, -0.19734834134578705, -0.09178931266069412, 0.03375941514968872], [-0.04561179503798485, 0.09257029742002487, -0.09524861723184586, 0.1055433601140976, 0.024023184552788734, -0.10430504381656647, -0.08292055130004883, -0.2409440129995346, -0.11611165851354599, -0.04821310564875603, 0.2239525318145752, -0.23002171516418457, 0.14139607548713684, -0.08251079171895981, -0.20885275304317474, -0.0024355719797313213, -0.09815461188554764, 0.08597107976675034, 0.1705516129732132, -0.036948420107364655, 0.130642369389534, 0.30840402841567993, -0.2581039369106293, 0.09362459182739258, -0.09703531116247177, 0.1567065417766571, 0.17162081599235535, -0.0940474197268486, -0.03700929880142212, 0.22923509776592255, 0.05727488175034523, -0.11264847218990326], [-0.399899959564209, -0.15631961822509766, 0.16588853299617767, -0.05547775700688362, 0.003272222587838769, -0.011111875995993614, 0.12655344605445862, 0.18577440083026886, 0.18302862346172333, -0.159669890999794, 0.07612746953964233, 0.22705085575580597, -0.24400103092193604, 0.02653634361922741, -0.18053579330444336, 0.016662897542119026, 0.12018902599811554, 0.09539119154214859, 0.06504319608211517, -0.17231924831867218, 0.06654621660709381, -0.17031653225421906, -0.17051295936107635, -0.12926951050758362, 0.1452988237142563, -0.1634688675403595, -0.27952340245246887, -0.04359705373644829, -0.04068312421441078, 0.06361085921525955, -0.0879417210817337, -0.19255509972572327], [-0.0502411387860775, 0.1817498803138733, 0.007253678049892187, -0.049024224281311035, 0.18775904178619385, 0.09722314774990082, 0.17184239625930786, 0.2203230857849121, -0.03054508939385414, -0.07401794195175171, -0.18174953758716583, 0.33014294505119324, -0.25074076652526855, 0.3030257523059845, 0.2320358157157898, 0.13384944200515747, -0.093010313808918, 0.018780037760734558, -0.13014976680278778, -0.04935145378112793, 0.05802907049655914, 0.01931942068040371, 0.09696268290281296, -0.19965212047100067, -0.07694422453641891, -0.0019341566367074847, -0.13110250234603882, 0.09221452474594116, 0.0950535461306572, -0.00822856742888689, -0.1530146449804306, -0.02941960282623768], [0.5559337735176086, -0.19019779562950134, 0.41672420501708984, 0.02050829865038395, 0.03740460425615311, 0.31868213415145874, 0.28743776679039, 0.3612753450870514, -0.09361433982849121, -0.01054103672504425, -0.403850793838501, 1.0782729387283325, -0.760408878326416, 0.6829602718353271, 0.6761784553527832, 0.39894986152648926, 0.6563188433647156, -0.5954791903495789, -0.3125411570072174, -0.21007505059242249, -0.2602235972881317, -0.5796998739242554, 0.3108198046684265, -0.09989923983812332, 0.40541669726371765, 0.17951810359954834, 0.021388687193393707, -0.29044005274772644, -0.6475735902786255, -0.43027111887931824, -0.09282362461090088, -0.4830954670906067], [0.6697694063186646, -0.10274097323417664, 0.03354240208864212, 0.2017941027879715, -0.2532888948917389, -0.03951963782310486, -0.1789504736661911, -0.1888357251882553, -0.2905847132205963, 0.2621768116950989, 0.12910158932209015, 0.14764265716075897, 0.024451036006212234, 0.6093729734420776, 0.36205366253852844, -0.1665946990251541, 0.12173737585544586, -0.0025061778724193573, 0.10974553972482681, 0.37172195315361023, 0.01223982498049736, -0.0827917754650116, 0.27281898260116577, 0.242275670170784, 0.022670648992061615, -0.029450248926877975, 0.3201395869255066, -0.10407423973083496, -0.08004936575889587, -0.06802652031183243, 0.008673048578202724, 0.12965330481529236], [0.2775333523750305, -0.09355930238962173, 0.009421352297067642, 0.20264308154582977, -0.023019591346383095, -0.08674365282058716, 0.05543423816561699, -0.1692201793193817, -0.1895519644021988, 0.169667586684227, 0.021638987585902214, 0.03293352574110031, 0.06886064261198044, 0.03190803527832031, -0.045141976326704025, -0.28276652097702026, -0.0903262123465538, 0.12782539427280426, -0.03850181773304939, 0.12341469526290894, 0.12264384329319, 0.10791826993227005, -0.06838907301425934, 0.1187783032655716, -0.10894976556301117, 0.12566713988780975, 0.21290014684200287, -0.12402255088090897, -0.008142746984958649, 0.2155081331729889, -0.062256667762994766, 0.06053340062499046], [0.09770072251558304, 0.13755835592746735, -0.06650004535913467, 0.03892701864242554, -0.04343316704034805, -0.06474203616380692, -0.022246213629841805, 0.09228932857513428, 0.02056674286723137, -0.17175711691379547, -0.21234770119190216, 0.042331449687480927, 0.07651884853839874, 0.27892005443573, 0.01731381192803383, -0.017926538363099098, -0.08314545452594757, 0.07118725031614304, -0.10371410101652145, -0.012680410407483578, 0.14581306278705597, -0.1771669089794159, 0.09324564039707184, -0.0002115082897944376, -0.0716298371553421, -0.043700020760297775, -0.164601132273674, 0.11399228125810623, -0.05254289135336876, -0.03635824844241142, 0.14459967613220215, -0.0731738731265068], [-0.22402413189411163, 0.06014862284064293, 0.20134298503398895, -0.03485209122300148, 0.25006863474845886, 0.24763241410255432, 0.01770738512277603, 0.07256266474723816, 0.16010954976081848, -0.1894986927509308, -0.24528300762176514, -0.06032020226120949, -0.270732045173645, -0.09658961743116379, -0.005414074286818504, -0.018158702179789543, 0.07405175268650055, 0.23668064177036285, -0.18321047723293304, -0.24383798241615295, 0.026771320030093193, -0.23733873665332794, -0.16364628076553345, 0.015176541171967983, -0.004433323163539171, 0.0031772630754858255, -0.14006555080413818, 0.13824664056301117, -0.14743736386299133, 0.04007162153720856, -0.1907825618982315, -0.1522790491580963], [-1.091755986213684, -0.013844258151948452, -0.12385006248950958, -0.3497372269630432, 0.6079046130180359, -0.6656434535980225, 0.19300583004951477, 0.14610178768634796, 0.35006213188171387, -0.3949246108531952, -0.15232931077480316, -1.014452576637268, 0.22325603663921356, -1.3616974353790283, -1.2232168912887573, 0.5129732489585876, -0.6080086827278137, 0.30889397859573364, -0.04719828814268112, -0.7852594256401062, 0.006058952305465937, 0.18138861656188965, -0.28577131032943726, -0.490650475025177, -0.13414576649665833, -0.3327856957912445, -0.8116167783737183, 0.2207646369934082, 0.06793264299631119, -0.04180525243282318, -0.03605441004037857, 0.31806737184524536], [-0.0024110551457852125, -0.03773031756281853, 0.09497534483671188, 0.07316020131111145, 0.03958599269390106, 0.07673557847738266, 0.16831524670124054, 0.19488808512687683, 0.14495763182640076, 0.1372811198234558, -0.06932935118675232, 0.27419453859329224, -0.31325340270996094, 0.3301391005516052, 0.10063174366950989, 0.19912895560264587, -0.046150531619787216, -0.181020587682724, 0.03136971592903137, -0.050213806331157684, 0.14940394461154938, -0.021062428131699562, 0.1545100212097168, -0.014535763300955296, 0.20608218014240265, -0.07431838661432266, -0.15066450834274292, 0.09205591678619385, -0.054639991372823715, -0.0744965672492981, -0.1558288335800171, 0.03929003328084946], [-0.5062621235847473, 0.04090399667620659, -0.12669816613197327, -0.17016035318374634, -0.21071289479732513, -0.6333054304122925, -0.06838611513376236, -0.22802497446537018, -0.08798075467348099, -0.004062020685523748, 0.4336225688457489, -0.9203249216079712, 0.7024735808372498, -0.6839560270309448, -0.9196006655693054, -0.08695150911808014, -0.5475137233734131, 0.43712517619132996, 0.3239538371562958, 0.34287112951278687, 0.2793009877204895, 0.43585431575775146, -0.09569792449474335, 0.09613758325576782, -0.4629782438278198, -0.11782319098711014, 0.29184672236442566, 0.5037574172019958, 0.3227955996990204, 0.34768667817115784, 0.39682334661483765, 0.3253793716430664], [0.03303079679608345, 0.20778217911720276, -0.21156610548496246, 0.07163359224796295, -0.1603853553533554, 0.2724878191947937, 0.025237971916794777, -0.08343023806810379, -0.19314512610435486, 0.07702247053384781, -0.05396062880754471, 0.13983726501464844, 0.15548759698867798, 0.14921899139881134, 0.1757492870092392, -0.31572920083999634, -0.18705636262893677, -0.26266732811927795, 0.20149864256381989, 0.31042617559432983, 0.15095721185207367, 0.018658088520169258, -0.08349902927875519, -0.007766135968267918, 0.1490645408630371, -0.1254386603832245, -0.06002040207386017, 0.07956143468618393, 0.0699537843465805, -0.0018375897780060768, -0.1191401556134224, -0.1526227742433548], [-0.0466492585837841, -0.20488311350345612, 0.043952103704214096, 0.07072942703962326, -0.05987459048628807, 0.4872238039970398, 0.023712366819381714, 0.20800910890102386, 0.021663574501872063, 0.15710796415805817, -0.15696892142295837, 0.1110890656709671, -0.2646360993385315, 0.19172245264053345, 0.048286646604537964, 0.2365107387304306, 0.09815675765275955, -0.1710590273141861, -0.11509241908788681, -0.1496834009885788, -0.10919308662414551, -0.2124669849872589, 0.005789753049612045, -0.08404893428087234, 0.1806303858757019, -0.05937674641609192, 0.018308095633983612, 0.038438938558101654, 0.08382924646139145, -0.032681893557310104, -0.25546950101852417, 0.16191403567790985], [-0.17149360477924347, 0.20881029963493347, -0.3700834810733795, -0.008839312009513378, -0.24557873606681824, -0.07655754685401917, -0.201782688498497, -0.29391932487487793, -0.18259061872959137, 0.05587674304842949, 0.2899594008922577, -0.3906669318675995, 0.8776310086250305, -0.3118201196193695, -0.2520977556705475, -0.415210485458374, -0.20472833514213562, 0.19475789368152618, 0.1340831071138382, 0.2815667688846588, 0.19729337096214294, 0.2952924370765686, -0.08568926155567169, 0.20803602039813995, -0.2100016474723816, -0.05752848833799362, 0.3496340811252594, 0.019339878112077713, 0.4994741678237915, 0.05730730667710304, 0.2481035739183426, 0.5057023167610168], [0.21697476506233215, -0.12449371814727783, 0.000157138827489689, 0.03279631957411766, -0.20849475264549255, -0.15131574869155884, -0.061907894909381866, -0.24544279277324677, -0.07776579260826111, 0.13136930763721466, 0.17590472102165222, 0.07810426503419876, 0.018338412046432495, 0.23831723630428314, 0.12288929522037506, -0.12717343866825104, -0.1905220001935959, 0.008507869206368923, 0.22504417598247528, -0.012973509728908539, 0.03243114426732063, 0.19527973234653473, 0.00591879989951849, 0.21363484859466553, -0.045677732676267624, -0.018603403121232986, -0.033433303236961365, -0.1450471580028534, 0.019730526953935623, 0.17701897025108337, 0.10167510062456131, 0.015930209308862686], [-0.2616225481033325, -0.030829215422272682, 0.014620963484048843, -0.08319130539894104, 0.16793665289878845, -0.29397520422935486, 0.1254790723323822, 0.1659597009420395, 0.17672689259052277, -0.17914287745952606, -0.1833585798740387, -0.3719775676727295, 0.09267269819974899, -0.25077101588249207, -0.4802911579608917, 0.27180930972099304, 0.018169203773140907, 0.22748006880283356, -0.16549117863178253, -0.16778692603111267, -0.04597846791148186, 0.0424901619553566, -0.22944797575473785, -0.1669214367866516, -0.056156549602746964, -0.0036508904304355383, -0.20059816539287567, 0.026054710149765015, 0.00651953462511301, -0.23784027993679047, 0.30298757553100586, -0.09079115837812424], [0.047486312687397, 0.12210021167993546, 0.040831197053194046, -0.04782121255993843, 0.21926653385162354, 0.2520805597305298, 0.0365203320980072, 0.005124403163790703, -0.06945567578077316, 0.08286499232053757, -0.1513403356075287, 0.23243872821331024, -0.09800417721271515, 0.17852158844470978, 0.07062572240829468, 0.2008393108844757, -0.029019799083471298, -0.05821743234992027, -0.12607240676879883, -0.2882808446884155, -0.20125354826450348, -0.007132348604500294, 0.19089318811893463, -0.11579443514347076, -0.08540600538253784, 0.06614237278699875, 0.07207399606704712, 0.17251017689704895, -0.15129408240318298, -0.22100786864757538, 0.0634666457772255, 0.10066775232553482], [0.41377386450767517, 0.028111258521676064, -0.008051127195358276, 0.013753365725278854, -0.2643280327320099, 0.13475123047828674, 0.04547792673110962, -0.23116156458854675, -0.03898642584681511, -0.024508880451321602, -0.013432431034743786, -0.10527878999710083, 0.29951176047325134, 0.11455456167459488, 0.200770303606987, 0.03379864990711212, -0.10299356281757355, 0.08990036696195602, 0.15694499015808105, 0.091824471950531, 0.15553782880306244, 0.09113925695419312, 0.02504248544573784, 0.23424853384494781, 0.1103270873427391, 0.2221394181251526, 0.13009992241859436, -0.22918352484703064, 0.23322199285030365, 0.1823958456516266, 0.21521025896072388, -0.07386187463998795], [0.361659437417984, 0.10219040513038635, 0.10227368772029877, -0.06077225133776665, -0.14317145943641663, 0.3729647994041443, 0.12761913239955902, -0.08066467940807343, 0.26779618859291077, 0.23916564881801605, 0.05323978513479233, 0.7869555354118347, -0.34274405241012573, 0.4238087832927704, 0.7595443725585938, -0.31424805521965027, 0.48155829310417175, -0.371844619512558, 0.0039582024328410625, 0.381408154964447, 0.0033839393872767687, -0.09651121497154236, 0.05420539155602455, 0.04827825725078583, 0.16612552106380463, -0.05991588160395622, 0.4638878107070923, 0.2722882628440857, -0.27665257453918457, 0.018679697066545486, -0.1048392578959465, 0.01203442458063364], [-0.1819867193698883, 0.018109863623976707, 0.015247671864926815, -0.12371595203876495, -0.14761939644813538, -0.12354726344347, -0.10387341678142548, 0.09421578794717789, 0.09806568175554276, 0.09834400564432144, -0.02125018648803234, -0.17938116192817688, 0.09360743314027786, -0.2651918828487396, -0.29749375581741333, -0.16385024785995483, -0.22816228866577148, 0.08645494282245636, 0.04477982968091965, 0.022335145622491837, -0.13849547505378723, 0.027975089848041534, -0.25599205493927, 0.15044666826725006, -0.22703087329864502, -0.07245302945375443, 0.27742907404899597, -0.18875452876091003, -0.10636264085769653, -0.075274758040905, -0.11849378049373627, 0.0942588523030281], [-0.15158013999462128, -0.3733448088169098, 0.20370133221149445, 0.16856999695301056, 0.15266402065753937, 0.027550024911761284, 0.10761403292417526, 0.18415074050426483, 0.22913414239883423, 0.2416030615568161, -0.20878370106220245, -0.06869889795780182, -0.3016396760940552, 0.13444393873214722, 0.12149450182914734, -0.04622016102075577, 0.10531008243560791, 0.052437879145145416, 0.01608774997293949, -0.27434036135673523, -0.015569491311907768, -0.2537902295589447, -0.19863106310367584, -0.22773334383964539, -0.11216876655817032, 0.13896626234054565, -0.13586941361427307, -0.08876898139715195, -0.14852957427501678, -0.2373744398355484, -0.14228172600269318, 0.011043539270758629], [-0.2603534460067749, 0.21809978783130646, 0.17850437760353088, -0.04121752083301544, -0.0759056881070137, 0.1886126548051834, 0.23726259171962738, 0.053353555500507355, -0.021165629848837852, -0.23491160571575165, -0.08381703495979309, 0.13231724500656128, -0.17826692759990692, -0.31183359026908875, 0.30552124977111816, -0.15995433926582336, -0.002171596512198448, 0.09937062114477158, 0.07156810164451599, 0.29326552152633667, -0.06949993968009949, -0.13592490553855896, -0.1262984275817871, 0.0018835978116840124, 0.2512426972389221, -0.13262587785720825, 0.020281264558434486, 0.04841267690062523, -0.25775861740112305, -0.19684982299804688, 0.062243442982435226, -0.4193580150604248], [0.01726766861975193, 0.007701356429606676, 0.17907889187335968, -0.0615360401570797, -0.018088582903146744, 0.19273242354393005, -0.08692747354507446, 0.07440114766359329, -0.0509880855679512, -0.24645942449569702, 0.08707139641046524, 0.25152871012687683, -0.06646686047315598, 0.15372130274772644, 0.01798568293452263, 0.013447245582938194, -0.0010181412799283862, -0.0895257294178009, -0.10863741487264633, -0.0019023014465346932, -0.17454837262630463, -0.0785779356956482, 0.13436387479305267, -0.18047115206718445, 0.16716299951076508, -0.13724838197231293, -0.03300667554140091, 0.21946388483047485, -0.019756900146603584, -0.19672054052352905, -0.23622892796993256, 0.16113705933094025], [-0.13141272962093353, -0.10937056690454483, -0.3307636082172394, -0.05517071112990379, 0.06047457084059715, -0.5430518984794617, -0.2122957855463028, -0.19128359854221344, -0.07098885625600815, 0.009380578063428402, 0.2271532267332077, -0.362223744392395, 0.31765738129615784, -0.8476993441581726, -0.6264637112617493, -0.19826065003871918, -0.2527414858341217, 0.22008824348449707, 0.08744975179433823, 0.399808794260025, 0.20725680887699127, 0.22733372449874878, -0.16829979419708252, -0.030161088332533836, -0.014334509149193764, -0.006274658255279064, 0.26624223589897156, 0.23779135942459106, 0.251819908618927, 0.09989091753959656, 0.38391146063804626, 0.2248125821352005], [0.060175832360982895, -0.047436244785785675, 0.10010883957147598, -0.048584967851638794, 0.15948718786239624, 0.26392805576324463, 0.11520940810441971, 0.24056029319763184, 0.07007933408021927, -0.21857088804244995, -0.1671101599931717, 0.1852816492319107, -0.30527549982070923, 0.028301594778895378, 0.25278037786483765, 0.020832933485507965, 0.021936466917395592, -0.09827570617198944, -0.022987324744462967, -0.1314779818058014, 0.05911676585674286, -0.18948283791542053, 0.06930531561374664, 0.09390358626842499, 0.26046425104141235, -0.1916166990995407, -0.183599591255188, -0.14401432871818542, -0.21398265659809113, -0.24221289157867432, 0.03171326220035553, 0.05156290531158447], [0.5959094762802124, -0.12383824586868286, -0.1480870544910431, 0.1932365745306015, -0.032955653965473175, 0.09019863605499268, -0.09762153029441833, -0.027809912338852882, 0.01006134320050478, 0.25604522228240967, 0.24584384262561798, 0.27321040630340576, -0.03056122176349163, 0.4380238950252533, 0.3627867102622986, -0.18251486122608185, 0.09743767976760864, -0.11293740570545197, 0.1166437491774559, 0.2027067095041275, -0.07911068946123123, -0.057591043412685394, 0.3076465129852295, 0.30326125025749207, -0.020212959498167038, -0.013023165054619312, 0.3451097309589386, -0.05963138863444328, 0.11830528825521469, -0.0576908215880394, 0.14998607337474823, -0.09724699705839157]], "b": [0.44740742444992065, 0.2471904158592224, 0.1619114875793457, -0.16471438109874725, 0.1710486114025116, 0.03199855983257294, 0.42355430126190186, 0.20430399477481842, -0.09827665984630585, -0.7278357148170471, -0.3895623981952667, -0.008411401882767677, -0.10114692896604538, 0.10310977697372437, 0.808343768119812, -0.20731434226036072, 0.7434520125389099, -0.1352969855070114, -0.06867194175720215, 0.4527280330657959, -0.11191244423389435, 0.286018043756485, -0.10108832269906998, -0.20284731686115265, -0.41975170373916626, 0.15802624821662903, 0.011788579635322094, -0.11106281727552414, 0.07575680315494537, 0.4549761414527893, -0.016342265531420708, -0.24640469253063202]}, {"w": [[0.15555182099342346, -0.1382676064968109, -0.12668676674365997, 0.1644892394542694, 0.15169139206409454, 0.11807228624820709, -0.23517145216464996, 0.11182350665330887, 0.2436068207025528, 0.15638045966625214, -0.2605404853820801, -0.07111633569002151, 0.05403868854045868, 0.16649110615253448, 0.382407546043396, 0.0988238975405693, -0.20447418093681335, -0.22720885276794434, 0.1728295236825943, -0.13008354604244232, -0.2152610421180725, 0.12491302937269211, 0.17351371049880981, -0.22777414321899414, -0.1520320475101471, -0.20449256896972656, 0.1302693784236908, -0.14214573800563812, 0.03270585462450981, -0.14386306703090668, 0.24839910864830017, -0.3046535551548004]], "b": [-0.062083031982183456]}], "train": {"venue": "lake_perp_mid", "events": 3447, "cap_ts": 0, "target": "market", "w_out": 0.0, "skip_last_s": 60.0}}