{"type": "px2cb_mom", "arch": {"hidden": 32, "mode": "direct", "act": "tanh"}, "features": "u_in=[zp_perp, zp_cb, log tau] + z(pmom); SEQ outcome-FT (frozen db/dr/rho)", "rho_bar": 4.994845867156982, "rho_cb": 4.898101806640625, "b_prior": "strike", "b_scale": 50.0, "extras": ["pmom60", "pmom120"], "mu": [-3.4432785044988068e-06, -1.0667355176290796e-05], "sd": [0.000714025034674977, 0.0010192518501577566], "layers": [{"w": [[-0.10238340497016907, -0.36413928866386414, -0.05066564679145813, 0.13119396567344666, -0.18200351297855377], [-0.1129390224814415, -0.3355972170829773, 0.06753368675708771, -0.34830987453460693, 0.2206227034330368], [0.3560197949409485, 0.19546234607696533, -0.16030347347259521, -0.22129333019256592, -0.09290425479412079], [-0.15502668917179108, 0.220261812210083, -0.5276466012001038, 0.2828085124492645, -0.027902064844965935], [0.36569416522979736, -0.023707395419478416, 0.23187993466854095, 0.14044243097305298, -0.07265280932188034], [0.13293544948101044, 0.38938260078430176, -0.11587952077388763, 0.19771093130111694, -0.40299496054649353], [0.2778373658657074, 0.2008247822523117, -0.06854203343391418, 0.019803227856755257, 0.06061660870909691], [0.4445134401321411, -0.00033291254658252, -0.09632249176502228, -0.07657229900360107, -0.2624927759170532], [0.43889904022216797, -0.0662766695022583, -0.1385892629623413, 0.5692926049232483, 0.18165718019008636], [-0.05088171735405922, -0.15691620111465454, -0.09108574688434601, 0.20554830133914948, -0.4296810030937195], [-0.3867931067943573, 0.2583770751953125, 0.539089560508728, -0.1187078207731247, -0.39080020785331726], [-0.14931795001029968, -0.3284911513328552, -0.15592855215072632, -0.013568191789090633, -0.00765378400683403], [-0.11816848814487457, -0.048460084944963455, 0.1665089875459671, -0.3050816059112549, -0.1441413015127182], [-0.09305272996425629, -0.3367268741130829, -0.02020203322172165, 0.08344857394695282, 0.14120303094387054], [-0.03339185565710068, -0.2557384669780731, -0.04961249604821205, -0.5024335384368896, -0.3251858949661255], [0.42308494448661804, 0.15332958102226257, -0.06523437798023224, 0.02489062398672104, -0.0329180508852005], [0.23097461462020874, -0.4356791377067566, -0.11881103366613388, -0.2690001428127289, -0.3000994324684143], [-0.1268606036901474, 0.18804843723773956, 0.23193256556987762, 0.3449389338493347, 0.6390871405601501], [-0.2692825198173523, -0.32704421877861023, 0.15054316818714142, 0.04186401143670082, -0.21801349520683289], [-0.22428780794143677, -0.37372466921806335, -0.0460786297917366, 0.5039190649986267, 0.5514904856681824], [-0.3171379268169403, -0.5218643546104431, -0.23578199744224548, 0.052787017077207565, 0.007677124813199043], [-0.08027615398168564, 0.4008633494377136, 0.07242786884307861, -0.16358929872512817, 0.20535053312778473], [0.0011078623356297612, 0.39821657538414, -0.13379232585430145, 0.044158436357975006, 0.04319199174642563], [-0.3326455354690552, -0.2543932795524597, 0.030706360936164856, -0.07597370445728302, 0.07177112996578217], [0.03753150999546051, -0.2512393593788147, 0.1325846016407013, -0.2425214648246765, 0.05589708685874939], [-0.1769370585680008, -0.40587106347084045, -0.27437102794647217, 0.3643367290496826, 0.14813217520713806], [-0.2814772427082062, -0.2109134942293167, -0.4372173547744751, 0.032034166157245636, 0.28757444024086], [0.20135624706745148, -0.2506454885005951, 0.4341557025909424, 0.3793977200984955, -0.0826529935002327], [-0.08064352720975876, 0.12358015775680542, 0.2715519964694977, 0.1887229084968567, -0.5308827757835388], [-0.32747456431388855, -0.10192994028329849, 0.055764324963092804, 0.48558399081230164, 0.029843004420399666], [-0.2593137323856354, -0.4592290222644806, -0.016261370852589607, 0.5383917689323425, 0.6086137294769287], [-0.1427982896566391, -0.6005122065544128, 0.10122015327215195, 0.32080745697021484, -0.17105957865715027]], "b": [-0.41697224974632263, 0.3199692666530609, -0.9513588547706604, -1.1610652208328247, 0.6380641460418701, -0.35174936056137085, -0.35753458738327026, -0.6699938178062439, 0.6618844270706177, -0.12703187763690948, 0.44347336888313293, -0.8186206817626953, 0.5850356221199036, -0.16817225515842438, -0.2370811104774475, 0.015473092906177044, -0.8428757190704346, 0.27638041973114014, 0.8576318025588989, -0.07350987941026688, 0.5024638772010803, 0.6665478944778442, -0.10125367343425751, 0.008106141351163387, 0.09907116740942001, -0.447031170129776, -0.9476372599601746, 0.48224225640296936, 0.4241536855697632, 0.4828241169452667, 0.04971234127879143, 0.6939517855644226]}, {"w": [[0.10716447234153748, -0.23025082051753998, 0.06780488789081573, -0.4776614308357239, 0.20954766869544983, 0.007206582464277744, 0.07849432528018951, -0.14508597552776337, 0.21857333183288574, 0.16929641366004944, 0.12952156364917755, -0.32221898436546326, -0.05279150232672691, -0.08518004417419434, -0.1336420774459839, 0.0821908563375473, -0.27808064222335815, 0.21925058960914612, -0.04774655029177666, 0.017206931486725807, -0.0815340057015419, 0.2778482735157013, 0.10537094622850418, -0.07062988728284836, 0.05136002227663994, 0.0017533106729388237, -0.10760103911161423, 0.10445938259363174, 0.28100812435150146, -0.00684700021520257, -0.1485699862241745, -0.022700782865285873], [0.11358325928449631, -0.03595985099673271, -0.06413868814706802, -0.3271205723285675, -0.17723309993743896, -0.181161031126976, -0.19546028971672058, -0.02482771687209606, 0.1489698886871338, 0.20548301935195923, 0.27723249793052673, 0.16041144728660583, 0.2394571155309677, 0.029293451458215714, 0.2267543375492096, -0.1167246550321579, 0.019701888784766197, -0.08509737998247147, -0.043185923248529434, -0.10000529885292053, 0.01001722738146782, 0.04776229336857796, -0.18381460011005402, -0.11717747151851654, 0.06952939182519913, 0.2291485071182251, 0.09754916280508041, 0.14947494864463806, 0.009406392462551594, 0.20574329793453217, -0.14508920907974243, 0.21373945474624634], [0.1298164278268814, 0.19551777839660645, -0.19572016596794128, -0.16701456904411316, -0.13829125463962555, 0.080203115940094, -0.09106273204088211, -0.2486352175474167, 0.07362261414527893, 0.09706050157546997, 0.0728636085987091, -0.012285689823329449, -0.0605432502925396, 0.244771808385849, -0.042928677052259445, -0.09923567622900009, 0.07554095983505249, 0.04651236534118652, -0.0744103491306305, -0.04744482785463333, -0.024561496451497078, -0.18636782467365265, 0.01299932412803173, 0.1731152981519699, 0.18776284158229828, 0.22834180295467377, -0.03279472887516022, 0.05549837648868561, -0.11764301359653473, 0.0658397302031517, -0.09438120573759079, -0.06847720593214035], [0.050736431032419205, -0.17210698127746582, 0.08363117277622223, 0.18904805183410645, -0.11539783328771591, 0.07963767647743225, 0.09935330599546432, 0.2083071768283844, -0.3042811155319214, 0.14971747994422913, -0.21998988091945648, 0.0494694784283638, -0.0032375454902648926, -0.03514436259865761, -0.10382796078920364, 0.18391725420951843, -0.0176486074924469, -0.05061931908130646, -0.15386876463890076, -0.17872591316699982, -0.10223577916622162, -0.10969826579093933, 0.2069764882326126, -0.22975531220436096, -0.2211426943540573, -0.027106009423732758, 0.05898050591349602, 0.05272553488612175, -0.24945594370365143, 0.0887799859046936, 0.06063617020845413, -0.23532037436962128], [0.011432196013629436, -0.09230560809373856, 0.10384093225002289, -0.4693931043148041, 0.001314238179475069, -0.0745898112654686, 0.009042860008776188, 0.040934786200523376, 0.1335718184709549, -0.14100955426692963, 0.1202973872423172, -0.03968752548098564, -0.11396972090005875, -0.21492376923561096, -0.13198132812976837, 0.11287164688110352, -0.3123387098312378, 0.052319977432489395, -0.025587091222405434, -0.16256147623062134, 0.14547830820083618, 0.2196855992078781, 0.17613519728183746, -0.11856625974178314, -0.15502424538135529, -0.03539526090025902, 0.006289132870733738, 0.12831257283687592, 0.026100866496562958, 0.08706647157669067, -0.11399612575769424, -0.07880154252052307], [-0.13877739012241364, 0.007767342496663332, -0.09303264319896698, -0.3615763783454895, 0.0660284087061882, 0.1970999836921692, 0.022311542183160782, 0.16145338118076324, 0.14962027966976166, -0.07279736548662186, -0.04458816722035408, -0.14182591438293457, 0.010468817315995693, -0.13434681296348572, -0.28791654109954834, 0.1784866601228714, -0.29870539903640747, 0.008235289715230465, 0.026573896408081055, 0.035928353667259216, 0.07195410877466202, 0.08103197813034058, 0.19757400453090668, -0.11248672753572464, -0.18207281827926636, 0.08628200739622116, 0.06906615197658539, 0.15177659690380096, 0.06238691881299019, -0.13242214918136597, -0.011111464351415634, 0.00816390197724104], [0.09804665297269821, 0.16409485042095184, -0.10416538268327713, -0.10497717559337616, 0.03904886171221733, 0.004185935948044062, -0.08305196464061737, -0.22325073182582855, -0.04793219268321991, -0.04060648754239082, 0.2083207070827484, 0.08370856195688248, 0.0853908509016037, 0.011405514553189278, 0.064619280397892, 0.06089957058429718, 0.056308310478925705, 0.040716107934713364, 0.18241512775421143, -0.10858656466007233, 0.13910841941833496, 0.08227935433387756, -0.18746879696846008, 0.08977273851633072, 0.11507735401391983, 0.17309530079364777, 0.11432357877492905, -0.016973134130239487, -0.0999046266078949, 0.21770158410072327, -0.009173786267638206, -0.04442038759589195], [-0.22703438997268677, -0.21137098968029022, 0.11902017891407013, -0.1703607589006424, -0.017545780166983604, 0.012077522464096546, 0.08687617629766464, 0.1191067025065422, 0.12830640375614166, -0.1524888575077057, 0.18745850026607513, 0.04930049926042557, -0.15861086547374725, 0.11744341254234314, -0.24555495381355286, -0.05658121779561043, -0.11815515160560608, 0.1364964097738266, 0.09414010494947433, 7.931794243631884e-05, 0.06909331679344177, 0.020892033353447914, -0.06073324754834175, -0.06703449040651321, 0.03274748474359512, -0.1256118267774582, -0.23143702745437622, -0.0667797103524208, 0.09065014868974686, 0.12070736289024353, -8.740974590182304e-05, -0.22739149630069733], [-0.1394565850496292, 0.04730908200144768, 0.01740892603993416, -0.006849067751318216, 0.17078596353530884, 0.11626079678535461, 0.15543952584266663, 0.2141377180814743, -0.04655568674206734, -0.005051187239587307, -0.11675310134887695, 0.10031799226999283, -0.137862890958786, 0.10701081901788712, 0.10054025053977966, 0.08080931752920151, -0.24125981330871582, 0.043894484639167786, -0.12536954879760742, 0.018948473036289215, 0.05518195405602455, 0.1770322471857071, 0.1193462535738945, -0.172671839594841, -0.19420543313026428, -0.017088156193494797, -0.09634783118963242, 0.0025203474797308445, 0.2153184860944748, -0.005207820329815149, -0.13809877634048462, -0.12739208340644836], [0.006835749838501215, -0.17458650469779968, 0.380974143743515, 0.7351173758506775, -0.11438071727752686, 0.08956225216388702, 0.3031482696533203, 0.2075440138578415, -0.4814467132091522, -0.25367647409439087, -0.27547740936279297, 0.1035575345158577, -0.8743218183517456, -0.07931124418973923, -0.22367031872272491, 0.18311598896980286, 0.33306458592414856, -0.21636363863945007, -0.4140728712081909, -0.035954419523477554, -0.3601343631744385, -0.06997933983802795, 0.2937774956226349, -0.12802952527999878, -0.2689817249774933, -0.014189733192324638, 0.14318330585956573, -0.3638540804386139, -0.3398768901824951, -0.2524736523628235, 0.019787510856986046, -0.520968496799469], [0.1474856287240982, -0.08188047260046005, 0.13708709180355072, 0.5274555683135986, -0.24899983406066895, -0.16185812652111053, -0.09232888370752335, -0.0716550424695015, -0.1739780604839325, 0.13124556839466095, -0.1277787983417511, 0.13530883193016052, -0.097374327480793, 0.10665573924779892, 0.11281459033489227, -0.0618579164147377, 0.41836076974868774, 0.056225717067718506, 0.013096306473016739, 0.15609148144721985, -0.05255165323615074, -0.24117004871368408, 0.08249678462743759, 0.12310007959604263, 0.03543821722269058, -0.1040617823600769, 0.23562870919704437, -0.06735516339540482, -0.28955626487731934, -0.13857123255729675, -0.04274991527199745, 0.17262989282608032], [0.16119498014450073, -0.0350973978638649, 0.043337784707546234, 0.5181453227996826, 0.00470765633508563, -0.07276692986488342, 0.10249211639165878, -0.1208713948726654, -0.05273762345314026, 0.113755963742733, -0.2562445104122162, 0.2638223469257355, -0.2603003978729248, 0.14779359102249146, -0.12003328651189804, -0.18781593441963196, 0.16173872351646423, 0.17223374545574188, -0.07734251022338867, 0.10696369409561157, 0.12477539479732513, -0.157936692237854, -0.20248764753341675, 0.052126191556453705, -0.06999433040618896, 0.16328944265842438, 0.2090962678194046, -0.04116032272577286, -0.2978367507457733, 0.21886956691741943, -0.00538622448220849, 0.1863945871591568], [-0.0067443507723510265, 0.00298466719686985, -0.04901530593633652, 0.05401637405157089, -0.03769201412796974, 0.14570295810699463, -0.017775386571884155, 0.0923236757516861, -0.014878914691507816, -0.18301211297512054, -0.18746617436408997, -0.14339515566825867, 0.026509694755077362, -0.10475118458271027, -0.1388869434595108, -0.043495725840330124, -0.22242066264152527, 0.06373339891433716, -0.11542906612157822, 0.04790850728750229, 0.11380399018526077, -0.046076126396656036, 0.028594663366675377, 0.00212385063059628, -0.19855862855911255, -0.08721964061260223, -0.16484923660755157, 0.09350412338972092, -0.07086343318223953, -0.030710116028785706, 0.08236327767372131, -0.21137981116771698], [-0.18388687074184418, 0.0770888477563858, 0.134245365858078, -0.3761354386806488, 0.27695125341415405, 0.21086688339710236, -0.019428126513957977, -0.012990569695830345, 0.09518788754940033, -0.17974774539470673, -0.04309751093387604, -0.23317109048366547, -0.16029000282287598, 0.04160802811384201, -0.07737311720848083, -0.08291845768690109, -0.2563874125480652, 0.296792209148407, -0.15802374482154846, -0.11078830063343048, 0.041375722736120224, 0.00838903896510601, -0.09117893874645233, 0.040443938225507736, -0.07352174818515778, 0.02310064621269703, -0.14012454450130463, 0.20309749245643616, 0.07502716034650803, 0.0976821631193161, -0.1283065527677536, -0.13696584105491638], [0.20536035299301147, 0.2236178070306778, -0.3396461009979248, -0.4545654058456421, 0.08093049377202988, -0.27315616607666016, -0.1046222597360611, -0.0588994100689888, 0.03441827371716499, 0.15365350246429443, 0.17494454979896545, -0.11310956627130508, 0.6317334771156311, -0.1375582069158554, 0.0073579042218625546, 0.04237012192606926, -0.26767852902412415, -0.1040441170334816, 0.31618180871009827, -0.08180581778287888, 0.19616085290908813, -0.11326850205659866, -0.22928780317306519, 0.08853832632303238, 0.3610980212688446, 0.012783783487975597, -0.13769416511058807, 0.16205812990665436, 0.13442650437355042, 0.015856832265853882, 0.20278604328632355, 0.27038121223449707], [-0.16953390836715698, -0.0794745683670044, 0.1747419834136963, 0.13622429966926575, 0.016762513667345047, 0.00022284248552750796, 0.16710391640663147, 0.2608485221862793, 0.07037525624036789, 0.1307016909122467, -0.10248721390962601, -0.1111934632062912, -0.18884119391441345, -0.12839139997959137, -0.010613498277962208, 0.06724512577056885, -0.1209418997168541, -0.1148705929517746, -0.005776749923825264, 0.07037876546382904, 0.0861274003982544, 0.20046734809875488, 0.21330656111240387, 0.030860425904393196, -0.014336725696921349, -0.14448808133602142, -0.07145002484321594, -0.09305471926927567, 0.03400679677724838, -0.11479353904724121, -0.1601225882768631, -0.2741902768611908], [-0.025782087817788124, 0.3481351137161255, -0.32531917095184326, -1.2805038690567017, 0.011940707452595234, -0.4789726138114929, -0.16579104959964752, -0.23135657608509064, 0.47679445147514343, 0.052472952753305435, 0.2761864960193634, -0.16716596484184265, 1.324015498161316, 0.12978611886501312, 0.025912296026945114, 0.11775017529726028, -0.3990655541419983, 0.2161603569984436, 0.5569636225700378, 0.05979560688138008, 0.461568683385849, 0.11703938990831375, -0.11761283874511719, 0.1005340963602066, 0.21855512261390686, 0.04244726896286011, 0.042623743414878845, 0.6591978073120117, 0.20740124583244324, 0.282573938369751, 0.15351459383964539, 0.5383103489875793], [-0.07659589499235153, 0.22385624051094055, -0.17738665640354156, -0.11372990906238556, -0.10649338364601135, -0.01940345950424671, 0.06452877819538116, -0.039719704538583755, -0.050998564809560776, 0.09463784843683243, -0.09120833873748779, 0.2352904975414276, 0.17197878658771515, 0.1963353455066681, 0.11094363033771515, -0.22423243522644043, -0.05890847370028496, -0.19601859152317047, 0.17108844220638275, 0.22212548553943634, 0.17342187464237213, -0.17284119129180908, -0.18135911226272583, -0.060050129890441895, 0.23884743452072144, -0.09805084764957428, -0.11279714852571487, 0.1915959119796753, 0.06078280881047249, -0.01577877067029476, -0.050175197422504425, -0.07564117759466171], [-0.006244494579732418, -0.19176889955997467, 0.06778915971517563, 0.3553531765937805, -0.10296031832695007, 0.28569135069847107, 0.01411909144371748, 0.21926288306713104, -0.19798968732357025, 0.1062268391251564, -0.1943349838256836, -0.11859097331762314, -0.22254233062267303, 0.02771511860191822, -0.21785157918930054, 0.18185469508171082, 0.044340912252664566, -0.08125635236501694, -0.13520826399326324, -0.07405015081167221, -0.13977213203907013, -0.03732173889875412, 0.044414956122636795, -0.04567356035113335, -0.013565769419074059, -0.049448054283857346, 0.049140989780426025, -0.17153747379779816, 0.13105508685112, -0.02680378220975399, -0.20132243633270264, 0.0012688287533819675], [0.0723985806107521, 0.19084155559539795, -0.3227100670337677, -0.37686359882354736, -0.059623833745718, -0.14151379466056824, -0.11704113334417343, -0.1863860934972763, 0.24869154393672943, 0.1500648856163025, 0.16240082681179047, 0.056605447083711624, 0.33329665660858154, 0.0881652981042862, 0.0006448313361033797, -0.16462716460227966, -0.1479450911283493, 0.11271592974662781, 0.08899740129709244, 0.05800479277968407, 0.2320234626531601, 0.06536127626895905, -0.12855106592178345, 0.14996252954006195, 0.023542756214737892, 0.04555743560194969, 0.13845032453536987, 0.22554519772529602, 0.2520143687725067, -0.01433144323527813, -3.969537283410318e-05, 0.3477150499820709], [0.19324085116386414, -0.06878376007080078, 0.009707998484373093, 0.01150546595454216, -0.17674727737903595, -0.11485955864191055, -0.03387508913874626, -0.21384532749652863, 0.09394102543592453, 0.08634836971759796, 0.053011152893304825, 0.21541206538677216, -0.05918612331151962, 0.15451666712760925, 0.09940363466739655, -0.05711888521909714, -0.02833334356546402, -0.01422297302633524, 0.21601681411266327, -0.11275940388441086, 0.04199868068099022, 0.00695086969062686, -0.06971917301416397, 0.17090603709220886, 0.026241062209010124, -0.02054871805012226, -0.07939156889915466, -0.018348613753914833, -0.06620889157056808, 0.16479885578155518, 0.06691964715719223, 0.09870477765798569], [0.07575592398643494, 0.050300899893045425, 0.02176855504512787, -0.30809473991394043, 0.12652172148227692, -0.06013966351747513, 0.09316319227218628, 0.13585157692432404, -0.0045267087407410145, -0.20522181689739227, 0.01976388320326805, -0.2453790158033371, 0.26344844698905945, -0.23357923328876495, -0.0762047991156578, 0.1960432231426239, -0.0763513594865799, 0.11678534001111984, -0.11880384385585785, -0.12678353488445282, -0.12144504487514496, 0.21248850226402283, -0.08218485862016678, -0.09189672768115997, 0.133181631565094, -0.09392338246107101, -0.16221247613430023, -0.18051111698150635, -0.01044402178376913, -0.293440043926239, 0.08822910487651825, -0.23647022247314453], [-0.009985002689063549, 0.03389282897114754, 0.056505296379327774, 0.03005983494222164, 0.20189835131168365, 0.20696014165878296, 0.027125246822834015, 0.002551356330513954, -0.20857974886894226, 0.11499253660440445, -0.06226389482617378, -0.01923189125955105, -0.0013718196423724294, 0.06434028595685959, -0.06711534410715103, 0.1388493925333023, -0.1704711616039276, -0.021457809954881668, -0.13516320288181305, -0.21214711666107178, -0.22154292464256287, 0.1653459519147873, 0.1572140008211136, -0.09293148666620255, -0.2262572944164276, 0.0406077578663826, 0.10128486156463623, 0.08712241798639297, -0.04270714521408081, -0.21724368631839752, 0.06548198312520981, -0.007269773632287979], [0.17498649656772614, 0.08247385174036026, 0.06155434250831604, -0.032020073384046555, -0.1941436231136322, -0.007732960861176252, 0.11561182141304016, -0.15864410996437073, 0.001762330997735262, -0.08103404194116592, -0.14001809060573578, 0.031308162957429886, 0.13478770852088928, 0.18686071038246155, 0.2087985724210739, 0.1306132972240448, 0.11340548098087311, 0.04492891952395439, 0.09638839215040207, -0.04444999247789383, 0.14169691503047943, -0.07016640156507492, -0.10337113589048386, 0.12564300000667572, 0.2140790820121765, 0.18806852400302887, 0.06786014139652252, -0.11201640963554382, 0.041111819446086884, 0.11107712984085083, 0.15146461129188538, -0.0007257590186782181], [0.4005275070667267, 0.16850753128528595, 0.21844351291656494, 1.2750252485275269, -0.525444507598877, -0.02660459838807583, 0.13278475403785706, 0.056682389229536057, 0.15857689082622528, 0.3914453685283661, -0.23961161077022552, 0.6104626655578613, -0.4348110854625702, 0.13156673312187195, 0.3606436550617218, -0.25098949670791626, 0.9619572162628174, -0.2385600507259369, -0.059103451669216156, 0.30212658643722534, -0.04887966811656952, -0.38047194480895996, -0.0038243818562477827, 0.10640137642621994, 0.08982580155134201, 0.13515470921993256, 0.5952069163322449, -0.7325555682182312, -0.4380912184715271, 0.07785145193338394, 0.23346586525440216, 0.15012821555137634], [-0.07314611971378326, 0.08646583557128906, 0.03293558582663536, -0.13952480256557465, -0.10107587277889252, -0.1414700448513031, -0.08071520179510117, 0.15550807118415833, 0.2555416524410248, 0.03224712610244751, -0.0747484415769577, 0.0258351881057024, -0.012235184200108051, 0.17664270102977753, -0.09025371819734573, -0.08889777213335037, -0.18672268092632294, 0.057548169046640396, 0.03768716752529144, -0.07248331606388092, -0.12014056742191315, -0.021058356389403343, -0.19376437366008759, 0.10931923985481262, -0.13739299774169922, -0.02869129739701748, 0.23660628497600555, -0.23298315703868866, -0.17201009392738342, -0.14851155877113342, -0.12898840010166168, 0.21854731440544128], [-0.1070505678653717, -0.23383788764476776, 0.23143287003040314, 0.3845360279083252, 0.09363088011741638, 0.12530583143234253, 0.09497053921222687, 0.18187732994556427, -0.12925150990486145, 0.09411151707172394, -0.19853007793426514, -0.197037473320961, -0.24353323876857758, -0.15707822144031525, 0.1641177535057068, -0.13391445577144623, 0.04559968039393425, 0.15789496898651123, -0.013679485768079758, -0.1425548791885376, -0.09027646481990814, -0.10235124826431274, -0.028944427147507668, -0.18900831043720245, -0.21171531081199646, 0.09943988919258118, -0.0897669717669487, -0.3250263035297394, -0.10368738323450089, -0.23447120189666748, -0.1856113225221634, -0.10724825412034988], [-0.23263205587863922, -0.04469272494316101, 0.24732056260108948, 0.032963454723358154, 0.032373636960983276, 0.0581895150244236, 0.2543048560619354, 0.18494084477424622, 0.09902791678905487, -0.12354440242052078, -0.12770545482635498, -0.24154780805110931, 0.16995854675769806, -0.25665736198425293, 0.02591451071202755, 0.032872989773750305, -0.13752058148384094, -0.03398817405104637, 0.11587631702423096, 0.010685570538043976, 0.12369159609079361, 0.13008032739162445, 0.2340809404850006, -0.06126099452376366, 0.02566818706691265, -0.1955365240573883, -0.24824026226997375, -0.24458548426628113, -0.02953566052019596, -0.24711640179157257, 0.04709623381495476, -0.23391519486904144], [0.025241775438189507, -0.15381689369678497, 0.18840575218200684, -0.0458776019513607, -0.038334015756845474, 0.07056466490030289, -0.10383386164903641, 0.05914444103837013, -0.019416021183133125, -0.19790640473365784, 0.15811020135879517, -0.005745319649577141, 0.02446093037724495, 0.0468205064535141, -0.2303054928779602, -0.036602772772312164, -0.20254828035831451, -0.06890738755464554, -0.10403337329626083, 0.0902126282453537, -0.16677691042423248, 0.1228901594877243, 0.1444081962108612, -0.13766945898532867, 0.001063017058186233, -0.12197037041187286, -0.004350088536739349, 0.165939599275589, 0.1273116022348404, -0.17302820086479187, -0.13133104145526886, 0.04326169565320015], [0.04699944332242012, 0.31141066551208496, -0.3514292240142822, -0.5555177330970764, 0.13910195231437683, -0.1426403820514679, -0.19964680075645447, -0.18122802674770355, 0.2833626866340637, -0.08239028602838516, 0.35848701000213623, 0.20769044756889343, 0.31851035356521606, -0.01873529888689518, 0.0056412965059280396, -0.01985321007668972, -0.2901361584663391, 0.13883660733699799, 0.10601052641868591, 0.06785891205072403, 0.24915878474712372, -0.03907693177461624, -0.02334657311439514, -0.035855941474437714, 0.2751694917678833, 0.06550151854753494, 0.12549756467342377, 0.2947766184806824, 0.2972979247570038, 0.08369413763284683, 0.2307368814945221, 0.20203882455825806], [-0.003821253776550293, -0.11909756809473038, 0.08630432933568954, -0.27800166606903076, 0.1739715337753296, 0.20822155475616455, 0.10910877585411072, 0.20713336765766144, 0.008442922495305538, -0.23368264734745026, -0.01558204460889101, -0.12377165257930756, -0.1783924698829651, -0.016568800434470177, 0.07981797307729721, -0.03902623802423477, -0.23608817160129547, -0.053605303168296814, -0.02247435413300991, -0.04046613350510597, 0.05404650419950485, 0.05209110304713249, -0.06740429997444153, 0.09289585053920746, 0.11343922466039658, -0.21538862586021423, -0.15654641389846802, -0.0647960677742958, -0.09885934740304947, -0.22876445949077606, 0.06253670156002045, 0.010460828430950642], [0.16178081929683685, -0.11369859427213669, -0.09789710491895676, 0.3945137560367584, -0.005806594621390104, -0.07233807444572449, -0.04791773855686188, 0.02997620962560177, 0.04919550567865372, 0.24115096032619476, 0.1722979098558426, 0.28886523842811584, -0.1295904815196991, 0.22071261703968048, 0.0941789448261261, -0.11113036423921585, 0.333535373210907, -0.10482663661241531, 0.06575625389814377, 0.02636759541928768, -0.10201136022806168, -0.260031521320343, 0.10647960752248764, 0.21715573966503143, 0.01557217538356781, -0.05095084384083748, 0.2637455463409424, 0.02736196108162403, 0.017607878893613815, -0.08421654999256134, 0.1082204133272171, 0.07167242467403412]], "b": [0.5191895961761475, 0.196722611784935, 0.16148124635219574, -0.1286986917257309, 0.3123095631599426, 0.09313493967056274, 0.269890695810318, 0.20945683121681213, 0.004216659814119339, -0.8987430930137634, -0.2853039503097534, -0.11659204959869385, -0.14407166838645935, 0.32212162017822266, 0.47272464632987976, -0.2604210376739502, 0.9399774074554443, 0.04899928346276283, -0.14322103559970856, 0.5077621936798096, -0.1031411811709404, 0.06289854645729065, -0.010483531281352043, -0.18839961290359497, -1.2658610343933105, -0.03178373724222183, -0.1831141859292984, 0.10502319037914276, 0.2236289232969284, 0.5548723936080933, 0.10512454807758331, -0.18262875080108643]}, {"w": [[0.1432531625032425, -0.12254858016967773, -0.06917054206132889, 0.16868308186531067, 0.24648819863796234, 0.048341333866119385, -0.21713706851005554, 0.19576841592788696, 0.23935294151306152, 0.1681106984615326, -0.21364745497703552, -0.14114344120025635, 0.11508911848068237, 0.19062043726444244, -0.19459544122219086, 0.12213634699583054, -0.2919992208480835, -0.23628689348697662, 0.21863412857055664, -0.10378261655569077, -0.22140774130821228, 0.12328451126813889, 0.1605144590139389, -0.2256193310022354, -0.2700159549713135, -0.235553577542305, 0.1377151757478714, 0.14715741574764252, 0.1354256123304367, -0.18620315194129944, 0.1509251594543457, -0.2625032365322113]], "b": [0.012117567472159863]}], "train": {"venue": "lake_perp_mid+cb", "events": 2981, "target": "seq_ft", "ft_lr": 0.001, "skip_last_s": 60.0, "basis": "coinbase"}}