{"arch": {"hidden": 32, "clamp": 2.0, "act": "tanh", "logit": "raw", "mode": "direct"}, "features": "zp=(px-b)/s/sqrt(tte/900); u_in=[zp, log(tte/900)] + extras", "rho_bar": 4.896589756011963, "b_prior": "strike", "b_scale": 50.0, "extras": ["imb1"], "mu": [0.004693887733668222], "sd": [0.5942941425917778], "layers": [{"w": [[0.15297789871692657, -0.23438984155654907, -0.018920263275504112], [0.37166130542755127, -0.2982977628707886, 0.06282459944486618], [-0.4379415214061737, -0.042132243514060974, 0.010027787648141384], [0.5322472453117371, 0.4493963122367859, 0.04497530683875084], [-0.3666115701198578, -0.4353261888027191, 0.03259774297475815], [-0.2073984444141388, 0.2175281047821045, -0.1695730835199356], [0.493111789226532, -0.13808993995189667, 0.22819700837135315], [-0.02524963580071926, 0.3700178563594818, 0.11612054705619812], [0.12770956754684448, -0.008404014632105827, 0.20100340247154236], [0.28048112988471985, -0.016695667058229446, -0.19110484421253204], [0.5150681734085083, 0.3856808841228485, 0.052006714046001434], [0.1472514569759369, 0.16175587475299835, 0.3992558419704437], [-0.24048903584480286, -0.271586149930954, -0.05277907848358154], [-0.45926356315612793, -0.020961493253707886, -0.00822246540337801], [-0.284855455160141, 0.37024247646331787, 0.729857325553894], [-0.05888155847787857, 0.195079505443573, 0.0863586813211441], [0.22891220450401306, -0.4179178774356842, -0.5867999792098999], [0.5787190794944763, 0.3402836322784424, -0.03529609367251396], [-0.5514662861824036, -0.18080632388591766, -0.049829669296741486], [-0.052984725683927536, 0.23599818348884583, 0.21497349441051483], [-0.09848588705062866, -0.3513663113117218, 0.05541088059544563], [-0.5147770047187805, -0.35102859139442444, -0.12881512939929962], [-0.4483756721019745, -0.33850228786468506, 0.05741589516401291], [0.3002263903617859, 0.09541407227516174, -0.07869122177362442], [0.31849583983421326, -0.3266823887825012, 0.08327346295118332], [0.6357670426368713, 0.22633470594882965, -0.03023066185414791], [-0.10614939779043198, -0.4496472477912903, 0.4319359064102173], [-0.5555518269538879, -0.35849499702453613, -0.07173780351877213], [-0.34027597308158875, -0.09019821882247925, 0.13115575909614563], [0.41957396268844604, 0.1207173615694046, 0.26426810026168823], [-0.5159202218055725, -0.4512280523777008, 0.12453125417232513], [-0.1854081153869629, -0.8086827993392944, -0.015851356089115143]], "b": [-0.536553680896759, 0.5749329924583435, 0.4081432819366455, 0.5767410397529602, -0.7263134121894836, -0.6883432269096375, -0.586345911026001, 0.3367902934551239, -0.2626919150352478, -0.5114263296127319, 0.3841193914413452, -0.20578622817993164, -0.37480252981185913, 0.5504204630851746, -0.10848411172628403, 0.6167761087417603, 0.029136190190911293, -0.00928818341344595, 0.29274800419807434, -0.48726195096969604, -0.6554781794548035, -0.39087262749671936, -0.34561264514923096, 0.10302913188934326, 0.15254110097885132, -0.45289844274520874, 1.0803358554840088, -0.27924084663391113, 0.1864260882139206, -0.2681540250778198, -0.5447466969490051, -0.32993775606155396]}, {"w": [[0.1593502014875412, -0.08519170433282852, -0.1893654614686966, 0.03860258683562279, -0.2693670690059662, 0.13903845846652985, 0.19831758737564087, -0.019452184438705444, -0.11394456028938293, 0.15677091479301453, 0.23766767978668213, -0.03650790825486183, -0.1142447367310524, -0.021637551486492157, -0.024957982823252678, -0.12015935033559799, -0.11466573923826218, -0.05290661379694939, -0.06950218975543976, 0.007163406349718571, 0.01396638061851263, -0.07406629621982574, -0.13016392290592194, -0.10358916968107224, -0.13146042823791504, 0.15548385679721832, 0.3402789533138275, -0.08556533604860306, -0.23422472178936005, 0.12596289813518524, 0.050055649131536484, 0.1291985809803009], [-0.028010616078972816, 0.005438630003482103, -0.056809667497873306, -0.27440595626831055, 0.24656285345554352, -0.10026593506336212, -0.0698079988360405, -0.09658633172512054, 0.16850455105304718, 0.017407434061169624, -0.021438034251332283, -0.12533362209796906, 0.303920716047287, 0.05644633620977402, -0.07678719609975815, -0.09534436464309692, -0.13875101506710052, -0.06240415573120117, 0.15140697360038757, -0.059190720319747925, 0.549267053604126, 0.14111018180847168, 0.059045422822237015, -0.0076931798830628395, -0.06312506645917892, -0.09206800162792206, -0.5106370449066162, 0.18565697968006134, 0.151756152510643, 0.015875373035669327, 0.21504101157188416, 0.12290641665458679], [0.27747151255607605, -0.013349941931664944, 0.0808786004781723, -0.11384803056716919, 0.1756986528635025, -0.04036962240934372, 0.03202386572957039, -0.24198400974273682, 0.15928949415683746, 0.16756600141525269, -0.1250256896018982, -0.1332497000694275, -0.06036536768078804, 0.010264086537063122, -0.0808812603354454, -0.16258279979228973, 0.16243822872638702, 0.07116574048995972, 0.027121929451823235, 0.037533462047576904, 0.31724420189857483, 0.25021499395370483, 0.1482781022787094, -0.06358568370342255, 0.1721026450395584, 0.0008796798065304756, -0.4258999824523926, 0.0290438961237669, 0.05948745459318161, -0.025018101558089256, -0.0028224715497344732, -0.03321964293718338], [0.1783512532711029, -0.39187973737716675, -0.049435485154390335, 0.005858291406184435, -0.19876664876937866, 0.014936888590455055, -0.08672700077295303, -0.07374215871095657, 0.1368110477924347, 0.23523956537246704, 0.2382667064666748, 0.05786597356200218, 0.06841669231653214, -0.11713135242462158, 0.09205451607704163, -0.3050871789455414, 0.014808069914579391, 0.0016211147885769606, -0.19145692884922028, -0.08776793628931046, -0.051917027682065964, 0.08400930464267731, -0.150767520070076, -0.09997226297855377, -0.011026658117771149, 0.23818768560886383, 0.024347005411982536, -0.07505089044570923, -0.12395498156547546, 0.21431244909763336, -0.23704810440540314, 0.40664660930633545], [0.13117657601833344, 0.03937266394495964, -0.17288853228092194, 0.013905311934649944, -0.1501687467098236, 0.2310914397239685, 0.019117223098874092, -0.2621940076351166, 0.15754485130310059, 0.08597142994403839, 0.0953015610575676, -0.0686221793293953, -0.23208610713481903, 0.08631402254104614, -0.030438581481575966, -0.09941703081130981, -0.11096709966659546, 0.15611185133457184, -0.21647918224334717, -0.049650631844997406, -0.02769029513001442, -0.15224653482437134, 0.04497087746858597, 0.1604735106229782, 0.03348107635974884, 0.2134339064359665, -0.14905793964862823, -0.06446201354265213, -0.20349633693695068, 0.0631614401936531, -0.2212488055229187, 0.007249439600855112], [-0.00637500686571002, 0.16116462647914886, 0.07695408165454865, -0.14297887682914734, -0.07093152403831482, -0.19367901980876923, -0.029229700565338135, 0.22003021836280823, -0.14252398908138275, 0.09939637780189514, -0.1692461222410202, 0.06743885576725006, 0.19280077517032623, 0.11612268537282944, -0.09899628162384033, 0.27261069416999817, 0.03599946200847626, -0.15300428867340088, 0.02711491659283638, -0.2604137063026428, -0.26929014921188354, -0.06849081069231033, 0.19469352066516876, -0.2235560119152069, -0.08635789901018143, -0.059209175407886505, 0.2577715218067169, 0.2524224817752838, -0.06625626236200333, 0.07173263281583786, 0.21341049671173096, -0.5919607281684875], [-0.18753568828105927, 0.31799596548080444, 0.23367969691753387, -0.2981222867965698, 0.0015106897335499525, -0.38862597942352295, -0.13392996788024902, 0.24638919532299042, -0.20157505571842194, -0.24395835399627686, -0.05721864476799965, -0.020515112206339836, -0.09590184688568115, 0.02879827842116356, -0.12948490679264069, 0.37713733315467834, -0.03184615075588226, -0.1421918272972107, 0.16804030537605286, -0.31853657960891724, -0.09978831559419632, 0.24823665618896484, 0.25777027010917664, -0.15629510581493378, -0.019835032522678375, -0.1448822319507599, 0.2440175563097, 0.22089602053165436, 0.017074670642614365, -0.006728278938680887, 0.053932566195726395, -0.6638871431350708], [-0.022785097360610962, -0.13694219291210175, -0.22535638511180878, -0.028840959072113037, -0.10391240566968918, 0.23686575889587402, -0.007624997291713953, 0.08842112123966217, 0.15287195146083832, 0.053662240505218506, -0.039792731404304504, 0.014951085671782494, 0.00747015792876482, -0.10222530364990234, -0.16814662516117096, 0.08658607304096222, -0.11113718897104263, -0.056984610855579376, 0.022528089582920074, 0.09906323999166489, 0.026460912078619003, -0.10384108871221542, 0.03513668105006218, 0.005341654643416405, -0.13805507123470306, 0.2356380969285965, 0.2648143768310547, 0.05222686007618904, -0.10985950380563736, -0.028187792748212814, -0.054427370429039, 0.44327548146247864], [0.06107240170240402, 0.03492087498307228, -0.06572519987821579, 0.18726606667041779, -0.03270971402525902, 0.11492853611707687, 0.024135487154126167, -0.15942838788032532, -0.06797955185174942, -0.05374247580766678, 0.23644791543483734, 0.02743975818157196, -0.11996759474277496, -0.1277225762605667, 0.11854974180459976, 0.0926000103354454, -0.11711534112691879, 0.1355610340833664, 0.04000873118638992, -0.14228323101997375, 0.08137878030538559, 0.10391749441623688, -0.16167162358760834, 0.08456414192914963, 0.005735896062105894, 0.1538810431957245, 0.11964412033557892, -0.2047671377658844, -0.18245872855186462, 0.20722262561321259, -0.1616191864013672, -0.029675258323550224], [-0.17588113248348236, -0.021107513457536697, -0.012411252595484257, 0.14634674787521362, -0.28519219160079956, -0.15320394933223724, 0.056530922651290894, 0.05643710866570473, -0.053808536380529404, -0.0664527490735054, 0.28298744559288025, 0.14018242061138153, -0.3048183023929596, 0.11446287482976913, -0.18853701651096344, 0.19182716310024261, 0.07497615367174149, 0.11906442046165466, 0.0952473133802414, -0.07205090671777725, -0.20103739202022552, -0.15827952325344086, -0.23590302467346191, 0.05690750479698181, 0.12559619545936584, -0.008531073108315468, 0.14051401615142822, -0.20366843044757843, -0.029079925268888474, 0.21713098883628845, -0.11780757457017899, -0.1455414891242981], [0.0532538928091526, 0.047789182513952255, -0.1430833488702774, 0.07922633737325668, 0.01144568994641304, 0.10239758342504501, 0.16637852787971497, -0.06705136597156525, -0.0843319222331047, 0.08554542809724808, -0.01835971511900425, 0.15358179807662964, -0.17828290164470673, 0.06991509348154068, 0.018044818192720413, -0.0018428965704515576, 0.002700784942135215, 0.06682778149843216, -0.15744562447071075, 0.06108042970299721, 0.06169137731194496, 0.011477179825305939, -0.03792859613895416, -0.047373633831739426, -0.06859871000051498, 0.13807810842990875, -0.038877155631780624, -0.015749434009194374, 0.09188887476921082, 0.11096202582120895, -0.21631476283073425, 0.31807035207748413], [0.18625235557556152, -0.09997525066137314, 0.03934861347079277, -0.06187208369374275, -0.14219026267528534, -0.004653047304600477, 0.18428117036819458, 0.047413893043994904, 0.032433222979307175, -0.08403994143009186, 0.08378515392541885, 0.19223259389400482, -0.11983586847782135, -0.09193105250597, -0.1639196276664734, 0.058043744415044785, 0.06616619229316711, -0.05927316099405289, -0.20997634530067444, 0.07233230024576187, -0.15108777582645416, -0.2325926125049591, -0.04419209435582161, 0.025218786671757698, 0.04525183513760567, 0.15754374861717224, 0.14227613806724548, 0.011424154043197632, -0.25306591391563416, -0.0710269957780838, 0.030089862644672394, 0.010738829150795937], [0.03524181619286537, -0.00717189209535718, 0.221400186419487, -0.005369437858462334, -0.0013603171100839972, -0.1858690083026886, -0.12219209969043732, 0.002213810570538044, -0.0847514420747757, 0.0500415563583374, -0.06010156124830246, -0.01696310192346573, 0.08944373577833176, 0.15655171871185303, 0.08012901246547699, 0.014851780608296394, 0.09701498597860336, 0.04247701168060303, 0.0942511186003685, 0.10963387042284012, 0.15871280431747437, -0.04631093889474869, 0.20107275247573853, 0.019817834720015526, 0.00256163626909256, -0.23675373196601868, -0.04919571429491043, 0.10567407310009003, -0.0067460788413882256, -0.21599392592906952, 0.02023101970553398, -0.04452158510684967], [0.25212788581848145, -0.27544501423835754, 0.05785738304257393, 0.19465802609920502, 0.0972011461853981, 0.1506635546684265, 0.22464323043823242, -0.17069540917873383, 0.023809053003787994, 0.17564532160758972, -0.032067183405160904, 0.1906489133834839, -0.06629642099142075, -0.032957203686237335, -0.08569564670324326, -0.2877160310745239, -0.16123001277446747, 0.2000626027584076, -0.2120034396648407, 0.06762152165174484, 0.2962954640388489, -0.0727686956524849, -0.20544549822807312, 0.039788130670785904, -0.16045723855495453, 0.12448213249444962, -0.2692015767097473, -0.10268057137727737, -0.16837114095687866, 0.17220854759216309, -0.19640673696994781, 0.45891067385673523], [-0.269960880279541, 0.39502719044685364, 0.09040415287017822, -0.06084286421537399, -0.03777741268277168, -0.1922156661748886, -0.22797483205795288, 0.41448768973350525, -0.23572947084903717, -0.32201382517814636, -0.308554083108902, -0.18045853078365326, 0.1552560031414032, 0.18962612748146057, -0.09042690694332123, 0.24658706784248352, -0.01303224265575409, -0.15825757384300232, 0.13410480320453644, -0.13497868180274963, -0.38709884881973267, -0.0027095957193523645, 0.07903997600078583, -0.04840952157974243, -0.003165086032822728, -0.20561951398849487, 0.4572818875312805, 0.2539439797401428, 0.1509779542684555, -0.15603886544704437, 0.24207362532615662, -0.7399575114250183], [-0.07364878803491592, 0.3190101385116577, 0.12431305646896362, -0.1148599237203598, 0.2917594909667969, 0.12811338901519775, -0.10134293138980865, -0.08149756491184235, 0.08259903639554977, -0.13538858294487, -0.26766327023506165, -0.10668198019266129, -0.06211312860250473, 0.16886408627033234, -0.00507646519690752, -0.23201459646224976, 0.07790449261665344, 0.10332692414522171, -0.03781290724873543, -0.13697673380374908, 0.5936126112937927, -0.047238413244485855, -0.08170591294765472, 0.054042115807533264, 0.011459395289421082, 0.025436002761125565, -0.2594384253025055, 0.24692922830581665, -0.02126932330429554, 0.09740738570690155, -0.000511097488924861, -0.21053849160671234], [0.2503448724746704, -0.10107297450304031, -0.22015109658241272, 0.08995252102613449, -0.0034244651906192303, -0.01644105650484562, 0.07326339930295944, 0.08354330062866211, 0.006878134328871965, 0.14140258729457855, -0.06392378360033035, -0.061514656990766525, -0.11076752096414566, -0.2582648992538452, -0.06657624244689941, -0.01880534738302231, -0.08999347686767578, -0.032299790531396866, 0.05001828819513321, -0.06952051818370819, 0.0032938197255134583, -0.20636309683322906, -0.19355151057243347, 0.07863392680883408, 0.170512855052948, 0.045304227620363235, -0.2758210599422455, -0.05963270738720894, -0.1530655175447464, -0.023543907329440117, -0.0325792022049427, 0.2478788048028946], [-0.16732972860336304, 0.18803583085536957, 0.10125846415758133, -0.06856242567300797, 0.02274608239531517, -0.22309532761573792, 0.08047404885292053, 0.2819056808948517, 0.13335742056369781, 0.10360805690288544, -0.0778658539056778, 0.013827514834702015, -0.08090553432703018, 0.04053736850619316, -0.12648172676563263, 0.09680609405040741, 0.10550379753112793, -0.19020195305347443, 0.15785284340381622, 0.060011643916368484, -0.03849692642688751, 0.16438040137290955, 0.1600184440612793, 0.05582761391997337, 0.3505411446094513, -0.1341773122549057, 0.1102985069155693, 0.13721050322055817, 0.09363220632076263, -0.0586986280977726, -0.013984954915940762, -0.5877643823623657], [0.053123775869607925, 0.20241378247737885, 0.13254231214523315, -0.08008748292922974, -0.12930606305599213, -0.16424788534641266, 0.1387661248445511, -0.02857702597975731, 0.10045366734266281, 0.010461843572556973, 0.12874016165733337, -0.019635871052742004, 0.06342712789773941, -0.01987614668905735, -0.23687437176704407, -0.025565553456544876, 0.059535834938287735, 0.17529329657554626, 0.13191168010234833, 0.10012617707252502, 0.3708958625793457, 0.034666530787944794, 0.141474187374115, 0.08890882879495621, -0.01759982854127884, -0.06825286149978638, -0.15430709719657898, 0.12341108918190002, -0.09410540759563446, 0.11597099155187607, 0.08410269767045975, -0.4868272840976715], [-0.4573131203651428, 0.40952932834625244, 0.08886701613664627, -0.06727660447359085, -0.06450756639242172, -0.15548576414585114, 0.01331394910812378, 0.45067811012268066, -0.2334766834974289, -0.11085948348045349, -0.2456800639629364, 0.06060481444001198, 0.08427657932043076, 0.3198685348033905, -0.09747562557458878, 0.059697192162275314, 0.13902360200881958, -0.27068987488746643, 0.2468051016330719, 0.02243758738040924, -0.18357634544372559, 0.010057604871690273, -0.010572630912065506, -0.17956066131591797, 0.46669256687164307, -0.3215721845626831, 0.1590704321861267, 0.17755354940891266, 0.1517808884382248, -0.21554984152317047, 0.0018385520670562983, -0.667823314666748], [-0.09585349261760712, 0.04726974293589592, 0.051703158766031265, -0.014600230380892754, -0.036318954080343246, 0.0754542425274849, -0.12904193997383118, 0.24811428785324097, -0.09414853900671005, 0.036490943282842636, -0.20960527658462524, -0.07268505543470383, -0.001122569083236158, 0.2273593246936798, -0.09814571589231491, 0.2354402393102646, -0.07584833353757858, -0.20122334361076355, 0.047807518392801285, -0.0713953971862793, 0.00583436107262969, 0.015530901029706001, 0.05481875315308571, -0.0662803128361702, 0.05254042148590088, -0.07106927782297134, 0.22465254366397858, 0.07422886788845062, 0.2461623251438141, -0.024418091401457787, -0.014575793407857418, -0.17355449497699738], [-0.027885697782039642, 0.2075771689414978, -0.0972650796175003, -0.10083513706922531, -0.06683366000652313, -0.08663614839315414, -0.11688347160816193, -0.036027904599905014, -0.13464447855949402, 0.07911765575408936, -0.008604760281741619, 0.036488719284534454, 0.11465497314929962, 0.1313597410917282, 0.06917303055524826, -0.1442573219537735, -0.07169342041015625, 0.04210922122001648, 0.05176125466823578, 0.002644715830683708, 0.2543853223323822, 0.180852472782135, 0.052374325692653656, 0.07749465852975845, -0.0946616381406784, -0.08085447549819946, -0.06912747025489807, -0.017227185890078545, 0.24606560170650482, -0.14745114743709564, 0.0024764775298535824, -0.11081337183713913], [0.2550731897354126, -0.278493732213974, -0.0021399417892098427, 0.09639554470777512, -0.21686473488807678, 0.027184942737221718, 0.07715391367673874, -0.2786269187927246, 0.05398710444569588, 0.11539771407842636, 0.21616068482398987, 0.14822658896446228, -0.13380032777786255, -0.007281445432454348, -0.025852125138044357, -0.15783153474330902, -0.05928339809179306, 0.11982227861881256, 0.08121238648891449, -0.11584226787090302, -0.055312398821115494, 0.028375180438160896, -0.0782686397433281, 0.196427583694458, 0.020926889032125473, -0.015027514658868313, -0.07676681131124496, -0.18585596978664398, -0.1116805300116539, 0.18098147213459015, -0.06674502044916153, 0.3589298725128174], [0.21683388948440552, -0.0833314061164856, -0.15097588300704956, 0.03736012428998947, -0.0007826942019164562, 0.01945844665169716, 0.1062629222869873, 0.05243818089365959, 0.07696422189474106, -0.054644860327243805, -0.00901093054562807, -0.10452507436275482, -0.04038500785827637, -0.24822025001049042, -0.08650881797075272, 0.08620846271514893, -0.0769171491265297, 0.1577693074941635, -0.1681722104549408, 0.031122637912631035, -0.08120954781770706, -0.013258104212582111, -0.20022720098495483, -0.019684908911585808, 0.025969786569476128, 0.09059355407953262, -0.10599950700998306, -0.07048448920249939, -0.10831493139266968, -0.09906025230884552, 0.06845460832118988, 0.04609060287475586], [-0.09898074716329575, 0.2763932943344116, 0.0681326761841774, -0.127471923828125, 0.22147154808044434, 0.03258413448929787, -0.0767873078584671, 0.06710203737020493, -0.09200634807348251, 0.05851798132061958, -0.17419196665287018, 0.11110830307006836, 0.04148894175887108, 0.24210608005523682, 0.023220429196953773, 0.2646234631538391, -0.12893415987491608, -0.1375531703233719, 0.0195617638528347, -0.24561695754528046, -0.19743014872074127, 0.15588004887104034, 0.15093210339546204, -0.11165996640920639, -0.16476552188396454, 0.0257789995521307, 0.2800913453102112, 0.2502308785915375, 0.012067988514900208, -0.21692459285259247, 0.1946365386247635, -0.19130875170230865], [0.10656661540269852, 0.15400205552577972, 0.18553340435028076, -0.17830264568328857, -0.019773639738559723, -0.001465890440158546, 0.1143304705619812, -0.07597866654396057, 0.07450287789106369, -0.11205728352069855, -0.20383833348751068, -0.06332791596651077, 0.2785128951072693, 0.21994853019714355, 0.17822851240634918, 0.12628595530986786, -0.05111684277653694, 0.012571759521961212, 0.13006778061389923, -0.07628830522298813, 0.37968480587005615, 0.05921367555856705, 0.021355580538511276, 0.03853717818856239, 0.16739153861999512, 0.06527528911828995, -0.22511763870716095, -0.03357080742716789, 0.22543780505657196, 0.0163451936095953, 0.2469414621591568, -0.3039816915988922], [0.33698856830596924, -0.39812687039375305, 0.014745629392564297, 0.11921398341655731, -0.12854810059070587, 0.265095591545105, 0.25863412022590637, -0.2707086205482483, 0.4299244284629822, 0.26292502880096436, 0.23018525540828705, 0.0969928428530693, -0.09364820271730423, -0.1818646937608719, -0.09290871024131775, -0.5933912396430969, 0.14065317809581757, 0.16981789469718933, -0.13656088709831238, 0.2532896399497986, 0.058761876076459885, 0.10276640951633453, 0.07956428080797195, 0.044509656727313995, -0.10265207290649414, -0.013841090723872185, -0.11052709072828293, -0.19048379361629486, -0.0889289379119873, 0.20841985940933228, -0.1386968493461609, 0.439073383808136], [-0.2377953678369522, 0.08045173436403275, 0.03230643272399902, 0.07379558682441711, -0.4065989553928375, -0.227693110704422, -0.02040228620171547, 0.35686978697776794, 0.1593901813030243, 0.0781470313668251, 0.12110716849565506, 0.011667572893202305, -0.3010883927345276, 0.1301027536392212, -0.1324903666973114, 0.22471033036708832, -0.2076629400253296, 0.16380460560321808, -0.10134650766849518, -0.15652790665626526, -1.1223596334457397, -0.22827330231666565, -0.3278055489063263, 0.15329276025295258, -0.18232795596122742, -0.021108070388436317, 0.8406498432159424, -0.3303329646587372, -0.20315934717655182, -0.06315328180789948, -0.32970908284187317, -0.2995510995388031], [0.0011354726739227772, -0.10589837282896042, 0.03456621617078781, 0.230958953499794, -0.0014509855536743999, -0.17248974740505219, 0.07388865202665329, 0.010073443874716759, 0.17571450769901276, 0.11840642988681793, -0.06511154770851135, -0.14824123680591583, -0.17924509942531586, -0.14314471185207367, 0.12010426819324493, 0.001047633122652769, 0.020928746089339256, 0.1828813999891281, 0.003385209245607257, -0.14390850067138672, -0.08173386007547379, -0.21168845891952515, -0.17717768251895905, -0.09342927485704422, -0.09185558557510376, 0.2355569452047348, 0.11201942712068558, -0.16283513605594635, -0.13614019751548767, -0.08557268977165222, -0.16952359676361084, 0.21315553784370422], [-0.1747913956642151, 0.1575537919998169, 0.13675251603126526, 0.034994035959243774, -0.0020779434125870466, -0.1195930540561676, 0.13265329599380493, 0.01846925914287567, -0.2075299173593521, -0.12050379812717438, -0.029983432963490486, -0.07219444960355759, 0.1485302448272705, -0.06363533437252045, 0.08381297439336777, -0.010228791274130344, -0.019020572304725647, -0.08072657138109207, 0.2461409866809845, 0.07995638996362686, 0.1743476837873459, 0.04982844367623329, 0.20546706020832062, -0.0595322921872139, 0.1428481936454773, -0.1376238763332367, -0.08899614959955215, -0.04795666038990021, 0.06196317821741104, -0.13967669010162354, 0.23105935752391815, -0.3725953698158264], [0.09843345731496811, -0.31210923194885254, 0.04566113278269768, 0.07889468222856522, -0.17725814878940582, 0.10488209873437881, -0.1288577914237976, -0.03447103127837181, -0.1359395831823349, -0.12318182736635208, 0.22801630198955536, 0.1166432648897171, -0.013422676362097263, 0.050252821296453476, -0.154249906539917, -0.05999448522925377, -0.0861617773771286, -0.050476931035518646, -0.09546920657157898, 0.18216951191425323, -0.21925053000450134, -0.026590239256620407, 0.01294257864356041, -0.046101849526166916, 0.06636375188827515, 0.01375488005578518, 0.20911146700382233, 0.09506276994943619, -0.0038541057147085667, -0.0697023943066597, -0.1857217401266098, 0.45155441761016846], [0.369787335395813, 0.013625016435980797, -0.13766001164913177, -0.5322755575180054, 0.8376505970954895, 0.4430385231971741, 0.008411332033574581, -0.4579432010650635, 0.1357080489397049, 0.037339843809604645, -0.33176150918006897, 0.1128702163696289, 0.6246188879013062, -0.16254980862140656, -0.13369178771972656, -0.7918629050254822, 0.07529605180025101, 0.003930958453565836, 0.024918921291828156, 0.35142043232917786, 1.3536593914031982, 0.33510565757751465, 0.4319862425327301, -0.2335248738527298, 0.34374305605888367, -0.11133486777544022, -0.6851711869239807, 0.37900838255882263, 0.07422550767660141, -0.12990954518318176, 0.5303701162338257, 0.26435813307762146]], "b": [0.018841790035367012, -0.06332360953092575, 0.0038790053222328424, -0.16027480363845825, 0.0387297160923481, 0.25909462571144104, 0.24588608741760254, 0.09292685240507126, 0.02570195496082306, -0.11589806526899338, -0.1467534303665161, -0.0862179845571518, -0.09350866079330444, -0.06037494167685509, 0.3843745291233063, -0.08768384903669357, -0.15250465273857117, -0.054040320217609406, 0.00176128966268152, 0.1812756210565567, 0.21050496399402618, -0.02037486433982849, -0.23391419649124146, 0.08148396760225296, 0.2928341329097748, -0.0959380492568016, -0.21236324310302734, 0.05084189400076866, -0.14031440019607544, -0.09868307411670685, 0.07775688916444778, -0.3277556896209717]}, {"w": [[0.18533825874328613, -0.2551925778388977, -0.07930146902799606, 0.21206408739089966, 0.17056216299533844, -0.15636290609836578, -0.14027927815914154, 0.0970282107591629, 0.2456955760717392, 0.2644404470920563, 0.17471858859062195, 0.19766123592853546, -0.12942203879356384, 0.25343063473701477, -0.1467498391866684, -0.06864768266677856, 0.19575302302837372, -0.15073639154434204, -0.04857143387198448, -0.13916638493537903, -0.1941973716020584, -0.12421781569719315, 0.26394879817962646, 0.20337419211864471, -0.10115896910429001, -0.21893230080604553, 0.2885928153991699, 0.24647454917430878, 0.18635132908821106, -0.24677622318267822, 0.06244860216975212, -0.2774612009525299]], "b": [0.11057092249393463]}], "train": {"venue": "lake_perp_mid", "events": 1294, "cap_ts": 1783123200, "target": "market_prob"}}